{"learner":{"attributes":{"best_iteration":"235","best_score":"0.9950841903805501"},"feature_names":["step","amount","oldbalanceOrg","newbalanceOrig","oldbalanceDest","newbalanceDest","errorBalanceOrig","errorBalanceDest","isBlackHoleTransaction","hourOfDay","type_TRANSFER"],"feature_types":["int","float","float","float","float","float","float","float","int","int","i"],"gradient_booster":{"model":{"gbtree_model_param":{"num_parallel_tree":"1","num_trees":"286"},"iteration_indptr":[0,1,2,3,4,5,6,7,8,9,10,11,12,13,14,15,16,17,18,19,20,21,22,23,24,25,26,27,28,29,30,31,32,33,34,35,36,37,38,39,40,41,42,43,44,45,46,47,48,49,50,51,52,53,54,55,56,57,58,59,60,61,62,63,64,65,66,67,68,69,70,71,72,73,74,75,76,77,78,79,80,81,82,83,84,85,86,87,88,89,90,91,92,93,94,95,96,97,98,99,100,101,102,103,104,105,106,107,108,109,110,111,112,113,114,115,116,117,118,119,120,121,122,123,124,125,126,127,128,129,130,131,132,133,134,135,136,137,138,139,140,141,142,143,144,145,146,147,148,149,150,151,152,153,154,155,156,157,158,159,160,161,162,163,164,165,166,167,168,169,170,171,172,173,174,175,176,177,178,179,180,181,182,183,184,185,186,187,188,189,190,191,192,193,194,195,196,197,198,199,200,201,202,203,204,205,206,207,208,209,210,211,212,213,214,215,216,217,218,219,220,221,222,223,224,225,226,227,228,229,230,231,232,233,234,235,236,237,238,239,240,241,242,243,244,245,246,247,248,249,250,251,252,253,254,255,256,257,258,259,260,261,262,263,264,265,266,267,268,269,270,271,272,273,274,275,276,277,278,279,280,281,282,283,284,285,286],"tree_info":[0,0,0,0,0,0,0,0,0,0,0,0,0,0,0,0,0,0,0,0,0,0,0,0,0,0,0,0,0,0,0,0,0,0,0,0,0,0,0,0,0,0,0,0,0,0,0,0,0,0,0,0,0,0,0,0,0,0,0,0,0,0,0,0,0,0,0,0,0,0,0,0,0,0,0,0,0,0,0,0,0,0,0,0,0,0,0,0,0,0,0,0,0,0,0,0,0,0,0,0,0,0,0,0,0,0,0,0,0,0,0,0,0,0,0,0,0,0,0,0,0,0,0,0,0,0,0,0,0,0,0,0,0,0,0,0,0,0,0,0,0,0,0,0,0,0,0,0,0,0,0,0,0,0,0,0,0,0,0,0,0,0,0,0,0,0,0,0,0,0,0,0,0,0,0,0,0,0,0,0,0,0,0,0,0,0,0,0,0,0,0,0,0,0,0,0,0,0,0,0,0,0,0,0,0,0,0,0,0,0,0,0,0,0,0,0,0,0,0,0,0,0,0,0,0,0,0,0,0,0,0,0,0,0,0,0,0,0,0,0,0,0,0,0,0,0,0,0,0,0,0,0,0,0,0,0,0,0,0,0,0,0,0,0,0,0,0,0,0,0,0,0,0,0,0,0,0,0,0,0,0,0,0,0,0,0],"trees":[{"base_weights":[-0E0,1.6529408E0,-1.9753882E0,1.9984673E0,-1.3935691E0,-1.9846784E0,1.2971181E0,-8.384615E-2,9.992595E-2,-1.9835597E0,1.9642128E0,-1.9402791E0,-1.9938346E0,-9.946633E-2,9.9670954E-2,-9.958306E-2,-6.3140415E-2,-9.8359376E-2,9.995734E-2,-3.645305E-2,-9.999838E-2,-9.973723E-2,-9.767051E-2],"categories":[],"categories_nodes":[],"categories_segments":[],"categories_sizes":[],"default_left":[0,0,0,0,0,0,0,0,0,0,0,0,0,0,0,0,0,0,0,0,0,0,0],"id":0,"left_children":[1,3,5,7,9,11,13,-1,-1,15,17,19,21,-1,-1,-1,-1,-1,-1,-1,-1,-1,-1],"loss_changes":[2.841029E6,4.986525E5,1.2053625E4,8.425E1,9.5598914E4,1.56375E2,2.5730183E3,0E0,0E0,2.3682812E2,9.9443555E2,4.886625E3,7.75E0,0E0,0E0,0E0,0E0,0E0,0E0,0E0,0E0,0E0,0E0],"parents":[2147483647,0,0,1,1,2,2,3,3,4,4,5,5,6,6,9,9,10,10,11,11,12,12],"right_children":[2,4,6,8,10,12,14,-1,-1,16,18,20,22,-1,-1,-1,-1,-1,-1,-1,-1,-1,-1],"split_conditions":[5.820766E-11,2.8174E2,1E0,0E0,1E0,4.479117E4,2.031486E5,-8.384615E-2,9.992595E-2,1.0357578E6,1.0357578E6,3.9E1,1.7096062E6,-9.946633E-2,9.9670954E-2,-9.958306E-2,-6.3140415E-2,-9.8359376E-2,9.995734E-2,-3.645305E-2,-9.999838E-2,-9.973723E-2,-9.767051E-2],"split_indices":[6,3,8,6,8,4,3,0,0,2,2,2,6,0,0,0,0,0,0,0,0,0,0],"split_type":[0,0,0,0,0,0,0,0,0,0,0,0,0,0,0,0,0,0,0,0,0,0,0],"sum_hessian":[8.700915E5,4.737081E5,3.963834E5,4.2545462E5,4.8253477E4,3.9526175E5,1.1216637E3,5.5E0,4.2544912E5,4.1042418E4,7.21106E3,6.7615E4,3.2764675E5,1.9575E2,9.259137E2,4.0584332E4,4.5808307E2,6.3E1,7.14806E3,3.1762468E3,6.443875E4,3.2038366E5,7.263083E3],"tree_param":{"num_deleted":"0","num_feature":"11","num_nodes":"23","size_leaf_vector":"1"}},{"base_weights":[-2.450206E-7,1.5742809E0,-1.8813401E0,1.9033703E0,-1.3272212E0,-1.8885815E0,1.7539971E0,-8.042035E-2,9.517099E-2,-1.8972421E0,1.8967725E0,-1.890178E0,-8.3886427E-1,-9.208669E-2,9.512412E-2,-9.525803E-2,-9.261832E-2,9.530991E-2,-9.147615E-2,-9.239465E-2,-9.494643E-2,-9.5044166E-2,9.466264E-2],"categories":[],"categories_nodes":[],"categories_segments":[],"categories_sizes":[],"default_left":[0,0,0,0,0,0,0,0,0,0,0,0,0,0,0,0,0,0,0,0,0,0,0],"id":1,"left_children":[1,3,5,7,9,11,13,-1,-1,15,17,19,21,-1,-1,-1,-1,-1,-1,-1,-1,-1,-1],"loss_changes":[2.570619E6,4.5119962E5,1.041225E4,7.675E1,8.84645E4,6.595E2,4.234563E2,0E0,0E0,1.0625E1,2.5751953E2,1.41875E2,1.7479371E3,0E0,0E0,0E0,0E0,0E0,0E0,0E0,0E0,0E0,0E0],"parents":[2147483647,0,0,1,1,2,2,3,3,4,4,5,5,6,6,9,9,10,10,11,11,12,12],"right_children":[2,4,6,8,10,12,14,-1,-1,16,18,20,22,-1,-1,-1,-1,-1,-1,-1,-1,-1,-1],"split_conditions":[5.820766E-11,2.8174E2,1.585932E6,0E0,9.426721E5,3.5288006E5,2.0377399E6,-8.042035E-2,9.517099E-2,2.9691078E5,6.702314E5,4.479117E4,1.7019355E5,-9.208669E-2,9.512412E-2,-9.525803E-2,-9.261832E-2,9.530991E-2,-9.147615E-2,-9.239465E-2,-9.494643E-2,-9.5044166E-2,9.466264E-2],"split_indices":[6,3,3,6,1,3,1,0,0,3,5,4,6,0,0,0,0,0,0,0,0,0,0],"split_type":[0,0,0,0,0,0,0,0,0,0,0,0,0,0,0,0,0,0,0,0,0,0,0],"sum_hessian":[8.6793494E5,4.725289E5,3.9540603E5,4.243943E5,4.813459E4,3.9462047E5,7.855448E2,5.490345E0,4.2438884E5,4.090312E4,7.2314683E3,3.940203E5,6.001723E2,3.067359E1,7.548712E2,3.473108E4,6.1720444E3,7.2137363E3,1.773195E1,6.7596766E4,3.2642353E5,4.3242313E2,1.6774916E2],"tree_param":{"num_deleted":"0","num_feature":"11","num_nodes":"23","size_leaf_vector":"1"}},{"base_weights":[1.1503846E-6,1.506318E0,-1.7999567E0,1.8212126E0,-1.2698529E0,-1.8068845E0,1.6782224E0,-7.735156E-2,9.1063015E-2,-1.8152393E0,1.8147472E0,-1.8084118E0,-8.0259943E-1,-8.82116E-2,9.102207E-2,-7.493374E-2,-9.1173485E-2,9.118936E-2,-8.7569036E-2,-5.7515737E-2,-9.0462E-2,-9.094728E-2,9.059532E-2],"categories":[],"categories_nodes":[],"categories_segments":[],"categories_sizes":[],"default_left":[0,0,0,0,0,0,0,0,0,0,0,0,0,0,0,0,0,0,0,0,0,0,0],"id":2,"left_children":[1,3,5,7,9,11,13,-1,-1,15,17,19,21,-1,-1,-1,-1,-1,-1,-1,-1,-1,-1],"loss_changes":[2.3369262E6,4.102075E5,9.46525E3,7.05E1,8.042163E4,5.995E2,3.856211E2,0E0,0E0,1.02765625E2,2.3475195E2,2.11E2,1.5896989E3,0E0,0E0,0E0,0E0,0E0,0E0,0E0,0E0,0E0,0E0],"parents":[2147483647,0,0,1,1,2,2,3,3,4,4,5,5,6,6,9,9,10,10,11,11,12,12],"right_children":[2,4,6,8,10,12,14,-1,-1,16,18,20,22,-1,-1,-1,-1,-1,-1,-1,-1,-1,-1],"split_conditions":[5.820766E-11,2.8174E2,1.585932E6,0E0,9.426721E5,3.5288006E5,2.0377399E6,-7.735156E-2,9.1063015E-2,-2.3293123E5,6.702314E5,-5.0818425E6,1.7019355E5,-8.82116E-2,9.102207E-2,-7.493374E-2,-9.1173485E-2,9.118936E-2,-8.7569036E-2,-5.7515737E-2,-9.0462E-2,-9.094728E-2,9.059532E-2],"split_indices":[6,3,3,6,1,3,1,0,0,7,5,7,6,0,0,0,0,0,0,0,0,0,0],"split_type":[0,0,0,0,0,0,0,0,0,0,0,0,0,0,0,0,0,0,0,0,0,0,0],"sum_hessian":[8.619168E5,4.692333E5,3.9268347E5,4.214317E5,4.7801637E4,3.9190338E5,7.800827E2,5.4630637E0,4.2142622E5,4.0620066E4,7.1815674E3,3.9130738E5,5.9601074E2,3.0468729E1,7.49614E2,1.0342589E3,3.958581E4,7.163924E3,1.7643559E1,4.9367365E2,3.908137E5,4.2942242E2,1.6658835E2],"tree_param":{"num_deleted":"0","num_feature":"11","num_nodes":"23","size_leaf_vector":"1"}},{"base_weights":[3.664485E-6,-1.2573013E0,1.1715579E0,-3.099711E-2,-1.7325406E0,1.4103022E0,-1.0818242E0,-1.4791943E0,7.8637326E-1,-1.735404E0,-8.6838084E-1,6.4028376E-1,1.6450495E0,-1.7423655E0,1.6982256E0,4.6304893E-2,-8.636221E-2,5.4477822E-2,-8.756214E-2,-7.618601E-2,-8.7147206E-2,8.4715895E-2,-8.750145E-2,6.977786E-2,-8.6979955E-2,6.8012826E-2,8.635666E-2,-7.085036E-2,-8.759162E-2,8.735826E-2,-8.689829E-2],"categories":[],"categories_nodes":[],"categories_segments":[],"categories_sizes":[],"default_left":[0,0,0,0,0,0,0,0,0,0,0,0,0,0,0,0,0,0,0,0,0,0,0,0,0,0,0,0,0,0,0],"id":3,"left_children":[1,3,5,7,9,11,13,15,17,19,21,23,25,27,29,-1,-1,-1,-1,-1,-1,-1,-1,-1,-1,-1,-1,-1,-1,-1,-1],"loss_changes":[1.2559338E6,2.3968112E5,2.3745019E5,1.3597139E5,7.316875E2,7.21375E4,7.764963E4,2.472746E4,5.6493234E4,4.685E2,2.219439E3,1.6760116E5,7.1470625E3,1.024375E2,1.368252E3,0E0,0E0,0E0,0E0,0E0,0E0,0E0,0E0,0E0,0E0,0E0,0E0,0E0,0E0,0E0,0E0],"parents":[2147483647,0,0,1,1,2,2,3,3,4,4,5,5,6,6,7,7,8,8,9,9,10,10,11,11,12,12,13,13,14,14],"right_children":[2,4,6,8,10,12,14,16,18,20,22,24,26,28,30,-1,-1,-1,-1,-1,-1,-1,-1,-1,-1,-1,-1,-1,-1,-1,-1],"split_conditions":[5.5655E4,5.517079E4,2.8174E2,1.211E3,5.4719E4,1.56638E5,3.4944462E5,1.38404E3,2.8174E2,1.4E1,5.643332E4,1.561834E5,3.25976E5,-2.3293123E5,1.9702034E5,4.6304893E-2,-8.636221E-2,5.4477822E-2,-8.756214E-2,-7.618601E-2,-8.7147206E-2,8.4715895E-2,-8.750145E-2,6.977786E-2,-8.6979955E-2,6.8012826E-2,8.635666E-2,-7.085036E-2,-8.759162E-2,8.735826E-2,-8.689829E-2],"split_indices":[2,1,3,2,2,2,7,1,3,0,1,1,2,7,4,0,0,0,0,0,0,0,0,0,0,0,0,0,0,0,0],"split_type":[0,0,0,0,0,0,0,0,0,0,0,0,0,0,0,0,0,0,0,0,0,0,0,0,0,0,0,0,0,0,0],"sum_hessian":[8.5263394E5,4.112658E5,4.4136816E5,1.1486645E5,2.9639934E5,3.9908572E5,4.2282438E4,4.1441215E4,7.3425234E4,2.9541934E5,9.799994E2,9.3240875E4,3.0584484E5,3.4165184E4,8.117256E3,3.8738748E3,3.756734E4,6.55895E4,7.835736E3,1.0168119E4,2.8525122E5,2.505851E2,7.294143E2,7.077907E4,2.2461807E4,6.843295E4,2.3741189E5,9.705493E2,3.3194633E4,8.0037837E3,1.13472374E2],"tree_param":{"num_deleted":"0","num_feature":"11","num_nodes":"31","size_leaf_vector":"1"}},{"base_weights":[-4.4953E-5,1.4022255E0,-1.6751462E0,1.6941411E0,-1.1758108E0,-1.6829807E0,1.0875598E0,-7.675571E-2,1.6941879E0,-1.6808422E0,1.669466E0,-1.5434794E0,-1.6902032E0,-8.528449E-2,8.413213E-2,8.48039E-2,8.444773E-2,-6.9007695E-2,-8.443698E-2,-8.2180254E-2,8.4338926E-2,2.6843106E-2,-7.7991866E-2,-8.618007E-2,-8.4256776E-2],"categories":[],"categories_nodes":[],"categories_segments":[],"categories_sizes":[],"default_left":[0,0,0,0,0,0,0,0,0,0,0,0,0,0,0,0,0,0,0,0,0,0,0,0,0],"id":4,"left_children":[1,3,5,7,9,11,13,-1,15,17,19,21,23,-1,-1,-1,-1,-1,-1,-1,-1,-1,-1,-1,-1],"loss_changes":[1.9779492E6,3.449468E5,8.30675E3,6.475E1,6.699652E4,3.82625E2,1.8073604E3,0E0,1E0,9.138281E1,4.0590234E2,6.422969E2,5.825E1,0E0,0E0,0E0,0E0,0E0,0E0,0E0,0E0,0E0,0E0,0E0,0E0],"parents":[2147483647,0,0,1,1,2,2,3,3,4,4,5,5,6,6,8,8,9,9,10,10,11,11,12,12],"right_children":[2,4,6,8,10,12,14,-1,16,18,20,22,24,-1,-1,-1,-1,-1,-1,-1,-1,-1,-1,-1,-1],"split_conditions":[5.820766E-11,2.8174E2,1E0,0E0,4.8306116E5,1.6E1,2.031486E5,-7.675571E-2,3.3579028E5,-2.3293123E5,1E0,-5.0818425E6,3.976532E4,-8.528449E-2,8.413213E-2,8.48039E-2,8.444773E-2,-6.9007695E-2,-8.443698E-2,-8.2180254E-2,8.4338926E-2,2.6843106E-2,-7.7991866E-2,-8.618007E-2,-8.4256776E-2],"split_indices":[6,3,8,6,7,0,3,0,7,7,10,7,6,0,0,0,0,0,0,0,0,0,0,0,0],"split_type":[0,0,0,0,0,0,0,0,0,0,0,0,0,0,0,0,0,0,0,0,0,0,0,0,0],"sum_hessian":[8.420565E5,4.5835544E5,3.8370106E5,4.117344E5,4.6621027E4,3.8261647E5,1.0845956E3,5.455324E0,4.1172897E5,3.9593668E4,7.0273574E3,1.884585E4,3.6377062E5,1.90127E2,8.944685E2,3.0222722E5,1.09501734E5,1.01812213E3,3.8575547E4,3.6012E1,6.991345E3,1.4673473E2,1.8699115E4,4.787837E4,3.1589225E5],"tree_param":{"num_deleted":"0","num_feature":"11","num_nodes":"25","size_leaf_vector":"1"}},{"base_weights":[-3.9231105E-5,1.3554686E0,-1.6187936E0,1.6376129E0,-1.1368525E0,-1.626363E0,1.051317E0,-7.404659E-2,1.6376585E0,-1.6251422E0,1.6141851E0,-1.4888933E0,-1.6334935E0,-8.237404E-2,8.134989E-2,8.2180776E-2,8.1652716E-2,-6.642362E-2,-8.164849E-2,-8.0263294E-2,8.15875E-2,2.5415251E-2,-7.524469E-2,-8.099707E-2,-8.264304E-2],"categories":[],"categories_nodes":[],"categories_segments":[],"categories_sizes":[],"default_left":[0,0,0,0,0,0,0,0,0,0,0,0,0,0,0,0,0,0,0,0,0,0,0,0,0],"id":5,"left_children":[1,3,5,7,9,11,13,-1,15,17,19,21,23,-1,-1,-1,-1,-1,-1,-1,-1,-1,-1,-1,-1],"loss_changes":[1.8168632E6,3.168975E5,7.628875E3,5.9875E1,6.1564566E4,3.66125E2,1.6609417E3,0E0,8.125E0,8.790625E1,3.9329883E2,5.9422266E2,9.0875E1,0E0,0E0,0E0,0E0,0E0,0E0,0E0,0E0,0E0,0E0,0E0,0E0],"parents":[2147483647,0,0,1,1,2,2,3,3,4,4,5,5,6,6,8,8,9,9,10,10,11,11,12,12],"right_children":[2,4,6,8,10,12,14,-1,16,18,20,22,24,-1,-1,-1,-1,-1,-1,-1,-1,-1,-1,-1,-1],"split_conditions":[5.820766E-11,2.8174E2,1E0,0E0,4.8306116E5,1.6E1,2.031486E5,-7.404659E-2,3.25976E5,-2.3293123E5,1.0357578E6,-5.0818425E6,1.211E3,-8.237404E-2,8.134989E-2,8.2180776E-2,8.1652716E-2,-6.642362E-2,-8.164849E-2,-8.0263294E-2,8.15875E-2,2.5415251E-2,-7.524469E-2,-8.099707E-2,-8.264304E-2],"split_indices":[6,3,8,6,7,0,3,0,2,7,2,7,2,0,0,0,0,0,0,0,0,0,0,0,0],"split_type":[0,0,0,0,0,0,0,0,0,0,0,0,0,0,0,0,0,0,0,0,0,0,0,0,0],"sum_hessian":[8.28015E5,4.506506E5,3.773644E5,4.0482284E5,4.582776E4,3.7629806E5,1.0663367E3,5.4098682E0,4.0481744E5,3.8920152E4,6.907607E3,1.8567059E4,3.57731E5,1.8711305E2,8.7922363E2,1.7631827E5,2.2849917E5,1.00520856E3,3.7914945E4,3.6961098E1,6.870646E3,1.4727129E2,1.8419787E4,2.1051366E5,1.4721736E5],"tree_param":{"num_deleted":"0","num_feature":"11","num_nodes":"25","size_leaf_vector":"1"}},{"base_weights":[-3.3318356E-5,1.3138716E0,-1.5685863E0,9.6245223E-1,1.536847E0,-1.5759196E0,1.0190438E0,5.493985E-1,1.5939674E0,-4.016492E-1,1.5414643E0,-1.4394904E0,-1.5830126E0,-7.9826355E-2,1.5444642E0,7.828583E-3,6.906608E-2,1.3454171E-2,7.9829685E-2,-7.926171E-2,7.957995E-2,6.9206096E-2,7.850568E-2,2.407609E-2,-7.275987E-2,-7.671531E-2,-7.932432E-2,-7.372535E-2,7.9083614E-2],"categories":[],"categories_nodes":[],"categories_segments":[],"categories_sizes":[],"default_left":[0,0,0,0,0,0,0,0,0,0,0,0,0,0,0,0,0,0,0,0,0,0,0,0,0,0,0,0,0],"id":6,"left_children":[1,3,5,7,9,11,13,15,17,19,21,23,25,-1,27,-1,-1,-1,-1,-1,-1,-1,-1,-1,-1,-1,-1,-1,-1],"loss_changes":[1.6735719E6,3.4624188E4,7.025625E3,4.474564E4,2.4205E3,3.54625E2,1.4407937E3,3.389254E4,2.3542188E2,1.5198424E3,1.2133125E3,5.515469E2,5.6625E1,0E0,1.0030298E2,0E0,0E0,0E0,0E0,0E0,0E0,0E0,0E0,0E0,0E0,0E0,0E0,0E0,0E0],"parents":[2147483647,0,0,1,1,2,2,3,3,4,4,5,5,6,6,7,7,8,8,9,9,10,10,11,11,12,12,14,14],"right_children":[2,4,6,8,10,12,14,16,18,20,22,24,26,-1,28,-1,-1,-1,-1,-1,-1,-1,-1,-1,-1,-1,-1,-1,-1],"split_conditions":[5.820766E-11,2.1196473E5,1E0,1E0,0E0,1.6E1,3.534639E5,4.06E2,1E0,4.8306116E5,3.3755306E5,-5.0818425E6,3.7E1,-7.9826355E-2,2.34E2,7.828583E-3,6.906608E-2,1.3454171E-2,7.9829685E-2,-7.926171E-2,7.957995E-2,6.9206096E-2,7.850568E-2,2.407609E-2,-7.275987E-2,-7.671531E-2,-7.932432E-2,-7.372535E-2,7.9083614E-2],"split_indices":[6,1,8,8,6,0,1,0,10,7,1,7,0,0,0,0,0,0,0,0,0,0,0,0,0,0,0,0,0],"split_type":[0,0,0,0,0,0,0,0,0,0,0,0,0,0,0,0,0,0,0,0,0,0,0,0,0,0,0,0,0],"sum_hessian":[8.1204506E5,4.4189228E5,3.701528E5,1.715412E5,2.7035106E5,3.691072E5,1.0456125E3,1.0370992E5,6.783128E4,6.42156E2,2.697089E5,1.825213E4,3.5085506E5,1.7453572E2,8.7107684E2,7.044684E4,3.326308E4,1.3447688E2,6.7696805E4,4.0306943E2,2.390866E2,4.1552832E4,2.2815608E5,1.4773294E2,1.8104398E4,2.33894E4,3.2746566E5,1.0102047E1,8.609748E2],"tree_param":{"num_deleted":"0","num_feature":"11","num_nodes":"29","size_leaf_vector":"1"}},{"base_weights":[-5.3799078E-5,1.2707614E0,-1.5236112E0,1.5476416E0,-1.1277239E0,-1.5294456E0,1.4157708E0,-7.15625E-2,1.5476865E0,-1.5856477E0,1.5205045E0,-1.5307342E0,-6.7945933E-1,-7.465996E-2,7.683926E-2,7.791486E-2,7.697183E-2,-6.457836E-2,-7.967208E-2,7.694833E-2,-7.900317E-2,-7.547962E-2,-7.7709705E-2,-7.687889E-2,7.645011E-2],"categories":[],"categories_nodes":[],"categories_segments":[],"categories_sizes":[],"default_left":[0,0,0,0,0,0,0,0,0,0,0,0,0,0,0,0,0,0,0,0,0,0,0,0,0],"id":7,"left_children":[1,3,5,7,9,11,13,-1,15,17,19,21,23,-1,-1,-1,-1,-1,-1,-1,-1,-1,-1,-1,-1],"loss_changes":[1.54214E6,2.8839562E5,6.2144375E3,5.425E1,5.450532E4,3.94625E2,2.550758E2,0E0,3.13125E1,8.5484375E1,3.817373E2,1.76375E2,1.0430204E3,0E0,0E0,0E0,0E0,0E0,0E0,0E0,0E0,0E0,0E0,0E0,0E0],"parents":[2147483647,0,0,1,1,2,2,3,3,4,4,5,5,6,6,8,8,9,9,10,10,11,11,12,12],"right_children":[2,4,6,8,10,12,14,-1,16,18,20,22,24,-1,-1,-1,-1,-1,-1,-1,-1,-1,-1,-1,-1],"split_conditions":[5.820766E-11,2.8174E2,1.585932E6,0E0,4.8306116E5,3.5288006E5,1.2483449E6,-7.15625E-2,3.25976E5,-2.3293123E5,1.9702034E5,3.9E1,1.7019355E5,-7.465996E-2,7.683926E-2,7.791486E-2,7.697183E-2,-6.457836E-2,-7.967208E-2,7.694833E-2,-7.900317E-2,-7.547962E-2,-7.7709705E-2,-7.687889E-2,7.645011E-2],"split_indices":[6,3,3,6,7,3,7,0,2,7,4,2,6,0,0,0,0,0,0,0,0,0,0,0,0],"split_type":[0,0,0,0,0,0,0,0,0,0,0,0,0,0,0,0,0,0,0,0,0,0,0,0,0],"sum_hessian":[7.964921E5,4.3426622E5,3.622259E5,3.8932328E5,4.4942934E4,3.6150884E5,7.17061E2,5.349487E0,3.8931794E5,3.831761E4,6.625326E3,3.6096072E5,5.4813025E2,2.8152767E1,6.889082E2,1.7020688E5,2.1911106E5,9.93933E2,3.7323676E4,6.5866426E3,3.8683716E1,1.8989698E5,1.7106373E5,3.949988E2,1.5313142E2],"tree_param":{"num_deleted":"0","num_feature":"11","num_nodes":"25","size_leaf_vector":"1"}},{"base_weights":[-4.5758286E-5,-1.0681692E0,9.929477E-1,8.2657784E-1,-1.3342268E0,1.2051792E0,-9.7568583E-1,5.1978667E-4,1.4949888E0,-6.5158045E-1,-1.479961E0,5.7856655E-1,1.4131315E0,-1.5291629E0,1.4784787E0,6.975889E-2,-1.9423448E-2,7.542491E-2,-7.4343875E-2,-6.878245E-2,9.000741E-3,-6.2994644E-2,-7.437795E-2,5.8641385E-2,-7.5156674E-2,5.872233E-2,7.3859476E-2,-7.6838516E-2,4.515004E-2,-7.5998805E-2,7.492193E-2],"categories":[],"categories_nodes":[],"categories_segments":[],"categories_sizes":[],"default_left":[0,0,0,0,0,0,0,0,0,0,0,0,0,0,0,0,0,0,0,0,0,0,0,0,0,0,0,0,0,0,0],"id":8,"left_children":[1,3,5,7,9,11,13,15,17,19,21,23,25,27,29,-1,-1,-1,-1,-1,-1,-1,-1,-1,-1,-1,-1,-1,-1,-1,-1],"loss_changes":[8.250036E5,1.8891284E5,1.684165E5,2.547704E4,3.2689688E4,4.7412938E4,5.3286254E4,1.1197116E4,1.0296641E3,3.4810508E4,4.505625E2,1.1216514E5,4.175125E3,5.9371094E2,4.343457E2,0E0,0E0,0E0,0E0,0E0,0E0,0E0,0E0,0E0,0E0,0E0,0E0,0E0,0E0,0E0,0E0],"parents":[2147483647,0,0,1,1,2,2,3,3,4,4,5,5,6,6,7,7,8,8,9,9,10,10,11,11,12,12,13,13,14,14],"right_children":[2,4,6,8,10,12,14,16,18,20,22,24,26,28,30,-1,-1,-1,-1,-1,-1,-1,-1,-1,-1,-1,-1,-1,-1,-1,-1],"split_conditions":[5.5655E4,5.66808E4,2.8174E2,1E0,5.138065E4,1.6577314E5,1E0,9E0,5.643332E4,1.211E3,1.4E1,1.667069E5,3.25976E5,9.426721E5,3.033972E5,6.975889E-2,-1.9423448E-2,7.542491E-2,-7.4343875E-2,-6.878245E-2,9.000741E-3,-6.2994644E-2,-7.437795E-2,5.8641385E-2,-7.5156674E-2,5.872233E-2,7.3859476E-2,-7.6838516E-2,4.515004E-2,-7.5998805E-2,7.492193E-2],"split_indices":[2,5,3,8,1,2,8,9,1,2,0,1,2,1,1,0,0,0,0,0,0,0,0,0,0,0,0,0,0,0,0],"split_type":[0,0,0,0,0,0,0,0,0,0,0,0,0,0,0,0,0,0,0,0,0,0,0,0,0,0,0,0,0,0,0],"sum_hessian":[7.77834E5,3.7474056E5,4.0309344E5,4.614111E4,3.2859947E5,3.638667E5,3.922675E4,2.0637424E4,2.5503686E4,5.781048E4,2.7078897E5,9.066737E4,2.731993E5,3.2008441E4,7.218308E3,4.500229E3,1.6137194E4,2.5389188E4,1.1449923E2,3.0902871E4,2.690761E4,9.042966E3,2.6174602E5,7.053289E4,2.0134479E4,5.781133E4,2.15388E5,3.1909045E4,9.939673E1,4.720275E1,7.171105E3],"tree_param":{"num_deleted":"0","num_feature":"11","num_nodes":"31","size_leaf_vector":"1"}},{"base_weights":[-8.908707E-5,1.2102245E0,-1.4522399E0,1.4751525E0,-1.0755707E0,-1.4589819E0,9.313028E-1,-7.007359E-2,1.4751976E0,-1.5008816E0,1.4349924E0,-1.3182008E0,-1.4663565E0,-7.472124E-2,7.285979E-2,7.397948E-2,7.3524676E-2,-4.965317E-2,-7.535424E-2,-7.498264E-2,7.30955E-2,-3.6718298E-2,-7.111736E-2,-7.5256035E-2,-7.301834E-2],"categories":[],"categories_nodes":[],"categories_segments":[],"categories_sizes":[],"default_left":[0,0,0,0,0,0,0,0,0,0,0,0,0,0,0,0,0,0,0,0,0,0,0,0,0],"id":9,"left_children":[1,3,5,7,9,11,13,-1,15,17,19,21,23,-1,-1,-1,-1,-1,-1,-1,-1,-1,-1,-1,-1],"loss_changes":[1.3368465E6,2.5122794E5,5.5578125E3,5.025E1,4.601164E4,3.558125E2,1.2470294E3,0E0,5.25E0,1.1433594E2,4.9531934E2,1.0429277E3,7.35625E1,0E0,0E0,0E0,0E0,0E0,0E0,0E0,0E0,0E0,0E0,0E0,0E0],"parents":[2147483647,0,0,1,1,2,2,3,3,4,4,5,5,6,6,8,8,9,9,10,10,11,11,12,12],"right_children":[2,4,6,8,10,12,14,-1,16,18,20,22,24,-1,-1,-1,-1,-1,-1,-1,-1,-1,-1,-1,-1],"split_conditions":[5.820766E-11,2.8174E2,1E0,0E0,1E0,1.6E1,2.031486E5,-7.007359E-2,1E0,1E1,1E0,5.17059E3,3.976532E4,-7.472124E-2,7.285979E-2,7.397948E-2,7.3524676E-2,-4.965317E-2,-7.535424E-2,-7.498264E-2,7.30955E-2,-3.6718298E-2,-7.111736E-2,-7.5256035E-2,-7.301834E-2],"split_indices":[6,3,8,6,8,0,3,0,10,0,10,4,6,0,0,0,0,0,0,0,0,0,0,0,0],"split_type":[0,0,0,0,0,0,0,0,0,0,0,0,0,0,0,0,0,0,0,0,0,0,0,0,0],"sum_hessian":[7.606253E5,4.148573E5,3.45768E5,3.7176897E5,4.308834E4,3.4479316E5,9.748422E2,5.3036404E0,3.7176366E5,3.684665E4,6.241693E3,1.717195E4,3.276212E5,1.7332648E2,8.015157E2,1.9208795E5,1.796757E5,4.4680188E2,3.6399844E4,5.6199467E1,6.1854937E3,2.6008445E3,1.4571105E4,4.3811543E4,2.8380966E5],"tree_param":{"num_deleted":"0","num_feature":"11","num_nodes":"25","size_leaf_vector":"1"}},{"base_weights":[-8.012625E-5,1.1821766E0,-1.4184762E0,1.4412225E0,-1.0488921E0,-1.4250598E0,9.1004175E-1,-6.795935E-2,1.441267E0,-1.4697418E0,1.4138844E0,-1.3996934E0,-1.4529827E0,-7.2918594E-2,7.122254E-2,7.272167E-2,7.15458E-2,-5.786404E-2,-7.390592E-2,7.1563795E-2,-7.293745E-2,5.9421863E-2,-7.08196E-2,-7.231259E-2,-7.763405E-2],"categories":[],"categories_nodes":[],"categories_segments":[],"categories_sizes":[],"default_left":[0,0,0,0,0,0,0,0,0,0,0,0,0,0,0,0,0,0,0,0,0,0,0,0,0],"id":10,"left_children":[1,3,5,7,9,11,13,-1,15,17,19,21,23,-1,-1,-1,-1,-1,-1,-1,-1,-1,-1,-1,-1],"loss_changes":[1.2413916E6,2.3334956E5,5.160375E3,4.7125E1,4.353617E4,2.354375E2,1.1587506E3,0E0,4.69375E1,9.191406E1,3.0836328E2,7.6025312E3,1.04625E2,0E0,0E0,0E0,0E0,0E0,0E0,0E0,0E0,0E0,0E0,0E0,0E0],"parents":[2147483647,0,0,1,1,2,2,3,3,4,4,5,5,6,6,8,8,9,9,10,10,11,11,12,12],"right_children":[2,4,6,8,10,12,14,-1,16,18,20,22,24,-1,-1,-1,-1,-1,-1,-1,-1,-1,-1,-1,-1],"split_conditions":[5.820766E-11,2.8174E2,1E0,0E0,4.8306116E5,3.9E1,2.031486E5,-6.795935E-2,3.25976E5,-2.3293123E5,1.9702034E5,5.17059E3,1.56638E5,-7.2918594E-2,7.122254E-2,7.272167E-2,7.15458E-2,-5.786404E-2,-7.390592E-2,7.1563795E-2,-7.293745E-2,5.9421863E-2,-7.08196E-2,-7.231259E-2,-7.763405E-2],"split_indices":[6,3,8,6,7,2,3,0,2,7,4,4,2,0,0,0,0,0,0,0,0,0,0,0,0],"split_type":[0,0,0,0,0,0,0,0,0,0,0,0,0,0,0,0,0,0,0,0,0,0,0,0,0],"sum_hessian":[7.4028394E5,4.037509E5,3.36533E5,3.617492E5,4.200173E4,3.3558462E5,9.4839246E2,5.228212E0,3.6174394E5,3.5872184E4,6.129546E3,1.7587022E5,1.5971439E5,1.6886844E2,7.7952405E2,1.5915425E5,2.0258969E5,9.405259E2,3.493166E4,6.093193E3,3.6352707E1,1.1269531E3,1.7474327E5,1.4962919E5,1.0085202E4],"tree_param":{"num_deleted":"0","num_feature":"11","num_nodes":"25","size_leaf_vector":"1"}},{"base_weights":[-7.5219934E-5,1.1567066E0,-1.387718E0,1.4103845E0,-1.0248506E0,-1.394157E0,8.906868E-1,-6.601542E-2,1.4104285E0,-1.4355774E0,1.3939571E0,-1.2482343E0,-1.4018507E0,-7.1281925E-2,6.9731705E-2,7.111005E-2,7.0057996E-2,-6.550761E-2,-7.223093E-2,7.009715E-2,-7.215341E-2,-5.4662973E-2,-7.202739E-2,-6.97574E-2,-7.287103E-2],"categories":[],"categories_nodes":[],"categories_segments":[],"categories_sizes":[],"default_left":[0,0,0,0,0,0,0,0,0,0,0,0,0,0,0,0,0,0,0,0,0,0,0,0,0],"id":11,"left_children":[1,3,5,7,9,11,13,-1,15,17,19,21,23,-1,-1,-1,-1,-1,-1,-1,-1,-1,-1,-1,-1],"loss_changes":[1.154686E6,2.1710756E5,4.79925E3,4.4125E1,4.0601875E4,3.64125E2,1.0785002E3,0E0,3.60625E1,3.7453125E1,1.3642969E2,4.852461E2,1.13E2,0E0,0E0,0E0,0E0,0E0,0E0,0E0,0E0,0E0,0E0,0E0,0E0],"parents":[2147483647,0,0,1,1,2,2,3,3,4,4,5,5,6,6,8,8,9,9,10,10,11,11,12,12],"right_children":[2,4,6,8,10,12,14,-1,16,18,20,22,24,-1,-1,-1,-1,-1,-1,-1,-1,-1,-1,-1,-1],"split_conditions":[5.820766E-11,2.8174E2,1E0,0E0,9.426721E5,1.6E1,2.031486E5,-6.601542E-2,3.25976E5,1.8E1,6.702314E5,3.9E1,5.5655E4,-7.1281925E-2,6.9731705E-2,7.111005E-2,7.0057996E-2,-6.550761E-2,-7.223093E-2,7.009715E-2,-7.215341E-2,-5.4662973E-2,-7.202739E-2,-6.97574E-2,-7.287103E-2],"split_indices":[6,3,8,6,1,0,3,0,2,0,5,2,2,0,0,0,0,0,0,0,0,0,0,0,0],"split_type":[0,0,0,0,0,0,0,0,0,0,0,0,0,0,0,0,0,0,0,0,0,0,0,0,0],"sum_hessian":[7.193389E5,3.9230303E5,3.2703584E5,3.5143728E5,4.0865766E4,3.2611462E5,9.212221E2,5.1446123E0,3.5143212E5,3.4934195E4,5.9315703E3,1.6341749E4,3.0977288E5,1.6424852E2,7.569736E2,1.5473525E5,1.9669688E5,2.3594204E3,3.2574773E4,5.91546E3,1.611024E1,9.05336E3,7.2883887E3,2.7645522E5,3.3317633E4],"tree_param":{"num_deleted":"0","num_feature":"11","num_nodes":"25","size_leaf_vector":"1"}},{"base_weights":[-6.5949636E-5,1.1334913E0,-1.3595512E0,1.3822732E0,-1.0029624E0,-1.3658578E0,8.730081E-1,-6.422038E-2,1.3823168E0,-1.3980538E0,1.3469695E0,-1.2172762E0,-1.373729E0,-6.979066E-2,6.83697E-2,6.926375E-2,6.8955E-2,-5.9447933E-2,-7.068248E-2,-6.975319E-2,6.847001E-2,-3.108023E-2,-6.630067E-2,-6.590422E-2,-6.888523E-2],"categories":[],"categories_nodes":[],"categories_segments":[],"categories_sizes":[],"default_left":[0,0,0,0,0,0,0,0,0,0,0,0,0,0,0,0,0,0,0,0,0,0,0,0,0],"id":12,"left_children":[1,3,5,7,9,11,13,-1,15,17,19,21,23,-1,-1,-1,-1,-1,-1,-1,-1,-1,-1,-1,-1],"loss_changes":[1.0756388E6,2.02306E5,4.469875E3,4.14375E1,3.686056E4,3.6825E2,1.00531384E3,0E0,1.0625E0,1.08890625E2,3.533789E2,1.030873E3,6.44375E1,0E0,0E0,0E0,0E0,0E0,0E0,0E0,0E0,0E0,0E0,0E0,0E0],"parents":[2147483647,0,0,1,1,2,2,3,3,4,4,5,5,6,6,8,8,9,9,10,10,11,11,12,12],"right_children":[2,4,6,8,10,12,14,-1,16,18,20,22,24,-1,-1,-1,-1,-1,-1,-1,-1,-1,-1,-1,-1],"split_conditions":[5.820766E-11,2.8174E2,1E0,0E0,1E0,1.6E1,2.031486E5,-6.422038E-2,1E0,1.8E1,3.5288006E5,5.17059E3,3.7E1,-6.979066E-2,6.83697E-2,6.926375E-2,6.8955E-2,-5.9447933E-2,-7.068248E-2,-6.975319E-2,6.847001E-2,-3.108023E-2,-6.630067E-2,-6.590422E-2,-6.888523E-2],"split_indices":[6,3,8,6,8,0,3,0,8,0,3,4,0,0,0,0,0,0,0,0,0,0,0,0,0],"split_type":[0,0,0,0,0,0,0,0,0,0,0,0,0,0,0,0,0,0,0,0,0,0,0,0,0],"sum_hessian":[6.9798694E5,3.806205E5,3.1736644E5,3.409218E5,3.9698664E4,3.1647288E5,8.9356354E2,5.054228E0,3.4091678E5,3.3985215E4,5.713448E3,1.5930233E4,3.0054262E5,1.5951169E2,7.340519E2,1.7735853E5,1.6355823E5,2.364715E3,3.16205E4,4.5825874E1,5.6676226E3,2.460273E3,1.3469961E4,2.0064906E4,2.8047772E5],"tree_param":{"num_deleted":"0","num_feature":"11","num_nodes":"25","size_leaf_vector":"1"}},{"base_weights":[-5.7212776E-5,1.1122468E0,-1.3337367E0,1.3565767E0,-9.827531E-1,-1.339922E0,8.5681057E-1,-6.255608E-2,1.35662E0,-1.3762405E0,1.3336872E0,-1.3152906E0,-1.3669891E0,-6.84275E-2,6.712168E-2,6.8311326E-2,6.745166E-2,-5.2081753E-2,-6.9268316E-2,6.7514524E-2,-6.829377E-2,6.335337E-2,-6.6659294E-2,-6.808271E-2,-7.223498E-2],"categories":[],"categories_nodes":[],"categories_segments":[],"categories_sizes":[],"default_left":[0,0,0,0,0,0,0,0,0,0,0,0,0,0,0,0,0,0,0,0,0,0,0,0,0],"id":13,"left_children":[1,3,5,7,9,11,13,-1,15,17,19,21,23,-1,-1,-1,-1,-1,-1,-1,-1,-1,-1,-1,-1],"loss_changes":[1.00338625E6,1.8877953E5,4.168625E3,3.89375E1,3.511212E4,2.025E2,9.3837604E2,0E0,2.2E1,9.8859375E1,2.5255664E2,7.424E3,5.828125E1,0E0,0E0,0E0,0E0,0E0,0E0,0E0,0E0,0E0,0E0,0E0,0E0],"parents":[2147483647,0,0,1,1,2,2,3,3,4,4,5,5,6,6,8,8,9,9,10,10,11,11,12,12],"right_children":[2,4,6,8,10,12,14,-1,16,18,20,22,24,-1,-1,-1,-1,-1,-1,-1,-1,-1,-1,-1,-1],"split_conditions":[5.820766E-11,2.8174E2,1E0,0E0,4.8306116E5,3.9E1,2.031486E5,-6.255608E-2,3.25976E5,-2.3293123E5,1.9702034E5,5.17059E3,1.56638E5,-6.84275E-2,6.712168E-2,6.8311326E-2,6.745166E-2,-5.2081753E-2,-6.9268316E-2,6.7514524E-2,-6.829377E-2,6.335337E-2,-6.6659294E-2,-6.808271E-2,-7.223498E-2],"split_indices":[6,3,8,6,7,2,3,0,2,7,4,4,2,0,0,0,0,0,0,0,0,0,0,0,0],"split_type":[0,0,0,0,0,0,0,0,0,0,0,0,0,0,0,0,0,0,0,0,0,0,0,0,0],"sum_hessian":[6.763817E5,3.687991E5,3.075826E5,3.3028047E5,3.851865E4,3.06717E5,8.6561755E2,4.958295E0,3.302755E5,3.292604E4,5.5926084E3,1.6061216E5,1.4610483E5,1.546969E2,7.1092065E2,1.4565394E5,1.8462155E5,8.7751373E2,3.2048525E4,5.5589556E3,3.3652786E1,1.1048359E3,1.5950731E5,1.3673752E5,9.367322E3],"tree_param":{"num_deleted":"0","num_feature":"11","num_nodes":"25","size_leaf_vector":"1"}},{"base_weights":[-5.3375137E-5,1.0927888E0,-1.3100147E0,1.3330108E0,-9.6444887E-1,-1.3160883E0,8.419282E-1,-6.100709E-2,1.3330537E0,-1.3502625E0,1.3201821E0,-1.1601698E0,-1.3244146E0,-6.717772E-2,6.597491E-2,6.708204E-2,6.631317E-2,-6.0997445E-2,-6.798818E-2,6.639526E-2,-6.7283444E-2,-4.9918424E-2,-6.8105675E-2,-6.542242E-2,-6.7092024E-2],"categories":[],"categories_nodes":[],"categories_segments":[],"categories_sizes":[],"default_left":[0,0,0,0,0,0,0,0,0,0,0,0,0,0,0,0,0,0,0,0,0,0,0,0,0],"id":14,"left_children":[1,3,5,7,9,11,13,-1,15,17,19,21,23,-1,-1,-1,-1,-1,-1,-1,-1,-1,-1,-1,-1],"loss_changes":[9.371861E5,1.7638044E5,3.8926875E3,3.66875E1,3.2895633E4,3.8371875E2,8.7699054E2,0E0,1.6625E1,3.7609375E1,1.12799805E2,4.905E2,7.6375E1,0E0,0E0,0E0,0E0,0E0,0E0,0E0,0E0,0E0,0E0,0E0,0E0],"parents":[2147483647,0,0,1,1,2,2,3,3,4,4,5,5,6,6,8,8,9,9,10,10,11,11,12,12],"right_children":[2,4,6,8,10,12,14,-1,16,18,20,22,24,-1,-1,-1,-1,-1,-1,-1,-1,-1,-1,-1,-1],"split_conditions":[5.820766E-11,2.8174E2,1E0,0E0,9.426721E5,1.6E1,2.031486E5,-6.100709E-2,3.25976E5,1.8E1,6.702314E5,3.9E1,3.9E1,-6.717772E-2,6.597491E-2,6.708204E-2,6.631317E-2,-6.0997445E-2,-6.798818E-2,6.639526E-2,-6.7283444E-2,-4.9918424E-2,-6.8105675E-2,-6.542242E-2,-6.7092024E-2],"split_indices":[6,3,8,6,1,0,3,0,2,0,5,2,2,0,0,0,0,0,0,0,0,0,0,0,0],"split_type":[0,0,0,0,0,0,0,0,0,0,0,0,0,0,0,0,0,0,0,0,0,0,0,0,0],"sum_hessian":[6.5464906E5,3.5690188E5,2.977472E5,3.1958462E5,3.731723E4,2.9690966E5,8.375575E2,4.857914E0,3.1957978E5,3.1926193E4,5.3910356E3,1.5059472E4,2.8185016E5,1.4983797E2,6.8771954E2,1.4102431E5,1.7855547E5,2.1790278E3,2.9747166E4,5.3760005E3,1.5035171E1,8.36428E3,6.695191E3,1.4712769E5,1.3472248E5],"tree_param":{"num_deleted":"0","num_feature":"11","num_nodes":"25","size_leaf_vector":"1"}},{"base_weights":[-4.3975426E-5,1.0749038E0,-1.2880542E0,1.3113497E0,-9.47626E-1,-1.2940242E0,8.282177E-1,-5.956018E-2,1.3113924E0,-1.3263835E0,1.2991698E0,-1.1342458E0,-1.302607E0,-6.6028744E-2,6.4918466E-2,6.595202E-2,6.526616E-2,-5.96668E-2,-6.680637E-2,6.525519E-2,-6.465043E-2,-2.603731E-2,-6.247852E-2,-6.434549E-2,-6.5986946E-2],"categories":[],"categories_nodes":[],"categories_segments":[],"categories_sizes":[],"default_left":[0,0,0,0,0,0,0,0,0,0,0,0,0,0,0,0,0,0,0,0,0,0,0,0,0],"id":15,"left_children":[1,3,5,7,9,11,13,-1,15,17,19,21,23,-1,-1,-1,-1,-1,-1,-1,-1,-1,-1,-1,-1],"loss_changes":[8.7632825E5,1.649885E5,3.6389062E3,3.45E1,3.0732607E4,3.919375E2,8.205599E2,0E0,1.24375E1,3.8210938E1,8.1825195E1,1.0353574E3,7.134375E1,0E0,0E0,0E0,0E0,0E0,0E0,0E0,0E0,0E0,0E0,0E0,0E0],"parents":[2147483647,0,0,1,1,2,2,3,3,4,4,5,5,6,6,8,8,9,9,10,10,11,11,12,12],"right_children":[2,4,6,8,10,12,14,-1,16,18,20,22,24,-1,-1,-1,-1,-1,-1,-1,-1,-1,-1,-1,-1],"split_conditions":[5.820766E-11,2.8174E2,1E0,0E0,9.426721E5,1.6E1,2.031486E5,-5.956018E-2,3.2655594E5,1.8E1,1.9702034E5,5.17059E3,3.9E1,-6.6028744E-2,6.4918466E-2,6.595202E-2,6.526616E-2,-5.96668E-2,-6.680637E-2,6.525519E-2,-6.465043E-2,-2.603731E-2,-6.247852E-2,-6.434549E-2,-6.5986946E-2],"split_indices":[6,3,8,6,1,0,3,0,1,0,4,4,2,0,0,0,0,0,0,0,0,0,0,0,0],"split_type":[0,0,0,0,0,0,0,0,0,0,0,0,0,0,0,0,0,0,0,0,0,0,0,0,0],"sum_hessian":[6.329344E5,3.4500234E5,2.87932E5,3.0889147E5,3.6110883E4,2.8712247E5,8.095329E2,4.7540603E0,3.0888672E5,3.0901982E4,5.208901E3,1.4644398E4,2.724781E5,1.4496405E2,6.6456885E2,1.3656642E5,1.723203E5,2.1178223E3,2.878416E4,5.197538E3,1.1362781E1,2.3182495E3,1.2326149E4,1.4223477E5,1.3024331E5],"tree_param":{"num_deleted":"0","num_feature":"11","num_nodes":"25","size_leaf_vector":"1"}},{"base_weights":[-3.526323E-5,1.058425E0,-1.2677468E0,1.2913935E0,-9.3212056E-1,-1.2725668E0,1.1827955E0,-5.8203965E-2,1.291436E0,-1.3043914E0,1.2708038E0,-1.1104501E0,-1.2813383E0,-6.1465986E-2,6.4197496E-2,6.491274E-2,6.4301565E-2,-4.7006816E-2,-6.572614E-2,6.4340666E-2,-6.4620875E-2,-2.5781913E-2,-6.133918E-2,-6.4123884E-2,-2.140595E-2],"categories":[],"categories_nodes":[],"categories_segments":[],"categories_sizes":[],"default_left":[0,0,0,0,0,0,0,0,0,0,0,0,0,0,0,0,0,0,0,0,0,0,0,0,0],"id":16,"left_children":[1,3,5,7,9,11,13,-1,15,17,19,21,23,-1,-1,-1,-1,-1,-1,-1,-1,-1,-1,-1,-1],"loss_changes":[8.202899E5,1.5449828E5,3.2871875E3,3.265625E1,2.8628506E4,3.9309375E2,1.349378E2,0E0,9E0,1.0873828E2,2.0875586E2,9.8580273E2,2.5528125E2,0E0,0E0,0E0,0E0,0E0,0E0,0E0,0E0,0E0,0E0,0E0,0E0],"parents":[2147483647,0,0,1,1,2,2,3,3,4,4,5,5,6,6,8,8,9,9,10,10,11,11,12,12],"right_children":[2,4,6,8,10,12,14,-1,16,18,20,22,24,-1,-1,-1,-1,-1,-1,-1,-1,-1,-1,-1,-1],"split_conditions":[5.820766E-11,2.8174E2,1.585932E6,0E0,4.8306116E5,1.6E1,1.2483449E6,-5.8203965E-2,3.25976E5,-2.3293123E5,1.9702034E5,5.17059E3,3.5288006E5,-6.1465986E-2,6.4197496E-2,6.491274E-2,6.4301565E-2,-4.7006816E-2,-6.572614E-2,6.4340666E-2,-6.4620875E-2,-2.5781913E-2,-6.133918E-2,-6.4123884E-2,-2.140595E-2],"split_indices":[6,3,3,6,7,0,7,0,2,7,4,4,3,0,0,0,0,0,0,0,0,0,0,0,0],"split_type":[0,0,0,0,0,0,0,0,0,0,0,0,0,0,0,0,0,0,0,0,0,0,0,0,0],"sum_hessian":[6.1132325E5,3.3315753E5,2.7816572E5,2.9825134E5,3.4906188E4,2.776202E5,5.4554175E2,4.647598E0,2.982467E5,2.9860527E4,5.045659E3,1.4257055E4,2.6336312E5,2.1468344E1,5.2407336E2,1.3175875E5,1.6648795E5,8.108654E2,2.9049662E4,5.014874E3,3.0785103E1,2.3332844E3,1.19237705E4,2.630113E5,3.5181995E2],"tree_param":{"num_deleted":"0","num_feature":"11","num_nodes":"25","size_leaf_vector":"1"}},{"base_weights":[-2.6215457E-5,-8.9177656E-1,8.3034635E-1,6.7969763E-1,-1.1158744E0,5.293729E-1,1.2697676E0,-2.4267863E-3,1.2576532E0,-5.3335315E-1,-1.2439276E0,4.2941435E-3,1.0206865E0,-6.1655957E-2,1.2701051E0,-1.6287718E-2,4.870752E-2,6.345227E-2,-6.272444E-2,-5.9888937E-2,4.62803E-3,-4.8807558E-2,-6.268127E-2,-1.5911026E-2,4.798491E-2,-6.2138934E-2,5.9864767E-2,6.195528E-2,6.353085E-2],"categories":[],"categories_nodes":[],"categories_segments":[],"categories_sizes":[],"default_left":[0,0,0,0,0,0,0,0,0,0,0,0,0,0,0,0,0,0,0,0,0,0,0,0,0,0,0,0,0],"id":17,"left_children":[1,3,5,7,9,11,13,15,17,19,21,23,25,-1,27,-1,-1,-1,-1,-1,-1,-1,-1,-1,-1,-1,-1,-1,-1],"loss_changes":[4.368251E5,1.00172516E5,4.0399E4,1.3996004E4,1.8569E4,4.6770797E4,1.0646875E2,5.1420176E3,5.5159766E2,1.865823E4,5.285E2,2.7004611E4,3.744196E4,0E0,1.25E-1,0E0,0E0,0E0,0E0,0E0,0E0,0E0,0E0,0E0,0E0,0E0,0E0,0E0,0E0],"parents":[2147483647,0,0,1,1,2,2,3,3,4,4,5,5,6,6,7,7,8,8,9,9,10,10,11,11,12,12,14,14],"right_children":[2,4,6,8,10,12,14,16,18,20,22,24,26,-1,28,-1,-1,-1,-1,-1,-1,-1,-1,-1,-1,-1,-1,-1,-1],"split_conditions":[5.5655E4,5.66808E4,1E0,1E0,5.138065E4,3.25976E5,5.517079E4,4.06E2,5.643332E4,1.92E2,1.4E1,4.06E2,3.2309488E5,-6.1655957E-2,2.1E1,-1.6287718E-2,4.870752E-2,6.345227E-2,-6.272444E-2,-5.9888937E-2,4.62803E-3,-4.8807558E-2,-6.268127E-2,-1.5911026E-2,4.798491E-2,-6.2138934E-2,5.9864767E-2,6.195528E-2,6.353085E-2],"split_indices":[2,5,8,8,1,2,1,0,1,2,0,0,1,0,0,0,0,0,0,0,0,0,0,0,0,0,0,0,0],"split_type":[0,0,0,0,0,0,0,0,0,0,0,0,0,0,0,0,0,0,0,0,0,0,0,0,0,0,0,0,0],"sum_hessian":[5.8991556E5,2.8444525E5,3.0547028E5,3.550012E4,2.4894514E5,1.8129681E5,1.2417345E5,1.6283067E4,1.9217055E4,4.4863676E4,2.0408147E5,8.76376E4,9.365921E4,1.6209557E1,1.2415724E5,1.2233529E4,4.049538E3,1.9130832E4,8.6221565E1,2.1761967E4,2.3101709E4,7.1365845E3,1.9694489E5,6.552049E4,2.2117111E4,6.7784316E3,8.688078E4,2.0591738E3,1.2209807E5],"tree_param":{"num_deleted":"0","num_feature":"11","num_nodes":"29","size_leaf_vector":"1"}},{"base_weights":[-1.3823395E-5,-8.7504375E-1,8.113343E-1,7.471394E-1,-1.0845878E0,9.8978394E-1,-8.1811714E-1,4.436904E-2,1.2405578E0,-1.1437099E0,-4.0368998E-1,5.285588E-1,1.197439E0,-1.2703714E0,1.2103138E0,1.30872475E-2,-6.5078795E-2,-6.40174E-2,6.282044E-2,-5.898855E-2,-4.5140475E-2,-5.5712134E-2,5.8381376E-3,5.3308707E-2,-4.7442927E-3,5.109149E-2,6.1478652E-2,-4.30437E-2,-6.415719E-2,-6.443277E-2,6.2437184E-2],"categories":[],"categories_nodes":[],"categories_segments":[],"categories_sizes":[],"default_left":[0,0,0,0,0,0,0,0,0,0,0,0,0,0,0,0,0,0,0,0,0,0,0,0,0,0,0,0,0,0,0],"id":18,"left_children":[1,3,5,7,9,11,13,15,17,19,21,23,25,27,29,-1,-1,-1,-1,-1,-1,-1,-1,-1,-1,-1,-1,-1,-1,-1,-1],"loss_changes":[4.0675497E5,9.3698875E4,8.6443375E4,1.0934492E4,9.826531E3,2.5661406E4,2.6920719E4,3.8062378E3,7.4189844E2,1.9499688E3,7.213228E3,2.7881434E4,1.0410938E3,1.2417578E2,5.1541113E2,0E0,0E0,0E0,0E0,0E0,0E0,0E0,0E0,0E0,0E0,0E0,0E0,0E0,0E0,0E0,0E0],"parents":[2147483647,0,0,1,1,2,2,3,3,4,4,5,5,6,6,7,7,8,8,9,9,10,10,11,11,12,12,13,13,14,14],"right_children":[2,4,6,8,10,12,14,16,18,20,22,24,26,28,30,-1,-1,-1,-1,-1,-1,-1,-1,-1,-1,-1,-1,-1,-1,-1,-1],"split_conditions":[5.5655E4,4.452463E4,2.8174E2,1E0,4.06E2,2.09461E5,3.4944462E5,2.8174E2,1E0,2.602026E4,1.536E3,2.0908298E5,3.25976E5,-2.3293123E5,1E0,1.30872475E-2,-6.5078795E-2,-6.40174E-2,6.282044E-2,-5.898855E-2,-4.5140475E-2,-5.5712134E-2,5.8381376E-3,5.3308707E-2,-4.7442927E-3,5.109149E-2,6.1478652E-2,-4.30437E-2,-6.415719E-2,-6.443277E-2,6.2437184E-2],"split_indices":[2,5,3,8,0,2,7,3,10,2,2,5,2,7,10,0,0,0,0,0,0,0,0,0,0,0,0,0,0,0,0],"split_type":[0,0,0,0,0,0,0,0,0,0,0,0,0,0,0,0,0,0,0,0,0,0,0,0,0,0,0,0,0,0,0],"sum_hessian":[5.7292956E5,2.756472E5,2.9728234E5,3.1532863E4,2.4411431E5,2.679394E5,2.9342965E4,1.300759E4,1.8525273E4,2.2461066E5,1.9503656E4,8.318351E4,1.8475588E5,2.3993787E4,5.349177E3,1.1199674E4,1.8079159E3,1.1521837E2,1.8410055E4,1.95362E5,2.9248654E4,8.245486E3,1.1258171E4,4.466606E4,3.8517453E4,2.85839E4,1.5617198E5,7.2804285E2,2.3265746E4,8.048337E1,5.2686934E3],"tree_param":{"num_deleted":"0","num_feature":"11","num_nodes":"31","size_leaf_vector":"1"}},{"base_weights":[4.2360324E-7,1.0193782E0,-1.2225358E0,1.2480651E0,-9.124926E-1,-1.2281507E0,7.672214E-1,1.2613958E0,6.1857414E-2,-1.2554042E0,1.2102836E0,-1.0502726E0,-1.2379128E0,-6.367131E-2,6.1632235E-2,6.3842736E-2,6.22132E-2,-5.1392294E-2,-6.363759E-2,-6.343394E-2,6.1773E-2,-4.2798176E-2,-6.4402916E-2,-6.1448384E-2,-6.532037E-2],"categories":[],"categories_nodes":[],"categories_segments":[],"categories_sizes":[],"default_left":[0,0,0,0,0,0,0,0,0,0,0,0,0,0,0,0,0,0,0,0,0,0,0,0,0],"id":19,"left_children":[1,3,5,7,9,11,13,15,-1,17,19,21,23,-1,-1,-1,-1,-1,-1,-1,-1,-1,-1,-1,-1],"loss_changes":[6.9320075E5,1.3400719E5,2.8265938E3,3.76875E1,2.3372348E4,4.3640625E2,6.7804285E2,3.0484375E1,0E0,1.07578125E2,2.8026514E2,6.0525977E2,1.44625E2,0E0,0E0,0E0,0E0,0E0,0E0,0E0,0E0,0E0,0E0,0E0,0E0],"parents":[2147483647,0,0,1,1,2,2,3,3,4,4,5,5,6,6,7,7,9,9,10,10,11,11,12,12],"right_children":[2,4,6,8,10,12,14,16,-1,18,20,22,24,-1,-1,-1,-1,-1,-1,-1,-1,-1,-1,-1,-1],"split_conditions":[5.820766E-11,2.8174E2,1E0,3.25976E5,1E0,1.6E1,2.031486E5,1E0,6.1857414E-2,1.8E1,1.0357578E6,3.9E1,5.5655E4,-6.367131E-2,6.1632235E-2,6.3842736E-2,6.22132E-2,-5.1392294E-2,-6.363759E-2,-6.343394E-2,6.1773E-2,-4.2798176E-2,-6.4402916E-2,-6.1448384E-2,-6.532037E-2],"split_indices":[6,3,8,2,8,0,3,10,0,0,2,2,2,0,0,0,0,0,0,0,0,0,0,0,0],"split_type":[0,0,0,0,0,0,0,0,0,0,0,0,0,0,0,0,0,0,0,0,0,0,0,0,0],"sum_hessian":[5.562379E5,3.0332172E5,2.5291611E5,2.7121662E5,3.2105104E4,2.5220486E5,7.112575E2,1.2205261E5,1.4916402E5,2.764053E4,4.464574E3,1.3127245E4,2.3907761E5,1.3173123E2,5.795263E2,6.4117188E4,5.7935426E4,1.9625548E3,2.5677975E4,4.434975E1,4.4202246E3,7.226807E3,5.9004385E3,2.114796E5,2.7598021E4],"tree_param":{"num_deleted":"0","num_feature":"11","num_nodes":"25","size_leaf_vector":"1"}},{"base_weights":[1.1207623E-5,-8.461651E-1,7.8456366E-1,6.369499E-1,-1.0615383E0,9.564058E-1,-7.9574007E-1,3.938557E-2,1.1493837E0,-4.6980977E-1,-1.1965986E0,5.031676E-1,1.1649724E0,-1.2240784E0,1.2148447E0,5.8321387E-2,-1.3585349E-2,6.0294416E-2,-6.483324E-2,-5.7196744E-2,6.208214E-3,-5.5007398E-2,-6.0799886E-2,4.381039E-2,-6.304445E-2,4.9112614E-2,5.994278E-2,-3.958999E-2,-6.176537E-2,6.1192956E-2,-6.3177355E-2],"categories":[],"categories_nodes":[],"categories_segments":[],"categories_sizes":[],"default_left":[0,0,0,0,0,0,0,0,0,0,0,0,0,0,0,0,0,0,0,0,0,0,0,0,0,0,0,0,0,0,0],"id":20,"left_children":[1,3,5,7,9,11,13,15,17,19,21,23,25,27,29,-1,-1,-1,-1,-1,-1,-1,-1,-1,-1,-1,-1,-1,-1,-1,-1],"loss_changes":[3.5563312E5,8.232467E4,7.548722E4,1.0007176E4,1.7984766E4,2.369886E4,2.348025E4,5.290628E3,2.4332246E3,1.674654E4,3.4125E2,5.199626E4,1.061625E3,1.0791406E2,1.0852246E2,0E0,0E0,0E0,0E0,0E0,0E0,0E0,0E0,0E0,0E0,0E0,0E0,0E0,0E0,0E0,0E0],"parents":[2147483647,0,0,1,1,2,2,3,3,4,4,5,5,6,6,7,7,8,8,9,9,10,10,11,11,12,12,13,13,14,14],"right_children":[2,4,6,8,10,12,14,16,18,20,22,24,26,28,30,-1,-1,-1,-1,-1,-1,-1,-1,-1,-1,-1,-1,-1,-1,-1,-1],"split_conditions":[5.5655E4,5.66808E4,2.8174E2,1E0,5.138065E4,2.09461E5,9.426721E5,9E0,8.88192E3,1.92E2,6.538196E4,2.1008833E5,3.25976E5,8.88192E3,6.702314E5,5.8321387E-2,-1.3585349E-2,6.0294416E-2,-6.483324E-2,-5.7196744E-2,6.208214E-3,-5.5007398E-2,-6.0799886E-2,4.381039E-2,-6.304445E-2,4.9112614E-2,5.994278E-2,-3.958999E-2,-6.176537E-2,6.1192956E-2,-6.3177355E-2],"split_indices":[2,5,3,10,1,2,1,9,5,2,4,1,2,5,5,0,0,0,0,0,0,0,0,0,0,0,0,0,0,0,0],"split_type":[0,0,0,0,0,0,0,0,0,0,0,0,0,0,0,0,0,0,0,0,0,0,0,0,0,0,0,0,0,0,0],"sum_hessian":[5.356952E5,2.5772578E5,2.7796944E5,3.2680064E4,2.250457E5,2.5070792E5,2.7261512E4,1.5087433E4,1.7592633E4,4.182158E4,1.8322412E5,7.9011375E4,1.7169655E5,2.2474045E4,4.787468E3,3.2631382E3,1.1824294E4,1.7195947E4,3.9668478E2,1.9588754E4,2.2232824E4,3.0691383E4,1.5253275E5,6.5220035E4,1.3791341E4,2.686349E4,1.4483305E5,5.710411E2,2.1903004E4,4.7706626E3,1.680532E1],"tree_param":{"num_deleted":"0","num_feature":"11","num_nodes":"31","size_leaf_vector":"1"}},{"base_weights":[-5.3139862E-5,-8.315085E-1,7.704269E-1,6.204935E-1,-1.0445045E0,9.386604E-1,-7.855321E-1,3.7913073E-2,1.1351402E0,-4.5420486E-1,-1.1821972E0,3.081677E-1,1.0888256E0,-1.2079115E0,1.2015686E0,5.7232935E-2,-1.2929383E-2,5.9549388E-2,-6.393596E-2,-5.633178E-2,5.8996957E-3,-5.4145306E-2,-6.0112704E-2,4.9411505E-2,-6.297116E-2,4.2719882E-2,5.9209533E-2,-3.8187597E-2,-6.0985874E-2,6.052655E-2,-6.2066536E-2],"categories":[],"categories_nodes":[],"categories_segments":[],"categories_sizes":[],"default_left":[0,0,0,0,0,0,0,0,0,0,0,0,0,0,0,0,0,0,0,0,0,0,0,0,0,0,0,0,0,0,0],"id":21,"left_children":[1,3,5,7,9,11,13,15,17,19,21,23,25,27,29,-1,-1,-1,-1,-1,-1,-1,-1,-1,-1,-1,-1,-1,-1,-1,-1],"loss_changes":[3.32187E5,7.713322E4,7.045164E4,9.565815E3,1.7677438E4,2.2994828E4,2.204255E4,4.9115347E3,2.2852012E3,1.5829115E4,3.4967188E2,4.9808594E4,4.3841562E3,1.1243945E2,1.02299805E2,0E0,0E0,0E0,0E0,0E0,0E0,0E0,0E0,0E0,0E0,0E0,0E0,0E0,0E0,0E0,0E0],"parents":[2147483647,0,0,1,1,2,2,3,3,4,4,5,5,6,6,7,7,8,8,9,9,10,10,11,11,12,12,13,13,14,14],"right_children":[2,4,6,8,10,12,14,16,18,20,22,24,26,28,30,-1,-1,-1,-1,-1,-1,-1,-1,-1,-1,-1,-1,-1,-1,-1,-1],"split_conditions":[5.5655E4,5.66808E4,2.8174E2,1E0,5.138065E4,1.24735E5,9.426721E5,9E0,8.88192E3,1.92E2,6.538196E4,1.2507257E5,3.25976E5,8.88192E3,6.702314E5,5.7232935E-2,-1.2929383E-2,5.9549388E-2,-6.393596E-2,-5.633178E-2,5.8996957E-3,-5.4145306E-2,-6.0112704E-2,4.9411505E-2,-6.297116E-2,4.2719882E-2,5.9209533E-2,-3.8187597E-2,-6.0985874E-2,6.052655E-2,-6.2066536E-2],"split_indices":[2,5,3,10,1,2,1,9,5,2,4,1,2,5,5,0,0,0,0,0,0,0,0,0,0,0,0,0,0,0,0],"split_type":[0,0,0,0,0,0,0,0,0,0,0,0,0,0,0,0,0,0,0,0,0,0,0,0,0,0,0,0,0,0,0],"sum_hessian":[5.18538E5,2.4940033E5,2.6913766E5,3.1904404E4,2.1749592E5,2.428777E5,2.6259965E4,1.4965133E4,1.6939271E4,4.11382E4,1.7635773E5,4.6720004E4,1.961577E5,2.1656984E4,4.6029805E3,3.161544E3,1.1803589E4,1.6556758E4,3.8251248E2,1.8912273E4,2.2225926E4,2.9647607E4,1.4671012E5,3.2584443E4,1.4135562E4,5.6725367E4,1.3943233E5,5.626652E2,2.1094318E4,4.586698E3,1.6281965E1],"tree_param":{"num_deleted":"0","num_feature":"11","num_nodes":"31","size_leaf_vector":"1"}},{"base_weights":[-1.16260904E-4,9.877428E-1,-1.1848165E0,1.2109857E0,-8.8944453E-1,-1.1903212E0,7.275464E-1,1.2265543E0,5.9893556E-2,-1.221498E0,1.1815599E0,-9.92821E-1,-1.2013127E0,-6.272254E-2,6.0096797E-2,-5.8915168E-2,6.1333325E-2,-3.953396E-2,-6.1692636E-2,-6.069646E-2,5.9837114E-2,-3.8806196E-2,-6.2792175E-2,-5.9466965E-2,-6.439572E-2],"categories":[],"categories_nodes":[],"categories_segments":[],"categories_sizes":[],"default_left":[0,0,0,0,0,0,0,0,0,0,0,0,0,0,0,0,0,0,0,0,0,0,0,0,0],"id":22,"left_children":[1,3,5,7,9,11,13,15,-1,17,19,21,23,-1,-1,-1,-1,-1,-1,-1,-1,-1,-1,-1,-1],"loss_changes":[5.8717706E5,1.1465472E5,2.4025E3,4.821875E1,1.999863E4,4.924375E2,6.1770056E2,3.1625E1,0E0,1.3221484E2,1.47604E2,6.827051E2,2.21625E2,0E0,0E0,0E0,0E0,0E0,0E0,0E0,0E0,0E0,0E0,0E0,0E0],"parents":[2147483647,0,0,1,1,2,2,3,3,4,4,5,5,6,6,7,7,9,9,10,10,11,11,12,12],"right_children":[2,4,6,8,10,12,14,16,-1,18,20,22,24,-1,-1,-1,-1,-1,-1,-1,-1,-1,-1,-1,-1],"split_conditions":[5.820766E-11,2.8174E2,1E0,3.25976E5,4.8306116E5,1.6E1,2.031486E5,0E0,5.9893556E-2,-2.3293123E5,1.0357578E6,3.9E1,5.5655E4,-6.272254E-2,6.0096797E-2,-5.8915168E-2,6.1333325E-2,-3.953396E-2,-6.1692636E-2,-6.069646E-2,5.9837114E-2,-3.8806196E-2,-6.2792175E-2,-5.9466965E-2,-6.439572E-2],"split_indices":[6,3,8,2,7,0,3,6,0,7,2,2,2,0,0,0,0,0,0,0,0,0,0,0,0],"split_type":[0,0,0,0,0,0,0,0,0,0,0,0,0,0,0,0,0,0,0,0,0,0,0,0,0],"sum_hessian":[5.0172288E5,2.7359038E5,2.281325E5,2.4451236E5,2.907802E4,2.2747814E5,6.543634E2,1.1175112E5,1.3276123E5,2.5060426E4,4.0175925E3,1.1997744E4,2.1548039E5,1.2601561E2,5.283478E2,4.6853356E0,1.1174643E5,7.006672E2,2.435976E4,2.4763985E1,3.9928286E3,6.5805425E3,5.4172017E3,1.893211E5,2.6159295E4],"tree_param":{"num_deleted":"0","num_feature":"11","num_nodes":"25","size_leaf_vector":"1"}},{"base_weights":[-1.0286893E-4,9.7734636E-1,-1.1713771E0,1.19837E0,-8.792187E-1,-1.1768183E0,7.1949476E-1,-5.7599273E-2,1.1984211E0,-1.2006536E0,1.1589592E0,-9.731874E-1,-1.188252E0,-6.1915755E-2,5.9463598E-2,6.028263E-2,5.951652E-2,-4.7474615E-2,-6.1001685E-2,-6.078878E-2,5.920216E-2,-1.2701637E-2,-5.5912048E-2,-5.5368643E-2,-5.9702545E-2],"categories":[],"categories_nodes":[],"categories_segments":[],"categories_sizes":[],"default_left":[0,0,0,0,0,0,0,0,0,0,0,0,0,0,0,0,0,0,0,0,0,0,0,0,0],"id":23,"left_children":[1,3,5,7,9,11,13,-1,15,17,19,21,23,-1,-1,-1,-1,-1,-1,-1,-1,-1,-1,-1,-1],"loss_changes":[5.522609E5,1.07900375E5,2.258625E3,2.959375E1,1.8328422E4,5.080625E2,5.8109436E2,0E0,1.209375E1,1.1624609E2,2.2846094E2,1.213667E3,9.559375E1,0E0,0E0,0E0,0E0,0E0,0E0,0E0,0E0,0E0,0E0,0E0,0E0],"parents":[2147483647,0,0,1,1,2,2,3,3,4,4,5,5,6,6,8,8,9,9,10,10,11,11,12,12],"right_children":[2,4,6,8,10,12,14,-1,16,18,20,22,24,-1,-1,-1,-1,-1,-1,-1,-1,-1,-1,-1,-1],"split_conditions":[5.820766E-11,2.8174E2,1E0,0E0,1E0,1.6E1,2.031486E5,-5.7599273E-2,1E0,1.8E1,1E0,5.17059E3,3.7E1,-6.1915755E-2,5.9463598E-2,6.028263E-2,5.951652E-2,-4.7474615E-2,-6.1001685E-2,-6.078878E-2,5.920216E-2,-1.2701637E-2,-5.5912048E-2,-5.5368643E-2,-5.9702545E-2],"split_indices":[6,3,8,6,8,0,3,0,10,0,10,4,0,0,0,0,0,0,0,0,0,0,0,0,0],"split_type":[0,0,0,0,0,0,0,0,0,0,0,0,0,0,0,0,0,0,0,0,0,0,0,0,0],"sum_hessian":[4.8238047E5,2.6294678E5,2.194337E5,2.3497362E5,2.797315E4,2.1880448E5,6.292107E2,4.578321E0,2.3496905E5,2.4162945E4,3.8102048E3,1.1637566E4,2.0716692E5,1.21404625E2,5.078061E2,1.239883E5,1.1098074E5,1.7348536E3,2.2428092E4,3.9288044E1,3.770917E3,1.9538918E3,9.683675E3,1.3873899E4,1.9329302E5],"tree_param":{"num_deleted":"0","num_feature":"11","num_nodes":"25","size_leaf_vector":"1"}},{"base_weights":[-9.115023E-5,9.6762115E-1,-1.1588136E0,7.214016E-1,1.1373228E0,-1.1641955E0,7.119569E-1,8.522006E-1,-1.1133053E0,-2.4167484E-1,1.140863E0,-1.1243248E0,-1.2059326E0,-6.1148293E-2,5.881653E-2,3.1970438E-2,5.90867E-2,2.5273988E-2,-5.717888E-2,-5.9104044E-2,5.9070148E-2,5.2315205E-2,5.8447547E-2,1.0008152E-1,-5.7552993E-2,-5.944241E-2,-6.282629E-2],"categories":[],"categories_nodes":[],"categories_segments":[],"categories_sizes":[],"default_left":[0,0,0,0,0,0,0,0,0,0,0,0,0,0,0,0,0,0,0,0,0,0,0,0,0,0,0],"id":24,"left_children":[1,3,5,7,9,11,13,15,17,19,21,23,25,-1,-1,-1,-1,-1,-1,-1,-1,-1,-1,-1,-1,-1,-1],"loss_changes":[5.1974453E5,1.0552594E4,2.1246875E3,2.4732418E4,7.302969E2,3.4846875E2,5.456444E2,6.7447812E3,3.367412E2,5.1477515E2,3.9465625E2,8.993703E3,8.70625E1,0E0,0E0,0E0,0E0,0E0,0E0,0E0,0E0,0E0,0E0,0E0,0E0,0E0,0E0],"parents":[2147483647,0,0,1,1,2,2,3,3,4,4,5,5,6,6,7,7,8,8,9,9,10,10,11,11,12,12],"right_children":[2,4,6,8,10,12,14,16,18,20,22,24,26,-1,-1,-1,-1,-1,-1,-1,-1,-1,-1,-1,-1,-1,-1],"split_conditions":[5.820766E-11,2.1008833E5,1E0,2.09461E5,0E0,3.9E1,3.42877E5,1E0,7E0,9.426721E5,4.0316244E5,5.17059E3,5.5655E4,-6.1148293E-2,5.881653E-2,3.1970438E-2,5.90867E-2,2.5273988E-2,-5.717888E-2,-5.9104044E-2,5.9070148E-2,5.2315205E-2,5.8447547E-2,1.0008152E-1,-5.7552993E-2,-5.944241E-2,-6.282629E-2],"split_indices":[6,1,8,2,6,2,2,8,9,1,1,4,2,0,0,0,0,0,0,0,0,0,0,0,0,0,0],"split_type":[0,0,0,0,0,0,0,0,0,0,0,0,0,0,0,0,0,0,0,0,0,0,0,0,0,0,0],"sum_hessian":[4.635135E5,2.5257467E5,2.1093881E5,1.0305637E5,1.4951831E5,2.1033414E5,6.046695E2,9.61988E4,6.857569E3,3.8261334E2,1.491357E5,1.0758782E5,1.0274632E5,1.1667336E2,4.8799612E2,5.8455285E4,3.774351E4,1.2553769E2,6.7320312E3,2.3051968E2,1.5209366E2,3.4163953E4,1.1497174E5,9.1169653E2,1.06676125E5,7.6828836E4,2.591749E4],"tree_param":{"num_deleted":"0","num_feature":"11","num_nodes":"27","size_leaf_vector":"1"}},{"base_weights":[-1.6814307E-4,9.506112E-1,-1.14699E0,6.966797E-1,1.1211357E0,-1.1511817E0,9.837511E-1,8.3895344E-1,-1.1377753E0,-3.0491236E-1,1.1250081E0,-1.1125107E0,-1.1916054E0,-6.03013E-2,5.8080375E-2,3.1718686E-2,5.7323255E-2,5.2500395E-3,-5.9198655E-2,-5.8689065E-2,6.0077216E-2,5.1054962E-2,5.7922572E-2,2.7020529E-2,-5.5768818E-2,-5.969688E-2,-3.931513E-2],"categories":[],"categories_nodes":[],"categories_segments":[],"categories_sizes":[],"default_left":[0,0,0,0,0,0,0,0,0,0,0,0,0,0,0,0,0,0,0,0,0,0,0,0,0,0,0],"id":25,"left_children":[1,3,5,7,9,11,13,15,17,19,21,23,25,-1,-1,-1,-1,-1,-1,-1,-1,-1,-1,-1,-1,-1,-1],"loss_changes":[4.8754662E5,1.0584672E4,1.811375E3,2.5634676E4,8.080781E2,3.14625E2,1.5657175E2,5.7332227E3,4.0611035E2,5.207606E2,5.0542188E2,4.904297E2,9.23125E1,0E0,0E0,0E0,0E0,0E0,0E0,0E0,0E0,0E0,0E0,0E0,0E0,0E0,0E0],"parents":[2147483647,0,0,1,1,2,2,3,3,4,4,5,5,6,6,7,7,8,8,9,9,10,10,11,11,12,12],"right_children":[2,4,6,8,10,12,14,16,18,20,22,24,26,-1,-1,-1,-1,-1,-1,-1,-1,-1,-1,-1,-1,-1,-1],"split_conditions":[5.820766E-11,1.993054E5,1.2483449E6,1.99229E5,0E0,3.9E1,7.21629E5,1.0000002E-2,-2.3293123E5,4.8306116E5,4.0316244E5,-5.0818425E6,3.4944462E5,-6.03013E-2,5.8080375E-2,3.1718686E-2,5.7323255E-2,5.2500395E-3,-5.9198655E-2,-5.8689065E-2,6.0077216E-2,5.1054962E-2,5.7922572E-2,2.7020529E-2,-5.5768818E-2,-5.969688E-2,-3.931513E-2],"split_indices":[6,1,7,2,6,2,2,7,7,7,1,7,7,0,0,0,0,0,0,0,0,0,0,0,0,0,0],"split_type":[0,0,0,0,0,0,0,0,0,0,0,0,0,0,0,0,0,0,0,0,0,0,0,0,0,0,0],"sum_hessian":[4.4713484E5,2.4446216E5,2.0267269E5,9.821458E4,1.4624758E5,2.0227527E5,3.9743097E2,9.11462E4,7.0683745E3,3.9578186E2,1.458518E5,1.0339447E5,9.88808E4,2.937848E1,3.680525E2,5.473547E4,3.641074E4,2.5321269E2,6.8151616E3,2.5119121E2,1.4459067E2,3.5521207E4,1.1033059E5,1.7856161E2,1.0321591E5,9.8312914E4,5.678834E2],"tree_param":{"num_deleted":"0","num_feature":"11","num_nodes":"27","size_leaf_vector":"1"}},{"base_weights":[-2.3544142E-4,-7.776865E-1,7.174041E-1,6.2477624E-4,-1.1227059E0,8.8890547E-1,-7.884441E-1,-9.1350156E-1,4.526903E-1,-1.0005969E0,-1.1462771E0,4.676454E-1,1.0913395E0,-1.1803501E0,1.1138462E0,3.4607563E-2,-5.5688042E-2,3.47009E-2,-6.3098975E-2,1.2166095E-1,-5.7679173E-2,-5.7371642E-2,-3.3036456E-2,4.0374596E-2,-5.942884E-2,4.7278237E-2,5.7079908E-2,-3.4266874E-2,-5.983295E-2,5.766956E-2,-5.9699822E-2],"categories":[],"categories_nodes":[],"categories_segments":[],"categories_sizes":[],"default_left":[0,0,0,0,0,0,0,0,0,0,0,0,0,0,0,0,0,0,0,0,0,0,0,0,0,0,0,0,0,0,0],"id":26,"left_children":[1,3,5,7,9,11,13,15,17,19,21,23,25,27,29,-1,-1,-1,-1,-1,-1,-1,-1,-1,-1,-1,-1,-1,-1,-1,-1],"loss_changes":[2.4060781E5,5.558622E4,5.7914836E4,2.6273938E4,4.1145312E2,1.7167688E4,1.7095465E4,6.765549E3,1.7604408E4,1.2197771E4,6.6515625E1,3.6781652E4,9.949375E2,1.5248633E2,3.5888574E2,0E0,0E0,0E0,0E0,0E0,0E0,0E0,0E0,0E0,0E0,0E0,0E0,0E0,0E0,0E0,0E0],"parents":[2147483647,0,0,1,1,2,2,3,3,4,4,5,5,6,6,7,7,8,8,9,9,10,10,11,11,12,12,13,13,14,14],"right_children":[2,4,6,8,10,12,14,16,18,20,22,24,26,28,30,-1,-1,-1,-1,-1,-1,-1,-1,-1,-1,-1,-1,-1,-1,-1,-1],"split_conditions":[5.5655E4,5.517079E4,2.8174E2,1.211E3,4.479117E4,2.09461E5,3.4944462E5,1.38404E3,2.8174E2,3.9E1,5.4719E4,2.1008833E5,4.1982266E5,-2.3293123E5,1.9702034E5,3.4607563E-2,-5.5688042E-2,3.47009E-2,-6.3098975E-2,1.2166095E-1,-5.7679173E-2,-5.7371642E-2,-3.3036456E-2,4.0374596E-2,-5.942884E-2,4.7278237E-2,5.7079908E-2,-3.4266874E-2,-5.983295E-2,5.766956E-2,-5.9699822E-2],"split_indices":[2,1,3,2,4,2,7,1,3,2,2,1,2,7,4,0,0,0,0,0,0,0,0,0,0,0,0,0,0,0,0],"split_type":[0,0,0,0,0,0,0,0,0,0,0,0,0,0,0,0,0,0,0,0,0,0,0,0,0,0,0,0,0,0,0],"sum_hessian":[4.3124922E5,2.0699852E5,2.242507E5,6.3577684E4,1.4342084E5,2.0132252E5,2.2928188E4,2.1037102E4,4.2540582E4,2.3213264E4,1.2020757E5,6.5344992E4,1.3597752E5,1.901184E4,3.9163489E3,2.3324956E3,1.8704605E4,3.7292566E4,5.248012E3,9.8944305E2,2.222382E4,1.19920555E5,2.8701517E2,5.4219965E4,1.1125027E4,3.486723E4,1.0111029E5,6.0796045E2,1.8403879E4,3.8509067E3,6.544212E1],"tree_param":{"num_deleted":"0","num_feature":"11","num_nodes":"31","size_leaf_vector":"1"}},{"base_weights":[-3.7077983E-4,9.2907155E-1,-1.1286223E0,6.396694E-1,1.0778779E0,-1.1339014E0,6.9170624E-1,3.7459427E-1,1.1530684E0,-5.6891173E-1,1.0836889E0,-1.0664471E0,-1.1487813E0,-5.988273E-2,1.1240395E0,5.847283E-2,5.840327E-3,4.792701E-3,5.780372E-2,-5.8045078E-2,5.694359E-2,4.710444E-2,5.662179E-2,3.6991283E-3,-5.4154575E-2,-5.98772E-2,-5.7229936E-2,-5.444778E-2,5.7239916E-2],"categories":[],"categories_nodes":[],"categories_segments":[],"categories_sizes":[],"default_left":[0,0,0,0,0,0,0,0,0,0,0,0,0,0,0,0,0,0,0,0,0,0,0,0,0,0,0,0,0],"id":27,"left_children":[1,3,5,7,9,11,13,15,17,19,21,23,25,-1,27,-1,-1,-1,-1,-1,-1,-1,-1,-1,-1,-1,-1,-1,-1],"loss_changes":[4.367298E5,9.833172E3,1.8085312E3,1.055274E4,1.4438281E3,1.868125E2,4.4612915E2,1.04793125E4,8.367578E1,5.380298E2,1.0360312E3,6.439453E2,2.9734375E1,0E0,2.1634827E1,0E0,0E0,0E0,0E0,0E0,0E0,0E0,0E0,0E0,0E0,0E0,0E0,0E0,0E0],"parents":[2147483647,0,0,1,1,2,2,3,3,4,4,5,5,6,6,7,7,8,8,9,9,10,10,11,11,12,12,14,14],"right_children":[2,4,6,8,10,12,14,16,18,20,22,24,26,-1,28,-1,-1,-1,-1,-1,-1,-1,-1,-1,-1,-1,-1,-1,-1],"split_conditions":[5.820766E-11,1.431627E5,1E0,1E0,0E0,4.479117E4,3.534639E5,9E0,1E0,9.426721E5,3.2655594E5,9E0,2.213097E4,-5.988273E-2,1E0,5.847283E-2,5.840327E-3,4.792701E-3,5.780372E-2,-5.8045078E-2,5.694359E-2,4.710444E-2,5.662179E-2,3.6991283E-3,-5.4154575E-2,-5.98772E-2,-5.7229936E-2,-5.444778E-2,5.7239916E-2],"split_indices":[6,1,8,8,6,4,1,9,10,1,1,9,6,0,10,0,0,0,0,0,0,0,0,0,0,0,0,0,0],"split_type":[0,0,0,0,0,0,0,0,0,0,0,0,0,0,0,0,0,0,0,0,0,0,0,0,0,0,0,0,0],"sum_hessian":[4.164687E5,2.2835347E5,1.8811522E5,7.754604E4,1.5080744E5,1.8757169E5,5.4352985E2,5.114241E4,2.6403625E4,5.29871E2,1.5027756E5,3.391364E4,1.5365805E5,1.0084049E2,4.426894E2,1.2523512E4,3.86189E4,7.504861E1,2.6328578E4,3.93757E2,1.3611398E2,3.849114E4,1.1178642E5,4.8770755E2,3.342593E4,1.2114523E4,1.4154353E5,3.5910196E0,4.3909836E2],"tree_param":{"num_deleted":"0","num_feature":"11","num_nodes":"29","size_leaf_vector":"1"}},{"base_weights":[-4.032515E-4,9.1229165E-1,-1.118325E0,1.1530001E0,-9.08824E-1,-1.1223811E0,1.0437768E0,1.1679481E0,5.698743E-2,-1.1897143E0,1.1207403E0,-1.0791287E0,-1.1669633E0,-5.2973337E-2,5.6750357E-2,-5.78681E-2,5.840392E-2,-3.6992945E-2,-6.0159154E-2,5.695019E-2,-5.888277E-2,8.971187E-2,-5.5482596E-2,-5.8476824E-2,-1.8167226E-2],"categories":[],"categories_nodes":[],"categories_segments":[],"categories_sizes":[],"default_left":[0,0,0,0,0,0,0,0,0,0,0,0,0,0,0,0,0,0,0,0,0,0,0,0,0],"id":28,"left_children":[1,3,5,7,9,11,13,15,-1,17,19,21,23,-1,-1,-1,-1,-1,-1,-1,-1,-1,-1,-1,-1],"loss_changes":[4.0985775E5,9.694228E4,1.5845469E3,3.7125E1,1.4719971E4,3.4603125E2,6.617093E1,2.9148438E1,0E0,1.3633594E2,1.3311426E2,8.0254844E3,1.8290625E2,0E0,0E0,0E0,0E0,0E0,0E0,0E0,0E0,0E0,0E0,0E0,0E0],"parents":[2147483647,0,0,1,1,2,2,3,3,4,4,5,5,6,6,7,7,9,9,10,10,11,11,12,12],"right_children":[2,4,6,8,10,12,14,16,-1,18,20,22,24,-1,-1,-1,-1,-1,-1,-1,-1,-1,-1,-1,-1],"split_conditions":[5.820766E-11,2.8174E2,1.585932E6,3.25976E5,4.8306116E5,3.9E1,1.2483449E6,0E0,5.698743E-2,-2.3293123E5,1.9702034E5,5.17059E3,3.5288006E5,-5.2973337E-2,5.6750357E-2,-5.78681E-2,5.840392E-2,-3.6992945E-2,-6.0159154E-2,5.695019E-2,-5.888277E-2,8.971187E-2,-5.5482596E-2,-5.8476824E-2,-1.8167226E-2],"split_indices":[6,3,3,2,7,2,7,6,0,7,4,4,3,0,0,0,0,0,0,0,0,0,0,0,0],"split_type":[0,0,0,0,0,0,0,0,0,0,0,0,0,0,0,0,0,0,0,0,0,0,0,0,0],"sum_hessian":[4.0169272E5,2.211452E5,1.8054752E5,1.9532789E5,2.5817312E4,1.8020997E5,3.3754996E2,9.174379E4,1.0358411E5,2.2679016E4,3.1382969E3,9.148305E4,8.872692E4,1.3546113E1,3.2400385E2,4.597368E0,9.173919E4,6.6111755E2,2.2017898E4,3.1140996E3,2.4197147E1,9.6095044E2,9.052209E4,8.844315E4,2.837731E2],"tree_param":{"num_deleted":"0","num_feature":"11","num_nodes":"25","size_leaf_vector":"1"}},{"base_weights":[-3.991089E-4,9.05059E-1,-1.1086364E0,1.1441447E0,-8.9979255E-1,-1.1138926E0,6.85668E-1,1.1578155E0,5.6600075E-2,-1.1774329E0,1.1129135E0,-1.0692829E0,-1.1600131E0,-5.8644798E-2,5.6880604E-2,-5.6613594E-2,5.789731E-2,-3.5964515E-2,-5.9569944E-2,-5.9067752E-2,5.6516696E-2,-4.23364E-2,-5.4856487E-2,-5.7197392E-2,-6.0273655E-2],"categories":[],"categories_nodes":[],"categories_segments":[],"categories_sizes":[],"default_left":[0,0,0,0,0,0,0,0,0,0,0,0,0,0,0,0,0,0,0,0,0,0,0,0,0],"id":29,"left_children":[1,3,5,7,9,11,13,15,-1,17,19,21,23,-1,-1,-1,-1,-1,-1,-1,-1,-1,-1,-1,-1],"loss_changes":[3.8654744E5,9.1483E4,1.6344062E3,2.9546875E1,1.3859248E4,3.5384375E2,4.2675983E2,2.76875E1,0E0,1.3839453E2,1.2149805E2,5.430469E2,6.0398438E1,0E0,0E0,0E0,0E0,0E0,0E0,0E0,0E0,0E0,0E0,0E0,0E0],"parents":[2147483647,0,0,1,1,2,2,3,3,4,4,5,5,6,6,7,7,9,9,10,10,11,11,12,12],"right_children":[2,4,6,8,10,12,14,16,-1,18,20,22,24,-1,-1,-1,-1,-1,-1,-1,-1,-1,-1,-1,-1],"split_conditions":[5.820766E-11,2.8174E2,1E0,3.25976E5,4.8306116E5,3.9E1,2.031486E5,0E0,5.6600075E-2,-2.3293123E5,1.0357578E6,2.9166012E5,5.5655E4,-5.8644798E-2,5.6880604E-2,-5.6613594E-2,5.789731E-2,-3.5964515E-2,-5.9569944E-2,-5.9067752E-2,5.6516696E-2,-4.23364E-2,-5.4856487E-2,-5.7197392E-2,-6.0273655E-2],"split_indices":[6,3,8,2,7,2,3,6,0,7,2,5,2,0,0,0,0,0,0,0,0,0,0,0,0],"split_type":[0,0,0,0,0,0,0,0,0,0,0,0,0,0,0,0,0,0,0,0,0,0,0,0,0],"sum_hessian":[3.8521166E5,2.1200128E5,1.7321036E5,1.8720322E5,2.4798068E4,1.7270488E5,5.0548306E2,8.801372E4,9.918949E4,2.1792404E4,3.0056628E3,8.780383E4,8.4901055E4,9.85191E1,4.0696396E2,4.489187E0,8.800923E4,6.464282E2,2.1145977E4,2.210331E1,2.9835596E3,9.768453E3,7.8035375E4,6.2752914E4,2.2148137E4],"tree_param":{"num_deleted":"0","num_feature":"11","num_nodes":"25","size_leaf_vector":"1"}},{"base_weights":[-3.7911523E-4,-3.4268752E-1,1.1250261E0,-5.815471E-1,6.74536E-1,-6.314952E-1,1.1283076E0,-7.106747E-1,2.7981105E-1,7.594566E-1,-5.7324212E-2,-5.923855E-2,-1.8163706E-1,5.6650948E-2,5.622874E-2,-2.191303E-2,-4.122225E-2,5.5287916E-2,-5.2510988E-2,2.6851026E-2,5.426277E-2,5.3072613E-2,-5.771268E-2],"categories":[],"categories_nodes":[],"categories_segments":[],"categories_sizes":[],"default_left":[0,0,0,0,0,0,0,0,0,0,0,0,0,0,0,0,0,0,0,0,0,0,0],"id":30,"left_children":[1,3,5,7,9,11,13,15,17,19,-1,-1,21,-1,-1,-1,-1,-1,-1,-1,-1,-1,-1],"loss_changes":[1.4226606E5,6.880249E4,4.9721094E2,2.5506398E4,8.328014E3,3.976754E1,1.5625E-2,6.1801953E3,3.2843645E4,3.7277676E3,0E0,0E0,1.10271935E2,0E0,0E0,0E0,0E0,0E0,0E0,0E0,0E0,0E0,0E0],"parents":[2147483647,0,0,1,1,2,2,3,3,4,4,5,5,6,6,7,7,8,8,9,9,12,12],"right_children":[2,4,6,8,10,12,14,16,18,20,-1,-1,22,-1,-1,-1,-1,-1,-1,-1,-1,-1,-1],"split_conditions":[1E0,4.06E2,1E0,7.551231E5,1E0,4.1E1,3.2655594E5,1.1664705E5,1E0,4.1547125E5,-5.7324212E-2,-5.923855E-2,4.2E1,5.6650948E-2,5.622874E-2,-2.191303E-2,-4.122225E-2,5.5287916E-2,-5.2510988E-2,2.6851026E-2,5.426277E-2,5.3072613E-2,-5.771268E-2],"split_indices":[8,0,10,1,10,0,1,4,10,1,0,0,0,0,0,0,0,0,0,0,0,0,0],"split_type":[0,0,0,0,0,0,0,0,0,0,0,0,0,0,0,0,0,0,0,0,0,0,0],"sum_hessian":[3.6929438E5,2.831661E5,8.6128305E4,2.2931902E5,5.3847066E4,1.6018965E2,8.596812E4,1.994234E5,2.9895605E4,5.144848E4,2.398586E3,7.100519E1,8.918447E1,3.785718E4,4.8110938E4,5.875199E4,1.4067142E5,1.844286E4,1.1452746E4,3.0575977E4,2.0872506E4,3.9063602E1,5.0120865E1],"tree_param":{"num_deleted":"0","num_feature":"11","num_nodes":"23","size_leaf_vector":"1"}},{"base_weights":[-1.8339972E-4,8.9416206E-1,-1.0936903E0,1.1321518E0,-8.923322E-1,-1.0987871E0,6.7211E-1,-5.473916E-2,1.1322137E0,-1.1540532E0,1.0869358E0,-8.259612E-1,-1.1146426E0,-5.7728287E-2,5.604371E-2,5.7064842E-2,5.6071457E-2,-4.3965958E-2,-5.8779057E-2,-5.7943176E-2,5.5767763E-2,6.281506E-2,-4.2773444E-2,-5.0234653E-2,-5.6127816E-2],"categories":[],"categories_nodes":[],"categories_segments":[],"categories_sizes":[],"default_left":[0,0,0,0,0,0,0,0,0,0,0,0,0,0,0,0,0,0,0,0,0,0,0,0,0],"id":31,"left_children":[1,3,5,7,9,11,13,-1,15,17,19,21,23,-1,-1,-1,-1,-1,-1,-1,-1,-1,-1,-1,-1],"loss_changes":[3.516463E5,8.4097234E4,1.4567344E3,2.5296875E1,1.20464375E4,6.966719E2,3.8342465E2,0E0,1.5625E1,1.2022656E2,1.7464185E2,5.456489E2,1.3129688E2,0E0,0E0,0E0,0E0,0E0,0E0,0E0,0E0,0E0,0E0,0E0,0E0],"parents":[2147483647,0,0,1,1,2,2,3,3,4,4,5,5,6,6,8,8,9,9,10,10,11,11,12,12],"right_children":[2,4,6,8,10,12,14,-1,16,18,20,22,24,-1,-1,-1,-1,-1,-1,-1,-1,-1,-1,-1,-1],"split_conditions":[5.820766E-11,2.8174E2,1E0,0E0,1E0,1.6E1,2.031486E5,-5.473916E-2,1E0,1.8E1,1E0,2E0,3.7E1,-5.7728287E-2,5.604371E-2,5.7064842E-2,5.6071457E-2,-4.3965958E-2,-5.8779057E-2,-5.7943176E-2,5.5767763E-2,6.281506E-2,-4.2773444E-2,-5.0234653E-2,-5.6127816E-2],"split_indices":[6,3,8,6,8,0,3,0,10,0,10,9,0,0,0,0,0,0,0,0,0,0,0,0,0],"split_type":[0,0,0,0,0,0,0,0,0,0,0,0,0,0,0,0,0,0,0,0,0,0,0,0,0],"sum_hessian":[3.595645E5,1.9779455E5,1.6176995E5,1.7454303E5,2.325152E4,1.613048E5,4.6516095E2,4.31376E0,1.7453872E5,2.053643E4,2.7150896E3,8.862763E3,1.5244203E5,9.138531E1,3.7377567E2,9.4681516E4,7.9857195E4,1.4956628E3,1.9040768E4,3.338785E1,2.6817017E3,1.2321087E2,8.739552E3,1.0244844E4,1.4219719E5],"tree_param":{"num_deleted":"0","num_feature":"11","num_nodes":"25","size_leaf_vector":"1"}},{"base_weights":[-1.6634082E-4,8.879382E-1,-1.0850013E0,6.6334605E-1,1.077045E0,-1.0900558E0,6.671394E-1,7.692845E-1,-1.0727351E0,-2.4420518E-2,1.0796545E0,-8.0952215E-1,-1.1065654E0,-5.7212185E-2,1.1116127E0,2.8528685E-2,5.5839546E-2,1.814722E-2,-5.690316E-2,-5.576939E-2,5.7932254E-2,4.935616E-2,5.5248708E-2,-2.6370037E-2,-5.7897042E-2,-5.3787064E-2,-5.6893963E-2,-6.0859937E-2,5.613646E-2],"categories":[],"categories_nodes":[],"categories_segments":[],"categories_sizes":[],"default_left":[0,0,0,0,0,0,0,0,0,0,0,0,0,0,0,0,0,0,0,0,0,0,0,0,0,0,0,0,0],"id":32,"left_children":[1,3,5,7,9,11,13,15,17,19,21,23,25,-1,27,-1,-1,-1,-1,-1,-1,-1,-1,-1,-1,-1,-1,-1,-1],"loss_changes":[3.3192762E5,8.0448594E3,1.3741719E3,1.5927492E4,2.9572656E2,7.151406E2,3.6086905E2,5.635125E3,4.6763428E2,3.1614975E2,2.3907031E2,8.4444824E2,1.3951562E2,0E0,1.0656036E1,0E0,0E0,0E0,0E0,0E0,0E0,0E0,0E0,0E0,0E0,0E0,0E0,0E0,0E0],"parents":[2147483647,0,0,1,1,2,2,3,3,4,4,5,5,6,6,7,7,8,8,9,9,10,10,11,11,12,12,14,14],"right_children":[2,4,6,8,10,12,14,16,18,20,22,24,26,-1,28,-1,-1,-1,-1,-1,-1,-1,-1,-1,-1,-1,-1,-1,-1],"split_conditions":[5.820766E-11,2.4208216E5,1E0,2.4365638E5,0E0,1.6E1,3.42877E5,1E0,-2.3293123E5,4.8306116E5,4.2203478E5,3.9E1,3.9E1,-5.7212185E-2,1.3E1,2.8528685E-2,5.5839546E-2,1.814722E-2,-5.690316E-2,-5.576939E-2,5.7932254E-2,4.935616E-2,5.5248708E-2,-2.6370037E-2,-5.7897042E-2,-5.3787064E-2,-5.6893963E-2,-6.0859937E-2,5.613646E-2],"split_indices":[6,1,8,2,6,0,2,8,7,7,1,2,2,0,0,0,0,0,0,0,0,0,0,0,0,0,0,0,0],"split_type":[0,0,0,0,0,0,0,0,0,0,0,0,0,0,0,0,0,0,0,0,0,0,0,0,0,0,0,0,0],"sum_hessian":[3.4451884E5,1.8943622E5,1.5508262E5,8.659589E4,1.0284033E5,1.5463698E5,4.456467E2,8.161616E4,4.9797305E3,2.4294919E2,1.02597375E5,8.597764E3,1.4603922E5,8.745161E1,3.581951E2,5.1926523E4,2.9689635E4,2.1646716E2,4.7632637E3,1.2646805E2,1.1648113E2,2.2051988E4,8.054539E4,4.7524297E3,3.8453342E3,7.361482E4,7.24244E4,1.1435359E0,3.5705157E2],"tree_param":{"num_deleted":"0","num_feature":"11","num_nodes":"29","size_leaf_vector":"1"}},{"base_weights":[-2.3815144E-4,8.730871E-1,-1.076612E0,1.1188606E0,-8.990792E-1,-1.0816238E0,6.624511E-1,1.1321579E0,5.5330426E-2,-1.1528563E0,1.0860549E0,-7.928821E-1,-1.0988482E0,-5.6783166E-2,5.529029E-2,-5.403602E-2,5.6614745E-2,-3.319871E-2,-5.8414854E-2,-5.758945E-2,5.5224527E-2,-2.5551E-2,-5.7460856E-2,-4.9001742E-2,-5.537212E-2],"categories":[],"categories_nodes":[],"categories_segments":[],"categories_sizes":[],"default_left":[0,0,0,0,0,0,0,0,0,0,0,0,0,0,0,0,0,0,0,0,0,0,0,0,0],"id":33,"left_children":[1,3,5,7,9,11,13,15,-1,17,19,21,23,-1,-1,-1,-1,-1,-1,-1,-1,-1,-1,-1,-1],"loss_changes":[3.1194134E5,7.9794766E4,1.2963125E3,2.4734375E1,1.1242344E4,7.360781E2,3.4222128E2,2.4585938E1,0E0,1.4838867E2,1.0563086E2,8.376748E2,1.4151562E2,0E0,0E0,0E0,0E0,0E0,0E0,0E0,0E0,0E0,0E0,0E0,0E0],"parents":[2147483647,0,0,1,1,2,2,3,3,4,4,5,5,6,6,7,7,9,9,10,10,11,11,12,12],"right_children":[2,4,6,8,10,12,14,16,-1,18,20,22,24,-1,-1,-1,-1,-1,-1,-1,-1,-1,-1,-1,-1],"split_conditions":[5.820766E-11,2.8174E2,1E0,3.25976E5,4.8306116E5,1.6E1,2.031486E5,0E0,5.5330426E-2,-2.3293123E5,1.0357578E6,3.9E1,3.7E1,-5.6783166E-2,5.529029E-2,-5.403602E-2,5.6614745E-2,-3.319871E-2,-5.8414854E-2,-5.758945E-2,5.5224527E-2,-2.5551E-2,-5.7460856E-2,-4.9001742E-2,-5.537212E-2],"split_indices":[6,3,8,2,7,0,3,6,0,7,2,2,0,0,0,0,0,0,0,0,0,0,0,0,0],"split_type":[0,0,0,0,0,0,0,0,0,0,0,0,0,0,0,0,0,0,0,0,0,0,0,0,0],"sum_hessian":[3.3184188E5,1.8320058E5,1.486413E5,1.6088817E5,2.2312406E4,1.4821458E5,4.2670627E2,7.710521E4,8.378296E4,1.9783746E4,2.5286604E3,8.346768E3,1.3986781E5,8.404752E1,3.4265875E2,4.2373867E0,7.710098E4,6.07257E2,1.917649E4,2.0114548E1,2.508546E3,4.6619023E3,3.6848647E3,9.443069E3,1.3042475E5],"tree_param":{"num_deleted":"0","num_feature":"11","num_nodes":"25","size_leaf_vector":"1"}},{"base_weights":[-2.2185866E-4,8.675361E-1,-1.0685674E0,1.1120431E0,-8.915281E-1,-1.0723497E0,1.0041108E0,-5.2983202E-2,1.112109E0,-1.1427673E0,1.0800953E0,-7.774983E-1,-1.0902123E0,-5.0148584E-2,5.4713048E-2,5.5998392E-2,5.513225E-2,-3.224292E-2,-5.7941057E-2,-5.5648047E-2,5.486364E-2,7.0958994E-2,-4.0458597E-2,-5.4576047E-2,-1.0226682E-2],"categories":[],"categories_nodes":[],"categories_segments":[],"categories_sizes":[],"default_left":[0,0,0,0,0,0,0,0,0,0,0,0,0,0,0,0,0,0,0,0,0,0,0,0,0],"id":34,"left_children":[1,3,5,7,9,11,13,-1,15,17,19,21,23,-1,-1,-1,-1,-1,-1,-1,-1,-1,-1,-1,-1],"loss_changes":[2.9461072E5,7.5422375E4,1.1176562E3,2.31875E1,1.0601814E4,7.477656E2,4.813376E1,0E0,9.96875E0,1.5080273E2,9.2355225E1,5.66395E2,1.55E2,0E0,0E0,0E0,0E0,0E0,0E0,0E0,0E0,0E0,0E0,0E0,0E0],"parents":[2147483647,0,0,1,1,2,2,3,3,4,4,5,5,6,6,8,8,9,9,10,10,11,11,12,12],"right_children":[2,4,6,8,10,12,14,-1,16,18,20,22,24,-1,-1,-1,-1,-1,-1,-1,-1,-1,-1,-1,-1],"split_conditions":[5.820766E-11,2.8174E2,1.585932E6,0E0,4.8306116E5,1.6E1,1.2483449E6,-5.2983202E-2,1E0,-2.3293123E5,1E0,-5.0818425E6,3.5288006E5,-5.0148584E-2,5.4713048E-2,5.5998392E-2,5.513225E-2,-3.224292E-2,-5.7941057E-2,-5.5648047E-2,5.486364E-2,7.0958994E-2,-4.0458597E-2,-5.4576047E-2,-1.0226682E-2],"split_indices":[6,3,3,6,7,0,7,0,10,7,10,7,3,0,0,0,0,0,0,0,0,0,0,0,0],"split_type":[0,0,0,0,0,0,0,0,0,0,0,0,0,0,0,0,0,0,0,0,0,0,0,0,0],"sum_hessian":[3.177865E5,1.7535523E5,1.4243125E5,1.5395603E5,2.1399213E4,1.4217234E5,2.5890665E2,4.128156E0,1.5395189E5,1.8980984E4,2.4182295E3,8.123957E3,1.3404839E5,1.064623E1,2.482604E2,8.403831E4,6.9913586E4,5.943573E2,1.8386627E4,1.8253021E1,2.3999763E3,1.148057E2,8.0091514E3,1.338503E5,1.9809248E2],"tree_param":{"num_deleted":"0","num_feature":"11","num_nodes":"25","size_leaf_vector":"1"}},{"base_weights":[-2.0280498E-4,-7.079953E-1,6.5247047E-1,1.0159075E-2,-1.0473422E0,8.2836485E-1,-7.8283703E-1,-9.213934E-1,3.6154705E-1,-5.8259493E-1,-1.0677269E0,4.495533E-1,1.028379E0,-1.1167597E0,1.04737E0,1.5044416E-2,-5.0965745E-2,2.8986419E-2,-5.925212E-2,3.114895E-2,-5.0484736E-2,-4.6849143E-2,-5.3984817E-2,3.7065197E-2,-5.591094E-2,4.4169936E-2,5.393086E-2,-2.7387846E-2,-5.6889094E-2,5.449707E-2,-5.652801E-2],"categories":[],"categories_nodes":[],"categories_segments":[],"categories_sizes":[],"default_left":[0,0,0,0,0,0,0,0,0,0,0,0,0,0,0,0,0,0,0,0,0,0,0,0,0,0,0,0,0,0,0],"id":35,"left_children":[1,3,5,7,9,11,13,15,17,19,21,23,25,27,29,-1,-1,-1,-1,-1,-1,-1,-1,-1,-1,-1,-1,-1,-1,-1,-1],"loss_changes":[1.405507E5,3.5571562E4,3.9962562E4,1.5332504E4,9.382656E2,1.0683305E4,1.056227E4,1.5358711E3,1.1477262E4,2.1464893E3,1.4739844E2,2.2288793E4,6.709844E2,1.7402539E2,2.4849341E2,0E0,0E0,0E0,0E0,0E0,0E0,0E0,0E0,0E0,0E0,0E0,0E0,0E0,0E0,0E0,0E0],"parents":[2147483647,0,0,1,1,2,2,3,3,4,4,5,5,6,6,7,7,8,8,9,9,10,10,11,11,12,12,13,13,14,14],"right_children":[2,4,6,8,10,12,14,16,18,20,22,24,26,28,30,-1,-1,-1,-1,-1,-1,-1,-1,-1,-1,-1,-1,-1,-1,-1,-1],"split_conditions":[5.5655E4,5.517079E4,2.8174E2,1.63E2,1.4E1,2.16222E5,3.4944462E5,1.38404E3,2.8174E2,4.479117E4,3.7E1,2.1765431E5,4.1982266E5,-2.3293123E5,1.9702034E5,1.5044416E-2,-5.0965745E-2,2.8986419E-2,-5.925212E-2,3.114895E-2,-5.0484736E-2,-4.6849143E-2,-5.3984817E-2,3.7065197E-2,-5.591094E-2,4.4169936E-2,5.393086E-2,-2.7387846E-2,-5.6889094E-2,5.449707E-2,-5.652801E-2],"split_indices":[2,1,3,2,0,2,7,1,3,4,0,1,2,7,4,0,0,0,0,0,0,0,0,0,0,0,0,0,0,0,0],"split_type":[0,0,0,0,0,0,0,0,0,0,0,0,0,0,0,0,0,0,0,0,0,0,0,0,0,0,0,0,0,0,0],"sum_hessian":[3.0424847E5,1.4596095E5,1.582875E5,4.6838367E4,9.9122586E4,1.4100775E5,1.7279756E4,1.2828163E4,3.4010203E4,4.1664497E3,9.495614E4,4.8726754E4,9.228099E4,1.4613886E4,2.6658706E3,9.5125525E2,1.1876908E4,2.9806076E4,4.204129E3,1.0897424E3,3.0767073E3,7.9713564E3,8.698478E4,4.1082246E4,7.6445063E3,2.3753219E4,6.852777E4,5.218148E2,1.4092071E4,2.6152957E3,5.0574936E1],"tree_param":{"num_deleted":"0","num_feature":"11","num_nodes":"31","size_leaf_vector":"1"}},{"base_weights":[-3.30852E-4,8.604297E-1,-1.0562314E0,1.1010077E0,-8.7760234E-1,-1.0611551E0,6.413838E-1,-5.2620847E-2,1.1010778E0,-1.124233E0,1.0790851E0,9.401829E-2,-1.063239E0,-5.60127E-2,5.445334E-2,5.5617154E-2,5.452606E-2,-3.0187799E-2,-5.708288E-2,5.4503825E-2,-5.5662926E-2,8.7898664E-2,-5.584997E-2,-4.8617717E-2,-5.419886E-2],"categories":[],"categories_nodes":[],"categories_segments":[],"categories_sizes":[],"default_left":[0,0,0,0,0,0,0,0,0,0,0,0,0,0,0,0,0,0,0,0,0,0,0,0,0],"id":36,"left_children":[1,3,5,7,9,11,13,-1,15,17,19,21,23,-1,-1,-1,-1,-1,-1,-1,-1,-1,-1,-1,-1],"loss_changes":[2.6679994E5,6.762042E4,1.1026562E3,2.2609375E1,9.490497E3,3.1664062E2,3.0233862E2,0E0,1.546875E1,1.5751172E2,5.426172E1,4.8070187E2,2.4604688E2,0E0,0E0,0E0,0E0,0E0,0E0,0E0,0E0,0E0,0E0,0E0,0E0],"parents":[2147483647,0,0,1,1,2,2,3,3,4,4,5,5,6,6,8,8,9,9,10,10,11,11,12,12],"right_children":[2,4,6,8,10,12,14,-1,16,18,20,22,24,-1,-1,-1,-1,-1,-1,-1,-1,-1,-1,-1,-1],"split_conditions":[5.820766E-11,2.8174E2,1E0,0E0,9.426721E5,-5.0818425E6,2.031486E5,-5.2620847E-2,3.2309488E5,-2.3293123E5,6.702314E5,9.412502E6,4.479117E4,-5.60127E-2,5.445334E-2,5.5617154E-2,5.452606E-2,-3.0187799E-2,-5.708288E-2,5.4503825E-2,-5.5662926E-2,8.7898664E-2,-5.584997E-2,-4.8617717E-2,-5.419886E-2],"split_indices":[6,3,8,6,1,7,3,0,1,7,5,5,4,0,0,0,0,0,0,0,0,0,0,0,0],"split_type":[0,0,0,0,0,0,0,0,0,0,0,0,0,0,0,0,0,0,0,0,0,0,0,0,0],"sum_hessian":[2.9354684E5,1.6171683E5,1.3183002E5,1.4205416E5,1.966268E4,1.3144919E5,3.8081668E2,4.089306E0,1.4205006E5,1.746214E4,2.200539E3,2.3654608E2,1.3121264E5,7.681662E1,3.0400006E2,6.866299E4,7.338707E4,5.670035E2,1.6895137E4,2.1901072E3,1.0431808E1,9.948427E1,1.3706181E2,2.4387559E4,1.06825086E5],"tree_param":{"num_deleted":"0","num_feature":"11","num_nodes":"25","size_leaf_vector":"1"}},{"base_weights":[-3.09024E-4,-6.930209E-1,6.3855845E-1,9.304505E-3,-1.0327984E0,3.6944503E-1,1.0863161E0,-8.124338E-1,3.8403127E-1,-5.400052E-1,-1.0549606E0,-2.2977775E-2,8.249998E-1,-1.3957748E-1,5.438596E-2,3.0697197E-2,-5.062896E-2,6.164776E-3,5.419409E-2,3.1811055E-2,-4.9423087E-2,-5.2818354E-2,1.5661228E-2,-1.3695508E-2,3.9001495E-2,-5.0638568E-2,4.9272005E-2,3.0160591E-2,-5.7482578E-2],"categories":[],"categories_nodes":[],"categories_segments":[],"categories_sizes":[],"default_left":[0,0,0,0,0,0,0,0,0,0,0,0,0,0,0,0,0,0,0,0,0,0,0,0,0,0,0,0,0],"id":37,"left_children":[1,3,5,7,9,11,13,15,17,19,21,23,25,27,-1,-1,-1,-1,-1,-1,-1,-1,-1,-1,-1,-1,-1,-1,-1],"loss_changes":[1.2432228E5,3.2163566E4,1.7609043E4,1.3532539E4,9.913125E2,1.6318425E4,9.460547E1,3.9300488E3,5.507478E3,2.0639565E3,1.6767969E2,9.881621E3,1.2456377E4,4.84073E1,0E0,0E0,0E0,0E0,0E0,0E0,0E0,0E0,0E0,0E0,0E0,0E0,0E0,0E0,0E0],"parents":[2147483647,0,0,1,1,2,2,3,3,4,4,5,5,6,6,7,7,8,8,9,9,10,10,11,11,12,12,13,13],"right_children":[2,4,6,8,10,12,14,16,18,20,22,24,26,28,-1,-1,-1,-1,-1,-1,-1,-1,-1,-1,-1,-1,-1,-1,-1],"split_conditions":[5.5655E4,5.517079E4,1E0,1.211E3,1.4E1,3.25976E5,1E0,1.38404E3,1E0,4.479117E4,1E0,4.06E2,3.2309488E5,8.5259E4,5.438596E-2,3.0697197E-2,-5.062896E-2,6.164776E-3,5.419409E-2,3.1811055E-2,-4.9423087E-2,-5.2818354E-2,1.5661228E-2,-1.3695508E-2,3.9001495E-2,-5.0638568E-2,4.9272005E-2,3.0160591E-2,-5.7482578E-2],"split_indices":[2,1,8,2,0,2,10,1,8,4,8,0,1,2,0,0,0,0,0,0,0,0,0,0,0,0,0,0,0],"split_type":[0,0,0,0,0,0,0,0,0,0,0,0,0,0,0,0,0,0,0,0,0,0,0,0,0,0,0,0,0],"sum_hessian":[2.8091988E5,1.3478027E5,1.4613961E5,4.3945312E4,9.083495E4,9.1280086E4,5.4859523E4,1.3762999E4,3.0182312E4,3.9105564E3,8.69244E4,4.903834E4,4.224175E4,6.2522514E1,5.4797004E4,1.6932361E3,1.2069763E4,2.1990768E4,8.191544E3,1.0792424E3,2.831314E3,8.683544E4,8.896376E1,3.7363406E4,1.1674933E4,3.3911956E3,3.8850555E4,3.6203182E1,2.6319332E1],"tree_param":{"num_deleted":"0","num_feature":"11","num_nodes":"29","size_leaf_vector":"1"}},{"base_weights":[-3.0825517E-4,8.476708E-1,-1.044046E0,1.0919808E0,-8.787354E-1,-1.0488582E0,6.116737E-1,-5.159367E-2,1.0920538E0,-1.1147678E0,1.0686425E0,-9.886126E-1,-1.1086988E0,-5.575038E-2,5.385514E-2,5.515778E-2,5.4068305E-2,-5.6926776E-2,-4.7574975E-2,-6.1405737E-2,5.3706545E-2,-3.1352364E-2,-4.982003E-2,-5.4725833E-2,-5.728039E-2],"categories":[],"categories_nodes":[],"categories_segments":[],"categories_sizes":[],"default_left":[0,0,0,0,0,0,0,0,0,0,0,0,0,0,0,0,0,0,0,0,0,0,0,0,0],"id":38,"left_children":[1,3,5,7,9,11,13,-1,15,17,19,21,23,-1,-1,-1,-1,-1,-1,-1,-1,-1,-1,-1,-1],"loss_changes":[2.4053728E5,6.3245844E4,9.713281E2,2.1484375E1,8.545797E3,4.3660938E2,2.853801E2,0E0,1.4171875E1,6.304883E1,2.6641113E1,1.696914E2,3.0421875E1,0E0,0E0,0E0,0E0,0E0,0E0,0E0,0E0,0E0,0E0,0E0,0E0],"parents":[2147483647,0,0,1,1,2,2,3,3,4,4,5,5,6,6,8,8,9,9,10,10,11,11,12,12],"right_children":[2,4,6,8,10,12,14,-1,16,18,20,22,24,-1,-1,-1,-1,-1,-1,-1,-1,-1,-1,-1,-1],"split_conditions":[5.820766E-11,2.8174E2,1E0,0E0,9.426721E5,3.9E1,2.031486E5,-5.159367E-2,3.25976E5,2.9691078E5,3.5288006E5,9E0,5.5655E4,-5.575038E-2,5.385514E-2,5.515778E-2,5.4068305E-2,-5.6926776E-2,-4.7574975E-2,-6.1405737E-2,5.3706545E-2,-3.1352364E-2,-4.982003E-2,-5.4725833E-2,-5.728039E-2],"split_indices":[6,3,8,6,1,2,3,0,2,3,3,9,2,0,0,0,0,0,0,0,0,0,0,0,0],"split_type":[0,0,0,0,0,0,0,0,0,0,0,0,0,0,0,0,0,0,0,0,0,0,0,0,0],"sum_hessian":[2.7177072E5,1.4994711E5,1.21823625E5,1.3135852E5,1.8588594E4,1.2147101E5,3.5261624E2,3.978092E0,1.3135453E5,1.6579545E4,2.009049E3,6.0540273E4,6.0930734E4,7.4525566E1,2.7809067E2,6.4374355E4,6.698018E4,1.4466942E4,2.112603E3,4.2148705E0,2.0048341E3,1.2785024E3,5.926177E4,4.404135E4,1.688938E4],"tree_param":{"num_deleted":"0","num_feature":"11","num_nodes":"25","size_leaf_vector":"1"}},{"base_weights":[-2.8212348E-4,-5.7131296E-1,7.418307E-1,-7.268398E-1,1.0674607E0,9.1589E-1,-6.969932E-1,7.198909E-1,-8.289124E-1,-5.2671534E-1,1.0800629E0,6.888958E-1,1.0413089E0,-1.08144E0,1.0316142E0,-2.5103489E-2,4.696557E-2,-1.5096001E-2,-4.4931035E-2,-5.5369526E-2,3.3226304E-2,5.403812E-2,-4.4850945E-2,4.8363157E-2,1.4223401E-2,4.747625E-2,5.3355962E-2,-1.7611576E-2,-5.5638965E-2,-5.6495048E-2,5.357001E-2],"categories":[],"categories_nodes":[],"categories_segments":[],"categories_sizes":[],"default_left":[0,0,0,0,0,0,0,0,0,0,0,0,0,0,0,0,0,0,0,0,0,0,0,0,0,0,0,0,0,0,0],"id":39,"left_children":[1,3,5,7,9,11,13,15,17,19,21,23,25,27,29,-1,-1,-1,-1,-1,-1,-1,-1,-1,-1,-1,-1,-1,-1,-1,-1],"loss_changes":[1.1018802E5,3.7453785E4,2.831829E4,1.9819781E4,2.5652148E2,2.870789E3,8.1106733E3,2.372212E3,4.6050547E3,7.03067E1,1.8466797E1,4.041336E3,1.5269531E2,2.2760742E2,1.92177E2,0E0,0E0,0E0,0E0,0E0,0E0,0E0,0E0,0E0,0E0,0E0,0E0,0E0,0E0,0E0,0E0],"parents":[2147483647,0,0,1,1,2,2,3,3,4,4,5,5,6,6,7,7,8,8,9,9,10,10,11,11,12,12,13,13,14,14],"right_children":[2,4,6,8,10,12,14,16,18,20,22,24,26,28,30,-1,-1,-1,-1,-1,-1,-1,-1,-1,-1,-1,-1,-1,-1,-1,-1],"split_conditions":[1.06431E5,1E0,2.8174E2,9E0,1E0,3.25976E5,3.4944462E5,1.63E2,1.0505604E5,8.2775E4,1.0837221E5,3.174067E5,5.3433225E5,-2.3293123E5,1E0,-2.5103489E-2,4.696557E-2,-1.5096001E-2,-4.4931035E-2,-5.5369526E-2,3.3226304E-2,5.403812E-2,-4.4850945E-2,4.8363157E-2,1.4223401E-2,4.747625E-2,5.3355962E-2,-1.7611576E-2,-5.5638965E-2,-5.6495048E-2,5.357001E-2],"split_indices":[2,8,3,9,10,2,7,2,5,2,7,5,2,7,10,0,0,0,0,0,0,0,0,0,0,0,0,0,0,0,0],"split_type":[0,0,0,0,0,0,0,0,0,0,0,0,0,0,0,0,0,0,0,0,0,0,0,0,0,0,0,0,0,0,0],"sum_hessian":[2.6001692E5,1.4694672E5,1.13070195E5,1.342102E5,1.2736521E4,1.0086826E5,1.2201935E4,8.844546E3,1.2536566E5,9.9511894E1,1.263701E4,3.5900188E4,6.496807E4,9.982281E3,2.219653E3,1.346134E3,7.498412E3,1.4646381E4,1.1071927E5,6.7004585E1,3.250731E1,1.2633044E4,3.965811E0,2.1263145E4,1.4637044E4,1.4268819E4,5.069925E4,4.119685E2,9.570313E3,3.9577126E1,2.180076E3],"tree_param":{"num_deleted":"0","num_feature":"11","num_nodes":"31","size_leaf_vector":"1"}},{"base_weights":[-1.9075493E-4,8.417916E-1,-1.0324962E0,6.886199E-1,5.369687E-2,-6.79561E-1,-1.054942E0,1.0767081E0,5.205795E-1,-3.201581E-1,-1.1212634E0,-1.0600313E0,7.3925257E-1,-5.33407E-2,5.3917587E-2,1.51781235E-2,4.825623E-2,-1.9888628E-2,1.9377199E-1,-5.5508703E-2,-6.0375523E-2,-4.522532E-2,-5.3569984E-2,-5.445698E-2,5.3973168E-2],"categories":[],"categories_nodes":[],"categories_segments":[],"categories_sizes":[],"default_left":[0,0,0,0,0,0,0,0,0,0,0,0,0,0,0,0,0,0,0,0,0,0,0,0,0],"id":40,"left_children":[1,3,5,7,-1,9,11,13,15,17,19,21,23,-1,-1,-1,-1,-1,-1,-1,-1,-1,-1,-1,-1],"loss_changes":[2.1858356E5,4.924211E3,8.940703E2,5.441551E3,0E0,1.0723616E3,9.706953E2,8.998633E1,5.6180303E3,1.2151078E3,1.3269043E0,1.8609375E2,1.8838602E2,0E0,0E0,0E0,0E0,0E0,0E0,0E0,0E0,0E0,0E0,0E0,0E0],"parents":[2147483647,0,0,1,1,2,2,3,3,5,5,6,6,7,7,8,8,9,9,10,10,11,11,12,12],"right_children":[2,4,6,8,-1,10,12,14,16,18,20,22,24,-1,-1,-1,-1,-1,-1,-1,-1,-1,-1,-1,-1],"split_conditions":[5.820766E-11,1E0,1.6E1,9E0,5.369687E-2,3.9E1,1E0,0E0,4.06E2,1.7096062E6,2.09461E5,3.7E1,2.82244E5,-5.33407E-2,5.3917587E-2,1.51781235E-2,4.825623E-2,-1.9888628E-2,1.9377199E-1,-5.5508703E-2,-6.0375523E-2,-4.522532E-2,-5.3569984E-2,-5.445698E-2,5.3973168E-2],"split_indices":[6,8,0,9,0,2,8,6,0,6,2,0,2,0,0,0,0,0,0,0,0,0,0,0,0],"split_type":[0,0,0,0,0,0,0,0,0,0,0,0,0,0,0,0,0,0,0,0,0,0,0,0,0],"sum_hessian":[2.5147961E5,1.38508E5,1.1297161E5,8.345083E4,5.5057176E4,6.757241E3,1.0621437E5,2.521378E4,5.8237047E4,3.72679E3,3.0304512E3,1.059144E5,2.9996408E2,1.8775858E1,2.5195004E4,3.9134406E4,1.9102639E4,3.6600125E3,6.677763E1,2.6985178E3,3.319332E2,7.22075E3,9.869365E4,4.6666954E1,2.5329713E2],"tree_param":{"num_deleted":"0","num_feature":"11","num_nodes":"25","size_leaf_vector":"1"}},{"base_weights":[-2.466994E-4,-2.9823002E-1,1.0671668E0,9.406765E-1,-4.949552E-1,-6.356471E-1,5.3539205E-2,9.803569E-1,-4.3601987E-1,-6.602794E-1,4.36828E-1,-5.600158E-2,-1.5217268E-1,2.0883763E-2,5.0600883E-2,-4.1891914E-2,9.351631E-2,-3.604893E-2,1.6148854E-2,2.6628861E-2,-5.4575473E-2,3.1417303E-2,-5.377969E-2],"categories":[],"categories_nodes":[],"categories_segments":[],"categories_sizes":[],"default_left":[0,0,0,0,0,0,0,0,0,0,0,0,0,0,0,0,0,0,0,0,0,0,0],"id":41,"left_children":[1,3,5,7,9,11,-1,13,15,17,19,-1,21,-1,-1,-1,-1,-1,-1,-1,-1,-1,-1],"loss_changes":[7.70607E4,4.6162055E4,3.2640625E2,1.4182949E3,2.5178898E4,2.6083927E1,0E0,4.4885547E2,6.758783E2,8.285359E3,3.6049072E3,0E0,4.2263954E1,0E0,0E0,0E0,0E0,0E0,0E0,0E0,0E0,0E0,0E0],"parents":[2147483647,0,0,1,1,2,2,3,3,4,4,5,5,7,7,8,8,9,9,10,10,12,12],"right_children":[2,4,6,8,10,12,-1,14,16,18,20,-1,22,-1,-1,-1,-1,-1,-1,-1,-1,-1,-1],"split_conditions":[1E0,9E0,1E0,1E0,4.06E2,1.7E1,5.3539205E-2,9E0,1.0407352E5,1.4477655E6,1E0,-5.600158E-2,1.8E1,2.0883763E-2,5.0600883E-2,-4.1891914E-2,9.351631E-2,-3.604893E-2,1.6148854E-2,2.6628861E-2,-5.4575473E-2,3.1417303E-2,-5.377969E-2],"split_indices":[8,9,10,10,0,9,0,0,7,1,10,0,9,0,0,0,0,0,0,0,0,0,0],"split_type":[0,0,0,0,0,0,0,0,0,0,0,0,0,0,0,0,0,0,0,0,0,0,0],"sum_hessian":[2.422731E5,1.894002E5,5.287289E4,2.5952996E4,1.634472E5,1.1165159E2,5.276124E4,2.5226262E4,7.267339E2,1.3881753E5,2.462968E4,5.501229E1,5.6639297E1,1.344732E3,2.388153E4,6.194854E2,1.0724849E2,1.3074655E5,8.0709873E3,2.3178293E4,1.4513857E3,3.0809187E1,2.583011E1],"tree_param":{"num_deleted":"0","num_feature":"11","num_nodes":"23","size_leaf_vector":"1"}},{"base_weights":[-7.186457E-5,-6.57459E-1,6.0297537E-1,4.6586844E-1,-8.405628E-1,7.8132826E-1,-7.907165E-1,5.999792E-1,-5.7184774E-2,4.201695E-1,-8.9779556E-1,4.2538762E-1,9.908637E-1,-1.0772309E0,1.0437945E0,1.1697381E-2,4.982188E-2,-2.3064889E-2,3.9683197E-2,-4.689419E-2,-2.082928E-2,4.7446504E-2,3.787204E-3,4.1624412E-2,5.2293975E-2,-2.1649402E-2,-5.5137135E-2,-5.9295762E-2,5.302433E-2],"categories":[],"categories_nodes":[],"categories_segments":[],"categories_sizes":[],"default_left":[0,0,0,0,0,0,0,0,0,0,0,0,0,0,0,0,0,0,0,0,0,0,0,0,0,0,0,0,0],"id":42,"left_children":[1,3,5,7,9,11,13,15,-1,17,19,21,23,25,27,-1,-1,-1,-1,-1,-1,-1,-1,-1,-1,-1,-1,-1,-1],"loss_changes":[9.349271E4,2.3208574E4,3.057466E4,3.4144058E3,7.0008594E3,8.132328E3,7.3361484E3,2.1182148E3,0E0,1.3876389E3,1.7897891E3,7.396751E3,5.969922E2,1.9775781E2,7.142261E1,0E0,0E0,0E0,0E0,0E0,0E0,0E0,0E0,0E0,0E0,0E0,0E0,0E0,0E0],"parents":[2147483647,0,0,1,1,2,2,3,3,4,4,5,5,6,6,7,7,9,9,10,10,11,11,12,12,13,13,14,14],"right_children":[2,4,6,8,10,12,14,16,-1,18,20,22,24,26,28,-1,-1,-1,-1,-1,-1,-1,-1,-1,-1,-1,-1,-1,-1],"split_conditions":[5.5655E4,5.66808E4,2.8174E2,2.8174E2,9E0,2.24403E5,4.8306116E5,1E0,-5.7184774E-2,2.14E2,4.22E2,1.3908402E5,4.1982266E5,-2.3293123E5,3.5288006E5,1.1697381E-2,4.982188E-2,-2.3064889E-2,3.9683197E-2,-4.689419E-2,-2.082928E-2,4.7446504E-2,3.787204E-3,4.1624412E-2,5.2293975E-2,-2.1649402E-2,-5.5137135E-2,-5.9295762E-2,5.302433E-2],"split_indices":[2,5,3,3,9,2,7,10,0,2,0,5,2,7,3,0,0,0,0,0,0,0,0,0,0,0,0,0,0],"split_type":[0,0,0,0,0,0,0,0,0,0,0,0,0,0,0,0,0,0,0,0,0,0,0,0,0,0,0,0,0],"sum_hessian":[2.3583133E5,1.1283211E5,1.2299921E5,1.58137705E4,9.7018336E4,1.09045055E5,1.3954153E4,1.4598127E4,1.2156437E3,4.2126763E3,9.2805664E4,4.04076E4,6.863745E4,1.2069589E4,1.884564E3,7.5912866E3,7.006841E3,1.2536025E3,2.9590737E3,8.5667766E4,7.137901E3,1.6179322E4,2.4228281E4,1.7700498E4,5.0936957E4,4.6057938E2,1.160901E4,1.3438357E1,1.8711256E3],"tree_param":{"num_deleted":"0","num_feature":"11","num_nodes":"29","size_leaf_vector":"1"}},{"base_weights":[-5.8342965E-5,-5.411725E-1,7.1032983E-1,-6.834683E-1,1.0509862E0,8.86362E-1,-7.1086E-1,-3.0044195E-1,-1.0059615E0,-5.35225E-1,1.0644332E0,6.540487E-1,1.0220267E0,-1.0652018E0,1.0127693E0,-4.4290345E-2,1.6492432E-3,-4.0475313E-2,-5.254027E-2,-5.452159E-2,3.0484552E-2,5.3264674E-2,-4.5218233E-2,4.166599E-2,-5.6761205E-2,4.5903903E-2,5.2605934E-2,-1.5307568E-2,-5.4990906E-2,-5.5607993E-2,5.277362E-2],"categories":[],"categories_nodes":[],"categories_segments":[],"categories_sizes":[],"default_left":[0,0,0,0,0,0,0,0,0,0,0,0,0,0,0,0,0,0,0,0,0,0,0,0,0,0,0,0,0,0,0],"id":43,"left_children":[1,3,5,7,9,11,13,15,17,19,21,23,25,27,29,-1,-1,-1,-1,-1,-1,-1,-1,-1,-1,-1,-1,-1,-1,-1,-1],"loss_changes":[8.7745375E4,2.9355703E4,2.4691762E4,1.469152E4,2.2736523E2,2.766914E3,6.6447734E3,1.0611725E4,5.6783594E2,5.7899292E1,1.8833008E1,1.0387159E4,1.7225E2,2.3661816E2,1.6952747E2,0E0,0E0,0E0,0E0,0E0,0E0,0E0,0E0,0E0,0E0,0E0,0E0,0E0,0E0,0E0,0E0],"parents":[2147483647,0,0,1,1,2,2,3,3,4,4,5,5,6,6,7,7,8,8,9,9,10,10,11,11,12,12,13,13,14,14],"right_children":[2,4,6,8,10,12,14,16,18,20,22,24,26,28,30,-1,-1,-1,-1,-1,-1,-1,-1,-1,-1,-1,-1,-1,-1,-1,-1],"split_conditions":[1.06431E5,1E0,2.8174E2,1.0632559E5,1E0,3.25976E5,3.4944462E5,1.211E3,4.479117E4,8.2775E4,1.0632559E5,3.2655594E5,5.3433225E5,-2.3293123E5,1E0,-4.4290345E-2,1.6492432E-3,-4.0475313E-2,-5.254027E-2,-5.452159E-2,3.0484552E-2,5.3264674E-2,-4.5218233E-2,4.166599E-2,-5.6761205E-2,4.5903903E-2,5.2605934E-2,-1.5307568E-2,-5.4990906E-2,-5.5607993E-2,5.277362E-2],"split_indices":[2,8,3,1,10,2,7,2,4,2,1,1,2,7,10,0,0,0,0,0,0,0,0,0,0,0,0,0,0,0,0],"split_type":[0,0,0,0,0,0,0,0,0,0,0,0,0,0,0,0,0,0,0,0,0,0,0,0,0,0,0,0,0,0,0],"sum_hessian":[2.2826322E5,1.29568875E5,9.8694336E4,1.1893955E5,1.0629333E4,8.7817484E4,1.0876851E4,5.436834E4,6.4571207E4,8.896307E1,1.054037E4,3.237861E4,5.543887E4,9.022463E3,1.8543875E3,1.9729617E4,3.4638723E4,1.2004058E4,5.256715E4,6.0001392E1,2.8961685E1,1.0536276E4,4.094203E0,2.9430494E4,2.9481145E3,1.2453807E4,4.2985066E4,3.940768E2,8.628387E3,3.5992474E1,1.8183949E3],"tree_param":{"num_deleted":"0","num_feature":"11","num_nodes":"31","size_leaf_vector":"1"}},{"base_weights":[-8.9040404E-5,8.2141817E-1,-1.0140386E0,6.768343E-1,1.0598902E0,-7.4495167E-1,-1.0526854E0,1.0605059E0,5.225315E-1,-4.1808814E-2,5.3049803E-2,-1.1289821E-1,-9.4063216E-1,-1.0579292E0,8.0528575E-1,5.326116E-2,1.1312308E-2,1.6403742E-2,4.711851E-2,-5.30128E-2,2.8237408E-2,-2.0106167E-2,1.645192E-1,-4.8703533E-2,5.1876254E-2,-5.1420297E-2,-5.3903688E-2,-5.3135674E-2,5.290702E-2],"categories":[],"categories_nodes":[],"categories_segments":[],"categories_sizes":[],"default_left":[0,0,0,0,0,0,0,0,0,0,0,0,0,0,0,0,0,0,0,0,0,0,0,0,0,0,0,0,0],"id":44,"left_children":[1,3,5,7,9,11,13,15,17,19,-1,21,23,25,27,-1,-1,-1,-1,-1,-1,-1,-1,-1,-1,-1,-1,-1,-1],"loss_changes":[1.8373895E5,4.2005938E3,1.02575E3,4.490578E3,5.6179688E1,1.5337393E3,8.419531E2,8.526172E1,4.416883E3,2.9677088E1,0E0,2.8883008E3,6.2742773E2,4.9867188E1,1.1612305E2,0E0,0E0,0E0,0E0,0E0,0E0,0E0,0E0,0E0,0E0,0E0,0E0,0E0,0E0],"parents":[2147483647,0,0,1,1,2,2,3,3,4,4,5,5,6,6,7,7,8,8,9,9,11,11,12,12,13,13,14,14],"right_children":[2,4,6,8,10,12,14,16,18,20,-1,22,24,26,28,-1,-1,-1,-1,-1,-1,-1,-1,-1,-1,-1,-1,-1,-1],"split_conditions":[5.820766E-11,1E0,3.7E1,9E0,1E0,4.479117E4,1E0,1E0,4.06E2,7.927477E4,5.3049803E-2,3.262348E4,1.7096062E6,2.32E2,3.4944462E5,5.326116E-2,1.1312308E-2,1.6403742E-2,4.711851E-2,-5.30128E-2,2.8237408E-2,-2.0106167E-2,1.645192E-1,-4.8703533E-2,5.1876254E-2,-5.1420297E-2,-5.3903688E-2,-5.3135674E-2,5.290702E-2],"split_indices":[6,8,0,9,10,4,8,10,0,7,0,4,6,0,7,0,0,0,0,0,0,0,0,0,0,0,0,0,0],"split_type":[0,0,0,0,0,0,0,0,0,0,0,0,0,0,0,0,0,0,0,0,0,0,0,0,0,0,0,0,0],"sum_hessian":[2.2058173E5,1.2185459E5,9.872713E4,7.586341E4,4.5991188E4,1.24015205E4,8.632562E4,2.1757406E4,5.4106E4,4.5991394E1,4.5945195E4,2.9322754E3,9.469245E3,8.608314E4,2.424705E2,2.1634676E4,1.2273077E2,3.6979996E4,1.7126004E4,1.694931E1,2.9042082E1,2.7034373E3,2.2883815E2,9.312389E3,1.5685692E2,3.493722E4,5.1145926E4,2.847907E1,2.1399142E2],"tree_param":{"num_deleted":"0","num_feature":"11","num_nodes":"29","size_leaf_vector":"1"}},{"base_weights":[-1.67403E-4,-5.254496E-1,6.915245E-1,8.0176836E-1,-6.602678E-1,8.7356323E-1,-7.2613937E-1,-4.1349444E-1,9.4672066E-1,-7.758481E-1,1.8618658E-1,6.393922E-1,1.0127503E0,-1.060803E0,1.0029992E0,1.4954033E-1,-4.511821E-2,4.824391E-2,-5.8841098E-2,-1.7921655E-2,-4.5450673E-2,-4.0209115E-2,2.3098452E-2,2.2004183E-2,5.120747E-2,4.508997E-2,5.2264124E-2,-1.5278721E-2,-5.4816723E-2,-5.531022E-2,5.23972E-2],"categories":[],"categories_nodes":[],"categories_segments":[],"categories_sizes":[],"default_left":[0,0,0,0,0,0,0,0,0,0,0,0,0,0,0,0,0,0,0,0,0,0,0,0,0,0,0,0,0,0,0],"id":45,"left_children":[1,3,5,7,9,11,13,15,17,19,21,23,25,27,29,-1,-1,-1,-1,-1,-1,-1,-1,-1,-1,-1,-1,-1,-1,-1,-1],"loss_changes":[7.72289E4,2.1617605E4,2.3677418E4,1.9629326E3,1.0729719E4,2.649246E3,6.042902E3,1.9793597E3,3.8491895E2,5.3632695E3,3.5992612E3,2.3240186E3,1.8291797E2,2.3427734E2,1.6169507E2,0E0,0E0,0E0,0E0,0E0,0E0,0E0,0E0,0E0,0E0,0E0,0E0,0E0,0E0,0E0,0E0],"parents":[2147483647,0,0,1,1,2,2,3,3,4,4,5,5,6,6,7,7,8,8,9,9,10,10,11,11,12,12,13,13,14,14],"right_children":[2,4,6,8,10,12,14,16,18,20,22,24,26,28,30,-1,-1,-1,-1,-1,-1,-1,-1,-1,-1,-1,-1,-1,-1,-1,-1],"split_conditions":[1.06431E5,9E0,2.8174E2,1.05E2,4.22E2,3.25976E5,3.4944462E5,1.99283E3,2.8174E2,4.479117E4,1.046E3,1.0407352E5,5.3433225E5,-2.3293123E5,1E0,1.4954033E-1,-4.511821E-2,4.824391E-2,-5.8841098E-2,-1.7921655E-2,-4.5450673E-2,-4.0209115E-2,2.3098452E-2,2.2004183E-2,5.120747E-2,4.508997E-2,5.2264124E-2,-1.5278721E-2,-5.4816723E-2,-5.531022E-2,5.23972E-2],"split_indices":[2,9,3,2,0,2,7,4,3,4,2,7,2,7,10,0,0,0,0,0,0,0,0,0,0,0,0,0,0,0,0],"split_type":[0,0,0,0,0,0,0,0,0,0,0,0,0,0,0,0,0,0,0,0,0,0,0,0,0,0,0,0,0,0,0],"sum_hessian":[2.1255461E5,1.20809945E5,9.1744664E4,1.1139681E4,1.0967026E5,8.130495E4,1.0439714E4,1.1868372E3,9.952844E3,9.649449E4,1.3175771E4,3.0312658E4,5.0992293E4,8.747194E3,1.6925194E3,1.4836412E2,1.038473E3,9.86905E3,8.379362E1,2.3339582E4,7.315491E4,2.8693396E3,1.0306433E4,1.9970248E4,1.0342409E4,1.1568778E4,3.9423516E4,3.9359784E2,8.353597E3,3.477412E1,1.6577454E3],"tree_param":{"num_deleted":"0","num_feature":"11","num_nodes":"31","size_leaf_vector":"1"}},{"base_weights":[-1.242659E-4,-2.7289796E-1,1.0511454E0,9.0927655E-1,-4.5425072E-1,-6.1705285E-1,5.2753955E-2,9.5098287E-1,-3.938702E-1,-6.0883266E-1,4.0080214E-1,-5.5002272E-2,-1.3841933E-1,4.829481E-2,-5.7197507E-2,5.207288E-2,-5.4610815E-2,-1.3803075E-2,-3.5049554E-2,2.4551997E-2,-5.4064192E-2,3.0334432E-2,-5.261902E-2],"categories":[],"categories_nodes":[],"categories_segments":[],"categories_sizes":[],"default_left":[0,0,0,0,0,0,0,0,0,0,0,0,0,0,0,0,0,0,0,0,0,0,0],"id":46,"left_children":[1,3,5,7,9,11,-1,13,15,17,19,-1,21,-1,-1,-1,-1,-1,-1,-1,-1,-1,-1],"loss_changes":[5.9098324E4,3.5081773E4,2.793086E2,1.1832891E3,1.8752066E4,2.2946156E1,0E0,6.5996875E2,6.783053E2,3.684414E3,2.905549E3,0E0,3.5892017E1,0E0,0E0,0E0,0E0,0E0,0E0,0E0,0E0,0E0,0E0],"parents":[2147483647,0,0,1,1,2,2,3,3,4,4,5,5,7,7,8,8,9,9,10,10,12,12],"right_children":[2,4,6,8,10,12,-1,14,16,18,20,-1,22,-1,-1,-1,-1,-1,-1,-1,-1,-1,-1],"split_conditions":[1E0,9E0,1E0,1E0,4.06E2,1.7E1,5.2753955E-2,2.8174E2,1.99283E3,1.26E2,1E0,-5.5002272E-2,1.8E1,4.829481E-2,-5.7197507E-2,5.207288E-2,-5.4610815E-2,-1.3803075E-2,-3.5049554E-2,2.4551997E-2,-5.4064192E-2,3.0334432E-2,-5.261902E-2],"split_indices":[8,9,10,10,0,9,0,3,4,0,10,0,9,0,0,0,0,0,0,0,0,0,0],"split_type":[0,0,0,0,0,0,0,0,0,0,0,0,0,0,0,0,0,0,0,0,0,0,0],"sum_hessian":[2.0608905E5,1.6363214E5,4.245691E4,2.1762904E4,1.4186923E5,9.94526E1,4.2357457E4,2.1088334E4,6.7457135E2,1.2014844E5,2.17208E4,4.875069E1,5.070191E1,2.0939854E4,1.4847893E2,2.2057784E2,4.5399353E2,2.6058818E4,9.408962E4,2.0474908E4,1.2458922E3,2.8056E1,2.2645906E1],"tree_param":{"num_deleted":"0","num_feature":"11","num_nodes":"23","size_leaf_vector":"1"}},{"base_weights":[5.87518E-5,8.050471E-1,-1.0012923E0,1.0677675E0,-8.947367E-1,-7.171015E-1,-1.0434867E0,-4.9855113E-2,1.0678593E0,-1.0833764E0,1.0341874E0,-3.6269283E-1,-1.096469E0,-1.0484977E0,5.377634E-1,5.403765E-2,5.2708983E-2,-2.3804259E-2,-5.5304255E-2,-5.3660806E-2,5.2492917E-2,1.6928555E-1,-4.0791113E-2,-5.430845E-2,-5.9585787E-2,-5.058327E-2,-5.4104954E-2,-5.1935077E-2,5.247866E-2],"categories":[],"categories_nodes":[],"categories_segments":[],"categories_sizes":[],"default_left":[0,0,0,0,0,0,0,0,0,0,0,0,0,0,0,0,0,0,0,0,0,0,0,0,0,0,0,0,0],"id":47,"left_children":[1,3,5,7,9,11,13,-1,15,17,19,21,23,25,27,-1,-1,-1,-1,-1,-1,-1,-1,-1,-1,-1,-1,-1,-1],"loss_changes":[1.620709E5,4.977515E4,1.0735234E3,1.9359375E1,5.430657E3,1.557354E3,6.1877344E2,0E0,1.5671875E1,1.8676953E2,4.5038574E1,1.0180399E4,3.9677734E0,9.494531E1,2.0042262E2,0E0,0E0,0E0,0E0,0E0,0E0,0E0,0E0,0E0,0E0,0E0,0E0,0E0,0E0],"parents":[2147483647,0,0,1,1,2,2,3,3,4,4,5,5,6,6,8,8,9,9,10,10,11,11,12,12,13,13,14,14],"right_children":[2,4,6,8,10,12,14,-1,16,18,20,22,24,26,28,-1,-1,-1,-1,-1,-1,-1,-1,-1,-1,-1,-1,-1,-1],"split_conditions":[5.820766E-11,2.8174E2,3.7E1,0E0,9.426721E5,3.9E1,3.5288006E5,-4.9855113E-2,3.1620947E5,-2.3293123E5,4.2174156E5,4.479117E4,2.09461E5,3.9E1,2.7233278E5,5.403765E-2,5.2708983E-2,-2.3804259E-2,-5.5304255E-2,-5.3660806E-2,5.2492917E-2,1.6928555E-1,-4.0791113E-2,-5.430845E-2,-5.9585787E-2,-5.058327E-2,-5.4104954E-2,-5.1935077E-2,5.247866E-2],"split_indices":[6,3,0,6,1,2,3,0,1,7,7,4,2,2,7,0,0,0,0,0,0,0,0,0,0,0,0,0,0],"split_type":[0,0,0,0,0,0,0,0,0,0,0,0,0,0,0,0,0,0,0,0,0,0,0,0,0,0,0,0,0],"sum_hessian":[2.0105962E5,1.1145833E5,8.96013E4,9.6537766E4,1.4920556E4,1.1586095E4,7.80152E4,3.7585034E0,9.653401E4,1.3591829E4,1.3287267E3,5.991241E3,5.5948535E3,7.776916E4,2.4604872E2,4.9650855E4,4.6883156E4,4.9087427E2,1.3100955E4,9.262412E0,1.3194642E3,6.454251E2,5.3458164E3,5.0610073E3,5.338461E2,3.7117188E4,4.0651965E4,6.0003242E1,1.8604549E2],"tree_param":{"num_deleted":"0","num_feature":"11","num_nodes":"29","size_leaf_vector":"1"}},{"base_weights":[3.1191907E-5,8.0175406E-1,-9.9533784E-1,1.0636722E0,-8.895172E-1,-9.9950916E-1,5.214011E-1,-4.8983015E-2,1.0637649E0,-1.0767423E0,1.0313435E0,-8.5976565E-1,-1.0347469E0,-5.4002266E-2,5.167529E-2,5.3770214E-2,5.256923E-2,-2.30194E-2,-5.5021998E-2,-5.2991476E-2,5.235477E-2,-4.535393E-2,-6.7307265E-3,-5.1947888E-2,-4.2703863E-2],"categories":[],"categories_nodes":[],"categories_segments":[],"categories_sizes":[],"default_left":[0,0,0,0,0,0,0,0,0,0,0,0,0,0,0,0,0,0,0,0,0,0,0,0,0],"id":48,"left_children":[1,3,5,7,9,11,13,-1,15,17,19,21,23,-1,-1,-1,-1,-1,-1,-1,-1,-1,-1,-1,-1],"loss_changes":[1.5336872E5,4.7155266E4,5.4302344E2,1.8507812E1,5.134914E3,4.1996875E2,1.9444702E2,0E0,1.19375E1,1.8933105E2,4.2885376E1,5.907637E2,5.0867188E1,0E0,0E0,0E0,0E0,0E0,0E0,0E0,0E0,0E0,0E0,0E0,0E0],"parents":[2147483647,0,0,1,1,2,2,3,3,4,4,5,5,6,6,8,8,9,9,10,10,11,11,12,12],"right_children":[2,4,6,8,10,12,14,-1,16,18,20,22,24,-1,-1,-1,-1,-1,-1,-1,-1,-1,-1,-1,-1],"split_conditions":[5.820766E-11,2.8174E2,1E0,0E0,9.426721E5,4.479117E4,2.031486E5,-4.8983015E-2,3.1620947E5,-2.3293123E5,4.2174156E5,3.262348E4,1.7096062E6,-5.4002266E-2,5.167529E-2,5.3770214E-2,5.256923E-2,-2.30194E-2,-5.5021998E-2,-5.2991476E-2,5.235477E-2,-4.535393E-2,-6.7307265E-3,-5.1947888E-2,-4.2703863E-2],"split_indices":[6,3,8,6,1,4,3,0,1,7,7,4,6,0,0,0,0,0,0,0,0,0,0,0,0],"split_type":[0,0,0,0,0,0,0,0,0,0,0,0,0,0,0,0,0,0,0,0,0,0,0,0,0],"sum_hessian":[1.9218697E5,1.0644823E5,8.5738734E4,9.217414E4,1.4274086E4,8.550399E4,2.3474384E2,3.6545963E0,9.217049E4,1.3006812E4,1.2672745E3,1.7224498E4,6.827949E4,5.6561428E1,1.7818242E2,4.745832E4,4.4712168E4,4.8248178E2,1.2524329E4,8.931466E0,1.258343E3,1.6169145E4,1.055354E3,6.671918E4,1.5603093E3],"tree_param":{"num_deleted":"0","num_feature":"11","num_nodes":"25","size_leaf_vector":"1"}},{"base_weights":[5.648138E-5,7.9860824E-1,-9.8898345E-1,1.059765E0,-8.845104E-1,-6.849739E-1,-1.034831E0,-4.814347E-2,1.0598587E0,-1.0703343E0,1.0168537E0,-6.00313E-2,-9.007647E-1,-1.0397892E0,5.339375E-1,5.240954E-2,5.3431418E-2,-2.2451473E-2,-5.4752845E-2,5.2114733E-2,-5.2520063E-2,-1.7515521E-2,1.3254486E-1,-4.7002345E-2,6.0368784E-2,-5.0202765E-2,-5.3205498E-2,5.214527E-2,-5.1575143E-2],"categories":[],"categories_nodes":[],"categories_segments":[],"categories_sizes":[],"default_left":[0,0,0,0,0,0,0,0,0,0,0,0,0,0,0,0,0,0,0,0,0,0,0,0,0,0,0,0,0],"id":49,"left_children":[1,3,5,7,9,11,13,-1,15,17,19,21,23,25,27,-1,-1,-1,-1,-1,-1,-1,-1,-1,-1,-1,-1,-1,-1],"loss_changes":[1.4510052E5,4.468102E4,1.1430234E3,1.7703125E1,4.8252783E3,1.4506807E3,5.552969E2,0E0,7.671875E0,1.9041699E2,6.505151E1,2.174597E3,6.6333984E2,6.05E1,1.8056592E2,0E0,0E0,0E0,0E0,0E0,0E0,0E0,0E0,0E0,0E0,0E0,0E0,0E0,0E0],"parents":[2147483647,0,0,1,1,2,2,3,3,4,4,5,5,6,6,8,8,9,9,10,10,11,11,12,12,13,13,14,14],"right_children":[2,4,6,8,10,12,14,-1,16,18,20,22,24,26,28,-1,-1,-1,-1,-1,-1,-1,-1,-1,-1,-1,-1,-1,-1],"split_conditions":[5.820766E-11,2.8174E2,3.7E1,0E0,4.8306116E5,4.479117E4,3.5288006E5,-4.814347E-2,3.159656E4,-2.3293123E5,1.9702034E5,3.262348E4,1.7096062E6,2.32E2,8.88192E3,5.240954E-2,5.3431418E-2,-2.2451473E-2,-5.4752845E-2,5.2114733E-2,-5.2520063E-2,-1.7515521E-2,1.3254486E-1,-4.7002345E-2,6.0368784E-2,-5.0202765E-2,-5.3205498E-2,5.214527E-2,-5.1575143E-2],"split_indices":[6,3,0,6,7,4,3,0,5,7,4,4,6,0,5,0,0,0,0,0,0,0,0,0,0,0,0,0,0],"split_type":[0,0,0,0,0,0,0,0,0,0,0,0,0,0,0,0,0,0,0,0,0,0,0,0,0,0,0,0,0],"sum_hessian":[1.8371617E5,1.0164677E5,8.20694E4,8.799386E4,1.3652907E4,1.0757299E4,7.13121E4,3.5524478E0,8.799031E4,1.2437825E4,1.2150829E3,2.7615198E3,7.995779E3,7.108783E4,2.24274E2,3.7812773E4,5.017754E4,4.7686615E2,1.1960959E4,1.2008486E3,1.4234222E1,2.4952434E3,2.6627646E2,7.850105E3,1.456739E2,2.8807621E4,4.2280207E4,1.6954721E2,5.47268E1],"tree_param":{"num_deleted":"0","num_feature":"11","num_nodes":"29","size_leaf_vector":"1"}},{"base_weights":[5.6517303E-5,7.956009E-1,-9.82816E-1,1.0560378E0,-8.796882E-1,-6.711819E-1,-1.030592E0,-4.7333643E-2,1.0561326E0,-1.0582067E0,1.003636E0,-2.9021314E-1,-1.0853602E0,-1.0355226E0,7.7652687E-1,5.3211737E-2,5.221191E-2,-3.3480603E-2,-5.454867E-2,-5.210802E-2,5.2012213E-2,-2.3434838E-2,2.5085244E-2,-5.381259E-2,-5.8400746E-2,-4.9841296E-2,-5.3530376E-2,-5.1665124E-2,5.2208103E-2],"categories":[],"categories_nodes":[],"categories_segments":[],"categories_sizes":[],"default_left":[0,0,0,0,0,0,0,0,0,0,0,0,0,0,0,0,0,0,0,0,0,0,0,0,0,0,0,0,0],"id":50,"left_children":[1,3,5,7,9,11,13,-1,15,17,19,21,23,25,27,-1,-1,-1,-1,-1,-1,-1,-1,-1,-1,-1,-1,-1,-1],"loss_changes":[1.3730411E5,4.234361E4,1.1686641E3,1.6953125E1,4.391115E3,1.6476328E3,6.0766406E2,0E0,6.7734375E0,1.5096484E2,8.57887E1,7.694343E2,2.2861328E0,9.09375E1,9.109303E1,0E0,0E0,0E0,0E0,0E0,0E0,0E0,0E0,0E0,0E0,0E0,0E0,0E0,0E0],"parents":[2147483647,0,0,1,1,2,2,3,3,4,4,5,5,6,6,8,8,9,9,10,10,11,11,12,12,13,13,14,14],"right_children":[2,4,6,8,10,12,14,-1,16,18,20,22,24,26,28,-1,-1,-1,-1,-1,-1,-1,-1,-1,-1,-1,-1,-1,-1],"split_conditions":[5.820766E-11,2.8174E2,3.7E1,0E0,1E0,3.9E1,1E0,-4.7333643E-2,1E0,1.8E1,1.0357578E6,4.151302E5,2.09461E5,3.9E1,2.82244E5,5.3211737E-2,5.221191E-2,-3.3480603E-2,-5.454867E-2,-5.210802E-2,5.2012213E-2,-2.3434838E-2,2.5085244E-2,-5.381259E-2,-5.8400746E-2,-4.9841296E-2,-5.3530376E-2,-5.1665124E-2,5.2208103E-2],"split_indices":[6,3,0,6,8,2,8,0,10,0,2,6,2,2,2,0,0,0,0,0,0,0,0,0,0,0,0,0,0],"split_type":[0,0,0,0,0,0,0,0,0,0,0,0,0,0,0,0,0,0,0,0,0,0,0,0,0,0,0,0,0],"sum_hessian":[1.75597E5,9.704684E4,7.855015E4,8.399032E4,1.3056527E4,1.0443875E4,6.810627E4,3.452223E0,8.398687E4,1.1926516E4,1.130012E3,5.4410444E3,5.002831E3,6.792144E4,1.8483377E2,4.9899434E4,3.408743E4,9.293548E2,1.0997161E4,1.9334463E1,1.1106775E3,4.440722E3,1.00032196E3,4.519969E3,4.8286172E2,3.2313646E4,3.5607797E4,2.3395031E1,1.6143875E2],"tree_param":{"num_deleted":"0","num_feature":"11","num_nodes":"29","size_leaf_vector":"1"}},{"base_weights":[6.8396104E-5,7.9267377E-1,-9.7656703E-1,5.379481E-1,9.5743626E-1,-6.569096E-1,-1.0264328E0,1.032902E0,3.755018E-1,8.1156826E-1,1.0220879E0,-1.7258406E-2,-8.842553E-1,-1.0299991E0,9.96658E-1,-4.9283367E-2,5.175933E-2,8.773502E-3,4.267104E-2,-5.2640386E-2,4.136103E-2,4.771937E-2,5.1917966E-2,-1.5324115E-2,1.1873996E-1,-4.6283863E-2,5.4988053E-2,-4.9629714E-2,-5.2774727E-2,-3.2699496E-2,5.1419128E-2],"categories":[],"categories_nodes":[],"categories_segments":[],"categories_sizes":[],"default_left":[0,0,0,0,0,0,0,0,0,0,0,0,0,0,0,0,0,0,0,0,0,0,0,0,0,0,0,0,0,0,0],"id":51,"left_children":[1,3,5,7,9,11,13,15,17,19,21,23,25,27,29,-1,-1,-1,-1,-1,-1,-1,-1,-1,-1,-1,-1,-1,-1,-1,-1],"loss_changes":[1.2992178E5,3.8877188E3,1.1976953E3,2.9255215E3,5.2953125E2,1.4758828E3,4.703203E2,4.249121E1,2.619273E3,5.051787E2,4.173828E1,1.8426202E3,6.1638525E2,6.0664062E1,6.7277527E0,0E0,0E0,0E0,0E0,0E0,0E0,0E0,0E0,0E0,0E0,0E0,0E0,0E0,0E0,0E0,0E0],"parents":[2147483647,0,0,1,1,2,2,3,3,4,4,5,5,6,6,7,7,8,8,9,9,10,10,11,11,12,12,13,13,14,14],"right_children":[2,4,6,8,10,12,14,16,18,20,22,24,26,28,30,-1,-1,-1,-1,-1,-1,-1,-1,-1,-1,-1,-1,-1,-1,-1,-1],"split_conditions":[5.820766E-11,1.431627E5,3.7E1,9E0,3.413949E5,4.479117E4,1.2483449E6,0E0,4.06E2,0E0,5.2437375E5,