{"learner":{"attributes":{"best_iteration":"16","best_score":"0.9940950308561487"},"feature_names":["step","amount","oldbalanceOrg","newbalanceOrig","oldbalanceDest","newbalanceDest","errorBalanceOrig","errorBalanceDest","isBlackHoleTransaction","hourOfDay","type_TRANSFER"],"feature_types":["int","float","float","float","float","float","float","float","int","int","i"],"gradient_booster":{"model":{"gbtree_model_param":{"num_parallel_tree":"1","num_trees":"67"},"iteration_indptr":[0,1,2,3,4,5,6,7,8,9,10,11,12,13,14,15,16,17,18,19,20,21,22,23,24,25,26,27,28,29,30,31,32,33,34,35,36,37,38,39,40,41,42,43,44,45,46,47,48,49,50,51,52,53,54,55,56,57,58,59,60,61,62,63,64,65,66,67],"tree_info":[0,0,0,0,0,0,0,0,0,0,0,0,0,0,0,0,0,0,0,0,0,0,0,0,0,0,0,0,0,0,0,0,0,0,0,0,0,0,0,0,0,0,0,0,0,0,0,0,0,0,0,0,0,0,0,0,0,0,0,0,0,0,0,0,0,0,0],"trees":[{"base_weights":[2.009737E-8,1.652941E0,-1.9753884E0,1.9984676E0,-1.3935711E0,-1.9846786E0,1.2972071E0,-8.461539E-2,9.992596E-2,-1.9835622E0,1.9642266E0,-1.9402806E0,-1.9938349E0,-9.949174E-2,9.967635E-2,-1.9916637E0,-1.2630261E0,-9.84375E-2,9.995804E-2,-7.290924E-1,-9.999845E-2,-1.9947449E0,-1.953424E0,-9.9997126E-2,-1.9418856E0,1.4232699E0,-9.972318E-2,-9.993688E-2,5.332467E-1,-1.9836663E0,-9.981887E-2,-1.6220102E0,-9.99843E-2,-5.9077E-1,-9.998209E-2,-9.310345E-2,9.8242186E-2,7.366966E-1,-9.916318E-2,-1.9915032E0,-1.772486E0,1.6543645E0,-9.987555E-2,3.0295104E-2,-9.9101126E-2,9.203034E-2,2.9352833E-2,-9.9997275E-2,-9.452729E-2,-9.989832E-2,-6.647408E-2,-8.75E-2,9.766309E-2],"categories":[],"categories_nodes":[],"categories_segments":[],"categories_sizes":[],"default_left":[0,0,0,0,0,0,0,0,0,0,0,0,0,0,0,0,0,0,0,0,0,0,0,0,0,0,0,0,0,0,0,0,0,0,0,0,0,0,0,0,0,0,0,0,0,0,0,0,0,0,0,0,0],"id":0,"left_children":[1,3,5,7,9,11,13,-1,-1,15,17,19,21,-1,-1,23,25,-1,-1,27,-1,29,31,-1,33,35,-1,-1,37,39,-1,41,-1,43,-1,-1,-1,45,-1,47,49,51,-1,-1,-1,-1,-1,-1,-1,-1,-1,-1,-1],"loss_changes":[2.84103E6,4.98653E5,1.205375E4,8.45E1,9.559939E4,1.5675E2,2.5735557E3,0E0,0E0,2.3709375E2,9.948379E2,4.8867812E3,8.125E0,0E0,0E0,1.284375E1,9.0487164E2,0E0,0E0,5.0933115E3,0E0,1.75E0,1.0812695E2,0E0,4.5312695E2,1.795077E2,0E0,0E0,8.1756165E2,6.4859375E1,0E0,1.1045083E3,0E0,4.0090872E2,0E0,0E0,0E0,2.4265552E2,0E0,3.0140625E1,1.4588672E2,9.76266E1,0E0,0E0,0E0,0E0,0E0,0E0,0E0,0E0,0E0,0E0,0E0],"parents":[2147483647,0,0,1,1,2,2,3,3,4,4,5,5,6,6,9,9,10,10,11,11,12,12,15,15,16,16,19,19,21,21,22,22,24,24,25,25,28,28,29,29,31,31,33,33,37,37,39,39,40,40,41,41],"right_children":[2,4,6,8,10,12,14,-1,-1,16,18,20,22,-1,-1,24,26,-1,-1,28,-1,30,32,-1,34,36,-1,-1,38,40,-1,42,-1,44,-1,-1,-1,46,-1,48,50,52,-1,-1,-1,-1,-1,-1,-1,-1,-1,-1,-1],"split_conditions":[5.820766E-11,2.8174E2,1E0,0E0,1E0,4.479117E4,2.031486E5,-8.461539E-2,9.992596E-2,1.0357578E6,1.0357578E6,3.9E1,1.7096062E6,-9.949174E-2,9.967635E-2,2.9691078E5,4.4880712E5,-9.84375E-2,9.995804E-2,3.976532E4,-9.999845E-2,3.976532E4,3.23255E6,-9.9997126E-2,3.0232325E5,4.3789784E5,-9.972318E-2,-9.993688E-2,1.9E1,3.841736E4,-9.981887E-2,3.9E1,-9.99843E-2,3.42877E5,-9.998209E-2,-9.310345E-2,9.8242186E-2,9E0,-9.916318E-2,2.1E1,1.2702444E6,3.1663048E6,-9.987555E-2,3.0295104E-2,-9.9101126E-2,9.203034E-2,2.9352833E-2,-9.9997275E-2,-9.452729E-2,-9.989832E-2,-6.647408E-2,-8.75E-2,9.766309E-2],"split_indices":[6,3,8,6,8,4,3,0,0,2,2,2,6,0,0,3,3,0,0,6,0,6,5,0,3,3,0,0,9,6,0,2,0,2,0,0,0,9,0,9,4,5,0,0,0,0,0,0,0,0,0,0,0],"split_type":[0,0,0,0,0,0,0,0,0,0,0,0,0,0,0,0,0,0,0,0,0,0,0,0,0,0,0,0,0,0,0,0,0,0,0,0,0,0,0,0,0,0,0,0,0,0,0,0,0,0,0,0,0],"sum_hessian":[8.700915E5,4.737081E5,3.963834E5,4.2545462E5,4.8253477E4,3.9526175E5,1.1216637E3,5.5E0,4.2544912E5,4.1042418E4,7.21106E3,6.7615E4,3.2764675E5,1.9575E2,9.259137E2,4.0584332E4,4.5808307E2,6.3E1,7.14806E3,3.1762468E3,6.443875E4,3.2038366E5,7.263083E3,3.47635E4,5.820833E3,9.783306E1,3.6025E2,1.58325E3,1.5929967E3,4.1304168E4,2.790795E5,8.9408307E2,6.369E3,2.3908307E2,5.58175E3,1.35E1,8.433306E1,1.4744967E3,1.185E2,3.9818082E4,1.486083E3,9.158306E1,8.025E2,1.2883307E2,1.1025E2,1.7466612E2,1.2998306E3,3.6728E4,3.090083E3,9.825E2,5.0358307E2,7E0,8.458306E1],"tree_param":{"num_deleted":"0","num_feature":"11","num_nodes":"53","size_leaf_vector":"1"}},{"base_weights":[-1.3231382E-6,1.5742846E0,-1.8813647E0,1.9033706E0,-1.3272612E0,-1.8886062E0,1.7541288E0,-8.116042E-2,9.5171E-2,-1.8969824E0,1.8950315E0,-1.8902028E0,-8.39023E-1,-9.223497E-2,9.5130496E-2,-9.523937E-2,-1.852759E0,9.521826E-2,-9.028695E-2,-1.8480015E0,-1.8989358E0,-9.505512E-2,9.469203E-2,-5.6643677E-1,-9.522972E-2,-6.9595575E-1,-9.5240526E-2,-1.8998069E0,-1.8587968E0,5.6647193E-1,-9.4426E-2,-9.518647E-2,4.9978748E-1,-1.8831947E0,-1.9015303E0,-1.535012E0,-9.5227085E-2,-9.923752E-2,9.561206E-2,-5.688867E-3,4.028467E-2,-9.4679356E-2,-8.004305E-2,-9.517627E-2,-9.47285E-2,-9.513213E-2,8.320669E-2],"categories":[],"categories_nodes":[],"categories_segments":[],"categories_sizes":[],"default_left":[0,0,0,0,0,0,0,0,0,0,0,0,0,0,0,0,0,0,0,0,0,0,0,0,0,0,0,0,0,0,0,0,0,0,0,0,0,0,0,0,0,0,0,0,0,0,0],"id":1,"left_children":[1,3,5,7,9,11,13,-1,-1,15,17,19,21,-1,-1,-1,23,-1,-1,25,27,-1,-1,29,-1,31,-1,33,35,37,-1,-1,39,41,43,45,-1,-1,-1,-1,-1,-1,-1,-1,-1,-1,-1],"loss_changes":[2.570641E6,4.5120062E5,1.0412625E4,7.7E1,8.83691E4,6.5975E2,4.2380566E2,0E0,0E0,1.059375E1,2.5326172E2,1.41625E2,1.7485122E3,0E0,0E0,0E0,4.1049805E2,0E0,0E0,4.4224688E3,7.875E0,0E0,0E0,3.6133768E2,0E0,4.5907173E3,0E0,5.75E0,1.0045508E2,4.5116953E2,0E0,0E0,2.9998657E2,8.5375E1,3.125E-1,1.0254104E3,0E0,0E0,0E0,0E0,0E0,0E0,0E0,0E0,0E0,0E0,0E0],"parents":[2147483647,0,0,1,1,2,2,3,3,4,4,5,5,6,6,9,9,10,10,11,11,12,12,16,16,19,19,20,20,23,23,25,25,27,27,28,28,29,29,32,32,33,33,34,34,35,35],"right_children":[2,4,6,8,10,12,14,-1,-1,16,18,20,22,-1,-1,-1,24,-1,-1,26,28,-1,-1,30,-1,32,-1,34,36,38,-1,-1,40,42,44,46,-1,-1,-1,-1,-1,-1,-1,-1,-1,-1,-1],"split_conditions":[5.820766E-11,2.8174E2,1.585932E6,0E0,9.426721E5,3.5288006E5,2.0377399E6,-8.116042E-2,9.5171E-2,2.9691078E5,6.702314E5,4.479117E4,1.7019355E5,-9.223497E-2,9.5130496E-2,-9.523937E-2,3.0232325E5,9.521826E-2,-9.028695E-2,3.9E1,1.7833556E6,-9.505512E-2,9.469203E-2,3.42877E5,-9.522972E-2,3.98884E4,-9.5240526E-2,3.98884E4,3.23255E6,4.116054E4,-9.4426E-2,-9.518647E-2,1.9048153E5,3.841736E4,3.3061362E5,1.2702444E6,-9.5227085E-2,-9.923752E-2,9.561206E-2,-5.688867E-3,4.028467E-2,-9.4679356E-2,-8.004305E-2,-9.517627E-2,-9.47285E-2,-9.513213E-2,8.320669E-2],"split_indices":[6,3,3,6,1,3,1,0,0,3,5,4,6,0,0,0,3,0,0,2,1,0,0,2,0,1,0,1,5,1,0,0,5,6,6,4,0,0,0,0,0,0,0,0,0,0,0],"split_type":[0,0,0,0,0,0,0,0,0,0,0,0,0,0,0,0,0,0,0,0,0,0,0,0,0,0,0,0,0,0,0,0,0,0,0,0,0,0,0,0,0,0,0,0,0,0,0],"sum_hessian":[8.6792894E5,4.7252772E5,3.9540125E5,4.243943E5,4.8133387E4,3.946157E5,7.8554425E2,5.4901667E0,4.2438884E5,4.0902062E4,7.231325E3,3.9401553E5,6.001718E2,3.0673258E1,7.5487103E2,3.4730363E4,6.1717E3,7.2136167E3,1.7708405E1,6.759293E4,3.264226E5,4.3242273E2,1.6774911E2,2.3953143E2,5.932169E3,3.177096E3,6.4415836E4,3.1944394E5,6.978646E3,1.2930229E2,1.1022914E2,1.5803021E3,1.5967938E3,3.0128648E4,2.8931528E5,8.6817883E2,6.110467E3,4.4488697E1,8.48136E1,5.314588E2,1.065335E3,2.90535E4,1.075147E3,2.2464934E5,6.466595E4,7.790585E2,8.912039E1],"tree_param":{"num_deleted":"0","num_feature":"11","num_nodes":"47","size_leaf_vector":"1"}},{"base_weights":[-1.9952774E-6,1.5063305E0,-1.8000761E0,1.8212129E0,-1.2699726E0,-1.8070046E0,1.6783576E0,-7.806959E-2,9.106302E-2,-1.8150995E0,1.8132384E0,-1.8085322E0,-8.0276144E-1,-8.835577E-2,9.102824E-2,-1.5215925E0,-9.113657E-2,9.110924E-2,-8.654852E-2,-1.1935673E0,-1.8093059E0,-9.0957925E-2,9.062373E-2,-9.1052935E-2,1.2048756E0,1.7293061E0,-9.095105E-2,-1.787318E0,-1.8148011E0,-8.555928E-2,1.7347534E0,9.1097705E-2,-6.292271E-2,-1.8060497E0,-1.5461642E0,-1.7556202E0,-1.8156815E0,9.2438035E-2,-6.666248E-2,-9.067904E-2,-8.75885E-2,-3.0614102E-2,-8.478246E-2,-9.113714E-2,-2.2952203E-2,-8.9542985E-2,-9.0870425E-2],"categories":[],"categories_nodes":[],"categories_segments":[],"categories_sizes":[],"default_left":[0,0,0,0,0,0,0,0,0,0,0,0,0,0,0,0,0,0,0,0,0,0,0,0,0,0,0,0,0,0,0,0,0,0,0,0,0,0,0,0,0,0,0,0,0,0,0],"id":2,"left_children":[1,3,5,7,9,11,13,-1,-1,15,17,19,21,-1,-1,23,-1,-1,-1,25,27,-1,-1,-1,29,31,-1,33,35,-1,37,-1,-1,39,41,43,45,-1,-1,-1,-1,-1,-1,-1,-1,-1,-1],"loss_changes":[2.3370235E6,4.102075E5,9.46625E3,7.0625E1,8.034024E4,5.9975E2,3.8592407E2,0E0,0E0,8.8203125E1,2.308711E2,1.83875E2,1.5902175E3,0E0,0E0,8.4761426E2,0E0,0E0,0E0,9.072668E2,4.4125E1,0E0,0E0,0E0,1.6223639E2,2.6565735E1,0E0,3.505E2,1.3125E1,0E0,3.3147858E1,0E0,0E0,2.646875E1,7.868291E2,4.0055566E2,9.875E0,0E0,0E0,0E0,0E0,0E0,0E0,0E0,0E0,0E0,0E0],"parents":[2147483647,0,0,1,1,2,2,3,3,4,4,5,5,6,6,9,9,10,10,11,11,12,12,15,15,19,19,20,20,24,24,25,25,27,27,28,28,30,30,33,33,34,34,35,35,36,36],"right_children":[2,4,6,8,10,12,14,-1,-1,16,18,20,22,-1,-1,24,-1,-1,-1,26,28,-1,-1,-1,30,32,-1,34,36,-1,38,-1,-1,40,42,44,46,-1,-1,-1,-1,-1,-1,-1,-1,-1,-1],"split_conditions":[5.820766E-11,2.8174E2,1.585932E6,0E0,9.426721E5,3.5288006E5,2.0377399E6,-7.806959E-2,9.106302E-2,-2.3293123E5,6.702314E5,-5.0818425E6,1.7019355E5,-8.835577E-2,9.102824E-2,-2.3754327E5,-9.113657E-2,9.110924E-2,-8.654852E-2,2E0,2.9166012E5,-9.0957925E-2,9.062373E-2,-9.1052935E-2,2.8673297E5,9.412502E6,-9.095105E-2,2.2187883E5,9E0,-8.555928E-2,3.0232325E5,9.1097705E-2,-6.292271E-2,1.1641532E-10,2.35742E5,1.0407352E5,3.98884E4,9.2438035E-2,-6.666248E-2,-9.067904E-2,-8.75885E-2,-3.0614102E-2,-8.478246E-2,-9.113714E-2,-2.2952203E-2,-8.9542985E-2,-9.0870425E-2],"split_indices":[6,3,3,6,1,3,1,0,0,7,5,7,6,0,0,7,0,0,0,9,5,0,0,0,3,5,0,6,9,0,3,0,0,7,1,7,1,0,0,0,0,0,0,0,0,0,0],"split_type":[0,0,0,0,0,0,0,0,0,0,0,0,0,0,0,0,0,0,0,0,0,0,0,0,0,0,0,0,0,0,0,0,0,0,0,0,0,0,0,0,0,0,0,0,0,0,0],"sum_hessian":[8.61888E5,4.6922922E5,3.926588E5,4.214317E5,4.7797527E4,3.9187872E5,7.800808E2,5.4623857E0,4.2142622E5,4.0616707E4,7.180822E3,3.9128272E5,5.9600903E2,3.046766E1,7.4961316E2,1.0344387E3,3.958227E4,7.163226E3,1.7595476E1,4.9356287E2,3.9078916E5,4.2942123E2,1.6658778E2,9.3236316E2,1.0207559E2,8.668787E1,4.06875E2,7.820383E4,3.125853E5,1.5353229E1,8.672236E1,8.445905E1,2.2288115E0,7.256113E4,5.6426914E3,4.6111367E3,3.079742E5,8.399838E1,2.723979E0,6.369168E4,8.869453E3,7.79292E2,4.8633994E3,4.383786E3,2.2735052E2,2.0100963E4,2.8787322E5],"tree_param":{"num_deleted":"0","num_feature":"11","num_nodes":"47","size_leaf_vector":"1"}},{"base_weights":[-7.8482043E-7,-1.2574987E0,1.1717014E0,-3.0556219E-2,-1.7329847E0,1.4104564E0,-1.08214E0,-1.4784465E0,7.8655386E-1,-1.7358521E0,-8.676028E-1,6.40744E-1,1.645098E0,-1.7424934E0,1.6970605E0,9.2779523E-1,-1.7265769E0,1.0896804E0,-8.753922E-2,-1.5404215E0,-1.7428184E0,1.6947386E0,-8.7457865E-2,1.3956944E0,-1.7385556E0,1.3604282E0,1.7271452E0,-1.4452571E0,-8.7556325E-2,1.745923E0,-8.6793624E-2,1.5809736E0,1.0100153E-1,-1.5597317E0,-1.7434835E0,6.4455086E-1,1.7039472E0,-9.140697E-1,-1.7136668E0,-1.6962929E0,-1.746888E0,-7.07468E-2,8.685959E-2,1.1187688E0,1.7316563E0,-8.757021E-2,-2.1308446E-1,1.5769686E0,-8.755509E-2,1.6591783E0,1.7450376E0,-8.747449E-2,1.188971E0,-7.6111145E-2,1.7485194E0,1.6838377E0,1.1252835E0,-6.967945E-1,1.5003556E0,-1.6491054E0,-4.0678558E-1,-1.4929056E0,-8.764412E-2,1.7065854E0,2.6496717E-1,1.7233113E0,-8.719816E-2,1.4622469E0,-8.757454E-2,-8.761214E-2,-5.277304E-1,-1.4998747E0,-1.7340413E0,-1.7398028E0,-8.75898E-2,7.849628E-1,1.6401324E0,1.7432743E0,-2.2419374E-1,-8.674601E-2,8.650708E-2,1.4280295E0,1.743299E0,1.7169626E0,-8.747224E-2,-5.2104503E-2,1.7450649E0,1.7115284E0,-8.254521E-2,-6.385427E-2,8.748495E-2,8.450252E-2,-6.6625714E-2,8.66883E-2,6.6302638E-3,-8.765154E-2,7.127511E-2,8.1176445E-2,-8.4851734E-2,-8.76255E-2,-6.9256805E-2,2.2951797E-2,-8.683956E-2,2.9615326E-2,-8.748806E-2,8.539273E-2,-6.882766E-2,-1.1514791E-2,6.9951646E-2,8.706734E-2,4.240672E-2,-9.2013754E-2,7.829755E-2,-8.6874135E-2,3.469058E-2,4.3861266E-2,-8.75899E-2,-8.7573305E-2,-8.083479E-2,-8.714085E-2,-7.525135E-2,8.044773E-2,2.054835E-2,8.700582E-2,7.80366E-2,8.7399326E-2,5.10845E-2,8.650708E-2,-8.701587E-2,6.232972E-2,8.508936E-2,8.731674E-2,-8.442646E-2,8.6764656E-2,8.077088E-2,8.6107835E-2,8.743801E-2,-5.558E-2,8.9119814E-2],"categories":[],"categories_nodes":[],"categories_segments":[],"categories_sizes":[],"default_left":[0,0,0,0,0,0,0,0,0,0,0,0,0,0,0,0,0,0,0,0,0,0,0,0,0,0,0,0,0,0,0,0,0,0,0,0,0,0,0,0,0,0,0,0,0,0,0,0,0,0,0,0,0,0,0,0,0,0,0,0,0,0,0,0,0,0,0,0,0,0,0,0,0,0,0,0,0,0,0,0,0,0,0,0,0,0,0,0,0,0,0,0,0,0,0,0,0,0,0,0,0,0,0,0,0,0,0,0,0,0,0,0,0,0,0,0,0,0,0,0,0,0,0,0,0,0,0,0,0,0,0,0,0,0,0,0,0,0,0],"id":3,"left_children":[1,3,5,7,9,11,13,15,17,19,21,23,25,27,29,31,33,35,-1,37,39,41,-1,43,45,47,49,51,-1,53,-1,55,57,59,61,63,65,67,69,71,73,-1,-1,75,77,-1,79,81,-1,83,85,-1,87,-1,89,91,93,95,97,99,101,103,-1,105,107,109,-1,111,-1,-1,113,115,117,119,-1,121,123,125,127,-1,-1,129,131,133,-1,-1,135,137,-1,-1,-1,-1,-1,-1,-1,-1,-1,-1,-1,-1,-1,-1,-1,-1,-1,-1,-1,-1,-1,-1,-1,-1,-1,-1,-1,-1,-1,-1,-1,-1,-1,-1,-1,-1,-1,-1,-1,-1,-1,-1,-1,-1,-1,-1,-1,-1,-1,-1,-1],"loss_changes":[1.2562269E6,2.3991594E5,2.3750144E5,1.3589078E5,7.34E2,7.207525E4,7.759018E4,2.474193E4,5.647527E4,3.994375E2,2.2185737E3,1.6747844E5,7.141125E3,8.511719E1,1.3645898E3,2.0920547E3,1.0324219E2,1.793293E4,0E0,1.1026445E3,5.1125E1,3.567108E1,0E0,6.583078E3,4.398203E2,4.6110688E4,2.8575E2,7.793739E2,0E0,7.057422E1,0E0,9.9552734E1,1.9111025E3,3.5643848E2,7.767969E1,1.5331502E4,1.8429531E3,4.394262E3,3.636914E2,1.6775781E2,6E0,0E0,0E0,6.751449E3,7.270547E2,0E0,5.610944E2,1.5825156E3,0E0,9.751781E3,1.61875E1,0E0,1.5272937E2,0E0,3.0773438E1,3.5302734E1,2.4233865E2,2.446683E3,2.4754456E2,8.535547E1,2.894317E2,6.6490845E2,0E0,4.1535156E1,1.5737692E4,4.3108594E2,0E0,2.0002014E2,0E0,0E0,3.7435504E2,2.2240781E3,3.6558594E1,7.340625E1,0E0,7.2898516E3,1.1751172E2,1.0630469E2,5.651633E2,0E0,0E0,1.6747344E3,3.178047E2,8.778125E1,0E0,0E0,1.29375E1,1.9148407E1,0E0,0E0,0E0,0E0,0E0,0E0,0E0,0E0,0E0,0E0,0E0,0E0,0E0,0E0,0E0,0E0,0E0,0E0,0E0,0E0,0E0,0E0,0E0,0E0,0E0,0E0,0E0,0E0,0E0,0E0,0E0,0E0,0E0,0E0,0E0,0E0,0E0,0E0,0E0,0E0,0E0,0E0,0E0,0E0,0E0,0E0,0E0,0E0,0E0,0E0,0E0],"parents":[2147483647,0,0,1,1,2,2,3,3,4,4,5,5,6,6,7,7,8,8,9,9,10,10,11,11,12,12,13,13,14,14,15,15,16,16,17,17,19,19,20,20,21,21,23,23,24,24,25,25,26,26,27,27,29,29,31,31,32,32,33,33,34,34,35,35,36,36,37,37,38,38,39,39,40,40,43,43,44,44,46,46,47,47,49,49,50,50,52,52,54,54,55,55,56,56,57,57,58,58,59,59,60,60,61,61,63,63,64,64,65,65,67,67,70,70,71,71,72,72,73,73,75,75,76,76,77,77,78,78,81,81,82,82,83,83,86,86,87,87],"right_children":[2,4,6,8,10,12,14,16,18,20,22,24,26,28,30,32,34,36,-1,38,40,42,-1,44,46,48,50,52,-1,54,-1,56,58,60,62,64,66,68,70,72,74,-1,-1,76,78,-1,80,82,-1,84,86,-1,88,-1,90,92,94,96,98,100,102,104,-1,106,108,110,-1,112,-1,-1,114,116,118,120,-1,122,124,126,128,-1,-1,130,132,134,-1,-1,136,138,-1,-1,-1,-1,-1,-1,-1,-1,-1,-1,-1,-1,-1,-1,-1,-1,-1,-1,-1,-1,-1,-1,-1,-1,-1,-1,-1,-1,-1,-1,-1,-1,-1,-1,-1,-1,-1,-1,-1,-1,-1,-1,-1,-1,-1,-1,-1,-1,-1,-1,-1],"split_conditions":[5.5655E4,5.517079E4,2.8174E2,1.211E3,5.4719E4,1.56638E5,3.4944462E5,1.38404E3,2.8174E2,1.4E1,5.643332E4,1.561834E5,3.25976E5,-2.3293123E5,1.9702034E5,2.906952E4,2.3E1,1.0000002E-2,-8.753922E-2,4.479117E4,3.7E1,3.59E2,-8.7457865E-2,5.455664E4,6.91E2,3.2655594E5,5.3433225E5,-2.3754327E5,-8.7556325E-2,3.1951794E5,-8.6793624E-2,1.99283E3,4.22E2,2.1E1,1.99283E3,9E0,9.98409E4,3.9E1,1.7833556E6,4.070899E4,2.32E2,-7.07468E-2,8.685959E-2,4.06E2,1.0786193E5,-8.757021E-2,6.8059E2,1.5392977E5,-8.755509E-2,5.382869E5,-1.0871958E7,-8.747449E-2,4.243495E4,-7.6111145E-2,3.534639E5,2.8174E2,9E0,1.92E2,1.8E1,1.2702444E6,2.434294E4,3.9E1,-8.764412E-2,7.2782885E6,4.06E2,1.139378E4,-8.719816E-2,1.4747339E5,-8.757454E-2,-8.761214E-2,4.656613E-10,3.9E1,5.0000128E5,2.31E2,-8.75898E-2,1E1,1E1,1.99283E3,1E0,-8.674601E-2,8.650708E-2,4.06E2,6.082089E5,4.2619212E5,-8.747224E-2,-5.2104503E-2,7.21629E5,3.60659E4,-8.254521E-2,-6.385427E-2,8.748495E-2,8.450252E-2,-6.6625714E-2,8.66883E-2,6.6302638E-3,-8.765154E-2,7.127511E-2,8.1176445E-2,-8.4851734E-2,-8.76255E-2,-6.9256805E-2,2.2951797E-2,-8.683956E-2,2.9615326E-2,-8.748806E-2,8.539273E-2,-6.882766E-2,-1.1514791E-2,6.9951646E-2,8.706734E-2,4.240672E-2,-9.2013754E-2,7.829755E-2,-8.6874135E-2,3.469058E-2,4.3861266E-2,-8.75899E-2,-8.7573305E-2,-8.083479E-2,-8.714085E-2,-7.525135E-2,8.044773E-2,2.054835E-2,8.700582E-2,7.80366E-2,8.7399326E-2,5.10845E-2,8.650708E-2,-8.701587E-2,6.232972E-2,8.508936E-2,8.731674E-2,-8.442646E-2,8.6764656E-2,8.077088E-2,8.6107835E-2,8.743801E-2,-5.558E-2,8.9119814E-2],"split_indices":[2,1,3,2,2,2,7,1,3,0,1,1,2,7,4,4,0,7,0,4,0,0,0,7,0,1,2,7,0,3,0,4,0,0,4,9,7,2,1,4,0,0,0,0,4,0,7,7,0,1,7,0,1,0,1,3,0,2,9,4,1,2,0,4,0,4,0,1,0,0,7,2,1,0,0,9,9,4,9,0,0,0,4,4,0,0,2,1,0,0,0,0,0,0,0,0,0,0,0,0,0,0,0,0,0,0,0,0,0,0,0,0,0,0,0,0,0,0,0,0,0,0,0,0,0,0,0,0,0,0,0,0,0,0,0,0,0,0,0],"split_type":[0,0,0,0,0,0,0,0,0,0,0,0,0,0,0,0,0,0,0,0,0,0,0,0,0,0,0,0,0,0,0,0,0,0,0,0,0,0,0,0,0,0,0,0,0,0,0,0,0,0,0,0,0,0,0,0,0,0,0,0,0,0,0,0,0,0,0,0,0,0,0,0,0,0,0,0,0,0,0,0,0,0,0,0,0,0,0,0,0,0,0,0,0,0,0,0,0,0,0,0,0,0,0,0,0,0,0,0,0,0,0,0,0,0,0,0,0,0,0,0,0,0,0,0,0,0,0,0,0,0,0,0,0,0,0,0,0,0,0],"sum_hessian":[8.5259444E5,4.11241E5,4.4135344E5,1.14859336E5,2.963817E5,3.9907844E5,4.2274996E4,4.1435785E4,7.3423555E4,2.954018E5,9.7985986E2,9.323531E4,3.0584312E5,3.4159E4,8.115994E3,3.8731575E3,3.7562625E4,6.558851E4,7.8350493E3,1.0174885E4,2.8522694E5,2.5058443E2,7.2927545E2,7.077793E4,2.2457385E4,6.843157E4,2.3741156E5,9.688979E2,3.3190105E4,8.0025815E3,1.1341307E2,2.163249E3,1.7099086E3,3.4646433E3,3.409798E4,3.8031188E4,2.7557318E4,2.2059097E3,7.9689746E3,2.2975979E4,2.6225094E5,2.9394755E0,2.4764496E2,3.880017E4,3.1977754E4,2.2269666E4,1.8771886E2,6.3979543E4,4.4520273E3,4.949401E4,1.8791756E5,8.688844E2,1.0001348E2,5.8881035E0,7.9966934E3,1.7626636E3,4.0058533E2,1.0893522E3,6.2055646E2,3.2149941E3,2.4964923E2,1.2384957E3,3.285949E4,1.001284E4,2.8018348E4,2.7403914E4,1.5340547E2,5.7461145E2,1.6312982E3,7.717465E3,2.5150972E2,3.7103718E3,1.9265605E4,1.0746745E5,1.547835E5,2.3656479E4,1.5143694E4,3.1789031E4,1.8872313E2,1.0533391E2,8.238495E1,3.3759508E4,3.0220033E4,4.8669445E4,8.2456714E2,1.4697049E0,1.879161E5,8.480591E1,1.5207574E1,2.6944194E0,7.993999E3,1.7594794E3,3.1842675E0,2.478897E2,1.5269562E2,7.274732E2,3.618789E2,5.980115E2,2.2544998E1,2.3060188E3,9.089752E2,1.516084E2,9.804083E1,1.3568315E2,1.1028125E3,1.0009165E4,3.6743038E0,1.9502234E4,8.516112E3,2.684961E4,5.543031E2,1.6984488E1,5.5762695E2,1.2615246E2,1.2535726E2,3.5530438E2,3.3550674E3,1.6762596E4,2.5030112E3,1.0609892E5,1.3685308E3,7.384207E3,1.6272271E4,6.6937573E3,8.4499375E3,3.1581373E4,2.0765689E2,8.238495E1,1.0633819E2,2.0306662E4,1.3452848E4,3.0193814E4,2.6217524E1,4.121363E4,7.455816E3,2.6167316E4,1.6174877E5,1.717096E0,8.308881E1],"tree_param":{"num_deleted":"0","num_feature":"11","num_nodes":"139","size_leaf_vector":"1"}},{"base_weights":[-1.3819758E-5,1.3990867E0,-1.67137E0,1.6908727E0,-1.1761864E0,-1.6791968E0,1.0859675E0,-7.578703E-2,8.454593E-2,-1.6810538E0,1.6681457E0,-1.5503204E0,-1.6858679E0,-8.5644946E-2,8.413244E-2,-1.4097853E0,-8.440713E-2,-8.214594E-2,1.6854242E0,2.4012731E-1,-1.5643054E0,-1.6419848E0,-1.6889986E0,-8.433346E-2,1.1087948E0,-6.960609E-2,8.437201E-2,-8.283383E-2,1.0430176E0,-8.471026E-2,-1.4664199E0,-1.5647489E0,-1.6733052E0,-8.571336E-2,-1.6851803E0,-7.950168E-2,1.5978003E0,8.494889E-2,-8.063274E-2,-1.51112E0,-7.322469E-1,-1.6097145E0,2.1197161E-1,-8.463704E-2,-1.5593177E0,-1.2990929E0,-1.686216E0,8.519438E-2,-6.2297013E-2,-7.042859E-2,-8.485105E-2,5.496146E-2,-5.554467E-2,-8.500124E-2,-6.208132E-2,1.0174703E-1,-8.361943E-2,4.3138987E-3,-8.462812E-2,3.1918555E-2,-8.4669776E-2,-8.400094E-2,-8.4525414E-2],"categories":[],"categories_nodes":[],"categories_segments":[],"categories_sizes":[],"default_left":[0,0,0,0,0,0,0,0,0,0,0,0,0,0,0,0,0,0,0,0,0,0,0,0,0,0,0,0,0,0,0,0,0,0,0,0,0,0,0,0,0,0,0,0,0,0,0,0,0,0,0,0,0,0,0,0,0,0,0,0,0,0,0],"id":4,"left_children":[1,3,5,7,9,11,13,-1,-1,15,17,19,21,-1,-1,23,-1,-1,25,27,29,31,33,-1,35,-1,-1,-1,37,-1,39,41,43,-1,45,-1,47,-1,-1,49,51,53,55,-1,57,59,61,-1,-1,-1,-1,-1,-1,-1,-1,-1,-1,-1,-1,-1,-1,-1,-1],"loss_changes":[1.9673764E6,3.441325E5,8.27525E3,6.325E1,6.693366E4,3.26E2,1.8160819E3,0E0,0E0,7.374219E1,4.047539E2,4.7179688E2,4.725E1,0E0,0E0,7.090654E2,0E0,0E0,4.5714844E1,2.2526793E2,2.3505469E2,5.601172E1,2.975E1,0E0,1.3589879E2,0E0,0E0,0E0,1.8346265E2,0E0,3.4875586E2,5.602656E2,3.5535156E1,0E0,1.15625E2,0E0,2.808197E1,0E0,0E0,1.8916406E2,4.2686053E2,2.2512305E2,6.007043E2,0E0,5.5328564E2,6.068496E2,5E0,0E0,0E0,0E0,0E0,0E0,0E0,0E0,0E0,0E0,0E0,0E0,0E0,0E0,0E0,0E0,0E0],"parents":[2147483647,0,0,1,1,2,2,3,3,4,4,5,5,6,6,9,9,10,10,11,11,12,12,15,15,18,18,19,19,20,20,21,21,22,22,24,24,28,28,30,30,31,31,32,32,34,34,36,36,39,39,40,40,41,41,42,42,44,44,45,45,46,46],"right_children":[2,4,6,8,10,12,14,-1,-1,16,18,20,22,-1,-1,24,-1,-1,26,28,30,32,34,-1,36,-1,-1,-1,38,-1,40,42,44,-1,46,-1,48,-1,-1,50,52,54,56,-1,58,60,62,-1,-1,-1,-1,-1,-1,-1,-1,-1,-1,-1,-1,-1,-1,-1,-1],"split_conditions":[5.820766E-11,2.8174E2,1E0,0E0,4.8306116E5,1.6E1,2.031486E5,-7.578703E-2,8.454593E-2,-2.3293123E5,1E0,-5.0818425E6,3.7E1,-8.5644946E-2,8.413244E-2,-2.3754327E5,-8.440713E-2,-8.214594E-2,2.9184462E5,3.9385938E5,0E0,4.1989503E5,3.976532E4,-8.433346E-2,2.8673297E5,-6.960609E-2,8.437201E-2,-8.283383E-2,4.2287744E5,-8.471026E-2,1.01778125E6,4.138085E5,5.0618747E5,-8.571336E-2,4.452463E4,-7.950168E-2,3.0232325E5,8.494889E-2,-8.063274E-2,1.0000001E-2,9.7204425E5,3.5E1,2.350291E4,-8.463704E-2,5.2058578E5,4.110741E4,2.32E2,8.519438E-2,-6.2297013E-2,-7.042859E-2,-8.485105E-2,5.496146E-2,-5.554467E-2,-8.500124E-2,-6.208132E-2,1.0174703E-1,-8.361943E-2,4.3138987E-3,-8.462812E-2,3.1918555E-2,-8.4669776E-2,-8.400094E-2,-8.4525414E-2],"split_indices":[6,3,8,6,7,0,3,0,0,7,10,7,0,0,0,7,0,0,3,6,7,5,6,0,3,0,0,0,6,0,6,5,6,0,5,0,3,0,0,7,5,0,6,0,6,6,0,0,0,0,0,0,0,0,0,0,0,0,0,0,0,0,0],"split_type":[0,0,0,0,0,0,0,0,0,0,0,0,0,0,0,0,0,0,0,0,0,0,0,0,0,0,0,0,0,0,0,0,0,0,0,0,0,0,0,0,0,0,0,0,0,0,0,0,0,0,0,0,0,0,0,0,0,0,0,0,0,0,0],"sum_hessian":[8.413341E5,4.5796747E5,3.8336666E5,4.1135956E5,4.66079E4,3.8228194E5,1.084728E3,5.4260635E0,4.1135416E5,3.9582445E4,7.025452E3,1.8825982E4,3.6345594E5,1.9028468E2,8.944434E2,1.01311237E3,3.8569332E4,3.5982964E1,6.989469E3,1.4578326E2,1.86802E4,2.4237352E4,3.392186E5,9.1306366E2,1.00048706E2,4.1237936E0,6.9853457E3,4.3039757E1,1.0274351E2,8.020382E3,1.0659817E4,7.0075835E3,1.722977E4,4.4470473E4,2.9474812E5,1.5001828E1,8.5046875E1,8.268121E1,2.0062296E1,1.0047046E4,6.127715E2,6.834703E3,1.728802E2,1.4708093E4,2.5216763E3,7.9194604E2,2.939562E5,8.237467E1,2.672203E0,6.4806914E3,3.5663545E3,1.0465626E2,5.0811523E2,5.485276E3,1.3494274E3,8.783088E1,8.504932E1,1.889134E2,2.3327627E3,1.3381369E2,6.581324E2,1.2044501E5,1.7351117E5],"tree_param":{"num_deleted":"0","num_feature":"11","num_nodes":"63","size_leaf_vector":"1"}},{"base_weights":[-1.2218422E-5,1.35265E0,-1.615503E0,1.6347188E0,-1.137372E0,-1.6230679E0,1.0497392E0,-7.322309E-2,8.173818E-2,-1.6255772E0,1.6130619E0,-1.4960189E0,-1.6296557E0,-8.269901E-2,8.1350714E-2,-1.3630052E0,-8.1622005E-2,-7.967203E-2,1.6304884E0,2.3110363E-1,-1.5095094E0,-1.6182424E0,-1.6422606E0,-8.155083E-2,1.0686965E0,-5.9099138E-2,8.158653E-2,-8.0104984E-2,1.0057596E0,-1.3998337E0,-8.229249E-2,-1.5370575E0,-1.6241621E0,-1.6732643E0,-1.6358503E0,-7.693189E-2,1.5407999E0,8.193072E-2,-7.801634E-2,-8.176614E-2,-1.210686E0,-1.5729909E0,-1.3844141E0,-1.6113861E0,-8.1654005E-2,-1.6641695E0,-1.6939883E0,-8.172136E-2,-1.6645488E0,8.274048E-2,-6.277125E-2,-6.4618535E-2,4.6909E-3,-6.1922044E-2,-8.002935E-2,-7.422357E-2,-4.6617385E-2,-8.0994405E-2,-6.391827E-2,-8.173623E-2,-8.348231E-2,-8.537664E-2,-8.1567146E-2,-8.540279E-2,-8.208414E-2],"categories":[],"categories_nodes":[],"categories_segments":[],"categories_sizes":[],"default_left":[0,0,0,0,0,0,0,0,0,0,0,0,0,0,0,0,0,0,0,0,0,0,0,0,0,0,0,0,0,0,0,0,0,0,0,0,0,0,0,0,0,0,0,0,0,0,0,0,0,0,0,0,0,0,0,0,0,0,0,0,0,0,0,0,0],"id":5,"left_children":[1,3,5,7,9,11,13,-1,-1,15,17,19,21,-1,-1,23,-1,-1,25,27,29,31,33,-1,35,-1,-1,-1,37,39,-1,41,43,45,47,-1,49,-1,-1,-1,51,53,55,57,-1,59,61,-1,63,-1,-1,-1,-1,-1,-1,-1,-1,-1,-1,-1,-1,-1,-1,-1,-1],"loss_changes":[1.807512E6,3.162032E5,7.602E3,5.85E1,6.151497E4,3.121875E2,1.6688545E3,0E0,0E0,6.7890625E1,3.884961E2,4.3238672E2,4.86875E1,0E0,0E0,6.5152185E2,0E0,0E0,2.5925781E1,2.0692854E2,2.728164E2,8.765625E1,3.103125E1,0E0,1.2494921E2,0E0,0E0,0E0,1.6860146E2,4.5249023E2,0E0,6.785742E1,1.728125E1,2.6484375E0,3.03125E0,0E0,2.9116196E1,0E0,0E0,0E0,6.034717E2,9.337305E1,1.0904639E2,2.0164062E2,0E0,5.3125E-1,4.6835938E0,0E0,3.7558594E0,0E0,0E0,0E0,0E0,0E0,0E0,0E0,0E0,0E0,0E0,0E0,0E0,0E0,0E0,0E0,0E0],"parents":[2147483647,0,0,1,1,2,2,3,3,4,4,5,5,6,6,9,9,10,10,11,11,12,12,15,15,18,18,19,19,20,20,21,21,22,22,24,24,28,28,29,29,31,31,32,32,33,33,34,34,36,36,40,40,41,41,42,42,43,43,45,45,46,46,48,48],"right_children":[2,4,6,8,10,12,14,-1,-1,16,18,20,22,-1,-1,24,-1,-1,26,28,30,32,34,-1,36,-1,-1,-1,38,40,-1,42,44,46,48,-1,50,-1,-1,-1,52,54,56,58,-1,60,62,-1,64,-1,-1,-1,-1,-1,-1,-1,-1,-1,-1,-1,-1,-1,-1,-1,-1],"split_conditions":[5.820766E-11,2.8174E2,1E0,0E0,4.8306116E5,1.6E1,2.031486E5,-7.322309E-2,8.173818E-2,-2.3293123E5,1.0357578E6,-5.0818425E6,3.9E1,-8.269901E-2,8.1350714E-2,-2.3754327E5,-8.1622005E-2,-7.967203E-2,1E0,3.9385938E5,3.9E1,3.7E1,4.781022E4,-8.155083E-2,2.8673297E5,-5.9099138E-2,8.158653E-2,-8.0104984E-2,4.2287744E5,0E0,-8.229249E-2,3.5E1,2.32E2,5.5655E4,1.56638E5,-7.693189E-2,3.42877E5,8.193072E-2,-7.801634E-2,-8.176614E-2,1.01778125E6,2.350291E4,1E-2,2.3E2,-8.1654005E-2,1.211E3,2.8174E2,-8.172136E-2,1.3726161E5,8.274048E-2,-6.277125E-2,-6.4618535E-2,4.6909E-3,-6.1922044E-2,-8.002935E-2,-7.422357E-2,-4.6617385E-2,-8.0994405E-2,-6.391827E-2,-8.173623E-2,-8.348231E-2,-8.537664E-2,-8.1567146E-2,-8.540279E-2,-8.208414E-2],"split_indices":[6,3,8,6,7,0,3,0,0,7,2,7,2,0,0,7,0,0,10,6,2,0,6,0,3,0,0,0,6,7,0,0,0,2,2,0,2,0,0,0,6,6,7,0,0,2,3,0,6,0,0,0,0,0,0,0,0,0,0,0,0,0,0,0,0],"split_type":[0,0,0,0,0,0,0,0,0,0,0,0,0,0,0,0,0,0,0,0,0,0,0,0,0,0,0,0,0,0,0,0,0,0,0,0,0,0,0,0,0,0,0,0,0,0,0,0,0,0,0,0,0,0,0,0,0,0,0,0,0,0,0,0,0],"sum_hessian":[8.271539E5,4.5019906E5,3.769548E5,4.0439022E5,4.580883E4,3.758883E5,1.0665131E3,5.371618E0,4.0438488E5,3.8903773E4,6.905056E3,1.8541363E4,3.5734694E5,1.8731964E2,8.791934E2,9.960157E2,3.7907758E4,3.6835506E1,6.8682207E3,1.4357921E2,1.8397783E4,1.8760527E5,1.6974169E5,8.974338E2,9.858191E1,2.6124241E0,6.8656084E3,4.2332443E1,1.0124677E2,1.0202162E4,8.195622E3,1.2767516E4,1.7483775E5,2.9037736E4,1.4070395E5,1.4767083E1,8.381482E1,8.150679E1,1.9739979E1,4.5409854E3,5.6611772E3,1.0327128E4,2.4403877E3,7.194765E4,1.028901E5,2.0237732E4,8.800003E3,1.3411158E5,6.5923677E3,8.0923546E1,2.8912764E0,5.327587E3,3.3359024E2,7.904407E2,9.536687E3,1.9962642E3,4.441235E2,7.015277E4,1.7948765E3,3.2207358E3,1.7016998E4,7.2140063E3,1.585997E3,2.2457307E3,4.3466367E3],"tree_param":{"num_deleted":"0","num_feature":"11","num_nodes":"65","size_leaf_vector":"1"}},{"base_weights":[-1.0033962E-5,1.3113304E0,-1.5656981E0,9.570903E-1,1.5357493E0,-1.5730294E0,1.0174824E0,5.521216E-1,1.5802299E0,-4.177594E-1,1.540376E0,-1.447023E0,-1.5795766E0,-8.015196E-2,1.5446384E0,1.6754203E-1,1.3717177E0,2.608726E-1,7.914278E-2,-7.8962736E-2,1.5578158E0,1.3783642E0,1.5698061E0,2.2301717E-1,-1.460063E0,-1.5364195E0,-1.58266E0,-7.391759E-2,7.908492E-2,-7.911532E-2,2.1352321E-1,1.3875046E0,-7.926169E-2,-7.739073E-2,1.0775564E0,-4.6417043E-2,7.882625E-2,1.2065836E0,1.5824758E0,1.507548E0,1.5781108E0,-7.766578E-2,9.725081E-1,-7.938305E-2,-1.3645848E0,-1.4576299E0,-1.568458E0,-1.6037643E0,-1.5794637E0,6.7673296E-1,5.0685633E-2,-7.832907E-2,1.3958337E0,7.814325E-2,-7.4156485E-2,1.2414237E0,-9.042092E-1,-5.151474E-2,7.913935E-2,1.0161163E0,1.5181973E0,1.5538015E0,1.581483E0,7.924339E-2,-7.566514E-2,-1.4074074E0,-6.720005E-1,-1.5023131E0,2.7506706E-1,-7.940301E-2,-1.453689E0,-7.991187E-2,-8.198863E-2,-1.1930718E0,-1.5805068E0,2.9183093E-3,7.436677E-2,-1.5321496E-2,1.7929344E-2,6.990918E-2,-7.667398E-2,5.1888544E-2,7.675667E-2,7.192194E-2,-7.900872E-2,7.4192345E-2,-7.8446105E-2,7.2993316E-2,7.915114E-2,-7.499108E-2,7.780454E-2,7.699564E-2,7.9093486E-2,-6.2778905E-2,-7.679286E-2,5.314488E-2,-5.1737905E-2,-7.966948E-2,-5.6738477E-2,1.0297852E-1,-7.858858E-2,7.811781E-2,-7.9469465E-2,6.153069E-2,-7.954051E-2,-7.8719296E-2,-7.9237394E-2],"categories":[],"categories_nodes":[],"categories_segments":[],"categories_sizes":[],"default_left":[0,0,0,0,0,0,0,0,0,0,0,0,0,0,0,0,0,0,0,0,0,0,0,0,0,0,0,0,0,0,0,0,0,0,0,0,0,0,0,0,0,0,0,0,0,0,0,0,0,0,0,0,0,0,0,0,0,0,0,0,0,0,0,0,0,0,0,0,0,0,0,0,0,0,0,0,0,0,0,0,0,0,0,0,0,0,0,0,0,0,0,0,0,0,0,0,0,0,0,0,0,0,0,0,0,0,0],"id":6,"left_children":[1,3,5,7,9,11,13,15,17,19,21,23,25,-1,27,29,31,33,-1,-1,35,37,39,41,43,45,47,-1,-1,-1,49,51,-1,-1,53,-1,-1,55,57,59,61,-1,63,-1,65,67,69,71,73,75,77,-1,79,-1,-1,81,83,-1,-1,85,87,89,91,-1,-1,93,95,97,99,-1,101,-1,-1,103,105,-1,-1,-1,-1,-1,-1,-1,-1,-1,-1,-1,-1,-1,-1,-1,-1,-1,-1,-1,-1,-1,-1,-1,-1,-1,-1,-1,-1,-1,-1,-1,-1],"loss_changes":[1.665252E6,3.5088062E4,7.0025625E3,4.319783E4,2.4428125E3,3.018125E2,1.448585E3,3.2703922E4,2.331875E2,1.4692137E3,1.2831875E3,3.9710938E2,4.425E1,0E0,1.0003198E2,5.68251E3,1.5490586E3,2.0126672E2,0E0,0E0,1.2495361E1,1.4513672E3,1.155625E2,1.9060469E2,2.1808984E2,5.678125E1,1.9625E1,0E0,0E0,0E0,5.1904385E3,8.1320703E2,0E0,0E0,1.1873842E2,0E0,0E0,1.6565781E3,1.7039062E1,1.3907812E2,1.403125E1,0E0,1.5538339E2,0E0,3.0596484E2,5.2523535E2,3.5089844E1,5.921875E0,1.125625E2,8.971603E3,5.5986475E3,0E0,2.2838672E2,0E0,0E0,1.3230547E3,5.820148E2,0E0,0E0,6.950894E2,9.713281E1,1.7411719E2,4.0625E-1,0E0,0E0,1.881211E2,3.815373E2,2.1940625E2,5.676601E2,0E0,9.997793E2,0E0,0E0,7.431233E2,4.875E0,0E0,0E0,0E0,0E0,0E0,0E0,0E0,0E0,0E0,0E0,0E0,0E0,0E0,0E0,0E0,0E0,0E0,0E0,0E0,0E0,0E0,0E0,0E0,0E0,0E0,0E0,0E0,0E0,0E0,0E0,0E0,0E0],"parents":[2147483647,0,0,1,1,2,2,3,3,4,4,5,5,6,6,7,7,8,8,9,9,10,10,11,11,12,12,14,14,15,15,16,16,17,17,20,20,21,21,22,22,23,23,24,24,25,25,26,26,30,30,31,31,34,34,37,37,38,38,39,39,40,40,42,42,44,44,45,45,46,46,47,47,48,48,49,49,50,50,52,52,55,55,56,56,59,59,60,60,61,61,62,62,65,65,66,66,67,67,68,68,70,70,73,73,74,74],"right_children":[2,4,6,8,10,12,14,16,18,20,22,24,26,-1,28,30,32,34,-1,-1,36,38,40,42,44,46,48,-1,-1,-1,50,52,-1,-1,54,-1,-1,56,58,60,62,-1,64,-1,66,68,70,72,74,76,78,-1,80,-1,-1,82,84,-1,-1,86,88,90,92,-1,-1,94,96,98,100,-1,102,-1,-1,104,106,-1,-1,-1,-1,-1,-1,-1,-1,-1,-1,-1,-1,-1,-1,-1,-1,-1,-1,-1,-1,-1,-1,-1,-1,-1,-1,-1,-1,-1,-1,-1,-1],"split_conditions":[5.820766E-11,2.1196473E5,1E0,1E0,0E0,1.6E1,3.534639E5,4.06E2,1E0,4.8306116E5,3.3755306E5,-5.0818425E6,3.7E1,-8.015196E-2,2.34E2,0E0,1E0,8.179632E4,7.914278E-2,-7.8962736E-2,8.403858E5,1E0,4.436829E5,4.0920062E5,0E0,4.1989503E5,3.976532E4,-7.391759E-2,7.908492E-2,-7.911532E-2,1.26E2,0E0,-7.926169E-2,-7.739073E-2,8.307459E4,-4.6417043E-2,7.882625E-2,1E0,1E0,2.1E1,5.891943E5,-7.766578E-2,4.2203478E5,-7.938305E-2,1.01778125E6,4.138085E5,5.0618747E5,8.687826E4,4.452463E4,4.5E1,6.021512E4,-7.832907E-2,1.2379971E7,7.814325E-2,-7.4156485E-2,4.06E2,1.0002381E5,-5.151474E-2,7.913935E-2,1E1,1E0,-1.5920316E5,1.4E1,7.924339E-2,-7.566514E-2,4.5829612E5,9.7204425E5,3.5E1,2.434294E4,-7.940301E-2,5.1175897E5,-7.991187E-2,-8.198863E-2,4.116054E4,2.32E2,2.9183093E-3,7.436677E-2,-1.5321496E-2,1.7929344E-2,6.990918E-2,-7.667398E-2,5.1888544E-2,7.675667E-2,7.192194E-2,-7.900872E-2,7.4192345E-2,-7.8446105E-2,7.2993316E-2,7.915114E-2,-7.499108E-2,7.780454E-2,7.699564E-2,7.9093486E-2,-6.2778905E-2,-7.679286E-2,5.314488E-2,-5.1737905E-2,-7.966948E-2,-5.6738477E-2,1.0297852E-1,-7.858858E-2,7.811781E-2,-7.9469465E-2,6.153069E-2,-7.954051E-2,-7.8719296E-2,-7.9237394E-2],"split_indices":[6,1,8,8,6,0,1,0,10,7,1,7,0,0,0,6,10,1,0,0,1,8,1,1,7,5,6,0,0,0,0,6,0,0,1,0,0,10,10,0,1,0,1,0,6,5,6,1,5,0,1,0,5,0,0,0,5,0,0,0,8,7,0,0,0,5,5,0,1,0,1,0,0,1,0,0,0,0,0,0,0,0,0,0,0,0,0,0,0,0,0,0,0,0,0,0,0,0,0,0,0,0,0,0,0,0,0],"split_type":[0,0,0,0,0,0,0,0,0,0,0,0,0,0,0,0,0,0,0,0,0,0,0,0,0,0,0,0,0,0,0,0,0,0,0,0,0,0,0,0,0,0,0,0,0,0,0,0,0,0,0,0,0,0,0,0,0,0,0,0,0,0,0,0,0,0,0,0,0,0,0,0,0,0,0,0,0,0,0,0,0,0,0,0,0,0,0,0,0,0,0,0,0,0,0,0,0,0,0,0,0,0,0,0,0,0,0],"sum_hessian":[8.1106975E5,4.413868E5,3.696829E5,1.7118327E5,2.7020356E5,3.686371E5,1.0458251E3,1.0375584E5,6.742743E4,6.3821387E2,2.6956534E5,1.8219314E4,3.5041778E5,1.7480731E2,8.7101776E2,7.0619984E4,3.313585E4,1.3412654E2,6.7293305E4,4.0204254E2,2.361713E2,4.1447355E4,2.2811798E5,1.4103233E2,1.8078281E4,2.3399043E4,3.2701875E5,1.0077792E1,8.6093994E2,1.8073286E3,6.881266E4,3.296041E4,1.754412E2,4.1444748E1,9.268179E1,1.400847E0,2.3477045E2,2.2509895E4,1.8937463E4,2.686924E4,2.0124875E5,4.1530464E1,9.950188E1,7.7309404E3,1.0347341E4,6.7776987E3,1.6621344E4,4.2946008E4,2.8407272E5,1.7897645E4,5.091501E4,9.214632E1,3.2868266E4,7.824268E1,1.4439107E1,2.2144791E4,3.65103E2,1.8617903E0,1.89356E4,5.7195557E2,2.6297285E4,2.457268E4,1.7667606E5,8.012592E1,1.9375952E1,9.743847E3,6.0349493E2,6.6074375E3,1.7026097E2,1.4185625E4,2.4357183E3,3.727066E4,5.675349E3,7.678495E2,2.8330488E5,1.0153294E4,7.744351E3,2.3573537E4,2.7341477E4,3.2842445E4,2.5822353E1,1.3079939E4,9.064852E3,8.150579E1,2.8359723E2,4.84684E2,8.727157E1,1.3854385E4,1.24429E4,1.7917994E1,2.4554762E4,1.6650431E3,1.7501103E5,4.4704688E3,5.273378E3,1.04031494E2,4.9946344E2,5.2926055E3,1.3148322E3,8.653325E1,8.3727715E1,1.0441869E2,2.3312996E3,1.0794919E2,6.5990027E2,1.1610538E5,1.671995E5],"tree_param":{"num_deleted":"0","num_feature":"11","num_nodes":"107","size_leaf_vector":"1"}},{"base_weights":[-2.4414625E-5,1.2693708E0,-1.5211074E0,1.5446982E0,-1.1203521E0,-1.5269455E0,1.4163764E0,-6.852388E-2,1.5447409E0,-1.5784489E0,1.5195352E0,-1.5282338E0,-6.7810446E-1,-7.456145E-2,7.684254E-2,1.5520649E0,7.695324E-2,-1.3199874E0,-1.585194E0,1.5376436E0,-7.7664815E-2,-1.0038615E0,-1.5288938E0,-7.681533E-2,7.647737E-2,1.5652739E0,1.5384096E0,-7.899978E-2,1.032699E0,-7.68946E-2,-7.940259E-2,-5.291027E-2,7.691868E-2,6.1022705E-1,-7.680476E-2,-1.5125967E0,-1.5470291E0,7.840713E-2,7.776067E-2,7.6938614E-2,-1.13085106E-1,-7.456249E-2,1.4895732E0,1.4628528E0,-7.511323E-2,4.8467022E-1,-1.5249981E0,-1.5729988E0,-1.5419183E0,7.998454E-2,-6.036347E-2,7.7912174E-2,-5.5183448E-2,-1.5937105E-2,5.135059E-2,-5.13695E-2,-7.64839E-2,-7.827471E-2,-7.9514384E-2,-7.703338E-2,-7.831045E-2],"categories":[],"categories_nodes":[],"categories_segments":[],"categories_sizes":[],"default_left":[0,0,0,0,0,0,0,0,0,0,0,0,0,0,0,0,0,0,0,0,0,0,0,0,0,0,0,0,0,0,0,0,0,0,0,0,0,0,0,0,0,0,0,0,0,0,0,0,0,0,0,0,0,0,0,0,0,0,0,0,0],"id":7,"left_children":[1,3,5,7,9,11,13,-1,15,17,19,21,23,-1,-1,25,-1,27,29,31,-1,33,35,-1,-1,37,39,-1,41,-1,-1,-1,-1,43,-1,45,47,-1,-1,-1,-1,-1,49,51,-1,53,55,57,59,-1,-1,-1,-1,-1,-1,-1,-1,-1,-1,-1,-1],"loss_changes":[1.5352458E6,2.851688E5,6.2050625E3,5.05E1,5.4151906E4,3.93625E2,2.5378381E2,0E0,1.38125E1,6.442969E1,3.7084277E2,1.2325E2,1.042112E3,0E0,0E0,2.815625E1,0E0,5.9891895E2,2.5859375E0,1.4099609E1,0E0,3.9271497E2,1.040625E2,0E0,0E0,4.6875E-2,1.1846875E2,0E0,1.14967636E2,0E0,0E0,0E0,0E0,2.0717719E2,0E0,4.6979688E3,2.015625E1,0E0,0E0,0E0,0E0,0E0,2.6665482E1,2.1693848E1,0E0,5.105673E2,4.373125E2,1.1484375E0,1.9375E0,0E0,0E0,0E0,0E0,0E0,0E0,0E0,0E0,0E0,0E0,0E0,0E0],"parents":[2147483647,0,0,1,1,2,2,3,3,4,4,5,5,6,6,8,8,9,9,10,10,11,11,12,12,15,15,17,17,18,18,19,19,21,21,22,22,25,25,26,26,28,28,33,33,35,35,36,36,42,42,43,43,45,45,46,46,47,47,48,48],"right_children":[2,4,6,8,10,12,14,-1,16,18,20,22,24,-1,-1,26,-1,28,30,32,-1,34,36,-1,-1,38,40,-1,42,-1,-1,-1,-1,44,-1,46,48,-1,-1,-1,-1,-1,50,52,-1,54,56,58,60,-1,-1,-1,-1,-1,-1,-1,-1,-1,-1,-1,-1],"split_conditions":[5.820766E-11,2.8174E2,1.585932E6,0E0,4.8306116E5,3.5288006E5,1.2483449E6,-6.852388E-2,3.25976E5,-2.3293123E5,1.9702034E5,-5.0818425E6,1.7019355E5,-7.456145E-2,7.684254E-2,1E0,7.695324E-2,-2.3754327E5,0E0,3.1951794E5,-7.7664815E-2,9.412502E6,3.9E1,-7.681533E-2,7.647737E-2,2.02094E5,1.99283E3,-7.899978E-2,2.8673297E5,-7.68946E-2,-7.940259E-2,-5.291027E-2,7.691868E-2,1.99283E3,-7.680476E-2,5.17059E3,4.649678E4,7.840713E-2,7.776067E-2,7.6938614E-2,-1.13085106E-1,-7.456249E-2,3.42877E5,3.9E1,-7.511323E-2,2.2187883E5,4.479117E4,5.5655E4,1.56638E5,7.998454E-2,-6.036347E-2,7.7912174E-2,-5.5183448E-2,-1.5937105E-2,5.135059E-2,-5.13695E-2,-7.64839E-2,-7.827471E-2,-7.9514384E-2,-7.703338E-2,-7.831045E-2],"split_indices":[6,3,3,6,7,3,7,0,2,7,4,7,6,0,0,10,0,7,6,3,0,5,2,0,0,2,4,0,3,0,0,0,0,4,0,4,6,0,0,0,0,0,2,2,0,6,4,2,2,0,0,0,0,0,0,0,0,0,0,0,0],"split_type":[0,0,0,0,0,0,0,0,0,0,0,0,0,0,0,0,0,0,0,0,0,0,0,0,0,0,0,0,0,0,0,0,0,0,0,0,0,0,0,0,0,0,0,0,0,0,0,0,0,0,0,0,0,0,0,0,0,0,0,0,0],"sum_hessian":[7.951096E5,4.3341244E5,3.616972E5,3.8863675E5,4.477569E4,3.6098022E5,7.1694965E2,5.2196355E0,3.8863153E5,3.8155086E4,6.6206074E3,3.6043244E5,5.4779974E2,2.80717E1,6.888779E2,1.6956642E5,2.190651E5,9.7541E2,3.7179676E4,6.582317E3,3.829049E1,4.5504736E2,3.5997738E5,3.9467712E2,1.531226E2,8.613438E4,8.343205E4,8.7863556E2,9.677441E1,2.1488914E3,3.5030785E4,1.4429238E0,6.580874E3,1.12803894E2,3.4224347E2,1.8964261E5,1.7033477E5,6.6901734E4,1.9232643E4,8.342468E4,7.3659234E0,1.4485716E1,8.22887E1,8.058599E1,3.2217903E1,1.1700166E3,1.884726E5,2.7959312E4,1.4237547E5,7.945136E1,2.83733E0,7.807694E1,2.5090516E0,4.716852E2,6.9833136E2,1.7580739E3,1.8671452E5,1.9560283E4,8.399027E3,1.3546484E5,6.910616E3],"tree_param":{"num_deleted":"0","num_feature":"11","num_nodes":"61","size_leaf_vector":"1"}},{"base_weights":[-2.2167826E-5,-1.0698497E0,9.9552196E-1,8.219554E-1,-1.3337497E0,1.2071875E0,-9.704121E-1,1.4033136E-2,1.4795407E0,-6.4192086E-1,-1.4810603E0,5.784441E-1,1.4154856E0,-1.5250387E0,1.4790845E0,1.382734E0,-3.663412E-1,1.4931718E0,-7.46829E-2,-1.3765317E0,2.0507611E-1,-1.2880456E0,-1.4877189E0,1.1738902E0,-7.505056E-2,1.1817496E0,1.477793E0,-1.532126E0,8.228044E-1,-7.3850684E-2,7.4911706E-2,-7.557211E-2,1.4489311E0,-7.478646E-1,9.829197E-1,7.472866E-2,-6.908009E-2,3.304169E-1,-1.4787947E0,5.7758003E-1,-7.66592E-2,-8.202678E-1,-1.3668967E0,-1.1432014E0,-1.4893447E0,1.4848005E0,9.019139E-1,1.3648764E0,-7.489022E-2,1.419851E0,1.4930717E0,-1.4321764E0,-7.701404E-2,7.283609E-2,-7.397299E-2,1.4787716E0,-7.3864594E-2,-5.714875E-1,-7.6553E-2,1.1165218E0,-7.8144364E-2,-2.746635E-1,1.3618544E0,-1.2653766E0,-7.499191E-2,1.4745977E0,2.7639613E-1,4.248638E-2,-7.543246E-2,4.3637124E-1,-1.3951479E0,-7.551985E-2,1.1375577E0,-1.4901781E0,-1.1866648E0,1.2971772E0,7.4869476E-2,1.4325516E0,6.1589545E-1,1.4902333E0,1.2238296E0,1.469192E0,-7.4828E-2,1.4767269E0,7.486486E-2,-7.6620586E-2,-8.8413996E-1,7.483452E-2,-7.421155E-2,-5.9780475E-2,-9.549289E-3,7.044476E-2,4.434397E-2,-7.512967E-2,6.3958205E-2,7.262868E-2,-8.1254944E-2,-6.855651E-2,-3.7614487E-3,7.3819846E-2,-6.063295E-2,-4.975001E-3,6.19235E-2,-7.5889796E-2,6.1275065E-2,-7.392797E-2,6.466624E-2,-7.313735E-2,-3.7385214E-2,-7.6835155E-2,7.4130654E-2,-7.215707E-2,-7.4712E-2,6.6298924E-2,-7.4936986E-2,6.9418475E-2,3.4017623E-3,7.477341E-2,5.7025768E-2,1.3105999E-2,6.589018E-2,7.133103E-2,7.4922614E-2,4.3264814E-2,6.798189E-2,7.430337E-2,6.909805E-2,7.461884E-2,-7.9223156E-2,8.425888E-3,-7.629343E-2],"categories":[],"categories_nodes":[],"categories_segments":[],"categories_sizes":[],"default_left":[0,0,0,0,0,0,0,0,0,0,0,0,0,0,0,0,0,0,0,0,0,0,0,0,0,0,0,0,0,0,0,0,0,0,0,0,0,0,0,0,0,0,0,0,0,0,0,0,0,0,0,0,0,0,0,0,0,0,0,0,0,0,0,0,0,0,0,0,0,0,0,0,0,0,0,0,0,0,0,0,0,0,0,0,0,0,0,0,0,0,0,0,0,0,0,0,0,0,0,0,0,0,0,0,0,0,0,0,0,0,0,0,0,0,0,0,0,0,0,0,0,0,0,0,0,0,0,0,0,0,0],"id":8,"left_children":[1,3,5,7,9,11,13,15,17,19,21,23,25,27,29,31,33,35,-1,37,39,41,43,45,-1,47,49,51,53,-1,-1,-1,55,57,59,-1,-1,61,63,65,-1,67,69,71,73,75,77,79,-1,81,83,85,-1,-1,-1,87,-1,89,-1,91,-1,93,95,97,-1,99,101,103,-1,105,107,-1,109,111,113,115,-1,117,119,121,123,125,-1,127,-1,-1,129,-1,-1,-1,-1,-1,-1,-1,-1,-1,-1,-1,-1,-1,-1,-1,-1,-1,-1,-1,-1,-1,-1,-1,-1,-1,-1,-1,-1,-1,-1,-1,-1,-1,-1,-1,-1,-1,-1,-1,-1,-1,-1,-1,-1],"loss_changes":[8.2684006E5,1.868219E5,1.6733434E5,2.4338094E4,3.3467062E4,4.7545125E4,5.310522E4,1.0702642E4,1.0257656E3,3.5871766E4,3.46E2,1.1186637E5,3.9695625E3,5.3160156E2,4.1075195E2,8.587119E2,8.281857E3,1.0335156E2,0E0,5.3898047E3,1.734006E4,3.321797E2,1.44875E2,5.9376406E3,0E0,2.8167422E4,1.8853125E2,2.36875E1,1.4309451E2,0E0,0E0,0E0,3.8387988E2,1.731561E3,1.208008E3,0E0,0E0,1.090015E3,1.2892188E2,5.9576543E3,0E0,7.756894E2,3.9447266E2,1.0347415E3,6.39375E1,7.546094E1,5.6852676E3,9.481328E2,0E0,6.4698906E3,9.53125E0,1.3110107E2,0E0,0E0,0E0,2.319873E2,0E0,2.4310286E3,0E0,2.2503516E2,0E0,2.1030583E3,1.773291E2,3.297588E2,0E0,2.859082E1,5.9711904E3,1.0734702E3,0E0,1.9885994E2,3.3206934E2,0E0,1.6064305E2,4.74375E1,5.666994E2,2.3170312E2,0E0,2.3937305E2,6.045048E3,1.2734375E1,1.2301016E3,6.3007812E1,0E0,1.6822891E3,0E0,0E0,2.5370383E2,0E0,0E0,0E0,0E0,0E0,0E0,0E0,0E0,0E0,0E0,0E0,0E0,0E0,0E0,0E0,0E0,0E0,0E0,0E0,0E0,0E0,0E0,0E0,0E0,0E0,0E0,0E0,0E0,0E0,0E0,0E0,0E0,0E0,0E0,0E0,0E0,0E0,0E0,0E0,0E0,0E0,0E0,0E0,0E0],"parents":[2147483647,0,0,1,1,2,2,3,3,4,4,5,5,6,6,7,7,8,8,9,9,10,10,11,11,12,12,13,13,14,14,15,15,16,16,17,17,19,19,20,20,21,21,22,22,23,23,25,25,26,26,27,27,28,28,32,32,33,33,34,34,37,37,38,38,39,39,41,41,42,42,43,43,44,44,45,45,46,46,47,47,49,49,50,50,51,51,55,55,57,57,59,59,61,61,62,62,63,63,65,65,66,66,67,67,69,69,70,70,72,72,73,73,74,74,75,75,77,77,78,78,79,79,80,80,81,81,83,83,86,86],"right_children":[2,4,6,8,10,12,14,16,18,20,22,24,26,28,30,32,34,36,-1,38,40,42,44,46,-1,48,50,52,54,-1,-1,-1,56,58,60,-1,-1,62,64,66,-1,68,70,72,74,76,78,80,-1,82,84,86,-1,-1,-1,88,-1,90,-1,92,-1,94,96,98,-1,100,102,104,-1,106,108,-1,110,112,114,116,-1,118,120,122,124,126,-1,128,-1,-1,130,-1,-1,-1,-1,-1,-1,-1,-1,-1,-1,-1,-1,-1,-1,-1,-1,-1,-1,-1,-1,-1,-1,-1,-1,-1,-1,-1,-1,-1,-1,-1,-1,-1,-1,-1,-1,-1,-1,-1,-1,-1,-1,-1,-1],"split_conditions":[5.5655E4,5.66808E4,2.8174E2,1E0,5.138065E4,1.6577314E5,1E0,9E0,5.643332E4,1.211E3,1.4E1,1.667069E5,3.25976E5,9.426721E5,3.033972E5,1.63E2,4.06E2,2.8174E2,-7.46829E-2,1.38404E3,2.8174E2,2.8157844E5,5.264899E4,7.377329E4,-7.505056E-2,3.2655594E5,5.3433225E5,1.8E1,6.702314E5,-7.3850684E-2,7.4911706E-2,-7.557211E-2,5.517079E4,2.8174E2,2.8174E2,7.472866E-2,-6.908009E-2,1.92E2,2.3E1,9E0,-7.66592E-2,3.9E1,2E0,5.1242E4,5.4719E4,1E0,1E1,2.0908298E5,-7.489022E-2,5.382869E5,8.28151E5,1.7E1,-7.701404E-2,7.283609E-2,-7.397299E-2,2.8174E2,-7.3864594E-2,4.173E3,-7.6553E-2,9.59289E3,-7.8144364E-2,4.22E2,5.04E2,2.1E1,-7.499191E-2,5.009284E4,3.1502E4,1.489376E5,-7.543246E-2,6.6786265E6,1.0699581E6,-7.551985E-2,4.04E2,3.7E1,8E0,9.071686E4,7.4869476E-2,9E0,4.06E2,1E0,2.09461E5,8.029817E5,-7.4828E-2,8.403858E5,7.486486E-2,-7.6620586E-2,4.243495E4,7.483452E-2,-7.421155E-2,-5.9780475E-2,-9.549289E-3,7.044476E-2,4.434397E-2,-7.512967E-2,6.3958205E-2,7.262868E-2,-8.1254944E-2,-6.855651E-2,-3.7614487E-3,7.3819846E-2,-6.063295E-2,-4.975001E-3,6.19235E-2,-7.5889796E-2,6.1275065E-2,-7.392797E-2,6.466624E-2,-7.313735E-2,-3.7385214E-2,-7.6835155E-2,7.4130654E-2,-7.215707E-2,-7.4712E-2,6.6298924E-2,-7.4936986E-2,6.9418475E-2,3.4017623E-3,7.477341E-2,5.7025768E-2,1.3105999E-2,6.589018E-2,7.133103E-2,7.4922614E-2,4.3264814E-2,6.798189E-2,7.430337E-2,6.909805E-2,7.461884E-2,-7.9223156E-2,8.425888E-3,-7.629343E-2],"split_indices":[2,5,3,8,1,2,8,9,1,2,0,1,2,1,1,2,0,3,0,1,3,5,1,5,0,1,2,0,5,0,0,0,1,3,3,0,0,2,0,9,0,2,9,2,2,8,9,5,0,1,2,0,0,0,0,3,0,2,0,1,0,0,2,0,0,1,2,1,0,5,1,0,0,0,9,1,0,9,0,8,2,5,0,1,0,0,1,0,0,0,0,0,0,0,0,0,0,0,0,0,0,0,0,0,0,0,0,0,0,0,0,0,0,0,0,0,0,0,0,0,0,0,0,0,0,0,0,0,0,0,0],"split_type":[0,0,0,0,0,0,0,0,0,0,0,0,0,0,0,0,0,0,0,0,0,0,0,0,0,0,0,0,0,0,0,0,0,0,0,0,0,0,0,0,0,0,0,0,0,0,0,0,0,0,0,0,0,0,0,0,0,0,0,0,0,0,0,0,0,0,0,0,0,0,0,0,0,0,0,0,0,0,0,0,0,0,0,0,0,0,0,0,0,0,0,0,0,0,0,0,0,0,0,0,0,0,0,0,0,0,0,0,0,0,0,0,0,0,0,0,0,0,0,0,0,0,0,0,0,0,0,0,0,0,0],"sum_hessian":[7.763295E5,3.7420394E5,4.021256E5,4.580953E4,3.283944E5,3.6303878E5,3.9086797E4,2.0555574E4,2.5253959E4,5.7650438E4,2.7074397E5,9.034327E4,2.726955E5,3.1870828E4,7.215967E3,4.4696826E3,1.6085891E4,2.5139201E4,1.1475709E2,3.087315E4,2.677729E4,9.035254E3,2.6170872E5,7.023276E4,2.0110514E4,5.7397566E4,2.1529795E5,3.1775258E4,9.557048E1,4.595411E1,7.1700127E3,9.945876E1,4.3702236E3,1.2540364E4,3.5455269E3,2.5127432E4,1.1769808E1,1.7449321E3,2.9128219E4,2.2052229E4,4.725059E3,1.3049781E3,7.7302754E3,1.2324827E3,2.6047623E5,3.27687E4,3.746406E4,5.3726277E4,3.6712864E3,4.494512E4,1.7035283E5,2.4102327E3,2.9365025E4,7.522492E1,2.034556E1,4.326597E3,4.3626328E1,1.0236757E4,2.3036077E3,3.3692715E3,1.7625543E2,1.1002295E3,6.447027E2,2.6198145E3,2.6508404E4,5.5421416E3,1.6510088E4,5.7955505E2,7.2542303E2,1.1901637E2,7.6112593E3,1.0618634E3,1.7061923E2,2.5975706E5,7.191737E2,2.0669912E3,3.0701709E4,1.3119678E4,2.4344383E4,2.8440188E4,2.5286092E4,4.419786E4,7.4726135E2,3.506492E4,1.352879E5,2.0360454E3,3.7418713E2,4.3010815E3,2.5515865E1,3.876365E3,6.3603916E3,1.4799324E3,1.889339E3,6.1458203E2,4.8564746E2,6.2619763E2,1.8505064E1,2.4058816E3,2.1393285E2,5.538884E3,3.2579648E0,1.1872304E4,4.6377837E3,2.4980434E2,3.2975073E2,3.6570755E1,8.244562E1,6.890561E3,7.206981E2,1.910414E1,1.5151509E2,2.0676648E4,2.3908042E5,7.90954E1,6.400783E2,1.9241086E3,1.4288246E2,1.0790782E4,2.3288955E3,1.6187126E4,8.157256E3,3.2741086E3,2.5166078E4,6.9487593E3,1.8337332E4,3.702007E4,7.1777886E3,3.488708E4,1.7784328E2,1.4199821E2,2.321889E2],"tree_param":{"num_deleted":"0","num_feature":"11","num_nodes":"131","size_leaf_vector":"1"}},{"base_weights":[-3.5118133E-5,1.2085159E0,-1.447967E0,1.470329E0,-1.0611302E0,-1.4547127E0,9.2914724E-1,-6.696849E-2,1.4703717E0,-1.4882431E0,1.4363579E0,-1.3274812E0,-1.461366E0,-7.5070664E-2,7.2862394E-2,1.477427E0,1.4627916E0,-1.0016146E0,-1.4940933E0,-7.2006606E-2,1.4617034E0,-8.4724516E-1,-1.4143324E0,-1.4167371E0,-1.4645634E0,1.4966059E0,1.4713438E0,7.3148035E-2,-1.0838713E-1,4.2384422E-1,-7.499832E-2,-1.3830445E0,-1.5008245E0,-4.1066986E-2,7.3112845E-2,-9.158711E-1,1.4148325E0,-1.4333887E0,-6.190852E-1,-1.3363508E0,-1.4496548E0,-1.4950824E0,-1.4598924E0,1.5149254E0,7.364986E-2,7.321845E-2,1.47743E0,-7.106026E-2,1.2685779E0,-7.482471E-2,-8.77279E-1,-7.3049985E-2,-7.515309E-2,-7.582901E-2,-7.5633585E-1,7.407823E-2,-4.7038376E-2,-1.2062347E0,-1.451648E0,4.590611E-1,-7.510239E-2,-1.3820933E0,3.8281825E-1,-7.353126E-2,-1.3270829E0,-7.6155104E-2,-7.447798E-2,-1.0809863E0,-1.4609374E0,7.617476E-2,7.514796E-2,7.447581E-2,7.363071E-2,7.055627E-2,-5.8259774E-2,-7.496359E-2,2.7159585E-3,1.00340866E-1,-4.432587E-2,-7.465701E-2,2.671024E-2,-6.458658E-2,-7.372673E-2,-7.49001E-2,1.00770965E-1,-7.395669E-2,-4.9811684E-2,9.839679E-2,-7.254007E-2,1.5511348E-2,-7.337141E-2,3.7302773E-2,-7.418955E-2,-7.3643394E-2,-7.289697E-2],"categories":[],"categories_nodes":[],"categories_segments":[],"categories_sizes":[],"default_left":[0,0,0,0,0,0,0,0,0,0,0,0,0,0,0,0,0,0,0,0,0,0,0,0,0,0,0,0,0,0,0,0,0,0,0,0,0,0,0,0,0,0,0,0,0,0,0,0,0,0,0,0,0,0,0,0,0,0,0,0,0,0,0,0,0,0,0,0,0,0,0,0,0,0,0,0,0,0,0,0,0,0,0,0,0,0,0,0,0,0,0,0,0,0,0],"id":9,"left_children":[1,3,5,7,9,11,13,-1,15,17,19,21,23,-1,-1,25,27,29,31,-1,33,35,37,39,41,43,45,-1,-1,47,-1,49,51,-1,-1,53,55,57,59,61,63,65,67,69,-1,-1,71,-1,73,-1,75,-1,-1,-1,77,-1,-1,79,81,83,-1,85,87,-1,89,-1,-1,91,93,-1,-1,-1,-1,-1,-1,-1,-1,-1,-1,-1,-1,-1,-1,-1,-1,-1,-1,-1,-1,-1,-1,-1,-1,-1,-1],"loss_changes":[1.3261034E6,2.45447E5,5.5298125E3,4.63125E1,4.557201E4,2.890625E2,1.2552324E3,0E0,1.7625E1,1.02359375E2,4.5699707E2,7.1182227E2,4.45E1,0E0,0E0,2.0125E1,1.128125E2,3.1064746E2,2.4867188E1,0E0,9.017578E0,4.081211E2,2.1848242E2,5.59375E1,4.125E1,1.7710938E1,4.03125E0,0E0,0E0,1.7921124E2,0E0,1.17621826E2,8.28125E-1,0E0,0E0,2.4266626E2,1.3585312E1,5.688086E1,3.2484778E2,5.0121875E2,3.7902344E1,3.9921875E0,1.03125E2,3.671875E-1,0E0,0E0,2.328125E0,0E0,2.891549E1,0E0,2.215373E2,0E0,0E0,0E0,7.256019E2,0E0,0E0,5.289298E2,4.596289E1,4.7232526E2,0E0,2.3075879E2,4.8475143E2,0E0,5.2332227E2,0E0,0E0,5.391143E2,7.25E0,0E0,0E0,0E0,0E0,0E0,0E0,0E0,0E0,0E0,0E0,0E0,0E0,0E0,0E0,0E0,0E0,0E0,0E0,0E0,0E0,0E0,0E0,0E0,0E0,0E0,0E0],"parents":[2147483647,0,0,1,1,2,2,3,3,4,4,5,5,6,6,8,8,9,9,10,10,11,11,12,12,15,15,16,16,17,17,18,18,20,20,21,21,22,22,23,23,24,24,25,25,26,26,29,29,31,31,32,32,35,35,36,36,37,37,38,38,39,39,40,40,41,41,42,42,43,43,46,46,48,48,50,50,54,54,57,57,58,58,59,59,61,61,62,62,64,64,67,67,68,68],"right_children":[2,4,6,8,10,12,14,-1,16,18,20,22,24,-1,-1,26,28,30,32,-1,34,36,38,40,42,44,46,-1,-1,48,-1,50,52,-1,-1,54,56,58,60,62,64,66,68,70,-1,-1,72,-1,74,-1,76,-1,-1,-1,78,-1,-1,80,82,84,-1,86,88,-1,90,-1,-1,92,94,-1,-1,-1,-1,-1,-1,-1,-1,-1,-1,-1,-1,-1,-1,-1,-1,-1,-1,-1,-1,-1,-1,-1,-1,-1,-1],"split_conditions":[5.820766E-11,2.8174E2,1E0,0E0,1E0,1.6E1,2.031486E5,-6.696849E-2,1E0,1E1,1E0,5.17059E3,3.7E1,-7.5070664E-2,7.2862394E-2,3.498466E5,1.99283E3,-5.820766E-11,1.8E1,-7.2006606E-2,3.5288006E5,8.889384E6,1.7096062E6,4.1989503E5,3.976532E4,4.06E2,2.7451238E5,7.3148035E-2,-1.0838713E-1,1E0,-7.499832E-2,1.7E1,0E0,-4.1066986E-2,7.3112845E-2,9.437139E4,9.412502E6,4.479117E4,3.23255E6,4.138085E5,5.0618747E5,2.1568E4,4.452463E4,1.6712184E5,7.364986E-2,7.321845E-2,1.1642248E6,-7.106026E-2,6.702314E5,-7.482471E-2,2.9691078E5,-7.3049985E-2,-7.515309E-2,-7.582901E-2,9.57568E4,7.407823E-2,-4.7038376E-2,4.070899E4,3.976532E4,3.1663048E6,-7.510239E-2,3.5E1,2.350291E4,-7.353126E-2,5.2058578E5,-7.6155104E-2,-7.447798E-2,4.110741E4,9.437139E4,7.617476E-2,7.514796E-2,7.447581E-2,7.363071E-2,7.055627E-2,-5.8259774E-2,-7.496359E-2,2.7159585E-3,1.00340866E-1,-4.432587E-2,-7.465701E-2,2.671024E-2,-6.458658E-2,-7.372673E-2,-7.49001E-2,1.00770965E-1,-7.395669E-2,-4.9811684E-2,9.839679E-2,-7.254007E-2,1.5511348E-2,-7.337141E-2,3.7302773E-2,-7.418955E-2,-7.3643394E-2,-7.289697E-2],"split_indices":[6,3,8,6,8,0,3,0,10,0,10,4,0,0,0,5,4,6,0,0,3,5,6,5,6,0,4,0,0,10,0,0,6,0,0,6,5,4,5,5,6,4,5,5,0,0,5,0,5,0,3,0,0,0,6,0,0,4,6,5,0,0,6,0,6,0,0,6,6,0,0,0,0,0,0,0,0,0,0,0,0,0,0,0,0,0,0,0,0,0,0,0,0,0,0],"split_type":[0,0,0,0,0,0,0,0,0,0,0,0,0,0,0,0,0,0,0,0,0,0,0,0,0,0,0,0,0,0,0,0,0,0,0,0,0,0,0,0,0,0,0,0,0,0,0,0,0,0,0,0,0,0,0,0,0,0,0,0,0,0,0,0,0,0,0,0,0,0,0,0,0,0,0,0,0,0,0,0,0,0,0,0,0,0,0,0,0,0,0,0,0,0,0],"sum_hessian":[7.578148E5,4.130516E5,3.4476325E5,3.7033256E5,4.271905E4,3.4378803E5,9.752104E2,5.1485257E0,3.703274E5,3.6480645E4,6.2384062E3,1.7094135E4,3.2669388E5,1.7373935E2,8.01471E2,1.917041E5,1.7862331E5,4.3540268E2,3.6045242E4,5.4000603E1,6.1844053E3,2.6196697E3,1.4474465E4,2.1870139E4,3.0482375E5,4.6104664E4,1.4559944E5,1.786156E5,7.718746E0,1.12827225E2,3.2257544E2,2.0717927E3,3.397345E4,1.1397201E0,6.1832656E3,2.543113E3,7.655678E1,1.4134949E4,3.3951566E2,6.3659224E3,1.5504216E4,4.041879E4,2.6440497E5,2.5924768E4,2.0179896E4,6.7960016E4,7.763942E4,3.521938E1,7.760785E1,1.6906082E3,3.8118457E2,1.8418846E3,3.2131564E4,5.3188055E2,2.0112323E3,7.4808556E1,1.7482194E0,1.0566576E3,1.3078291E4,1.5307846E2,1.864372E2,6.201123E3,1.647994E2,1.3229793E4,2.2744226E3,6.609871E3,3.3808918E4,7.300469E2,2.636749E5,1.5032664E4,1.0892104E4,2.2033777E4,5.560564E4,7.371076E1,3.8970888E0,2.2820883E2,1.5297574E2,8.984393E1,1.9213884E3,9.072438E2,1.4941383E2,1.644568E3,1.1433724E4,6.782656E1,8.525191E1,4.952722E3,1.2484009E3,8.83499E1,7.644949E1,1.7946944E2,2.0949531E3,1.3172348E2,5.983234E2,5.2854637E4,2.1082028E5],"tree_param":{"num_deleted":"0","num_feature":"11","num_nodes":"95","size_leaf_vector":"1"}},{"base_weights":[-3.293649E-5,1.1808532E0,-1.4147341E0,1.4368436E0,-1.0357109E0,-1.4213247E0,9.079069E-1,-6.515421E-2,1.4368857E0,-1.457915E0,1.4122682E0,-1.4016092E0,-1.4431454E0,-7.324144E-2,7.122553E-2,1.4468355E0,7.1572736E-2,-1.2033687E0,-1.4645848E0,1.4291828E0,-7.161195E-2,6.205934E-1,-1.4157642E0,-1.4824888E0,-1.4351466E0,1.4628656E0,1.4299722E0,-7.3033005E-2,1.0288744E0,-7.144286E-2,-7.3335856E-2,-4.9548566E-2,7.149496E-2,-2.1389934E-1,1.1201122E0,-9.066007E-1,-1.4206728E0,-1.4708599E0,-1.507713E0,-7.166895E-2,-1.4690548E0,1.4266702E0,7.318805E-2,7.151921E-2,-9.941321E-2,-6.861971E-2,1.444929E0,4.436496E-1,-7.8845486E-2,1.6321748E0,5.767058E-1,-7.26765E-2,1.2909076E0,-1.4124453E0,-7.158666E-2,-7.179589E-2,-1.4772153E0,-1.5262418E0,-7.137501E-2,-7.637042E-2,-7.207872E-2,7.200889E-2,5.696332E-2,7.7296145E-2,-5.5211764E-2,-7.429963E-2,4.970674E-2,-7.557888E-2,8.476933E-2,-8.233358E-2,5.087883E-2,-7.972982E-2,1.01047814E-1,-7.07665E-2,8.428207E-2,-7.445927E-2,-7.2630815E-2,-7.579218E-2,-7.7998616E-2],"categories":[],"categories_nodes":[],"categories_segments":[],"categories_sizes":[],"default_left":[0,0,0,0,0,0,0,0,0,0,0,0,0,0,0,0,0,0,0,0,0,0,0,0,0,0,0,0,0,0,0,0,0,0,0,0,0,0,0,0,0,0,0,0,0,0,0,0,0,0,0,0,0,0,0,0,0,0,0,0,0,0,0,0,0,0,0,0,0,0,0,0,0,0,0,0,0,0,0],"id":10,"left_children":[1,3,5,7,9,11,13,-1,15,17,19,21,23,-1,-1,25,-1,27,29,31,-1,33,35,37,39,41,43,-1,45,-1,-1,-1,-1,47,49,51,53,55,57,-1,59,61,-1,-1,-1,-1,63,65,-1,67,69,-1,71,73,-1,-1,75,77,-1,-1,-1,-1,-1,-1,-1,-1,-1,-1,-1,-1,-1,-1,-1,-1,-1,-1,-1,-1,-1],"loss_changes":[1.2317941E6,2.2803488E5,5.1363125E3,4.34375E1,4.3006004E4,1.419375E2,1.1663025E3,0E0,1.74375E1,5.8492188E1,2.9655566E2,5.0320938E3,4.78125E1,0E0,0E0,3.228125E1,0E0,5.251549E2,5.46875E-1,1.1966797E1,0E0,5.0982187E2,4.349375E2,5.640625E0,5.8125E0,1.5625E-2,9.014844E1,0E0,9.670917E1,0E0,0E0,0E0,0E0,4.1171225E2,2.1189307E2,2.008262E3,1.36875E1,1.9609375E0,1.0326172E1,0E0,8.217773E0,4.616211E0,0E0,0E0,0E0,0E0,2.2637848E1,3.3091418E2,0E0,8.071069E1,3.6693567E2,0E0,7.051541E2,8.889844E2,0E0,0E0,2.40625E0,2.734375E-2,0E0,0E0,0E0,0E0,0E0,0E0,0E0,0E0,0E0,0E0,0E0,0E0,0E0,0E0,0E0,0E0,0E0,0E0,0E0,0E0,0E0],"parents":[2147483647,0,0,1,1,2,2,3,3,4,4,5,5,6,6,8,8,9,9,10,10,11,11,12,12,15,15,17,17,18,18,19,19,21,21,22,22,23,23,24,24,25,25,26,26,28,28,33,33,34,34,35,35,36,36,37,37,38,38,40,40,41,41,46,46,47,47,49,49,50,50,52,52,53,53,56,56,57,57],"right_children":[2,4,6,8,10,12,14,-1,16,18,20,22,24,-1,-1,26,-1,28,30,32,-1,34,36,38,40,42,44,-1,46,-1,-1,-1,-1,48,50,52,54,56,58,-1,60,62,-1,-1,-1,-1,64,66,-1,68,70,-1,72,74,-1,-1,76,78,-1,-1,-1,-1,-1,-1,-1,-1,-1,-1,-1,-1,-1,-1,-1,-1,-1,-1,-1,-1,-1],"split_conditions":[5.820766E-11,2.8174E2,1E0,0E0,4.8306116E5,3.9E1,2.031486E5,-6.515421E-2,2.16222E5,-2.3293123E5,1.9702034E5,5.17059E3,4.649678E4,-7.324144E-2,7.122553E-2,1E0,7.1572736E-2,-2.3754327E5,0E0,3.1951794E5,-7.161195E-2,2.2187883E5,4.479117E4,5.5655E4,1.56638E5,1.211E3,1.99283E3,-7.3033005E-2,2.8673297E5,-7.144286E-2,-7.3335856E-2,-4.9548566E-2,7.149496E-2,9.57568E4,2.9264103E5,1.1158192E5,1.2904448E6,1.211E3,2.8174E2,-7.166895E-2,1.2647326E5,5.04E2,7.318805E-2,7.151921E-2,-9.941321E-2,-6.861971E-2,3.42877E5,3.976532E4,-7.8845486E-2,-1.4551915E-11,4.151302E5,-7.26765E-2,3.262348E4,1.7096062E6,-7.158666E-2,-7.179589E-2,2.6651E4,1.6577314E5,-7.137501E-2,-7.637042E-2,-7.207872E-2,7.200889E-2,5.696332E-2,7.7296145E-2,-5.5211764E-2,-7.429963E-2,4.970674E-2,-7.557888E-2,8.476933E-2,-8.233358E-2,5.087883E-2,-7.972982E-2,1.01047814E-1,-7.07665E-2,8.428207E-2,-7.445927E-2,-7.2630815E-2,-7.579218E-2,-7.7998616E-2],"split_indices":[6,3,8,6,7,2,3,0,2,7,4,4,6,0,0,10,0,7,6,3,0,6,4,2,2,2,4,0,3,0,0,0,0,6,6,6,4,2,3,0,6,2,0,0,0,0,2,6,0,7,6,0,4,6,0,0,2,2,0,0,0,0,0,0,0,0,0,0,0,0,0,0,0,0,0,0,0,0,0],"split_type":[0,0,0,0,0,0,0,0,0,0,0,0,0,0,0,0,0,0,0,0,0,0,0,0,0,0,0,0,0,0,0,0,0,0,0,0,0,0,0,0,0,0,0,0,0,0,0,0,0,0,0,0,0,0,0,0,0,0,0,0,0,0,0,0,0,0,0,0,0,0,0,0,0,0,0,0,0,0,0],"sum_hessian":[7.373339E5,4.018772E5,3.3545672E5,3.6027006E5,4.160714E4,3.345079E5,9.4878766E2,5.057445E0,3.60265E5,3.5487074E4,6.120066E3,1.7576525E5,1.5874267E5,1.6931172E2,7.794759E2,1.27118516E5,2.3314648E5,9.1075024E2,3.4576324E4,6.0843833E3,3.5682728E1,1.2214749E3,1.7454377E5,2.6789639E4,1.3195303E5,6.512544E4,6.199308E4,8.169349E2,9.381541E1,1.9852028E3,3.259112E4,1.391291E0,6.082992E3,4.5759363E2,7.6388116E2,1.6683701E3,1.728754E5,1.8376857E4,8.412781E3,1.2545658E5,6.4964517E3,1.610784E3,6.3514656E4,6.1986188E4,6.888515E0,1.3514954E1,8.030045E1,3.091343E2,1.4845932E2,3.9225134E2,3.7162985E2,1.3361576E3,3.3221252E2,9.920699E4,7.3668414E4,2.8629924E3,1.5513866E4,6.819489E3,1.5932924E3,2.0624236E3,4.434028E3,1.534647E3,7.613709E1,7.761887E1,2.6815796E0,6.823776E1,2.4089653E2,7.279958E0,3.8497137E2,6.1043472E1,3.1058636E2,6.684089E1,2.6537164E2,9.911525E4,9.174306E1,1.0395714E4,5.118152E3,5.2477017E3,1.571787E3],"tree_param":{"num_deleted":"0","num_feature":"11","num_nodes":"79","size_leaf_vector":"1"}},{"base_weights":[-3.317356E-5,1.1557246E0,-1.3845472E0,1.4064059E0,-1.0127445E0,-1.390997E0,8.8857305E-1,-6.347521E-2,1.4064475E0,-1.42526E0,1.3926022E0,-1.2624801E0,-1.3977498E0,-7.158146E-2,6.973504E-2,1.4152966E0,7.008329E-2,-1.3339005E0,-7.1590036E-2,6.999653E-2,-6.8201505E-2,-1.136572E0,-7.106178E-2,-1.3848959E0,-1.4118749E0,1.4292663E0,7.001985E-2,-7.141423E-2,-8.2844204E-1,-6.1587876E-1,-1.2328453E0,-1.2969576E0,-1.3913609E0,-1.4466338E0,-1.4042673E0,1.4437414E0,7.051272E-2,-7.147141E-2,5.183828E-2,-7.112607E-2,2.942351E-1,-1.2938038E0,-3.187962E-1,-9.8936975E-1,-1.3692523E0,-1.0935129E0,-1.393091E0,-1.4355366E0,-1.4716656E0,-7.013803E-2,-1.4342178E0,6.919598E-2,7.226E-2,7.256453E-2,-7.2507374E-2,-7.147296E-2,3.661802E-2,-6.771801E-2,-4.9219776E-2,5.344027E-2,-7.2036944E-2,-5.572613E-2,5.7046123E-2,-7.0213094E-2,-5.7160776E-2,-7.1093984E-2,-1.6767038E-3,-6.807532E-2,-6.982339E-2,-7.246674E-2,-6.995033E-2,-7.433345E-2,-6.9838114E-2,-7.543002E-2,-7.057256E-2],"categories":[],"categories_nodes":[],"categories_segments":[],"categories_sizes":[],"default_left":[0,0,0,0,0,0,0,0,0,0,0,0,0,0,0,0,0,0,0,0,0,0,0,0,0,0,0,0,0,0,0,0,0,0,0,0,0,0,0,0,0,0,0,0,0,0,0,0,0,0,0,0,0,0,0,0,0,0,0,0,0,0,0,0,0,0,0,0,0,0,0,0,0,0,0],"id":11,"left_children":[1,3,5,7,9,11,13,-1,15,17,19,21,23,-1,-1,25,-1,27,-1,-1,-1,29,-1,31,33,35,-1,-1,37,39,41,43,45,47,49,51,-1,-1,53,-1,55,57,59,61,63,65,67,69,71,-1,73,-1,-1,-1,-1,-1,-1,-1,-1,-1,-1,-1,-1,-1,-1,-1,-1,-1,-1,-1,-1,-1,-1,-1,-1],"loss_changes":[1.1461292E6,2.1220953E5,4.779E3,4.0625E1,4.0141293E4,2.8025E2,1.0854685E3,0E0,1.2875E1,1.8726562E1,1.2155371E2,3.2285156E2,5.4125E1,0E0,0E0,2.3515625E1,0E0,1.0957764E2,0E0,0E0,0E0,4.5330078E2,0E0,9.009375E1,3.684375E1,1.5375E1,0E0,0E0,1.9459616E2,1.0395234E3,4.2547266E2,2.4519531E2,7.609375E1,5.2109375E0,3.40625E0,1.125E0,0E0,0E0,3.177059E2,0E0,5.039152E2,1.3291797E2,7.475658E2,5.647915E2,6.9416016E1,3.0429907E2,1.403125E1,7.203125E0,6.9804688E0,0E0,7.583008E0,0E0,0E0,0E0,0E0,0E0,0E0,0E0,0E0,0E0,0E0,0E0,0E0,0E0,0E0,0E0,0E0,0E0,0E0,0E0,0E0,0E0,0E0,0E0,0E0],"parents":[2147483647,0,0,1,1,2,2,3,3,4,4,5,5,6,6,8,8,9,9,10,10,11,11,12,12,15,15,17,17,21,21,23,23,24,24,25,25,28,28,29,29,30,30,31,31,32,32,33,33,34,34,35,35,38,38,40,40,41,41,42,42,43,43,44,44,45,45,46,46,47,47,48,48,50,50],"right_children":[2,4,6,8,10,12,14,-1,16,18,20,22,24,-1,-1,26,-1,28,-1,-1,-1,30,-1,32,34,36,-1,-1,38,40,42,44,46,48,50,52,-1,-1,54,-1,56,58,60,62,64,66,68,70,72,-1,74,-1,-1,-1,-1,-1,-1,-1,-1,-1,-1,-1,-1,-1,-1,-1,-1,-1,-1,-1,-1,-1,-1,-1,-1],"split_conditions":[5.820766E-11,2.8174E2,1E0,0E0,9.426721E5,1.6E1,2.031486E5,-6.347521E-2,2.1384638E5,1.8E1,6.702314E5,3.9E1,3.9E1,-7.158146E-2,6.973504E-2,1E0,7.008329E-2,1.7E1,-7.1590036E-2,6.999653E-2,-6.8201505E-2,2.8157844E5,-7.106178E-2,3.7E1,4.916504E4,4.06E2,7.001985E-2,-7.141423E-2,2.9691078E5,9.457646E4,1.0699581E6,4.1989503E5,4.452463E4,5.5655E4,1.56638E5,1.211E3,7.051272E-2,-7.147141E-2,3.42877E5,-7.112607E-2,9.487347E4,4.1547125E5,3.23255E6,4.138085E5,5.0618747E5,3.98884E4,2.9166012E5,5.517079E4,2.8174E2,-7.013803E-2,3.2655594E5,6.919598E-2,7.226E-2,7.256453E-2,-7.2507374E-2,-7.147296E-2,3.661802E-2,-6.771801E-2,-4.9219776E-2,5.344027E-2,-7.2036944E-2,-5.572613E-2,5.7046123E-2,-7.0213094E-2,-5.7160776E-2,-7.1093984E-2,-1.6767038E-3,-6.807532E-2,-6.982339E-2,-7.246674E-2,-6.995033E-2,-7.433345E-2,-6.9838114E-2,-7.543002E-2,-7.057256E-2],"split_indices":[6,3,8,6,1,0,3,0,1,0,5,2,2,0,0,8,0,0,0,0,0,5,0,0,6,0,0,0,3,1,1,5,5,2,2,2,0,0,2,0,5,1,5,5,6,1,5,1,3,0,1,0,0,0,0,0,0,0,0,0,0,0,0,0,0,0,0,0,0,0,0,0,0,0,0],"split_type":[0,0,0,0,0,0,0,0,0,0,0,0,0,0,0,0,0,0,0,0,0,0,0,0,0,0,0,0,0,0,0,0,0,0,0,0,0,0,0,0,0,0,0,0,0,0,0,0,0,0,0,0,0,0,0,0,0,0,0,0,0,0,0,0,0,0,0,0,0,0,0,0,0,0,0],"sum_hessian":[7.162559E5,3.9037812E5,3.2587775E5,3.49926E5,4.0452113E4,3.249561E5,9.2163837E2,4.9605646E0,3.4992106E5,3.4530555E4,5.92156E3,1.6231601E4,3.087245E5,1.6471585E2,7.569225E2,1.2265121E5,2.2726983E5,2.3206653E3,3.2209889E4,5.9063506E3,1.5209526E1,9.05684E3,7.1747607E3,1.61687E5,1.470375E5,6.325155E4,5.9399664E4,1.9539739E3,3.6669138E2,1.4144105E3,7.642429E3,1.1086437E4,1.5060056E5,2.6368834E4,1.2066867E5,3.5868E4,2.7383549E4,2.1754497E2,1.4914641E2,7.4953094E2,6.648796E2,7.164227E3,4.782019E2,2.1126318E3,8.973805E3,8.7340485E2,1.4972716E5,1.8309924E4,8.05891E3,1.1493433E5,5.734343E3,8.763272E2,3.4991676E4,7.722601E1,7.1920395E1,1.342893E2,5.305903E2,5.9887534E3,1.1754741E3,2.1381104E2,2.6439087E2,1.9958539E3,1.1677789E2,7.765792E3,1.2080132E3,6.665695E2,2.0683537E2,1.4500617E4,1.3522655E5,1.3261951E4,5.047972E3,6.6983545E3,1.3605559E3,1.3285295E3,4.4058135E3],"tree_param":{"num_deleted":"0","num_feature":"11","num_nodes":"75","size_leaf_vector":"1"}},{"base_weights":[-3.0853324E-5,1.1328088E0,-1.3568429E0,1.3786415E0,-9.9184734E-1,-1.363163E0,8.709156E-1,-6.191541E-2,1.3786826E0,-1.3900931E0,1.3485618E0,-1.2334281E0,-1.3700019E0,-7.006966E-2,6.8373404E-2,1.3835441E0,6.866898E-2,-9.362355E-1,-1.395545E0,-6.728769E-2,1.3694773E0,-7.5466883E-1,-1.3219788E0,-1.3230228E0,-1.3733791E0,1.3967946E0,1.3792441E0,3.972507E-1,-7.002502E-2,-1.2891841E0,-7.0100255E-2,1.1839628E0,6.858111E-2,-8.217939E-1,1.3838954E0,-1.340775E0,-5.5513316E-1,-1.2397065E0,-1.3574357E0,-1.3980671E0,-1.3695858E0,1.4090612E0,6.901417E-2,6.872657E-2,1.3833537E0,9.0198797E-1,-6.583816E-2,-6.993302E-2,-8.0833465E-1,6.769059E-2,-5.7104893E-2,-1.145447E0,-5.367686E-1,7.2248355E-2,-4.319189E-2,-1.113245E0,-1.3592439E0,4.3308395E-1,-7.0117585E-2,-1.2863408E0,4.2121086E-1,-6.897343E-2,-1.2295485E0,-7.0941016E-2,-6.969738E-2,-9.8847437E-1,-1.3706605E0,6.979001E-2,7.08385E-2,6.940108E-2,6.887727E-2,-6.398363E-2,6.73798E-2,-6.9977045E-2,2.408625E-3,-7.0485204E-2,-1.8716253E-2,7.727834E-2,-3.5121713E-2,-6.987549E-2,2.488327E-2,-5.9125643E-2,-6.9234945E-2,-7.0097625E-2,8.949808E-2,-6.9405094E-2,-4.45585E-2,9.3824156E-2,-6.915443E-2,2.1943463E-2,-6.8987496E-2,3.6692545E-2,-6.9772884E-2,-6.816941E-2,-6.8785235E-2],"categories":[],"categories_nodes":[],"categories_segments":[],"categories_sizes":[],"default_left":[0,0,0,0,0,0,0,0,0,0,0,0,0,0,0,0,0,0,0,0,0,0,0,0,0,0,0,0,0,0,0,0,0,0,0,0,0,0,0,0,0,0,0,0,0,0,0,0,0,0,0,0,0,0,0,0,0,0,0,0,0,0,0,0,0,0,0,0,0,0,0,0,0,0,0,0,0,0,0,0,0,0,0,0,0,0,0,0,0,0,0,0,0,0,0],"id":12,"left_children":[1,3,5,7,9,11,13,-1,15,17,19,21,23,-1,-1,25,-1,27,29,-1,31,33,35,37,39,41,43,45,-1,47,-1,49,-1,51,53,55,57,59,61,63,65,67,-1,-1,69,71,-1,-1,73,-1,-1,75,77,-1,-1,79,81,83,-1,85,87,-1,89,-1,-1,91,93,-1,-1,-1,-1,-1,-1,-1,-1,-1,-1,-1,-1,-1,-1,-1,-1,-1,-1,-1,-1,-1,-1,-1,-1,-1,-1,-1,-1],"loss_changes":[1.0679682E6,1.9778012E5,4.4525E3,3.825E1,3.6603664E4,2.780625E2,1.01175775E3,0E0,6.875E0,8.1734375E1,3.2367285E2,6.6869336E2,4.56875E1,0E0,0E0,8.125E0,0E0,2.4905093E2,2.0976562E1,0E0,6.3183594E-1,3.55422E2,1.9138477E2,5.598047E1,2.425E1,6.8125E0,7.03125E-1,9.153814E1,0E0,9.947388E1,0E0,3.0026604E1,0E0,2.2018604E2,1.1609634E1,5.3158203E1,2.690369E2,4.567754E2,3.8376953E1,1.203125E0,9.7875E1,5.625E-1,0E0,0E0,1.5625E-2,8.0734E1,0E0,0E0,1.8073566E2,0E0,0E0,2.2768555E2,4.407833E2,0E0,0E0,4.5050623E2,5.2478516E1,3.729006E2,0E0,2.2916797E2,4.2696808E2,0E0,5.2670605E2,0E0,0E0,4.809594E2,6.96875E0,0E0,0E0,0E0,0E0,0E0,0E0,0E0,0E0,0E0,0E0,0E0,0E0,0E0,0E0,0E0,0E0,0E0,0E0,0E0,0E0,0E0,0E0,0E0,0E0,0E0,0E0,0E0,0E0],"parents":[2147483647,0,0,1,1,2,2,3,3,4,4,5,5,6,6,8,8,9,9,10,10,11,11,12,12,15,15,17,17,18,18,20,20,21,21,22,22,23,23,24,24,25,25,26,26,27,27,29,29,31,31,33,33,34,34,35,35,36,36,37,37,38,38,39,39,40,40,41,41,44,44,45,45,48,48,51,51,52,52,55,55,56,56,57,57,59,59,60,60,62,62,65,65,66,66],"right_children":[2,4,6,8,10,12,14,-1,16,18,20,22,24,-1,-1,26,-1,28,30,-1,32,34,36,38,40,42,44,46,-1,48,-1,50,-1,52,54,56,58,60,62,64,66,68,-1,-1,70,72,-1,-1,74,-1,-1,76,78,-1,-1,80,82,84,-1,86,88,-1,90,-1,-1,92,94,-1,-1,-1,-1,-1,-1,-1,-1,-1,-1,-1,-1,-1,-1,-1,-1,-1,-1,-1,-1,-1,-1,-1,-1,-1,-1,-1,-1],"split_conditions":[5.820766E-11,2.8174E2,1E0,0E0,1E0,1.6E1,2.031486E5,-6.191541E-2,1E0,1E1,3.5288006E5,5.17059E3,3.7E1,-7.006966E-2,6.8373404E-2,3.498466E5,6.866898E-2,-5.820766E-11,1.8E1,-6.728769E-2,1.9E1,8.889384E6,1.7096062E6,4.1989503E5,3.976532E4,4.06E2,2.7451238E5,1.9702034E5,-7.002502E-2,1.7E1,-7.0100255E-2,5E0,6.858111E-2,2.2187883E5,9.412502E6,4.479117E4,3.23255E6,4.138085E5,5.0618747E5,2.1568E4,4.452463E4,1E1,6.901417E-2,6.872657E-2,4.06E2,1.924238E5,-6.583816E-2,-6.993302E-2,2.9691078E5,6.769059E-2,-5.7104893E-2,1.5E1,2.2411778E5,7.2248355E-2,-4.319189E-2,4.070899E4,3.976532E4,3.1663048E6,-7.0117585E-2,3.5E1,2.350291E4,-6.897343E-2,5.2058578E5,-7.0941016E-2,-6.969738E-2,4.110741E4,2.32E2,6.979001E-2,7.08385E-2,6.940108E-2,6.887727E-2,-6.398363E-2,6.73798E-2,-6.9977045E-2,2.408625E-3,-7.0485204E-2,-1.8716253E-2,7.727834E-2,-3.5121713E-2,-6.987549E-2,2.488327E-2,-5.9125643E-2,-6.9234945E-2,-7.0097625E-2,8.949808E-2,-6.9405094E-2,-4.45585E-2,9.3824156E-2,-6.915443E-2,2.1943463E-2,-6.8987496E-2,3.6692545E-2,-6.9772884E-2,-6.816941E-2,-6.8785235E-2],"split_indices":[6,3,8,6,8,0,3,0,8,0,3,4,0,0,0,5,0,6,0,0,0,5,6,5,6,0,4,4,0,0,0,9,0,6,5,4,5,5,6,4,5,9,0,0,0,4,0,0,3,0,0,0,6,0,0,4,6,5,0,0,6,0,6,0,0,6,0,0,0,0,0,0,0,0,0,0,0,0,0,0,0,0,0,0,0,0,0,0,0,0,0,0,0,0,0],"split_type":[0,0,0,0,0,0,0,0,0,0,0,0,0,0,0,0,0,0,0,0,0,0,0,0,0,0,0,0,0,0,0,0,0,0,0,0,0,0,0,0,0,0,0,0,0,0,0,0,0,0,0,0,0,0,0,0,0,0,0,0,0,0,0,0,0,0,0,0,0,0,0,0,0,0,0,0,0,0,0,0,0,0,0,0,0,0,0,0,0,0,0,0,0,0,0],"sum_hessian":[6.9481456E5,3.786606E5,3.1615397E5,3.3939172E5,3.9268863E4,3.1525997E5,8.9399524E2,4.859022E0,3.3938688E5,3.3558867E4,5.7099956E3,1.5795623E4,2.9946434E5,1.599974E2,7.3399786E2,1.7693227E5,1.624546E5,4.0038635E2,3.315848E4,4.3496273E1,5.6664995E3,2.4670024E3,1.332862E4,2.0110596E4,2.7935375E5,4.3270785E4,1.3366148E5,1.0343607E2,2.9695026E2,1.910127E3,3.1248354E4,7.108789E1,5.5954116E3,2.392522E3,7.448054E1,1.3009007E4,3.1961407E2,5.889256E3,1.422134E4,3.7157613E4,2.4219614E5,2.4778088E4,1.84927E4,6.2418477E4,7.124301E4,8.027169E1,2.3164389E1,1.5543379E3,3.5578918E2,6.663983E1,4.448062E0,1.1189304E3,1.2735916E3,7.28581E1,1.6224332E0,9.8127985E2,1.2027727E4,1.4775626E2,1.7185783E2,5.728636E3,1.6061986E2,1.2122967E4,2.0983735E3,6.09728E3,3.1060332E4,6.8368506E2,2.4151245E5,9.175779E3,1.5602309E4,3.9366938E4,3.187607E4,1.3297325E1,6.6974365E1,2.1011957E2,1.456696E2,8.32732E2,2.8619846E2,9.3243034E1,1.1803485E3,8.342064E2,1.4707346E2,1.5202478E3,1.0507479E4,6.2796825E1,8.495942E1,4.5535366E3,1.1750997E3,8.888718E1,7.173268E1,1.7314789E2,1.9252256E3,1.3052196E2,5.531631E2,9.902077E4,1.4249169E5],"tree_param":{"num_deleted":"0","num_feature":"11","num_nodes":"95","size_leaf_vector":"1"}},{"base_weights":[-2.8573006E-5,1.1118412E0,-1.3314793E0,1.3532488E0,-9.726667E-1,-1.3376807E0,8.547398E-1,-6.0461085E-2,1.3532896E0,-1.3683087E0,1.3316667E0,-1.318476E0,-1.3589299E0,-6.8688326E-2,6.712573E-2,1.360143E0,6.7476764E-2,-1.1195399E0,-6.874246E-2,1.3476834E0,-6.704447E-2,6.616735E-1,-1.3333379E0,-1.3882694E0,-1.3525424E0,1.3713496E0,1.3482754E0,-6.8582155E-2,9.9202377E-1,-4.6768744E-2,6.7420006E-2,-1.3923235E-1,1.1312387E0,-8.017054E-1,-1.3385636E0,-1.3788362E0,-1.408891E0,-6.755941E-2,-1.3784133E0,1.3353478E0,6.8611994E-2,6.7436084E-2,-1.01707116E-1,-6.4049646E-2,1.3727267E0,4.7624716E-1,-7.3558085E-2,1.6136597E0,6.128893E-1,-6.838827E-2,1.3050842E0,-1.329971E0,-6.750625E-2,-6.762673E-2,-1.3835882E0,-7.111834E-2,-6.7323446E-2,-7.103718E-2,-6.7815095E-2,6.747676E-2,5.1759582E-2,7.330558E-2,-5.098718E-2,-7.2720847E-3,1.01368584E-1,6.890462E-2,1.2357135E-1,-7.617361E-2,5.1032413E-2,-7.42084E-2,9.8514915E-2,-6.66411E-2,7.521469E-2,-6.949178E-2,-6.7860685E-2],"categories":[],"categories_nodes":[],"categories_segments":[],"categories_sizes":[],"default_left":[0,0,0,0,0,0,0,0,0,0,0,0,0,0,0,0,0,0,0,0,0,0,0,0,0,0,0,0,0,0,0,0,0,0,0,0,0,0,0,0,0,0,0,0,0,0,0,0,0,0,0,0,0,0,0,0,0,0,0,0,0,0,0,0,0,0,0,0,0,0,0,0,0,0,0],"id":13,"left_children":[1,3,5,7,9,11,13,-1,15,17,19,21,23,-1,-1,25,-1,27,-1,29,-1,31,33,35,37,39,41,-1,43,-1,-1,45,47,49,51,53,55,-1,57,59,-1,-1,-1,-1,61,63,-1,65,67,-1,69,71,-1,-1,73,-1,-1,-1,-1,-1,-1,-1,-1,-1,-1,-1,-1,-1,-1,-1,-1,-1,-1,-1,-1],"loss_changes":[9.96509E5,1.8458847E5,4.154125E3,3.59375E1,3.47121E4,1.228125E2,9.443465E2,0E0,6.625E0,5.133203E1,2.4063965E2,4.7235938E3,2.53125E1,0E0,0E0,1.3609375E1,0E0,4.473629E2,0E0,1.03359375E1,0E0,4.500091E2,4.414375E2,3.0859375E0,2.3125E0,8.59375E-2,8.8015625E1,0E0,7.958838E1,0E0,0E0,3.638552E2,1.8760175E2,1.8537278E3,1.3875E1,3.5546875E-1,4.8808594E0,0E0,3.571289E0,4.897705E0,0E0,0E0,0E0,0E0,1.8814774E1,2.9319662E2,0E0,7.540088E1,3.196549E2,0E0,6.1408636E2,7.337344E2,0E0,0E0,5.917969E-1,0E0,0E0,0E0,0E0,0E0,0E0,0E0,0E0,0E0,0E0,0E0,0E0,0E0,0E0,0E0,0E0,0E0,0E0,0E0,0E0],"parents":[2147483647,0,0,1,1,2,2,3,3,4,4,5,5,6,6,8,8,9,9,10,10,11,11,12,12,15,15,17,17,19,19,21,21,22,22,23,23,24,24,25,25,26,26,28,28,31,31,32,32,33,33,34,34,35,35,36,36,38,38,39,39,44,44,45,45,47,47,48,48,50,50,51,51,54,54],"right_children":[2,4,6,8,10,12,14,-1,16,18,20,22,24,-1,-1,26,-1,28,-1,30,-1,32,34,36,38,40,42,-1,44,-1,-1,46,48,50,52,54,56,-1,58,60,-1,-1,-1,-1,62,64,-1,66,68,-1,70,72,-1,-1,74,-1,-1,-1,-1,-1,-1,-1,-1,-1,-1,-1,-1,-1,-1,-1,-1,-1,-1,-1,-1],"split_conditions":[5.820766E-11,2.8174E2,1E0,0E0,4.8306116E5,3.9E1,2.031486E5,-6.0461085E-2,2.16222E5,-2.3293123E5,1.9702034E5,5.17059E3,4.916504E4,-6.8688326E-2,6.712573E-2,1E0,6.7476764E-2,-2.3754327E5,-6.874246E-2,3.1951794E5,-6.704447E-2,2.2187883E5,4.479117E4,5.5655E4,1.56638E5,1.211E3,1.99283E3,-6.8582155E-2,2.8673297E5,-4.6768744E-2,6.7420006E-2,9.57568E4,2.9264103E5,1.1158192E5,1.2904448E6,1.211E3,2.8174E2,-6.755941E-2,1.3570183E5,5.04E2,6.8611994E-2,6.7436084E-2,-1.01707116E-1,-6.4049646E-2,3.42877E5,9.437139E4,-7.3558085E-2,2.8924344E5,4.151302E5,-6.838827E-2,3.262348E4,1.7096062E6,-6.750625E-2,-6.762673E-2,3.627E4,-7.111834E-2,-6.7323446E-2,-7.103718E-2,-6.7815095E-2,6.747676E-2,5.1759582E-2,7.330558E-2,-5.098718E-2,-7.2720847E-3,1.01368584E-1,6.890462E-2,1.2357135E-1,-7.617361E-2,5.1032413E-2,-7.42084E-2,9.8514915E-2,-6.66411E-2,7.521469E-2,-6.949178E-2,-6.7860685E-2],"split_indices":[6,3,8,6,7,2,3,0,2,7,4,4,6,0,0,10,0,7,0,3,0,6,4,2,2,2,4,0,3,0,0,6,6,6,4,2,3,0,6,2,0,0,0,0,2,6,0,6,6,0,4,6,0,0,2,0,0,0,0,0,0,0,0,0,0,0,0,0,0,0,0,0,0,0,0],"split_type":[0,0,0,0,0,0,0,0,0,0,0,0,0,0,0,0,0,0,0,0,0,0,0,0,0,0,0,0,0,0,0,0,0,0,0,0,0,0,0,0,0,0,0,0,0,0,0,0,0,0,0,0,0,0,0,0,0,0,0,0,0,0,0,0,0,0,0,0,0,0,0,0,0,0,0],"sum_hessian":[6.7313306E5,3.668138E5,3.0631925E5,3.2874238E5,3.8071418E4,3.054532E5,8.6606006E2,4.753828E0,3.2873762E5,3.2492953E4,5.5784634E3,1.6047827E5,1.4497492E5,1.551961E2,7.1086395E2,1.1622075E5,2.1251688E5,8.3682733E2,3.1656125E4,5.545723E3,3.273999E1,1.1951671E3,1.5928311E5,2.5880617E4,1.19094305E5,5.971586E4,5.650489E4,7.4788635E2,8.8940994E1,1.330964E0,5.544392E3,4.4199286E2,7.531742E2,1.5519019E3,1.577312E5,1.7804033E4,8.0765845E3,1.1322116E5,5.873151E3,1.4772386E3,5.823862E4,5.649804E4,6.8512707E0,1.2420232E1,7.652076E1,3.027402E2,1.3925267E2,3.8901233E2,3.641619E2,1.2235144E3,3.2838748E2,9.0550055E4,6.718115E4,2.7681978E3,1.5035835E4,6.6246577E3,1.4519265E3,1.9935122E3,3.8796387E3,1.407228E3,7.00106E1,7.40188E1,2.5019622E0,2.1676663E2,8.597357E1,3.0724164E2,8.17707E1,5.7927505E1,3.0623438E2,6.2999317E1,2.6538815E2,9.0459586E4,9.046635E1,1.2114548E4,2.921287E3],"tree_param":{"num_deleted":"0","num_feature":"11","num_nodes":"75","size_leaf_vector":"1"}},{"base_weights":[-2.8566994E-5,1.0926282E0,-1.308255E0,1.3299615E0,-9.5521194E-1,-1.3143479E0,8.398791E-1,-5.9100408E-2,1.330002E0,-1.3435216E0,1.3183672E0,-1.182259E0,-1.3213485E0,-6.742241E-2,6.597932E-2,1.3351153E0,6.630541E-2,-1.2547225E0,-6.749462E-2,6.626798E-2,-6.390096E-2,-1.0541259E0,-6.72435E-2,-1.2721925E0,-1.3248906E0,1.3438355E0,6.628967E-2,-6.7354254E-2,-7.685521E-1,-6.5500957E-1,-1.1770978E0,-1.2153594E0,-6.689024E-2,-1.3159418E0,-1.3346798E0,1.3529644E0,6.659706E-2,-6.733209E-2,4.5740783E-2,-1.0047607E0,8.5087043E-1,-1.246536E0,-2.6668492E-1,-8.9953727E-1,-1.2912287E0,-1.0038962E0,-1.317788E0,-1.3625351E0,-1.3289245E0,6.4676814E-2,6.770741E-2,6.887743E-2,-6.945252E-2,-6.722858E-2,-2.6618073E-2,-7.019647E-2,6.1124545E-2,-3.6322888E-2,-6.4949214E-2,4.957584E-2,-6.7862965E-2,-5.1300388E-2,5.5217214E-2,-6.6447586E-2,-5.2548118E-2,-6.719086E-2,1.6183688E-3,-6.4189546E-2,-6.607163E-2,-6.7712426E-2,-6.905595E-2,-6.6384636E-2,-6.766511E-2],"categories":[],"categories_nodes":[],"categories_segments":[],"categories_sizes":[],"default_left":[0,0,0,0,0,0,0,0,0,0,0,0,0,0,0,0,0,0,0,0,0,0,0,0,0,0,0,0,0,0,0,0,0,0,0,0,0,0,0,0,0,0,0,0,0,0,0,0,0,0,0,0,0,0,0,0,0,0,0,0,0,0,0,0,0,0,0,0,0,0,0,0,0],"id":14,"left_children":[1,3,5,7,9,11,13,-1,15,17,19,21,23,-1,-1,25,-1,27,-1,-1,-1,29,-1,31,33,35,-1,-1,37,39,41,43,-1,45,47,49,-1,-1,51,53,55,57,59,61,63,65,67,69,71,-1,-1,-1,-1,-1,-1,-1,-1,-1,-1,-1,-1,-1,-1,-1,-1,-1,-1,-1,-1,-1,-1,-1,-1],"loss_changes":[9.310376E5,1.7249256E5,3.8809062E3,3.3875E1,3.2543984E4,2.7175E2,8.8253217E2,0E0,4.5625E0,1.6121094E1,9.932324E1,3.0876758E2,4.715625E1,0E0,0E0,9.359375E0,0E0,9.4238525E1,0E0,0E0,0E0,4.081084E2,0E0,6.8822266E1,2.11875E1,5.8984375E0,0E0,0E0,1.6061087E2,1.0355193E3,4.0219434E2,2.4166504E2,0E0,7.7515625E1,1.8234375E1,1.078125E0,0E0,0E0,2.7434387E2,2.5527234E2,3.124294E2,1.604248E2,6.2225104E2,4.9944482E2,7.264453E1,2.8502655E2,1.5171875E1,1.4179688E0,1.296875E0,0E0,0E0,0E0,0E0,0E0,0E0,0E0,0E0,0E0,0E0,0E0,0E0,0E0,0E0,0E0,0E0,0E0,0E0,0E0,0E0,0E0,0E0,0E0,0E0],"parents":[2147483647,0,0,1,1,2,2,3,3,4,4,5,5,6,6,8,8,9,9,10,10,11,11,12,12,15,15,17,17,21,21,23,23,24,24,25,25,28,28,29,29,30,30,31,31,33,33,34,34,35,35,38,38,39,39,40,40,41,41,42,42,43,43,44,44,45,45,46,46,47,47,48,48],"right_children":[2,4,6,8,10,12,14,-1,16,18,20,22,24,-1,-1,26,-1,28,-1,-1,-1,30,-1,32,34,36,-1,-1,38,40,42,44,-1,46,48,50,-1,-1,52,54,56,58,60,62,64,66,68,70,72,-1,-1,-1,-1,-1,-1,-1,-1,-1,-1,-1,-1,-1,-1,-1,-1,-1,-1,-1,-1,-1,-1,-1,-1],"split_conditions":[5.820766E-11,2.8174E2,1E0,0E0,9.426721E5,1.6E1,2.031486E5,-5.9100408E-2,3.1291144E5,1.8E1,6.702314E5,3.9E1,3.7E1,-6.742241E-2,6.597932E-2,1E0,6.630541E-2,1.7E1,-6.749462E-2,6.626798E-2,-6.390096E-2,4.5829612E5,-6.72435E-2,3.9E1,3.9E1,4.06E2,6.628967E-2,-6.7354254E-2,2.9691078E5,2.2187883E5,1.0699581E6,4.1989503E5,-6.689024E-2,4.452463E4,4.649678E4,1.211E3,6.659706E-2,-6.733209E-2,3.42877E5,9.457646E4,2.2321681E5,3.976532E4,3.23255E6,4.138085E5,5.0618747E5,3.98884E4,2.9166012E5,5.5655E4,1.56638E5,6.4676814E-2,6.770741E-2,6.887743E-2,-6.945252E-2,-6.722858E-2,-2.6618073E-2,-7.019647E-2,6.1124545E-2,-3.6322888E-2,-6.4949214E-2,4.957584E-2,-6.7862965E-2,-5.1300388E-2,5.5217214E-2,-6.6447586E-2,-5.2548118E-2,-6.719086E-2,1.6183688E-3,-6.4189546E-2,-6.607163E-2,-6.7712426E-2,-6.905595E-2,-6.6384636E-2,-6.766511E-2],"split_indices":[6,3,8,6,1,0,3,0,1,0,5,2,0,0,0,8,0,0,0,0,0,5,0,2,2,0,0,0,3,6,1,5,0,5,6,2,0,0,2,1,5,6,5,5,6,1,5,2,2,0,0,0,0,0,0,0,0,0,0,0,0,0,0,0,0,0,0,0,0,0,0,0,0],"split_type":[0,0,0,0,0,0,0,0,0,0,0,0,0,0,0,0,0,0,0,0,0,0,0,0,0,0,0,0,0,0,0,0,0,0,0,0,0,0,0,0,0,0,0,0,0,0,0,0,0,0,0,0,0,0,0,0,0,0,0,0,0,0,0,0,0,0,0,0,0,0,0,0,0],"sum_hessian":[6.5132725E5,3.5490425E5,2.96423E5,3.1804497E5,3.6859293E4,2.9558497E5,8.380069E2,4.645876E0,3.180403E5,3.1482701E4,5.3765923E3,1.4886051E4,2.8069894E5,1.5034631E2,6.876605E2,1.3734402E5,1.806963E5,2.120728E3,2.9361973E4,5.3626396E3,1.3952703E1,8.329843E3,6.556208E3,1.8891018E4,2.618079E5,7.08887E4,6.645532E4,1.7806666E3,3.4006137E2,1.9634904E3,6.3663525E3,1.013321E4,8.757808E3,1.3684642E5,1.2496149E5,4.0042883E4,3.0845816E4,1.9849231E2,1.4156906E2,1.5936798E3,3.6981055E2,5.9148516E3,4.5150125E2,1.9652562E3,8.167954E3,8.080419E2,1.3603838E5,2.1357396E4,1.0360409E5,8.034599E2,3.923942E4,7.3440094E1,6.812897E1,9.258454E2,6.678344E2,5.193261E1,3.1787796E2,5.4321075E2,5.3716406E3,2.0968144E2,2.418198E2,1.8490459E3,1.16210335E2,7.055649E3,1.1123048E3,6.082301E2,1.9981178E2,1.320593E4,1.22832445E5,1.4822055E4,6.535343E3,9.867367E4,4.930428E3],"tree_param":{"num_deleted":"0","num_feature":"11","num_nodes":"73","size_leaf_vector":"1"}},{"base_weights":[-2.6159592E-5,1.0749623E0,-1.2867093E0,1.3085454E0,-9.391899E-1,-1.2927011E0,8.2619053E-1,-5.782314E-2,1.3085855E0,-1.3207756E0,1.2975345E0,-1.1586521E0,-1.2998325E0,-6.6259064E-2,6.492323E-2,1.3132007E0,6.5265864E-2,-1.233162E0,-6.6353105E-2,1.302893E0,-6.1534077E-2,-6.8003404E-1,-1.2495204E0,-1.2493837E0,-1.3034742E0,1.3209294E0,6.5244906E-2,-6.622143E-2,-7.5389E-1,-5.2541263E-2,6.520948E-2,1.3651756E0,-6.662633E-2,-1.2681241E0,-5.0127435E-1,-1.1918727E0,-6.5799E-2,-1.2946789E0,-1.313095E0,1.3289089E0,6.552688E-2,-6.617696E-2,4.4640526E-2,-6.882759E-2,1.4440651E0,-1.042188E0,-1.2924833E0,2.732341E-1,-6.6541E-2,5.622317E-1,-1.248967E0,2.5109884E-1,-1.3010403E0,-1.3379568E0,-1.3076196E0,6.34099E-2,6.650871E-2,6.7234874E-2,-6.807015E-2,7.385814E-2,-8.2477175E-2,-6.6551946E-2,9.983325E-2,-4.914424E-2,-6.582719E-2,4.9465127E-2,-6.5874405E-2,-7.187056E-2,9.478031E-2,-4.5842208E-2,-6.37413E-2,4.56821E-2,-7.2845116E-2,-6.463367E-2,-6.528751E-2,-6.649817E-2,-6.780528E-2,-6.532574E-2,-6.647546E-2],"categories":[],"categories_nodes":[],"categories_segments":[],"categories_sizes":[],"default_left":[0,0,0,0,0,0,0,0,0,0,0,0,0,0,0,0,0,0,0,0,0,0,0,0,0,0,0,0,0,0,0,0,0,0,0,0,0,0,0,0,0,0,0,0,0,0,0,0,0,0,0,0,0,0,0,0,0,0,0,0,0,0,0,0,0,0,0,0,0,0,0,0,0,0,0,0,0,0,0],"id":15,"left_children":[1,3,5,7,9,11,13,-1,15,17,19,21,23,-1,-1,25,-1,27,-1,29,-1,31,33,35,37,39,-1,-1,41,-1,-1,43,-1,45,47,49,-1,51,53,55,-1,-1,57,-1,59,61,63,65,-1,67,69,71,73,75,77,-1,-1,-1,-1,-1,-1,-1,-1,-1,-1,-1,-1,-1,-1,-1,-1,-1,-1,-1,-1,-1,-1,-1,-1],"loss_changes":[8.708084E5,1.6137497E5,3.6291562E3,3.19375E1,3.042508E4,2.7165625E2,8.257116E2,0E0,2.9375E0,1.5136719E1,7.198828E1,6.273164E2,4.81875E1,0E0,0E0,6.421875E0,0E0,8.879297E1,0E0,1.7194336E1,0E0,3.0802544E3,1.6832422E2,6.848828E1,1.971875E1,3.7109375E0,0E0,0E0,1.5048581E2,0E0,0E0,1.22776245E2,0E0,6.383203E1,1.906124E2,9.847207E2,0E0,1.3008594E3,1.46875E1,1.171875E0,0E0,0E0,2.5528058E2,0E0,5.8067627E1,1.0188695E3,7.830469E1,1.7668019E2,0E0,8.303851E2,8.055957E1,6.156703E2,3.5E0,1.3515625E0,6.5625E-1,0E0,0E0,0E0,0E0,0E0,0E0,0E0,0E0,0E0,0E0,0E0,0E0,0E0,0E0,0E0,0E0,0E0,0E0,0E0,0E0,0E0,0E0,0E0,0E0],"parents":[2147483647,0,0,1,1,2,2,3,3,4,4,5,5,6,6,8,8,9,9,10,10,11,11,12,12,15,15,17,17,19,19,21,21,22,22,23,23,24,24,25,25,28,28,31,31,33,33,34,34,35,35,37,37,38,38,39,39,42,42,44,44,45,45,46,46,47,47,49,49,50,50,51,51,52,52,53,53,54,54],"right_children":[2,4,6,8,10,12,14,-1,16,18,20,22,24,-1,-1,26,-1,28,-1,30,-1,32,34,36,38,40,-1,-1,42,-1,-1,44,-1,46,48,50,-1,52,54,56,-1,-1,58,-1,60,62,64,66,-1,68,70,72,74,76,78,-1,-1,-1,-1,-1,-1,-1,-1,-1,-1,-1,-1,-1,-1,-1,-1,-1,-1,-1,-1,-1,-1,-1,-1],"split_conditions":[5.820766E-11,2.8174E2,1E0,0E0,9.426721E5,1.6E1,2.031486E5,-5.782314E-2,2.8590453E5,1.8E1,1.9702034E5,5.17059E3,3.7E1,-6.6259064E-2,6.492323E-2,1E0,6.5265864E-2,1.7E1,-6.6353105E-2,3.261462E5,-6.1534077E-2,3.9E1,1.7833556E6,3.9E1,3.9E1,4.06E2,6.5244906E-2,-6.622143E-2,2.9691078E5,-5.2541263E-2,6.520948E-2,9.457646E4,-6.662633E-2,3.98884E4,1.9545972E6,4.070899E4,-6.5799E-2,1.99283E3,4.916504E4,1.211E3,6.552688E-2,-6.617696E-2,3.42877E5,-6.882759E-2,1.144046E6,3.841736E4,4.479117E4,1.2904448E6,-6.6541E-2,3.262348E4,2.350291E4,2.31E2,6.1710975E5,5.5655E4,1.56638E5,6.34099E-2,6.650871E-2,6.7234874E-2,-6.807015E-2,7.385814E-2,-8.2477175E-2,-6.6551946E-2,9.983325E-2,-4.914424E-2,-6.582719E-2,4.9465127E-2,-6.5874405E-2,-7.187056E-2,9.478031E-2,-4.5842208E-2,-6.37413E-2,4.56821E-2,-7.2845116E-2,-6.463367E-2,-6.528751E-2,-6.649817E-2,-6.780528E-2,-6.532574E-2,-6.647546E-2],"split_indices":[6,3,8,6,1,0,3,0,1,0,4,4,0,0,0,8,0,0,0,3,0,2,1,2,2,0,0,0,3,0,0,1,0,1,6,4,0,4,6,2,0,0,2,0,1,6,4,4,0,4,6,0,4,2,2,0,0,0,0,0,0,0,0,0,0,0,0,0,0,0,0,0,0,0,0,0,0,0,0],"split_type":[0,0,0,0,0,0,0,0,0,0,0,0,0,0,0,0,0,0,0,0,0,0,0,0,0,0,0,0,0,0,0,0,0,0,0,0,0,0,0,0,0,0,0,0,0,0,0,0,0,0,0,0,0,0,0,0,0,0,0,0,0,0,0,0,0,0,0,0,0,0,0,0,0,0,0,0,0,0,0],"sum_hessian":[6.295726E5,3.430031E5,2.865695E5,3.0735878E5,3.5644332E4,2.857595E5,8.099852E2,4.5359554E0,3.0735422E5,3.044997E4,5.1943633E3,1.4442549E4,2.7131697E5,1.4547775E2,6.645075E2,1.27252914E5,1.8010131E5,2.0517678E3,2.8398201E4,5.1838604E3,1.0502528E1,2.3058354E3,1.2136714E4,1.8289838E4,2.5302712E5,6.582209E4,6.143082E4,1.722074E3,3.296938E2,2.408348E0,5.181452E3,5.5744763E2,1.7483878E3,1.1841602E4,2.951116E2,9.824507E3,8.46533E3,1.322559E5,1.2077123E5,3.7160848E4,2.866125E4,1.9204022E2,1.3765356E2,1.513111E1,5.423165E2,1.1567128E3,1.0684889E4,1.5296545E2,1.4214616E2,3.0941852E2,9.515088E3,5.418826E2,1.3171402E5,2.1753518E4,9.901771E4,7.7917413E2,3.638167E4,7.1545105E1,6.610846E1,5.3709283E2,5.2237124E0,1.0568212E3,9.989162E1,7.7351355E2,9.911375E3,1.05743004E2,4.7222454E1,1.2375175E2,1.8566678E2,6.8995874E2,8.825129E3,3.90767E2,1.511156E2,4.7538656E4,8.417537E4,1.5153566E4,6.599951E3,9.4317734E4,4.69997E3],"tree_param":{"num_deleted":"0","num_feature":"11","num_nodes":"79","size_leaf_vector":"1"}},{"base_weights":[-2.7763643E-5,1.058684E0,-1.266937E0,1.2888087E0,-9.244507E-1,-1.2717798E0,1.1828864E0,-5.6620415E-2,1.2888485E0,-1.2998595E0,1.2694463E0,-1.1383291E0,-1.2789084E0,-6.1686587E-2,6.420462E-2,1.2926693E0,6.4292476E-2,-1.0612872E0,-6.5306954E-2,1.2847736E0,-6.3486576E-2,-6.775256E-1,-1.228021E0,-1.2800466E0,-4.3406573E-1,1.2996651E0,1.2852656E0,-6.515946E-2,9.313266E-1,-4.4551548E-2,6.4275146E-2,1.2966468E0,-6.5582626E-2,-1.2466861E0,-4.8919705E-1,-1.2284361E0,-1.283778E0,-6.388167E-2,6.379699E-2,1.3064877E0,6.4540245E-2,6.428521E-2,-1.0719059E-1,-6.04089E-2,1.2859322E0,-6.6971704E-2,1.3715669E0,-1.0062222E0,-1.266619E0,-6.485715E-2,4.192093E-1,-1.1703686E0,-6.4798914E-2,-1.27513E0,-1.2932482E0,6.1806597E-2,6.538273E-2,6.869809E-2,-4.7275625E-2,7.029886E-2,-7.302621E-2,-6.542565E-2,2.7535578E-2,-5.3486895E-2,-6.476455E-2,7.973347E-2,-6.710902E-2,2.6436636E-2,-6.137789E-2,1.172137E-2,-6.40788E-2,-6.582599E-2,-6.440802E-2],"categories":[],"categories_nodes":[],"categories_segments":[],"categories_sizes":[],"default_left":[0,0,0,0,0,0,0,0,0,0,0,0,0,0,0,0,0,0,0,0,0,0,0,0,0,0,0,0,0,0,0,0,0,0,0,0,0,0,0,0,0,0,0,0,0,0,0,0,0,0,0,0,0,0,0,0,0,0,0,0,0,0,0,0,0,0,0,0,0,0,0,0,0],"id":16,"left_children":[1,3,5,7,9,11,13,-1,15,17,19,21,23,-1,-1,25,-1,27,-1,29,-1,31,33,35,37,39,41,-1,43,-1,-1,45,-1,47,49,51,53,-1,-1,55,-1,-1,-1,-1,57,-1,59,61,63,-1,65,67,-1,69,71,-1,-1,-1,-1,-1,-1,-1,-1,-1,-1,-1,-1,-1,-1,-1,-1,-1,-1],"loss_changes":[8.153833E5,1.5113453E5,3.2847812E3,3.01875E1,2.836151E4,2.613125E2,1.352456E2,0E0,1.75E0,4.2664062E1,1.9745996E2,5.784004E2,2.5153125E2,0E0,0E0,5.078125E0,0E0,3.6726062E2,0E0,9.082031E0,0E0,2.8630425E3,1.6115039E2,4.8875E1,5.126462E2,2.359375E0,9.8125E1,0E0,6.436799E1,0E0,0E0,1.1168121E2,0E0,5.35625E1,2.1388876E2,6.781445E1,1.83125E1,0E0,0E0,1.4765625E0,0E0,0E0,0E0,0E0,1.53454895E1,0E0,5.480591E1,4.1517682E2,5.8228516E1,0E0,2.8701334E2,9.252744E2,0E0,1.2427969E3,1.2125E1,0E0,0E0,0E0,0E0,0E0,0E0,0E0,0E0,0E0,0E0,0E0,0E0,0E0,0E0,0E0,0E0,0E0,0E0],"parents":[2147483647,0,0,1,1,2,2,3,3,4,4,5,5,6,6,8,8,9,9,10,10,11,11,12,12,15,15,17,17,19,19,21,21,22,22,23,23,24,24,25,25,26,26,28,28,31,31,33,33,34,34,35,35,36,36,39,39,44,44,46,46,47,47,48,48,50,50,51,51,53,53,54,54],"right_children":[2,4,6,8,10,12,14,-1,16,18,20,22,24,-1,-1,26,-1,28,-1,30,-1,32,34,36,38,40,42,-1,44,-1,-1,46,-1,48,50,52,54,-1,-1,56,-1,-1,-1,-1,58,-1,60,62,64,-1,66,68,-1,70,72,-1,-1,-1,-1,-1,-1,-1,-1,-1,-1,-1,-1,-1,-1,-1,-1,-1,-1],"split_conditions":[5.820766E-11,2.8174E2,1.585932E6,0E0,4.8306116E5,1.6E1,1.2483449E6,-5.6620415E-2,3.25976E5,-2.3293123E5,1.9702034E5,5.17059E3,3.5288006E5,-6.1686587E-2,6.420462E-2,1E0,6.4292476E-2,-2.3754327E5,-6.5306954E-2,3.1951794E5,-6.3486576E-2,3.9E1,1.7096062E6,3.7E1,1.37585E3,4.06E2,1.99283E3,-6.515946E-2,2.8673297E5,-4.4551548E-2,6.4275146E-2,9.293739E4,-6.5582626E-2,4.479117E4,4.656613E-10,3.9E1,3.9E1,-6.388167E-2,6.379699E-2,1.211E3,6.4540245E-2,6.428521E-2,-1.0719059E-1,-6.04089E-2,3.42877E5,-6.6971704E-2,1.0837221E5,4.070899E4,3.976532E4,-6.485715E-2,9.313226E-10,4.070899E4,-6.4798914E-2,1.99283E3,4.916504E4,6.1806597E-2,6.538273E-2,6.869809E-2,-4.7275625E-2,7.029886E-2,-7.302621E-2,-6.542565E-2,2.7535578E-2,-5.3486895E-2,-6.476455E-2,7.973347E-2,-6.710902E-2,2.6436636E-2,-6.137789E-2,1.172137E-2,-6.40788E-2,-6.582599E-2,-6.440802E-2],"split_indices":[6,3,3,6,7,0,7,0,2,7,4,4,3,0,0,10,0,7,0,3,0,2,6,0,6,0,4,0,3,0,0,6,0,4,7,2,2,0,0,2,0,0,0,0,2,0,7,4,6,0,7,4,0,4,6,0,0,0,0,0,0,0,0,0,0,0,0,0,0,0,0,0,0],"split_type":[0,0,0,0,0,0,0,0,0,0,0,0,0,0,0,0,0,0,0,0,0,0,0,0,0,0,0,0,0,0,0,0,0,0,0,0,0,0,0,0,0,0,0,0,0,0,0,0,0,0,0,0,0,0,0,0,0,0,0,0,0,0,0,0,0,0,0,0,0,0,0,0,0],"sum_hessian":[6.07907E5,3.3116453E5,2.7674244E5,2.9673188E5,3.4432668E4,2.7619694E5,5.455022E2,4.4247594E0,2.9672744E5,2.9401955E4,5.030711E3,1.4013742E4,2.6218322E5,2.1477098E1,5.240251E2,1.3029955E5,1.6642789E5,7.58406E2,2.8643549E4,5.001017E3,2.9693743E1,2.2846428E3,1.17291E4,2.6182995E5,3.5325592E2,6.690579E4,6.3393758E4,6.7661176E2,8.179425E1,1.2665939E0,4.9997505E3,5.55186E2,1.7294569E3,1.1439416E4,2.8968326E2,1.7676064E4,2.4415389E5,2.3672787E2,1.1652805E2,3.7716254E4,2.9189537E4,6.3386273E4,7.484779E0,1.1287039E1,7.050721E1,1.4876427E1,5.403095E2,8.7961035E2,1.0559806E4,1.5309293E2,1.3659033E2,9.514524E3,8.1615396E3,1.27687414E5,1.1646648E5,6.3254846E2,3.7083707E4,6.820098E1,2.306231E0,5.34321E2,5.988525E0,7.3672845E2,1.4288193E2,1.3472197E3,9.212586E3,8.197748E1,5.461286E1,3.0954788E2,9.204977E3,5.4278064E2,1.2714463E5,2.0848393E4,9.561808E4],"tree_param":{"num_deleted":"0","num_feature":"11","num_nodes":"73","size_leaf_vector":"1"}},{"base_weights":[-2.7361533E-5,-8.9782417E-1,8.3675647E-1,6.8404585E-1,-1.1203914E0,5.423539E-1,1.2667109E0,9.156209E-3,1.2512711E0,-5.3217775E-1,-1.2476536E0,2.1943547E-2,1.0250738E0,-6.039968E-2,1.2670287E0,-2.9446024E-1,9.4052106E-1,6.313809E-2,-6.27873E-2,-1.1562635E0,1.6646999E-1,-1.0466888E0,-1.2547965E0,-2.9213783E-1,9.546993E-1,-1.2606397E0,1.2020344E0,1.2369124E0,6.337628E-2,9.772968E-1,-4.0944326E-1,7.1784914E-1,1.1040404E0,2.690766E-1,-1.2424635E0,-1.3791452E-1,9.7850454E-1,-3.9043587E-1,-1.2348071E0,-9.6604687E-1,-1.256162E0,-1.3809857E-1,-6.338818E-2,1.0086093E0,-6.3265316E-2,-6.9263047E-1,-6.4340204E-2,1.0990729E0,1.2503188E0,1.1071453E0,1.248767E0,1.1883028E0,-6.3954614E-2,-9.8345417E-1,-1.9009157E-1,-6.515051E-2,8.3166456E-1,1.1114655E0,-5.741952E-2,-2.391272E-1,1.1222391E0,-9.862188E-1,-6.3440554E-2,3.8709038E-1,-3.2436383E-1,9.9920475E-1,-6.4357266E-2,1.3305246E0,-6.416937E-2,-6.380831E-2,-1.5272139E-1,-6.36468E-2,9.375939E-1,-1.201227E0,-1.2609665E0,-6.404329E-2,6.614741E-3,-6.485527E-2,1.0597901E0,-6.398892E-2,1.1854888E0,1.1445928E0,-6.400458E-2,-6.450754E-2,1.2622019E0,6.112389E-2,-5.83317E-2,-5.3463668E-2,6.279262E-2,-6.170494E-2,6.2599234E-2,3.7649088E-3,-5.9129406E-2,-4.937694E-3,-6.468833E-2,4.3842938E-2,-6.546288E-2,5.583768E-2,-5.387802E-2,-6.392172E-2,5.313083E-2,6.0165334E-2,-7.216071E-2,-5.5402983E-2,1.0874509E-2,-5.4932325E-3,5.419102E-2,-2.7941126E-2,1.9413982E-4,5.0253343E-2,-6.232623E-2,-7.345343E-2,7.0580654E-2,4.1938018E-2,-6.4304195E-2,-6.9294274E-2,6.2236596E-2,-3.560409E-2,-6.1682213E-2,-6.308671E-2,-4.9191035E-2,-1.4468357E-2,1.0683831E-2,4.7223013E-2,5.581143E-2,6.66483E-2,-5.2580643E-2,1.7124737E-2,5.802188E-2,5.7439353E-2,6.318377E-2],"categories":[],"categories_nodes":[],"categories_segments":[],"categories_sizes":[],"default_left":[0,0,0,0,0,0,0,0,0,0,0,0,0,0,0,0,0,0,0,0,0,0,0,0,0,0,0,0,0,0,0,0,0,0,0,0,0,0,0,0,0,0,0,0,0,0,0,0,0,0,0,0,0,0,0,0,0,0,0,0,0,0,0,0,0,0,0,0,0,0,0,0,0,0,0,0,0,0,0,0,0,0,0,0,0,0,0,0,0,0,0,0,0,0,0,0,0,0,0,0,0,0,0,0,0,0,0,0,0,0,0,0,0,0,0,0,0,0,0,0,0,0,0,0,0,0,0,0,0,0,0],"id":17,"left_children":[1,3,5,7,9,11,13,15,17,19,21,23,25,-1,27,29,31,-1,-1,33,35,37,39,41,43,45,47,49,-1,51,53,55,57,59,61,63,65,67,69,71,73,75,-1,77,-1,79,-1,81,83,85,87,89,-1,91,93,-1,95,97,-1,99,101,103,-1,105,107,109,-1,111,-1,-1,113,-1,115,117,119,-1,121,-1,123,-1,125,127,-1,-1,129,-1,-1,-1,-1,-1,-1,-1,-1,-1,-1,-1,-1,-1,-1,-1,-1,-1,-1,-1,-1,-1,-1,-1,-1,-1,-1,-1,-1,-1,-1,-1,-1,-1,-1,-1,-1,-1,-1,-1,-1,-1,-1,-1,-1,-1,-1],"loss_changes":[4.4057484E5,9.960531E4,3.842097E4,1.3358641E4,1.8565062E4,4.5261266E4,9.853125E1,4.506791E3,5.4778516E2,1.9235576E4,2.91375E2,2.5400584E4,3.780858E4,0E0,2.8125E-1,1.758002E3,1.4187378E2,0E0,0E0,2.8632754E3,5.145137E3,8.6424365E2,7.640625E1,9.747631E3,2.6151816E3,9.893457E1,4.2992188E2,1.7609863E0,0E0,4.7615363E2,1.3877847E3,3.8332562E2,3.902881E1,5.7678577E2,1.4709766E2,1.4822513E3,2.67458E2,2.4020837E3,2.4342188E2,5.4516327E2,5.021875E1,9.264055E3,0E0,2.5177188E3,0E0,3.30075E2,0E0,3.0017969E3,1.7843125E3,4.8596283E1,3.196875E1,1.4225806E2,0E0,6.4262036E2,8.040028E2,0E0,1.5343298E2,2.7253906E1,0E0,1.1298505E3,1.050058E2,3.0135852E2,0E0,1.3741808E3,8.5993616E2,7.529785E1,0E0,1.2332086E2,0E0,0E0,2.2754465E2,0E0,9.43859E1,2.4936133E2,3.7125E1,0E0,3.0474338E3,0E0,1.3472852E2,0E0,2.4984863E1,3.4509375E2,0E0,0E0,8.3671875E0,0E0,0E0,0E0,0E0,0E0,0E0,0E0,0E0,0E0,0E0,0E0,0E0,0E0,0E0,0E0,0E0,0E0,0E0,0E0,0E0,0E0,0E0,0E0,0E0,0E0,0E0,0E0,0E0,0E0,0E0,0E0,0E0,0E0,0E0,0E0,0E0,0E0,0E0,0E0,0E0,0E0,0E0,0E0,0E0,0E0,0E0],"parents":[2147483647,0,0,1,1,2,2,3,3,4,4,5,5,6,6,7,7,8,8,9,9,10,10,11,11,12,12,14,14,15,15,16,16,19,19,20,20,21,21,22,22,23,23,24,24,25,25,26,26,27,27,29,29,30,30,31,31,32,32,33,33,34,34,35,35,36,36,37,37,38,38,39,39,40,40,41,41,43,43,45,45,47,47,48,48,49,49,50,50,51,51,53,53,54,54,56,56,57,57,59,59,60,60,61,61,63,63,64,64,65,65,67,67,70,70,72,72,73,73,74,74,76,76,78,78,80,80,81,81,84,84],"right_children":[2,4,6,8,10,12,14,16,18,20,22,24,26,-1,28,30,32,-1,-1,34,36,38,40,42,44,46,48,50,-1,52,54,56,58,60,62,64,66,68,70,72,74,76,-1,78,-1,80,-1,82,84,86,88,90,-1,92,94,-1,96,98,-1,100,102,104,-1,106,108,110,-1,112,-1,-1,114,-1,116,118,120,-1,122,-1,124,-1,126,128,-1,-1,130,-1,-1,-1,-1,-1,-1,-1,-1,-1,-1,-1,-1,-1,-1,-1,-1,-1,-1,-1,-1,-1,-1,-1,-1,-1,-1,-1,-1,-1,-1,-1,-1,-1,-1,-1,-1,-1,-1,-1,-1,-1,-1,-1,-1,-1,-1],"split_conditions":[5.5655E4,5.66808E4,1E0,1E0,5.138065E4,3.25976E5,5.517079E4,4.06E2,5.643332E4,1.211E3,1.4E1,4.06E2,3.2309488E5,-6.039968E-2,2.1E1,9E0,5.99E2,6.313809E-2,-6.27873E-2,1.38404E3,4.06E2,4.479117E4,5.264899E4,3.2655594E5,3.2309488E5,-2.3293123E5,7.21629E5,1.18647E5,6.337628E-2,3.084507E4,4.173E3,1.362E3,2.906952E4,1.92E2,2.3E1,1.3E2,5.0005E4,3.9E1,1.7833556E6,5.1242E4,3.7E1,5.517079E4,-6.338818E-2,5.517079E4,-6.3265316E-2,-2.3754327E5,-6.4340204E-2,7.184409E5,7.184409E5,9.457646E4,1.1832965E5,1.49E2,-6.3954614E-2,2.76947E3,1.66895E4,-6.515051E-2,5.93E2,5.517079E4,-5.741952E-2,4.22E2,5.04E2,2.1E1,-6.3440554E-2,4.5E1,2.602026E4,5.009284E4,-6.4357266E-2,1.9048153E5,-6.416937E-2,-6.380831E-2,3.23255E6,-6.36468E-2,4.04E2,1.5318323E5,5.4719E4,-6.404329E-2,1.12678E5,-6.485527E-2,1.09573E5,-6.398892E-2,4.243495E4,2.1E1,-6.400458E-2,-6.450754E-2,1.4E1,6.112389E-2,-5.83317E-2,-5.3463668E-2,6.279262E-2,-6.170494E-2,6.2599234E-2,3.7649088E-3,-5.9129406E-2,-4.937694E-3,-6.468833E-2,4.3842938E-2,-6.546288E-2,5.583768E-2,-5.387802E-2,-6.392172E-2,5.313083E-2,6.0165334E-2,-7.216071E-2,-5.5402983E-2,1.0874509E-2,-5.4932325E-3,5.419102E-2,-2.7941126E-2,1.9413982E-4,5.0253343E-2,-6.232623E-2,-7.345343E-2,7.0580654E-2,4.1938018E-2,-6.4304195E-2,-6.9294274E-2,6.2236596E-2,-3.560409E-2,-6.1682213E-2,-6.308671E-2,-4.9191035E-2,-1.4468357E-2,1.0683831E-2,4.7223013E-2,5.581143E-2,6.66483E-2,-5.2580643E-2,1.7124737E-2,5.802188E-2,5.7439353E-2,6.318377E-2],"split_indices":[2,5,8,8,1,2,1,0,1,2,0,0,1,0,0,0,0,0,0,1,0,4,1,1,1,7,2,2,0,1,2,2,4,2,0,0,2,2,1,2,0,1,0,1,0,7,0,1,1,1,1,2,0,1,7,0,0,1,0,0,2,0,0,0,2,1,0,5,0,0,5,0,0,5,2,0,2,0,2,0,1,0,0,0,0,0,0,0,0,0,0,0,0,0,0,0,0,0,0,0,0,0,0,0,0,0,0,0,0,0,0,0,0,0,0,0,0,0,0,0,0,0,0,0,0,0,0,0,0,0,0],"split_type":[0,0,0,0,0,0,0,0,0,0,0,0,0,0,0,0,0,0,0,0,0,0,0,0,0,0,0,0,0,0,0,0,0,0,0,0,0,0,0,0,0,0,0,0,0,0,0,0,0,0,0,0,0,0,0,0,0,0,0,0,0,0,0,0,0,0,0,0,0,0,0,0,0,0,0,0,0,0,0,0,0,0,0,0,0,0,0,0,0,0,0,0,0,0,0,0,0,0,0,0,0,0,0,0,0,0,0,0,0,0,0,0,0,0,0,0,0,0,0,0,0,0,0,0,0,0,0,0,0,0,0],"sum_hessian":[5.8644444E5,2.8290825E5,3.035362E5,3.4894895E4,2.4801336E5,1.8017042E5,1.23365766E5,1.5935598E4,1.8959297E4,4.411523E4,2.0389812E5,8.670094E4,9.3469484E4,1.5351342E1,1.23350414E5,1.2018395E4,3.917203E3,1.887329E4,8.6007965E1,2.330065E4,2.081458E4,7.003482E3,1.9689464E5,6.486127E4,2.183967E4,6.716007E3,8.675348E4,2.0425125E3,1.2130791E5,9.958962E2,1.1022498E4,1.660886E3,2.256317E3,1.3286667E3,2.1971982E4,1.5140222E4,5.6743584E3,1.5609982E3,5.442484E3,9.3012585E2,1.9596452E5,5.601788E4,8.843391E3,2.1322428E4,5.172426E2,2.9694855E2,6.419058E3,2.7703139E4,5.9050336E4,1.7887335E2,1.863639E3,9.1116235E2,8.473384E1,3.0465762E3,7.9759224E3,8.799713E1,1.5728889E3,2.2494084E3,6.9086084E0,8.3312085E2,4.9554584E2,2.0521553E3,1.9919828E4,3.967484E3,1.1172738E4,5.6235376E3,5.0820885E1,5.33093E2,1.0279052E3,5.241949E3,2.005345E2,8.012813E2,1.2884457E2,1.5780235E4,1.8018428E5,6.2955493E3,4.9722332E4,4.6249567E2,2.0859932E4,2.2646762E2,7.048094E1,2.7183562E4,5.1957556E2,2.7442365E2,5.8775914E4,1.7067842E2,8.194927E0,5.2223396E0,1.8584167E3,2.2868946E1,8.882934E2,4.8239682E2,2.5641792E3,7.3673096E3,6.086127E2,1.5409504E3,3.1938488E1,2.244476E3,4.9321856E0,4.6326767E2,3.6985318E2,4.808811E2,1.46647415E1,1.863599E3,1.8855621E2,2.3162322E3,1.6512516E3,6.5170576E3,4.65568E3,5.6094478E3,1.40900755E1,1.452425E1,5.185687E2,1.0710097E2,9.343353E1,1.4633192E1,1.1421139E2,9.82233E2,1.4798002E4,1.7968305E5,5.01233E2,2.0466445E4,2.9255887E4,6.85983E3,1.4000102E4,6.650112E1,3.9798214E0,5.270277E2,2.6656535E4,7.6381464E2,5.8012098E4],"tree_param":{"num_deleted":"0","num_feature":"11","num_nodes":"131","size_leaf_vector":"1"}},{"base_weights":[-4.4115324E-5,-8.8277197E-1,8.197301E-1,6.6809386E-1,-1.1026429E0,9.9852073E-1,-8.159437E-1,8.802598E-3,1.2346475E0,-1.1517831E0,-5.064515E-1,4.4977382E-1,1.1710674E0,-1.2655532E0,1.2358395E0,-2.832094E-1,9.1622514E-1,-6.377852E-2,1.2504712E0,-1.2141945E0,-1.0413784E0,-1.1338327E0,-3.189311E-3,1.1203489E0,-1.6202371E-1,9.234821E-1,1.2222669E0,-1.2712541E0,2.4650341E-1,-6.229346E-2,1.2489698E0,-1.1062962E-1,-6.397625E-2,1.0026866E0,-6.5263115E-2,6.2571816E-2,-5.5064656E-2,-9.1883874E-1,-1.2317396E0,-8.369228E-1,-1.089604E0,-3.3182824E-1,-1.1805639E0,1.1975982E-1,-6.2745474E-2,8.408353E-1,1.2490731E0,-4.7784752E-1,8.8263804E-1,1.180265E0,4.826327E-1,1.1298406E0,1.2414021E0,-1.0258386E0,-6.392007E-2,-6.306547E-2,6.149583E-2,-5.4465245E-2,6.254123E-2,-8.48035E-1,2.2845379E-1,1.021372E0,-6.626757E-2,-1.4936385E-1,-1.0634439E0,-1.1380345E0,-1.2390445E0,-1.0484251E0,2.957495E-1,-7.311449E-1,-1.1148928E0,-7.311451E-1,2.4532627E-1,-9.5678633E-1,-1.1949363E0,1.5943009E-1,-6.5387644E-2,8.875973E-1,-4.0185022E-1,1.2503271E0,-5.815062E-2,-3.4107566E-1,-1.2195327E0,9.529008E-1,-6.333977E-2,1.2358143E0,9.6705824E-1,6.896462E-1,-6.3178994E-2,1.1971674E0,7.218871E-1,1.2119831E0,1.248335E0,-6.366526E-2,9.105356E-1,-1.5550302E-2,-5.7014745E-2,1.65878E-2,-6.348079E-2,4.0536564E-2,5.9882473E-2,8.311381E-3,-6.505721E-2,2.5885258E-2,-5.431776E-2,-4.2240568E-2,-6.0745604E-2,-6.1222978E-2,-6.251706E-2,-8.716039E-3,-5.3857293E-2,2.2626055E-2,-6.269612E-2,-4.9435504E-2,-3.5992775E-3,-5.434942E-2,-6.26623E-2,1.0218157E-2,-6.25754E-2,-6.137657E-2,3.2981306E-2,-6.25917E-2,2.3655571E-2,-6.0578473E-2,-4.7038782E-2,1.0508179E-3,2.5758788E-2,3.666879E-2,5.8618326E-2,4.532978E-2,-3.682412E-2,4.5333914E-2,6.2565215E-2,-2.5558889E-2,-1.0286294E-3,2.8863803E-2,-6.29529E-2,4.269509E-2,5.4622877E-2,6.1948713E-2,-6.245936E-2,-6.5058984E-2,5.0531622E-2,2.4089748E-2,5.737048E-2,6.1625898E-2,5.1051077E-2,5.1491637E-2,-5.1607233E-2,6.2093914E-2,5.2259047E-2,5.9545774E-2,6.2439095E-2,-5.872355E-2,6.181124E-2],"categories":[],"categories_nodes":[],"categories_segments":[],"categories_sizes":[],"default_left":[0,0,0,0,0,0,0,0,0,0,0,0,0,0,0,0,0,0,0,0,0,0,0,0,0,0,0,0,0,0,0,0,0,0,0,0,0,0,0,0,0,0,0,0,0,0,0,0,0,0,0,0,0,0,0,0,0,0,0,0,0,0,0,0,0,0,0,0,0,0,0,0,0,0,0,0,0,0,0,0,0,0,0,0,0,0,0,0,0,0,0,0,0,0,0,0,0,0,0,0,0,0,0,0,0,0,0,0,0,0,0,0,0,0,0,0,0,0,0,0,0,0,0,0,0,0,0,0,0,0,0,0,0,0,0,0,0,0,0,0,0,0,0,0,0,0,0,0,0,0,0,0,0,0,0],"id":18,"left_children":[1,3,5,7,9,11,13,15,17,19,21,23,25,27,29,31,33,-1,35,37,39,41,43,45,47,49,51,53,55,-1,57,59,-1,61,-1,-1,-1,63,65,67,69,71,73,75,-1,77,79,81,83,85,87,89,91,93,-1,-1,-1,-1,-1,95,97,99,-1,101,103,105,107,109,111,113,115,117,119,121,123,125,-1,127,129,131,-1,133,135,137,-1,139,141,143,-1,145,147,149,151,-1,153,-1,-1,-1,-1,-1,-1,-1,-1,-1,-1,-1,-1,-1,-1,-1,-1,-1,-1,-1,-1,-1,-1,-1,-1,-1,-1,-1,-1,-1,-1,-1,-1,-1,-1,-1,-1,-1,-1,-1,-1,-1,-1,-1,-1,-1,-1,-1,-1,-1,-1,-1,-1,-1,-1,-1,-1,-1,-1,-1,-1],"loss_changes":[4.1119044E5,9.329834E4,8.616017E4,1.2690194E4,7.0199688E3,2.5146594E4,2.6782912E4,4.1612227E3,7.273828E2,1.5242188E3,5.7619727E3,2.6065965E4,2.5601875E3,2.0558594E2,1.7160938E2,2.0426848E3,7.3565576E2,0E0,4.2595703E1,7.317656E2,7.874922E2,3.040459E2,1.5587236E3,1.0895703E3,1.0962193E4,3.9194102E3,2.9470312E2,4.030078E1,1.354258E2,0E0,2.3879883E1,2.5325544E3,0E0,1.614602E2,0E0,0E0,0E0,8.8267236E2,8.996875E1,3.6572334E3,5.856406E2,1.0357622E2,2.3541992E1,5.224745E2,0E0,5.559429E2,6.42207E1,2.5876133E3,1.1660845E3,2.5795898E2,4.608958E3,7.882031E2,2.6765625E1,3.252989E2,0E0,0E0,0E0,0E0,0E0,5.003777E2,1.0741643E3,1.3462695E2,0E0,4.568799E2,2.4250977E2,2.1687695E2,1.8859375E1,3.227422E2,5.842868E2,7.242434E2,2.3194531E2,1.2946559E2,1.13218475E2,1.9813062E2,2.9333008E1,4.4186908E2,0E0,4.0381592E2,1.5278246E2,5.8320312E0,0E0,1.1744058E3,2.8280078E2,1.0226611E2,0E0,1.3782422E2,4.4877832E2,1.0838428E3,0E0,1.5227734E2,2.2006113E3,1.3078125E2,1.390625E0,0E0,5.3899277E1,0E0,0E0,0E0,0E0,0E0,0E0,0E0,0E0,0E0,0E0,0E0,0E0,0E0,0E0,0E0,0E0,0E0,0E0,0E0,0E0,0E0,0E0,0E0,0E0,0E0,0E0,0E0,0E0,0E0,0E0,0E0,0E0,0E0,0E0,0E0,0E0,0E0,0E0,0E0,0E0,0E0,0E0,0E0,0E0,0E0,0E0,0E0,0E0,0E0,0E0,0E0,0E0,0E0,0E0,0E0,0E0,0E0,0E0,0E0,0E0],"parents":[2147483647,0,0,1,1,2,2,3,3,4,4,5,5,6,6,7,7,8,8,9,9,10,10,11,11,12,12,13,13,14,14,15,15,16,16,18,18,19,19,20,20,21,21,22,22,23,23,24,24,25,25,26,26,27,27,28,28,30,30,31,31,33,33,37,37,38,38,39,39,40,40,41,41,42,42,43,43,45,45,46,46,47,47,48,48,49,49,50,50,51,51,52,52,53,53,59,59,60,60,61,61,63,63,64,64,65,65,66,66,67,67,68,68,69,69,70,70,71,71,72,72,73,73,74,74,75,75,77,77,78,78,79,79,81,81,82,82,83,83,85,85,86,86,87,87,89,89,90,90,91,91,92,92,94,94],"right_children":[2,4,6,8,10,12,14,16,18,20,22,24,26,28,30,32,34,-1,36,38,40,42,44,46,48,50,52,54,56,-1,58,60,-1,62,-1,-1,-1,64,66,68,70,72,74,76,-1,78,80,82,84,86,88,90,92,94,-1,-1,-1,-1,-1,96,98,100,-1,102,104,106,108,110,112,114,116,118,120,122,124,126,-1,128,130,132,-1,134,136,138,-1,140,142,144,-1,146,148,150,152,-1,154,-1,-1,-1,-1,-1,-1,-1,-1,-1,-1,-1,-1,-1,-1,-1,-1,-1,-1,-1,-1,-1,-1,-1,-1,-1,-1,-1,-1,-1,-1,-1,-1,-1,-1,-1,-1,-1,-1,-1,-1,-1,-1,-1,-1,-1,-1,-1,-1,-1,-1,-1,-1,-1,-1,-1,-1,-1,-1,-1,-1],"split_conditions":[5.5655E4,5.66808E4,2.8174E2,1E0,4.06E2,1.56638E5,4.8306116E5,4.06E2,1E0,1.211E3,1.536E3,1.4858369E5,2.69534E5,1E0,1E0,2.8174E2,2.8174E2,-6.377852E-2,5.879962E4,1.6E1,1.3E2,1.3908402E5,1E0,1E0,4.22E2,3.1229828E5,4.1982266E5,-2.3293123E5,4.02E2,-6.229346E-2,2.9184462E5,4.173E3,-6.397625E-2,1E0,-6.5263115E-2,6.2571816E-2,-5.5064656E-2,2.8157844E5,3.7E1,4.5E1,1.0002381E5,5.99E2,2.3260866E5,2.8174E2,-6.2745474E-2,1.0000001E-2,1.5858953E5,1E0,1E0,2.043888E5,1E0,1.100918E6,6.4195244E5,-2.3754327E5,-6.392007E-2,-6.306547E-2,6.149583E-2,-5.4465245E-2,6.254123E-2,8.88192E3,9.98409E4,2.1917E4,-6.626757E-2,1.0000001E-2,-5.0818425E6,4.1989503E5,2.32E2,9E0,1E0,3.627E4,1E0,4.69E2,1.0505604E5,2.2794916E5,6.91E2,3.5394E4,-6.5387644E-2,4.06E2,9E0,1E0,-5.815062E-2,1.06431E5,1.6246575E5,1.09573E5,-6.333977E-2,2.7233278E5,1.6577314E5,4.04E2,-6.3178994E-2,4.6508138E5,1E0,1.01320744E6,1.3E1,-6.366526E-2,2.8673297E5,-1.5550302E-2,-5.7014745E-2,1.65878E-2,-6.348079E-2,4.0536564E-2,5.9882473E-2,8.311381E-3,-6.505721E-2,2.5885258E-2,-5.431776E-2,-4.2240568E-2,-6.0745604E-2,-6.1222978E-2,-6.251706E-2,-8.716039E-3,-5.3857293E-2,2.2626055E-2,-6.269612E-2,-4.9435504E-2,-3.5992775E-3,-5.434942E-2,-6.26623E-2,1.0218157E-2,-6.25754E-2,-6.137657E-2,3.2981306E-2,-6.25917E-2,2.3655571E-2,-6.0578473E-2,-4.7038782E-2,1.0508179E-3,2.5758788E-2,3.666879E-2,5.8618326E-2,