{"learner":{"attributes":{"best_iteration":"41","best_score":"0.9945830106526033"},"feature_names":["step","amount","oldbalanceOrg","newbalanceOrig","oldbalanceDest","newbalanceDest","errorBalanceOrig","errorBalanceDest","isBlackHoleTransaction","hourOfDay","type_TRANSFER"],"feature_types":["int","float","float","float","float","float","float","float","int","int","i"],"gradient_booster":{"model":{"gbtree_model_param":{"num_parallel_tree":"1","num_trees":"92"},"iteration_indptr":[0,1,2,3,4,5,6,7,8,9,10,11,12,13,14,15,16,17,18,19,20,21,22,23,24,25,26,27,28,29,30,31,32,33,34,35,36,37,38,39,40,41,42,43,44,45,46,47,48,49,50,51,52,53,54,55,56,57,58,59,60,61,62,63,64,65,66,67,68,69,70,71,72,73,74,75,76,77,78,79,80,81,82,83,84,85,86,87,88,89,90,91,92],"tree_info":[0,0,0,0,0,0,0,0,0,0,0,0,0,0,0,0,0,0,0,0,0,0,0,0,0,0,0,0,0,0,0,0,0,0,0,0,0,0,0,0,0,0,0,0,0,0,0,0,0,0,0,0,0,0,0,0,0,0,0,0,0,0,0,0,0,0,0,0,0,0,0,0,0,0,0,0,0,0,0,0,0,0,0,0,0,0,0,0,0,0,0,0],"trees":[{"base_weights":[1.0734277E-5,1.6526356E0,-1.9745126E0,1.998417E0,-1.4352437E0,-1.9805479E0,1.8044823E0,-1.12941176E-1,1.5987685E-1,-1.9881884E0,1.962198E0,-1.9817485E0,-4.6912953E-1,-1.5090908E-1,1.5952541E-1,-1.5999179E-1,-1.921826E0,-1.5542857E-1,1.5990488E-1,-1.9288813E0,-1.9926529E0,-1.5853748E-1,1.5579356E-1,-2.6536152E-1,-1.5995169E-1,-5.6671697E-1,-1.5999556E-1,-1.5951885E-1,-1.9338939E0,9.040089E-1,-1.575E-1,-1.7498162E0,1.0437162E0,-1.4857085E0,-1.5995523E-1,-1.5215686E-1,1.3430119E-1,-5.567694E-2,-1.5981743E-1,-1.5463087E-1,9.2703864E-2,1.4169297E-1,-1.5964927E-1],"categories":[],"categories_nodes":[],"categories_segments":[],"categories_sizes":[],"default_left":[0,0,0,0,0,0,0,0,0,0,0,0,0,0,0,0,0,0,0,0,0,0,0,0,0,0,0,0,0,0,0,0,0,0,0,0,0,0,0,0,0,0,0],"id":0,"left_children":[1,3,5,7,9,11,13,-1,-1,15,17,19,21,-1,-1,-1,23,-1,-1,25,27,-1,-1,29,-1,31,-1,-1,33,35,-1,37,39,41,-1,-1,-1,-1,-1,-1,-1,-1,-1],"loss_changes":[1.9853746E6,3.5364612E5,6.326125E3,4.75E1,6.2663383E4,5.0025E2,3.133866E2,0E0,0E0,1.6492188E1,6.7147656E2,1.53625E2,8.12903E2,0E0,0E0,0E0,5.552637E2,0E0,0E0,4.578797E3,1.2125E1,0E0,0E0,3.913945E2,0E0,4.476459E3,0E0,0E0,1.4586133E2,2.5598267E2,0E0,3.5108496E2,3.4269287E2,1.0977727E3,0E0,0E0,0E0,0E0,0E0,0E0,0E0,0E0,0E0],"parents":[2147483647,0,0,1,1,2,2,3,3,4,4,5,5,6,6,9,9,10,10,11,11,12,12,16,16,19,19,20,20,23,23,25,25,28,28,29,29,31,31,32,32,33,33],"right_children":[2,4,6,8,10,12,14,-1,-1,16,18,20,22,-1,-1,-1,24,-1,-1,26,28,-1,-1,30,-1,32,-1,-1,34,36,-1,38,40,42,-1,-1,-1,-1,-1,-1,-1,-1,-1],"split_conditions":[5.820766E-11,2.8174E2,1.585932E6,0E0,1E0,1E0,1E0,-1.12941176E-1,1.5987685E-1,2.9691078E5,8.28151E5,4.479117E4,2.031486E5,-1.5090908E-1,1.5952541E-1,-1.5999179E-1,3.0232325E5,-1.5542857E-1,1.5990488E-1,3.9E1,1.7096062E6,-1.5853748E-1,1.5579356E-1,3.42877E5,-1.5995169E-1,1.9048153E5,-1.5999556E-1,-1.5951885E-1,3.23255E6,3.25976E5,-1.575E-1,1.99283E3,1.482834E5,3.9E1,-1.5995523E-1,-1.5215686E-1,1.3430119E-1,-5.567694E-2,-1.5981743E-1,-1.5463087E-1,9.2703864E-2,1.4169297E-1,-1.5964927E-1],"split_indices":[6,3,3,6,8,8,8,0,0,3,2,4,3,0,0,0,3,0,0,2,6,0,0,2,0,5,0,0,5,2,0,4,6,2,0,0,0,0,0,0,0,0,0],"split_type":[0,0,0,0,0,0,0,0,0,0,0,0,0,0,0,0,0,0,0,0,0,0,0,0,0,0,0,0,0,0,0,0,0,0,0,0,0,0,0,0,0,0,0],"sum_hessian":[6.084215E5,3.3120878E5,2.7721275E5,2.9785538E5,3.3353402E4,2.7677134E5,4.414153E2,3.25E0,2.9785212E5,2.8685334E4,4.6680684E3,2.76551E5,2.2033307E2,2.1E1,4.204153E2,2.4352E4,4.333333E3,4.275E1,4.6253184E3,4.7325832E4,2.2922517E5,1.3575E2,8.458306E1,1.9433307E2,4.139E3,2.3473306E3,4.49785E4,2.2410058E5,5.124583E3,1.1533306E2,7.9E1,1.353333E3,9.9399756E2,6.5783307E2,4.46675E3,2.45E1,9.083306E1,2.5883307E2,1.0945E3,3.625E1,9.5774756E2,8.858306E1,5.6925E2],"tree_param":{"num_deleted":"0","num_feature":"11","num_nodes":"43","size_leaf_vector":"1"}},{"base_weights":[4.08689E-3,1.5321641E0,-1.8320463E0,1.8507352E0,-1.3612107E0,-1.8387612E0,1.6965029E0,-1.1104817E-1,1.4806257E-1,-1.4817382E-1,1.846864E0,-1.8409947E0,-5.39551E-1,-1.403575E-1,1.4782919E-1,1.8574355E0,-1.3415235E-1,-1.7941079E0,-1.8484219E0,-1.4764829E-1,1.4733808E-1,1.7134668E-1,1.4809929E-1,4.2532483E-1,-1.4816703E-1,-1.8496752E0,-1.7907246E0,6.441915E-1,-1.559206E-1,-1.822585E0,-1.4820643E-1,-1.4313523E0,-1.4813371E-1,-1.4842704E-1,6.165791E-2,-1.4695722E-1,-1.13833435E-1,-1.4804503E-1,1.3381103E-1],"categories":[],"categories_nodes":[],"categories_segments":[],"categories_sizes":[],"default_left":[0,0,0,0,0,0,0,0,0,0,0,0,0,0,0,0,0,0,0,0,0,0,0,0,0,0,0,0,0,0,0,0,0,0,0,0,0,0,0],"id":1,"left_children":[1,3,5,7,9,11,13,-1,-1,-1,15,17,19,-1,-1,21,-1,23,25,-1,-1,-1,-1,27,-1,29,31,33,-1,35,-1,37,-1,-1,-1,-1,-1,-1,-1],"loss_changes":[1.7018304E6,3.051428E5,6.531E3,4.8125E1,5.1719348E4,7.956875E2,2.7683142E2,0E0,0E0,0E0,1.655625E2,9.04375E1,1.4766453E3,0E0,0E0,1.6943359E0,0E0,4.837578E3,1.2E1,0E0,0E0,0E0,0E0,4.9811133E2,0E0,1.30625E1,1.0690137E2,2.7841925E2,0E0,1.25265625E2,0E0,9.683325E2,0E0,0E0,0E0,0E0,0E0,0E0,0E0],"parents":[2147483647,0,0,1,1,2,2,3,3,4,4,5,5,6,6,10,10,11,11,12,12,15,15,17,17,18,18,23,23,25,25,26,26,27,27,29,29,31,31],"right_children":[2,4,6,8,10,12,14,-1,-1,-1,16,18,20,-1,-1,22,-1,24,26,-1,-1,-1,-1,28,-1,30,32,34,-1,36,-1,38,-1,-1,-1,-1,-1,-1,-1],"split_conditions":[5.820766E-11,2.8174E2,1.585932E6,0E0,9.426721E5,3.5288006E5,2.0377399E6,-1.1104817E-1,1.4806257E-1,-1.4817382E-1,6.702314E5,5.17059E3,1.7019355E5,-1.403575E-1,1.4782919E-1,1.0030388E6,-1.3415235E-1,3.9E1,1.7833556E6,-1.4764829E-1,1.4733808E-1,1.7134668E-1,1.4809929E-1,1.9E1,-1.4816703E-1,3.98884E4,3.23255E6,3.821504E4,-1.559206E-1,3.841736E4,-1.4820643E-1,1.2702444E6,-1.4813371E-1,-1.4842704E-1,6.165791E-2,-1.4695722E-1,-1.13833435E-1,-1.4804503E-1,1.3381103E-1],"split_indices":[6,3,3,6,1,3,1,0,0,0,5,4,6,0,0,1,0,2,1,0,0,0,0,9,0,1,5,5,0,6,0,4,0,0,0,0,0,0,0],"split_type":[0,0,0,0,0,0,0,0,0,0,0,0,0,0,0,0,0,0,0,0,0,0,0,0,0,0,0,0,0,0,0,0,0,0,0,0,0,0,0],"sum_hessian":[6.065483E5,3.3104478E5,2.7550353E5,2.982112E5,3.283361E4,2.7498084E5,5.226803E2,3.7380667E0,2.9820744E5,2.8476203E4,4.3574053E3,2.7450816E5,4.7270087E2,2.1378056E1,5.0130225E2,4.344985E3,1.2420374E1,3.75805E4,2.3692766E5,3.0555106E2,1.6714983E2,8.354754E1,4.261437E3,9.5636847E2,3.662413E4,2.3185197E5,5.0756885E3,8.765107E2,7.985776E1,2.2534229E4,2.0931773E5,7.407222E2,4.3349663E3,4.1384476E1,8.351262E2,2.1746916E4,7.8731366E2,6.5308453E2,8.763773E1],"tree_param":{"num_deleted":"0","num_feature":"11","num_nodes":"39","size_leaf_vector":"1"}},{"base_weights":[3.5492207E-3,1.4344072E0,-1.709861E0,1.733429E0,-1.2369471E0,-1.7182242E0,1.1147721E0,-1.1015732E-1,1.3867861E-1,-1.7235953E0,1.3875411E-1,-9.263506E-1,-1.7193129E0,-1.3761865E-1,1.3839443E-1,-1.3030851E0,-1.3878524E-1,1.738836E0,-1.3820504E-1,-1.7130405E0,-1.7320098E0,-1.3851637E-1,1.5014697E0,1.438792E-1,-6.627132E-2,-1.7147701E0,-1.4424069E0,-1.388173E-1,-1.6827686E0,1.911179E0,-1.238722E-1,-1.7162733E0,-1.524159E0,-1.3861638E-1,-5.287436E-1,-1.4649494E0,-1.3880084E-1,-7.278983E-2,1.5875366E-1,-1.3493298E-1,-1.3759549E-1,1.0974024E-1,-1.3888687E-1,1.7770553E-1,-1.3789424E-1,-1.3868293E-1,-4.9688734E-2],"categories":[],"categories_nodes":[],"categories_segments":[],"categories_sizes":[],"default_left":[0,0,0,0,0,0,0,0,0,0,0,0,0,0,0,0,0,0,0,0,0,0,0,0,0,0,0,0,0,0,0,0,0,0,0,0,0,0,0,0,0,0,0,0,0,0,0],"id":2,"left_children":[1,3,5,7,9,11,13,-1,-1,15,-1,17,19,-1,-1,21,-1,23,-1,25,27,-1,29,-1,-1,31,33,-1,35,37,-1,39,41,-1,43,45,-1,-1,-1,-1,-1,-1,-1,-1,-1,-1,-1],"loss_changes":[1.4605942E6,2.5932956E5,6.4065625E3,5.14375E1,4.7261812E4,2.3025E2,1.3994896E3,0E0,0E0,1.2872656E2,0E0,8.014688E2,1.6625E1,0E0,0E0,8.857811E2,0E0,1.5265106E1,0E0,8.05625E1,9.5E0,0E0,1.25316864E2,0E0,0E0,4.725E1,3.0464087E2,0E0,5.835742E1,2.0274872E1,0E0,1.475E1,8.723137E2,0E0,9.2586224E2,2.4042749E2,0E0,0E0,0E0,0E0,0E0,0E0,0E0,0E0,0E0,0E0,0E0],"parents":[2147483647,0,0,1,1,2,2,3,3,4,4,5,5,6,6,9,9,11,11,12,12,15,15,17,17,19,19,20,20,22,22,25,25,26,26,28,28,29,29,31,31,32,32,34,34,35,35],"right_children":[2,4,6,8,10,12,14,-1,-1,16,-1,18,20,-1,-1,22,-1,24,-1,26,28,-1,30,-1,-1,32,34,-1,36,38,-1,40,42,-1,44,46,-1,-1,-1,-1,-1,-1,-1,-1,-1,-1,-1],"split_conditions":[5.820766E-11,2.8174E2,1E0,0E0,5.2804425E6,-5.0818425E6,2.031486E5,-1.1015732E-1,1.3867861E-1,-2.3293123E5,1.3875411E-1,2E0,1.6006218E6,-1.3761865E-1,1.3839443E-1,-2.3754327E5,-1.3878524E-1,9.412502E6,-1.3820504E-1,1.5765268E6,1.7833556E6,-1.3851637E-1,4.243495E4,1.438792E-1,-6.627132E-2,1.01778125E6,5.0618747E5,-1.388173E-1,1.9545972E6,3.34479E4,-1.238722E-1,4.116054E4,9E0,-1.3861638E-1,5.1175897E5,4.656613E-10,-1.3880084E-1,-7.278983E-2,1.5875366E-1,-1.3493298E-1,-1.3759549E-1,1.0974024E-1,-1.3888687E-1,1.7770553E-1,-1.3789424E-1,-1.3868293E-1,-4.9688734E-2],"split_indices":[6,3,8,6,1,7,3,0,0,7,0,9,5,0,0,7,0,5,0,5,1,0,1,0,0,6,6,0,6,1,0,1,9,0,1,7,0,0,0,0,0,0,0,0,0,0,0],"split_type":[0,0,0,0,0,0,0,0,0,0,0,0,0,0,0,0,0,0,0,0,0,0,0,0,0,0,0,0,0,0,0,0,0,0,0,0,0,0,0,0,0,0,0,0,0,0,0],"sum_hessian":[5.957585E5,3.2464772E5,2.7111078E5,2.919666E5,3.2681152E4,2.7031103E5,7.9976105E2,4.444026E0,2.9196212E5,2.8082432E4,4.5987207E3,3.7292416E2,2.699381E5,1.4213081E2,6.5763025E2,7.3404004E2,2.734839E4,8.578178E1,2.871424E2,1.8079717E5,8.914094E4,6.372648E2,9.677531E1,8.4316734E1,1.4650424E0,1.7964189E5,1.155289E3,8.36495E4,5.4914307E3,8.5788124E1,1.0987182E1,1.782257E5,1.4161738E3,8.756311E2,2.796578E2,1.0697585E3,4.4216724E3,1.7091013E0,8.4079025E1,1.972073E4,1.5850498E5,9.603635E1,1.3201375E3,8.432106E1,1.9533675E2,8.1022424E2,2.595343E2],"tree_param":{"num_deleted":"0","num_feature":"11","num_nodes":"47","size_leaf_vector":"1"}},{"base_weights":[2.805427E-3,-1.1672826E0,1.0966783E0,-9.408431E-3,-1.6216631E0,1.320012E0,-9.949861E-1,-1.3671254E0,7.490991E-1,-1.6255149E0,-5.771128E-1,6.2207454E-1,1.5399132E0,-1.6270846E0,1.5909991E0,8.7621564E-1,-1.6040727E0,1.028569E0,-1.3113843E-1,-1.4287826E0,-1.6325529E0,1.603476E0,-1.308835E-1,1.3154683E0,-1.623123E0,1.2722234E0,1.6172743E0,-1.2119452E0,-1.3117327E-1,1.6386124E0,-1.2919034E-1,1.4774326E0,1.1278239E-1,-1.3610001E0,-1.6289412E0,5.88512E-1,1.5993418E0,-5.892052E-1,-1.5914048E0,-1.5790205E0,-1.6372468E0,-8.435256E-2,1.3047299E-1,1.0798497E0,1.6221461E0,-1.3121967E-1,1.2516586E-1,1.4764498E0,-1.3118564E-1,1.5534434E0,1.6338755E0,-1.3092156E-1,1.4053365E0,-5.809445E-2,1.3114703E-1,1.2718064E0,1.6214471E0,-8.8099575E-1,1.4481976E0,-1.4892817E0,6.7540765E-2,-1.2858689E0,-1.3139336E-1,1.5976351E0,2.0567507E-1,1.6218868E0,-1.3035583E-1,1.5641866E0,-1.3108349E-1,-1.3122573E-1,-2.618371E-1,-1.617151E0,-1.3777006E0,-1.6154116E0,-1.3122924E-1,1.5729088E0,7.7604234E-1,1.6281189E0,-1.2785573E-1,-1.2875518E-1,1.2907037E-1,1.3364503E0,1.6320509E0,1.60774E0,-1.309673E-1,-5.301794E-2,1.6339062E0,1.437542E-1,-1.17539145E-1,1.0559828E-1,-1.368307E-1,-9.774898E-2,1.3091795E-1,-1.3144153E-1,1.0070418E-1,1.2350472E-1,-1.21921204E-1,-1.3138E-1,-8.904248E-2,7.747164E-2,-1.2887791E-1,7.5451635E-2,-1.311027E-1,1.2877575E-1,6.415571E-2,-2.0477807E-2,1.0322811E-1,8.559668E-2,1.3108881E-1,-1.4495155E-1,1.3546719E-1,-1.2940894E-1,6.4074375E-2,-1.3129224E-1,-1.1615884E-1,-3.1302247E-2,-1.3113837E-1,-1.1966263E-2,-1.3121709E-1,-1.2508282E-1,1.2641297E-1,3.1975046E-2,1.16492115E-1,1.3041726E-1,-1.1963543E-1,1.09256215E-1,-1.3077076E-1,1.3078049E-1,-1.21655576E-1,1.2998614E-1,1.2076344E-1,1.1904302E-1,1.3075766E-1],"categories":[],"categories_nodes":[],"categories_segments":[],"categories_sizes":[],"default_left":[0,0,0,0,0,0,0,0,0,0,0,0,0,0,0,0,0,0,0,0,0,0,0,0,0,0,0,0,0,0,0,0,0,0,0,0,0,0,0,0,0,0,0,0,0,0,0,0,0,0,0,0,0,0,0,0,0,0,0,0,0,0,0,0,0,0,0,0,0,0,0,0,0,0,0,0,0,0,0,0,0,0,0,0,0,0,0,0,0,0,0,0,0,0,0,0,0,0,0,0,0,0,0,0,0,0,0,0,0,0,0,0,0,0,0,0,0,0,0,0,0,0,0,0,0,0,0,0,0,0,0,0,0],"id":3,"left_children":[1,3,5,7,9,11,13,15,17,19,21,23,25,27,29,31,33,35,-1,37,39,41,-1,43,45,47,49,51,-1,53,-1,55,57,59,61,63,65,67,69,71,73,-1,-1,75,77,-1,79,81,-1,83,85,-1,87,-1,-1,89,91,93,95,97,99,101,-1,103,105,107,-1,109,-1,-1,111,113,115,117,-1,119,121,123,-1,-1,-1,125,127,129,-1,-1,131,-1,-1,-1,-1,-1,-1,-1,-1,-1,-1,-1,-1,-1,-1,-1,-1,-1,-1,-1,-1,-1,-1,-1,-1,-1,-1,-1,-1,-1,-1,-1,-1,-1,-1,-1,-1,-1,-1,-1,-1,-1,-1,-1,-1,-1,-1],"loss_changes":[7.4317556E5,1.4759862E5,1.4018669E5,8.14279E4,8.085625E2,4.161225E4,4.732597E4,1.5066156E4,3.3860625E4,2.740625E2,1.7165925E3,1.0113875E5,4.2661875E3,1.1810156E2,8.7072656E2,1.2419136E3,1.5123438E2,1.1404898E4,0E0,9.4601953E2,4.446875E1,1.9726624E1,0E0,3.5835469E3,4.5985938E2,2.7497305E4,1.65375E2,7.684321E2,0E0,1.1262695E1,0E0,4.133789E1,1.5867008E3,4.3825684E2,1.0390234E2,9.906522E3,1.4417578E3,2.5532903E3,3.7687402E2,1.1648828E2,7.875E0,0E0,0E0,4.2029316E3,4.1735938E2,0E0,3.8807806E2,9.3747656E2,0E0,5.7263203E3,1.053125E1,0E0,1.1153133E2,0E0,0E0,9.2545105E1,4.0045166E1,1.1195667E3,1.4735364E2,1.2288135E2,2.9962036E2,6.9780786E2,0E0,6.519336E1,9.31151E3,1.7810547E2,0E0,1.6442609E2,0E0,0E0,3.013115E2,4.8234375E1,6.4395557E2,8.1135156E2,0E0,2.459414E2,4.44538E3,1.4348438E2,0E0,0E0,0E0,1.9792305E3,1.7700781E2,5.0476562E1,0E0,0E0,6.4375E0,0E0,0E0,0E0,0E0,0E0,0E0,0E0,0E0,0E0,0E0,0E0,0E0,0E0,0E0,0E0,0E0,0E0,0E0,0E0,0E0,0E0,0E0,0E0,0E0,0E0,0E0,0E0,0E0,0E0,0E0,0E0,0E0,0E0,0E0,0E0,0E0,0E0,0E0,0E0,0E0,0E0,0E0,0E0,0E0,0E0,0E0],"parents":[2147483647,0,0,1,1,2,2,3,3,4,4,5,5,6,6,7,7,8,8,9,9,10,10,11,11,12,12,13,13,14,14,15,15,16,16,17,17,19,19,20,20,21,21,23,23,24,24,25,25,26,26,27,27,29,29,31,31,32,32,33,33,34,34,35,35,36,36,37,37,38,38,39,39,40,40,43,43,44,44,46,46,47,47,49,49,50,50,52,52,55,55,56,56,57,57,58,58,59,59,60,60,61,61,63,63,64,64,65,65,67,67,70,70,71,71,72,72,73,73,75,75,76,76,77,77,81,81,82,82,83,83,86,86],"right_children":[2,4,6,8,10,12,14,16,18,20,22,24,26,28,30,32,34,36,-1,38,40,42,-1,44,46,48,50,52,-1,54,-1,56,58,60,62,64,66,68,70,72,74,-1,-1,76,78,-1,80,82,-1,84,86,-1,88,-1,-1,90,92,94,96,98,100,102,-1,104,106,108,-1,110,-1,-1,112,114,116,118,-1,120,122,124,-1,-1,-1,126,128,130,-1,-1,132,-1,-1,-1,-1,-1,-1,-1,-1,-1,-1,-1,-1,-1,-1,-1,-1,-1,-1,-1,-1,-1,-1,-1,-1,-1,-1,-1,-1,-1,-1,-1,-1,-1,-1,-1,-1,-1,-1,-1,-1,-1,-1,-1,-1,-1,-1],"split_conditions":[5.5655E4,5.517079E4,2.8174E2,1.211E3,5.4719E4,1.56638E5,3.4944462E5,1.38404E3,2.8174E2,1.4E1,5.643332E4,1.561834E5,3.25976E5,-2.3293123E5,1.99283E3,2.906952E4,2.3E1,1.0000002E-2,-1.3113843E-1,5.17059E3,3.7E1,3.11E2,-1.308835E-1,5.455664E4,6.91E2,3.2655594E5,5.3433225E5,-2.3754327E5,-1.3117327E-1,1E0,-1.2919034E-1,1.0000001E-2,4.22E2,2.1E1,1.99283E3,9E0,5.879962E4,3.9E1,1.7833556E6,3.5E1,1.99283E3,-8.435256E-2,1.3047299E-1,1E1,1.9610127E5,-1.3121967E-1,6.8059E2,1.5392977E5,-1.3118564E-1,5.382869E5,-1.0871958E7,-1.3092156E-1,4.243495E4,-5.809445E-2,1.3114703E-1,5.04E2,3.9E1,2.14E2,1.8E1,1.2702444E6,2.434294E4,3.9E1,-1.3139336E-1,1E0,4.06E2,1E0,-1.3035583E-1,-2.748641E4,-1.3108349E-1,-1.3122573E-1,4.656613E-10,5.0000128E5,4.070899E4,3.9E1,-1.3122924E-1,-1E-2,4.04E2,1.1079859E6,-1.2785573E-1,-1.2875518E-1,1.2907037E-1,1E0,6.082089E5,4.193874E5,-1.309673E-1,-5.301794E-2,1.2E1,1.437542E-1,-1.17539145E-1,1.0559828E-1,-1.368307E-1,-9.774898E-2,1.3091795E-1,-1.3144153E-1,1.0070418E-1,1.2350472E-1,-1.21921204E-1,-1.3138E-1,-8.904248E-2,7.747164E-2,-1.2887791E-1,7.5451635E-2,-1.311027E-1,1.2877575E-1,6.415571E-2,-2.0477807E-2,1.0322811E-1,8.559668E-2,1.3108881E-1,-1.4495155E-1,1.3546719E-1,-1.2940894E-1,6.4074375E-2,-1.3129224E-1,-1.1615884E-1,-3.1302247E-2,-1.3113837E-1,-1.1966263E-2,-1.3121709E-1,-1.2508282E-1,1.2641297E-1,3.1975046E-2,1.16492115E-1,1.3041726E-1,-1.1963543E-1,1.09256215E-1,-1.3077076E-1,1.3078049E-1,-1.21655576E-1,1.2998614E-1,1.2076344E-1,1.1904302E-1,1.3075766E-1],"split_indices":[2,1,3,2,2,2,7,1,3,0,1,1,2,7,4,4,0,7,0,4,0,0,0,7,0,1,2,7,0,10,0,7,0,0,4,9,7,2,1,0,4,0,0,9,7,0,7,7,0,1,7,0,1,0,0,2,2,2,9,4,1,2,0,10,0,10,0,7,0,0,7,1,4,2,0,7,0,4,0,0,0,10,4,4,0,0,0,0,0,0,0,0,0,0,0,0,0,0,0,0,0,0,0,0,0,0,0,0,0,0,0,0,0,0,0,0,0,0,0,0,0,0,0,0,0,0,0,0,0,0,0,0,0],"split_type":[0,0,0,0,0,0,0,0,0,0,0,0,0,0,0,0,0,0,0,0,0,0,0,0,0,0,0,0,0,0,0,0,0,0,0,0,0,0,0,0,0,0,0,0,0,0,0,0,0,0,0,0,0,0,0,0,0,0,0,0,0,0,0,0,0,0,0,0,0,0,0,0,0,0,0,0,0,0,0,0,0,0,0,0,0,0,0,0,0,0,0,0,0,0,0,0,0,0,0,0,0,0,0,0,0,0,0,0,0,0,0,0,0,0,0,0,0,0,0,0,0,0,0,0,0,0,0,0,0,0,0,0,0],"sum_hessian":[5.806369E5,2.8054475E5,3.000921E5,7.906631E4,2.0147844E5,2.71142E5,2.8950084E4,2.8339283E4,5.072703E4,2.0073717E5,7.412624E2,6.4963277E4,2.0617873E5,2.3264139E4,5.6859443E3,2.7068535E3,2.563243E4,4.541373E4,5.3133E3,6.9426807E3,1.9379448E5,2.4198067E2,4.9928174E2,4.9634945E4,1.532833E4,4.623106E4,1.5994769E5,6.883409E2,2.2575799E4,5.6033687E3,8.2575584E1,1.5134193E3,1.1934342E3,2.3860757E3,2.3246355E4,2.5644854E4,1.9768877E4,1.1278054E3,5.814875E3,1.5659088E4,1.781354E5,1.9037191E0,2.4007695E2,2.8072885E4,2.156206E4,1.5180005E4,1.4832593E2,4.3201902E4,3.0291575E3,3.3039027E4,1.2690866E5,5.9275085E2,9.5590034E1,1.2005801E0,5.602168E3,6.288456E2,8.8457367E2,6.842217E2,5.0921255E2,2.189746E3,1.9632954E2,8.8365344E2,2.2362701E4,7.0519854E3,1.8592867E4,1.9632445E4,1.3643163E2,3.6919586E2,7.586096E2,5.6079404E3,2.0693484E2,1.3157502E4,2.501586E3,2.2347244E4,1.5578816E5,1.0700638E4,1.7372246E4,2.1522793E4,3.9268276E1,6.830028E1,8.002565E1,2.2747764E4,2.0454139E4,3.2486818E4,5.5220886E2,1.1897662E0,1.2690746E5,8.461247E1,1.0977566E1,6.195627E2,9.282929E0,4.0533986E0,8.8052026E2,5.0488736E2,1.7933432E2,4.9397107E2,1.5241473E1,1.5534723E3,6.362738E2,1.2822983E2,6.809971E1,1.2036122E2,7.632922E2,6.945055E3,1.069304E2,1.3042269E4,5.5505996E3,5.801516E2,1.9052295E4,1.298062E1,3.5621524E2,9.09096E1,1.1602524E2,1.1477609E4,1.6798933E3,5.2517285E2,1.9764131E3,3.7227972E2,2.1974965E4,2.4035372E1,1.0676603E4,1.1185057E4,6.1871895E3,2.1508992E4,1.3801429E1,2.252668E4,2.210828E2,2.0437242E4,1.6896374E1,2.7654244E4,4.832574E3,5.0278464E2,1.2640468E5],"tree_param":{"num_deleted":"0","num_feature":"11","num_nodes":"133","size_leaf_vector":"1"}},{"base_weights":[8.335288E-3,1.2983292E0,-1.550826E0,1.5648637E0,-1.0536904E0,-1.556464E0,8.599013E-1,-1.00500435E-1,1.2519257E-1,-1.5507386E0,1.2485303E-1,-1.4519554E0,-1.561829E0,-1.2665974E-1,1.2417501E-1,-1.1758585E0,-1.2488074E-1,-1.4891977E0,-8.9857554E-1,-1.27785E-1,-1.5589468E0,-1.246411E-1,1.3213029E0,-1.5396353E0,-1.2470992E0,-1.2520729E-1,7.6111354E-2,-1.3000284E0,-1.5602359E0,-1.1105187E-1,1.6306287E0,-1.2558027E-1,-1.3353156E0,1.2311909E-1,-1.387488E0,7.432569E-1,-1.2736872E-1,9.7361284E-1,-1.2735029E-1,-1.3794186E0,-1.5614233E0,1.3705055E-1,-7.554703E-2,3.9284255E-2,-1.2508726E-1,-1.2497099E-1,1.6374461E-1,-3.274708E-2,-1.2525095E-1,9.301486E-2,-1.2340985E-1,-1.2375125E-1,1.7436452E-1,-1.2635997E-1,-7.191329E-2,-1.2613678E-1,-1.24595955E-1],"categories":[],"categories_nodes":[],"categories_segments":[],"categories_sizes":[],"default_left":[0,0,0,0,0,0,0,0,0,0,0,0,0,0,0,0,0,0,0,0,0,0,0,0,0,0,0,0,0,0,0,0,0,0,0,0,0,0,0,0,0,0,0,0,0,0,0,0,0,0,0,0,0,0,0,0,0],"id":4,"left_children":[1,3,5,7,9,11,13,-1,-1,15,-1,17,19,-1,-1,21,-1,23,25,-1,27,-1,29,31,33,-1,35,37,39,-1,41,-1,43,45,47,49,-1,51,-1,53,55,-1,-1,-1,-1,-1,-1,-1,-1,-1,-1,-1,-1,-1,-1,-1,-1],"loss_changes":[1.1378254E6,1.9407553E5,3.483E3,3.61875E1,4.0950363E4,1.394375E2,1.01398E3,0E0,0E0,9.873828E1,0E0,2.5500586E2,2.08125E1,0E0,0E0,6.811083E2,0E0,1.39625E2,5.1494824E2,0E0,7.15625E1,0E0,8.183115E1,5.603125E1,3.90386E2,0E0,3.591502E2,7.462113E2,4.4375E1,0E0,2.0209717E1,0E0,5.235442E2,6.1552704E2,3.185581E2,2.2300569E2,0E0,3.928642E2,0E0,1.3874414E2,9.5E0,0E0,0E0,0E0,0E0,0E0,0E0,0E0,0E0,0E0,0E0,0E0,0E0,0E0,0E0,0E0,0E0],"parents":[2147483647,0,0,1,1,2,2,3,3,4,4,5,5,6,6,9,9,11,11,12,12,15,15,17,17,18,18,20,20,22,22,23,23,24,24,26,26,27,27,28,28,30,30,32,32,33,33,34,34,35,35,37,37,39,39,40,40],"right_children":[2,4,6,8,10,12,14,-1,-1,16,-1,18,20,-1,-1,22,-1,24,26,-1,28,-1,30,32,34,-1,36,38,40,-1,42,-1,44,46,48,50,-1,52,-1,54,56,-1,-1,-1,-1,-1,-1,-1,-1,-1,-1,-1,-1,-1,-1,-1,-1],"split_conditions":[5.820766E-11,2.8174E2,1E0,0E0,1E7,1.6E1,5.959129E4,-1.00500435E-1,1.2519257E-1,-2.3293123E5,1.2485303E-1,1.01778125E6,2.213097E4,-1.2665974E-1,1.2417501E-1,-2.3754327E5,-1.2488074E-1,1.5E1,4.656613E-10,-1.27785E-1,2.350291E4,-1.246411E-1,2.8673297E5,4.49194E5,1.0002381E5,-1.2520729E-1,1.0837221E5,2.3E1,4.452463E4,-1.1105187E-1,3.0232325E5,-1.2558027E-1,4.592619E5,9.487347E4,3.976532E4,3.23255E6,-1.2736872E-1,2.1E1,-1.2735029E-1,3.821504E4,8.31819E4,1.3705055E-1,-7.554703E-2,3.9284255E-2,-1.2508726E-1,-1.2497099E-1,1.6374461E-1,-3.274708E-2,-1.2525095E-1,9.301486E-2,-1.2340985E-1,-1.2375125E-1,1.7436452E-1,-1.2635997E-1,-7.191329E-2,-1.2613678E-1,-1.24595955E-1],"split_indices":[6,3,8,6,7,0,3,0,0,7,0,6,6,0,0,7,0,0,7,0,6,0,3,6,5,0,7,0,5,0,3,0,6,5,6,5,0,0,0,5,6,0,0,0,0,0,0,0,0,0,0,0,0,0,0,0,0],"split_type":[0,0,0,0,0,0,0,0,0,0,0,0,0,0,0,0,0,0,0,0,0,0,0,0,0,0,0,0,0,0,0,0,0,0,0,0,0,0,0,0,0,0,0,0,0,0,0,0,0,0,0,0,0,0,0,0,0],"sum_hessian":[5.65712E5,3.0957844E5,2.5613356E5,2.780679E5,3.1510531E4,2.555365E5,5.970626E2,3.658234E0,2.7806425E5,2.6477209E4,5.0333213E3,1.2495257E4,2.4304125E5,1.3138445E2,4.6567816E2,7.104415E2,2.5766768E4,1.1704925E4,7.9033276E2,1.8202885E4,2.2483836E5,6.166485E2,9.379304E1,9.680678E3,2.0242472E3,4.6931232E2,3.2102045E2,1.1207517E3,2.2371761E5,9.087717E0,8.470532E1,8.429047E3,1.2516305E3,1.8780461E2,1.8364426E3,2.2992448E2,9.109596E1,1.2703598E2,9.937157E2,1.469812E3,2.222478E5,8.258803E1,2.11729E0,1.3868755E2,1.1129429E3,1.0006778E2,8.7736824E1,2.8387814E2,1.5525645E3,1.9487718E2,3.50473E1,4.0885403E1,8.615057E1,1.0353605E3,4.3445154E2,4.5746938E4,1.7650086E5],"tree_param":{"num_deleted":"0","num_feature":"11","num_nodes":"57","size_leaf_vector":"1"}},{"base_weights":[3.3284822E-3,1.2413728E0,-1.4768323E0,1.4980402E0,-9.7473466E-1,-1.4822255E0,1.3742296E0,-8.91646E-2,1.1984598E-1,-1.4851941E0,1.4945114E0,-1.3842819E0,-1.4947313E0,-1.1204684E-1,1.19328044E-1,-1.1211057E0,-1.19610175E-1,1.5093567E0,-1.13750696E-1,-1.0798442E0,-1.4587734E0,-1.4957451E0,1.1906332E-1,-1.19383685E-1,1.1873204E0,1.195436E-1,1.9426513E-1,1.024593E0,-1.2088856E-1,-1.3047061E0,-1.4819854E0,-1.5239023E0,-1.4914448E0,-1.1964546E-1,1.1773913E-1,-1.08788885E-1,1.5398356E0,-1.2115145E-1,1.6161265E0,-1.410353E0,3.9630595E-1,-1.1982267E-1,-1.3818566E0,-1.1981239E-1,-1.2428873E-1,-1.2216308E0,-1.492931E0,1.3014908E-1,-7.446015E-2,-1.3051417E-1,1.3971286E-1,-1.2173685E-1,-8.4922105E-2,-1.1964142E-1,1.342042E-1,1.4105917E-2,-1.2016736E-1,-6.0815574E-3,-1.20778546E-1,-1.1991914E-1,-1.18744254E-1],"categories":[],"categories_nodes":[],"categories_segments":[],"categories_sizes":[],"default_left":[0,0,0,0,0,0,0,0,0,0,0,0,0,0,0,0,0,0,0,0,0,0,0,0,0,0,0,0,0,0,0,0,0,0,0,0,0,0,0,0,0,0,0,0,0,0,0,0,0,0,0,0,0,0,0,0,0,0,0,0,0],"id":5,"left_children":[1,3,5,7,9,11,13,-1,-1,15,17,19,21,-1,-1,23,-1,25,-1,27,29,31,33,-1,35,-1,-1,37,-1,39,41,43,45,-1,-1,-1,47,-1,49,51,53,-1,55,-1,-1,57,59,-1,-1,-1,-1,-1,-1,-1,-1,-1,-1,-1,-1,-1,-1],"loss_changes":[9.9339694E5,1.6790775E5,3.7986875E3,2.575E1,3.86231E4,2.98375E2,1.5407532E2,0E0,0E0,8.884766E1,2.2946289E2,6.303633E2,3.58375E2,0E0,0E0,5.8432825E2,0E0,6.6708984E1,0E0,4.9880767E3,7.688281E1,2.2625E1,3.0312668E2,0E0,8.7058655E1,0E0,0E0,1.4065017E3,0E0,5.308159E2,2.7308594E1,1.865625E1,7.28125E1,0E0,0E0,0E0,1.9852997E1,0E0,3.23969E2,1.0492383E2,4.2165213E2,0E0,5.0154346E2,0E0,0E0,3.441477E2,6.125E0,0E0,0E0,0E0,0E0,0E0,0E0,0E0,0E0,0E0,0E0,0E0,0E0,0E0,0E0],"parents":[2147483647,0,0,1,1,2,2,3,3,4,4,5,5,6,6,9,9,10,10,11,11,12,12,15,15,17,17,19,19,20,20,21,21,22,22,24,24,27,27,29,29,30,30,31,31,32,32,36,36,38,38,39,39,40,40,42,42,45,45,46,46],"right_children":[2,4,6,8,10,12,14,-1,-1,16,18,20,22,-1,-1,24,-1,26,-1,28,30,32,34,-1,36,-1,-1,38,-1,40,42,44,46,-1,-1,-1,48,-1,50,52,54,-1,56,-1,-1,58,60,-1,-1,-1,-1,-1,-1,-1,-1,-1,-1,-1,-1,-1,-1],"split_conditions":[5.820766E-11,2.8174E2,1.585932E6,0E0,4.8306116E5,3.7E1,1.2483449E6,-8.91646E-2,1.1984598E-1,-2.3293123E5,1.9702034E5,4.479117E4,1E0,-1.1204684E-1,1.19328044E-1,-2.3754327E5,-1.19610175E-1,1.6510684E5,-1.13750696E-1,3.9E1,3.976532E4,3.976532E4,2.82244E5,-1.19383685E-1,2.8182525E5,1.195436E-1,1.9426513E-1,9.437139E4,-1.2088856E-1,3.841736E4,5.0618747E5,1.211E3,4.110741E4,-1.1964546E-1,1.1773913E-1,-1.08788885E-1,3.42877E5,-1.2115145E-1,-1.4551915E-11,2.1E1,1.2702444E6,-1.1982267E-1,5.2058578E5,-1.1981239E-1,-1.2428873E-1,1.99283E3,2.2871369E5,1.3014908E-1,-7.446015E-2,-1.3051417E-1,1.3971286E-1,-1.2173685E-1,-8.4922105E-2,-1.1964142E-1,1.342042E-1,1.4105917E-2,-1.2016736E-1,-6.0815574E-3,-1.20778546E-1,-1.1991914E-1,-1.18744254E-1],"split_indices":[6,3,3,6,7,0,7,0,0,7,4,4,8,0,0,7,0,4,0,2,6,6,2,0,3,0,0,6,0,6,6,2,6,0,0,0,2,0,7,0,4,0,6,0,0,4,6,0,0,0,0,0,0,0,0,0,0,0,0,0,0],"split_type":[0,0,0,0,0,0,0,0,0,0,0,0,0,0,0,0,0,0,0,0,0,0,0,0,0,0,0,0,0,0,0,0,0,0,0,0,0,0,0,0,0,0,0,0,0,0,0,0,0,0,0,0,0,0,0,0,0,0,0,0,0],"sum_hessian":[5.42096E5,2.951911E5,2.4690489E5,2.6455153E5,3.0639549E4,2.4643936E5,4.6552948E2,2.8841624E0,2.6454866E5,2.5391123E4,5.248426E3,2.792068E4,2.1851869E5,1.8275614E1,4.4725388E2,6.7869116E2,2.4712432E4,5.2224956E3,2.593013E1,5.4931313E3,2.2427549E4,2.1838189E5,1.3678728E2,5.8516754E2,9.352365E1,5.1413984E3,8.1096954E1,9.338211E2,4.55931E3,2.9468591E3,1.948069E4,2.8870285E4,1.8951161E5,6.2139145E1,7.4648125E1,1.0849812E1,8.2673836E1,1.759975E2,7.578236E2,2.774975E3,1.71884E2,1.6809582E4,2.6711072E3,1.5363856E4,1.3506428E4,1.0444578E3,1.8846716E5,8.038608E1,2.28776E0,2.8637049E1,7.291865E2,2.0998376E3,6.7513745E2,6.9179535E1,1.02704475E2,1.9101695E2,2.4800903E3,2.1048404E2,8.3397375E2,1.10584914E5,7.788224E4],"tree_param":{"num_deleted":"0","num_feature":"11","num_nodes":"61","size_leaf_vector":"1"}},{"base_weights":[4.520069E-3,1.19498E0,-1.4221355E0,8.689934E-1,1.3990419E0,-1.4290453E0,9.086352E-1,4.960219E-1,1.4367988E0,-1.8947192E-1,1.4027704E0,-5.457574E-1,-1.43029E0,-1.1633413E-1,1.4024336E0,1.1987984E-1,1.255812E0,4.4165826E-1,1.1514246E-1,-1.1459189E-1,1.8150567E0,1.2588352E0,1.4278992E0,1.3519081E0,-1.1473282E-1,-1.3619999E0,-1.4389391E0,-9.990324E-2,1.150006E-1,5.704278E-1,-4.6014637E-2,1.2701682E0,-1.15631804E-1,-1.0989918E-1,1.0461564E0,1.7317508E-1,1.1035269E-1,1.1132009E0,1.1511585E-1,1.3699617E0,1.435134E0,1.6550234E-1,-1.0908332E-1,-1.1272424E0,-1.4165903E0,-1.4637365E0,-1.435145E0,-3.510319E-2,1.3522788E0,-2.3906878E-1,3.20546E-1,-1.1260019E-1,1.2776836E0,1.1301652E-1,-1.0222964E-1,8.9602894E-1,1.4023271E0,1.3786795E0,2.1710867E-1,1.414863E0,1.1506627E-1,-1.2380089E0,3.679526E-1,-1.160523E0,-1.1554657E-1,-1.1656064E-1,-1.2046144E-1,-8.757814E-1,-1.4367542E0,1.0182597E-1,-2.6396466E-2,1.09779015E-1,-1.1249295E-1,-1.1561396E-1,-1.5762985E-2,-1.14701286E-1,2.988723E-2,9.7161606E-2,1.0773325E-1,7.520594E-2,-4.564782E-2,1.1268709E-1,-1.0604291E-1,1.05861016E-1,1.1515673E-1,-1.12217635E-1,1.11376025E-1,-1.0634497E-1,1.1339924E-1,-6.8723604E-2,-1.16899885E-1,-1.15211666E-1,1.6245079E-1,-1.0400339E-1,6.1275966E-2,1.2151693E-1,-1.1574745E-1,-1.1359211E-1,-1.1514471E-1],"categories":[],"categories_nodes":[],"categories_segments":[],"categories_sizes":[],"default_left":[0,0,0,0,0,0,0,0,0,0,0,0,0,0,0,0,0,0,0,0,0,0,0,0,0,0,0,0,0,0,0,0,0,0,0,0,0,0,0,0,0,0,0,0,0,0,0,0,0,0,0,0,0,0,0,0,0,0,0,0,0,0,0,0,0,0,0,0,0,0,0,0,0,0,0,0,0,0,0,0,0,0,0,0,0,0,0,0,0,0,0,0,0,0,0,0,0,0,0],"id":6,"left_children":[1,3,5,7,9,11,13,15,17,19,21,23,25,-1,27,29,31,33,-1,-1,35,37,39,41,-1,43,45,-1,-1,47,49,51,-1,-1,53,-1,-1,55,-1,57,59,-1,-1,61,63,65,67,69,71,73,75,-1,77,-1,-1,79,81,83,85,87,-1,89,91,93,-1,-1,-1,95,97,-1,-1,-1,-1,-1,-1,-1,-1,-1,-1,-1,-1,-1,-1,-1,-1,-1,-1,-1,-1,-1,-1,-1,-1,-1,-1,-1,-1,-1,-1],"loss_changes":[8.831262E5,1.8853562E4,3.8109062E3,2.3109438E4,1.0333438E3,2.5753125E2,8.182003E2,1.8823416E4,1.0528125E2,1.02088525E3,6.2590625E2,5.651051E2,1.356875E2,0E0,5.575757E1,3.2933638E3,8.4753125E2,1.2152644E2,0E0,0E0,1.911676E1,6.754883E2,5.871875E1,2.1116295E2,0E0,3.3671875E2,1.6125E1,0E0,0E0,5.6145576E3,2.2788228E3,4.3833203E2,0E0,0E0,7.256147E1,0E0,0E0,8.958379E2,0E0,1.6439062E2,5.0625E0,0E0,0E0,8.2996826E2,1.4970312E2,4.1484375E0,1.6078125E2,2.5772031E3,2.8686426E2,1.0682582E3,1.0337103E3,0E0,9.135547E1,0E0,0E0,5.286821E2,1.0667383E2,5.175586E1,2.4025246E2,1.316875E2,0E0,3.919253E2,1.0425919E3,5.6779175E2,0E0,0E0,0E0,7.182348E2,4.34375E0,0E0,0E0,0E0,0E0,0E0,0E0,0E0,0E0,0E0,0E0,0E0,0E0,0E0,0E0,0E0,0E0,0E0,0E0,0E0,0E0,0E0,0E0,0E0,0E0,0E0,0E0,0E0,0E0,0E0,0E0],"parents":[2147483647,0,0,1,1,2,2,3,3,4,4,5,5,6,6,7,7,8,8,9,9,10,10,11,11,12,12,14,14,15,15,16,16,17,17,20,20,21,21,22,22,23,23,25,25,26,26,29,29,30,30,31,31,34,34,37,37,39,39,40,40,43,43,44,44,45,45,46,46,47,47,48,48,49,49,50,50,52,52,55,55,56,56,57,57,58,58,59,59,61,61,62,62,63,63,67,67,68,68],"right_children":[2,4,6,8,10,12,14,16,18,20,22,24,26,-1,28,30,32,34,-1,-1,36,38,40,42,-1,44,46,-1,-1,48,50,52,-1,-1,54,-1,-1,56,-1,58,60,-1,-1,62,64,66,68,70,72,74,76,-1,78,-1,-1,80,82,84,86,88,-1,90,92,94,-1,-1,-1,96,98,-1,-1,-1,-1,-1,-1,-1,-1,-1,-1,-1,-1,-1,-1,-1,-1,-1,-1,-1,-1,-1,-1,-1,-1,-1,-1,-1,-1,-1,-1],"split_conditions":[5.820766E-11,2.157383E5,1E0,1E0,0E0,-5.0818425E6,3.534639E5,4.06E2,1E0,4.8306116E5,3.3755306E5,9E0,3.7E1,-1.1633413E-1,2.34E2,1.26E2,1E0,8.179632E4,1.1514246E-1,-1.1459189E-1,1E1,1E0,4.436829E5,1.99283E3,-1.1473282E-1,4.070899E4,3.976532E4,-9.990324E-2,1.150006E-1,4.5E1,9.844587E4,0E0,-1.15631804E-1,-1.0989918E-1,8.307459E4,1.7317508E-1,1.1035269E-1,4.06E2,1.1511585E-1,3.23255E6,6.0988644E5,1.6550234E-1,-1.0908332E-1,3.262348E4,3.98884E4,8.558513E4,4.452463E4,9E0,1E0,1.39E2,0E0,-1.1260019E-1,5.99E2,1.1301652E-1,-1.0222964E-1,1E0,1E0,1E0,6.59E2,-1.93905E3,1.1506627E-1,1.4E1,3.5E1,3.841736E4,-1.1554657E-1,-1.1656064E-1,-1.2046144E-1,4.116054E4,1.99283E3,1.0182597E-1,-2.6396466E-2,1.09779015E-1,-1.1249295E-1,-1.1561396E-1,-1.5762985E-2,-1.14701286E-1,2.988723E-2,9.7161606E-2,1.0773325E-1,7.520594E-2,-4.564782E-2,1.1268709E-1,-1.0604291E-1,1.05861016E-1,1.1515673E-1,-1.12217635E-1,1.11376025E-1,-1.0634497E-1,1.1339924E-1,-6.8723604E-2,-1.16899885E-1,-1.15211666E-1,1.6245079E-1,-1.0400339E-1,6.1275966E-2,1.2151693E-1,-1.1574745E-1,-1.1359211E-1,-1.1514471E-1],"split_indices":[6,1,8,8,6,7,1,0,10,7,1,0,0,0,0,0,10,1,0,0,0,8,1,4,0,4,6,0,0,0,1,6,0,0,1,0,0,0,0,5,1,0,0,4,1,1,5,0,10,0,6,0,0,0,0,10,10,8,0,7,0,0,0,6,0,0,0,1,4,0,0,0,0,0,0,0,0,0,0,0,0,0,0,0,0,0,0,0,0,0,0,0,0,0,0,0,0,0,0],"split_type":[0,0,0,0,0,0,0,0,0,0,0,0,0,0,0,0,0,0,0,0,0,0,0,0,0,0,0,0,0,0,0,0,0,0,0,0,0,0,0,0,0,0,0,0,0,0,0,0,0,0,0,0,0,0,0,0,0,0,0,0,0,0,0,0,0,0,0,0,0,0,0,0,0,0,0,0,0,0,0,0,0,0,0,0,0,0,0,0,0,0,0,0,0,0,0,0,0,0,0],"sum_hessian":[5.199807E5,2.8345484E5,2.3652584E5,1.0912941E5,1.7432544E5,2.3582731E5,6.985369E2,6.586666E4,4.3262746E4,4.0778345E2,1.7391766E5,3.330222E2,2.3549428E5,1.2023904E2,5.7829785E2,4.40574E4,2.1809258E4,1.0857952E2,4.3154168E4,2.520391E2,1.5574435E2,2.5860762E4,1.4805689E5,1.05846054E2,2.2717612E2,2.6497254E4,2.0899703E5,6.9126306E0,5.7138525E2,1.1856703E4,3.2200695E4,2.1694672E4,1.1458603E2,2.6599026E1,8.198049E1,8.356342E1,7.218092E1,1.4304501E4,1.1556262E4,1.6464756E4,1.3159212E5,8.4073235E1,2.1772825E1,5.004981E3,2.1492271E4,2.7665266E4,1.8133177E5,6.681954E3,5.1747495E3,2.1093322E4,1.1107373E4,6.0012295E1,2.163466E4,7.133644E1,1.06440525E1,8.1720435E3,6.1324575E3,1.634056E4,1.2419643E2,1.7995354E4,1.1359678E5,4.660249E3,3.4473215E2,2.106777E3,1.9385494E4,2.3888668E4,3.7765981E3,5.22619E2,1.8080916E5,1.2283115E3,5.4536426E3,5.1382554E3,3.6494244E1,7.0880035E2,2.0384521E4,3.2495132E2,1.0782422E4,1.130712E4,1.032754E4,7.9344585E3,2.3758502E2,6.1190786E3,1.3378859E1,8.563582E3,7.776977E3,5.195659E1,7.223984E1,1.654851E1,1.7978805E4,1.7302042E3,2.930045E3,1.6506445E2,1.7966768E2,1.9650486E3,1.4172841E2,1.0014139E2,4.224776E2,2.3899584E4,1.5690956E5],"tree_param":{"num_deleted":"0","num_feature":"11","num_nodes":"99","size_leaf_vector":"1"}},{"base_weights":[-4.364471E-3,1.142333E0,-1.3718085E0,1.3993374E0,-1.0870281E0,-1.3793279E0,1.3069146E0,-8.8367425E-2,1.39938E0,-1.15199E-1,1.1129187E-1,-1.3809981E0,-3.9156795E-1,-1.0463088E-1,1.1114762E-1,1.4099059E0,1.1149602E-1,-5.177771E-1,-1.3822256E0,-1.1079066E-1,1.1047486E-1,1.4269373E0,1.3913552E0,1.2471101E0,-1.1085981E-1,-1.3076612E0,-1.3917233E0,1.1561632E-1,1.1212525E-1,1.1134669E-1,-1.8251793E-1,1.5139967E-1,-1.0516409E-1,-1.1209625E0,-1.35196E0,-1.3844283E0,-1.4021108E0,5.3657196E-2,-1.127724E-1,-9.494764E-2,-1.10115804E-1,-9.390975E-2,-1.10936195E-1,-1.1465023E-1,-1.11615986E-1],"categories":[],"categories_nodes":[],"categories_segments":[],"categories_sizes":[],"default_left":[0,0,0,0,0,0,0,0,0,0,0,0,0,0,0,0,0,0,0,0,0,0,0,0,0,0,0,0,0,0,0,0,0,0,0,0,0,0,0,0,0,0,0,0,0],"id":7,"left_children":[1,3,5,7,9,11,13,-1,15,-1,-1,17,19,-1,-1,21,-1,23,25,-1,-1,27,29,31,-1,33,35,-1,-1,-1,-1,-1,-1,37,39,41,43,-1,-1,-1,-1,-1,-1,-1,-1],"loss_changes":[7.762031E5,1.5426306E5,4.5495312E3,2.74375E1,2.4345047E4,3.699375E2,1.381488E2,0E0,1.109375E1,0E0,0E0,2.3653125E2,6.7439734E2,0E0,0E0,2.3296875E1,0E0,4.9403857E2,1.5575E2,0E0,0E0,1.69375E1,7.388281E1,1.7846861E2,0E0,2.0716406E2,1.178125E1,0E0,0E0,0E0,0E0,0E0,0E0,2.5230693E3,8E1,5.3140625E1,1.415625E1,0E0,0E0,0E0,0E0,0E0,0E0,0E0,0E0],"parents":[2147483647,0,0,1,1,2,2,3,3,4,4,5,5,6,6,8,8,11,11,12,12,15,15,17,17,18,18,21,21,22,22,23,23,25,25,26,26,33,33,34,34,35,35,36,36],"right_children":[2,4,6,8,10,12,14,-1,16,-1,-1,18,20,-1,-1,22,-1,24,26,-1,-1,28,30,32,-1,34,36,-1,-1,-1,-1,-1,-1,38,40,42,44,-1,-1,-1,-1,-1,-1,-1,-1],"split_conditions":[5.820766E-11,2.8174E2,1.585932E6,0E0,1E7,3.5288006E5,1.2483449E6,-8.8367425E-2,2.16222E5,-1.15199E-1,1.1129187E-1,-5.0818425E6,1.7019355E5,-1.0463088E-1,1.1114762E-1,1E0,1.1149602E-1,9E0,3.7E1,-1.1079066E-1,1.1047486E-1,4.06E2,1.99283E3,1.99283E3,-1.1085981E-1,4.479117E4,1.211E3,1.1561632E-1,1.1212525E-1,1.1134669E-1,-1.8251793E-1,1.5139967E-1,-1.0516409E-1,3.9E1,3.976532E4,4.452463E4,4.916504E4,5.3657196E-2,-1.127724E-1,-9.494764E-2,-1.10115804E-1,-9.390975E-2,-1.10936195E-1,-1.1465023E-1,-1.11615986E-1],"split_indices":[6,3,3,6,7,3,7,0,2,0,0,7,6,0,0,10,0,0,0,0,0,0,4,4,0,4,2,0,0,0,0,0,0,2,6,5,6,0,0,0,0,0,0,0,0],"split_type":[0,0,0,0,0,0,0,0,0,0,0,0,0,0,0,0,0,0,0,0,0,0,0,0,0,0,0,0,0,0,0,0,0,0,0,0,0,0,0,0,0,0,0,0,0],"sum_hessian":[4.950113E5,2.6923703E5,2.2577428E5,2.4140775E5,2.782927E4,2.2514295E5,6.313234E2,3.462799E0,2.4140428E5,2.436032E4,3.4689482E3,2.2476202E5,3.8095038E2,1.8654312E1,6.126691E2,8.448892E4,1.5691536E5,3.203334E2,2.2444167E5,2.4445691E2,1.3649347E2,4.3994617E4,4.049431E4,1.0526996E2,2.1506346E2,2.5379928E4,1.9906175E5,2.5534732E4,1.8459885E4,4.0489793E4,4.5171757E0,8.4450005E1,2.0819954E1,4.8743696E3,2.0505559E4,1.1704434E5,8.20174E4,6.759911E2,4.1983784E3,2.6573745E3,1.7848184E4,1.2585706E3,1.1578577E5,1.4893738E4,6.7123664E4],"tree_param":{"num_deleted":"0","num_feature":"11","num_nodes":"45","size_leaf_vector":"1"}},{"base_weights":[1.6393374E-3,-9.6502167E-1,8.94018E-1,7.117455E-1,-1.191479E0,1.086813E0,-8.503222E-1,-2.2288E-2,1.3320899E0,-5.3601426E-1,-1.3351127E0,5.0142306E-1,1.2756052E0,-1.3821485E0,1.3567754E0,1.2355525E0,-3.552822E-1,1.3450418E0,-1.0672615E-1,-1.276831E0,1.6248816E-1,-1.0765433E0,-1.3442743E0,1.0426108E0,-1.082448E-1,1.0531881E0,1.3319088E0,-1.1129586E-1,4.4326127E-1,1.3637264E0,-1.0104684E-1,-1.0772792E-1,1.2981815E0,-6.69259E-1,8.3577037E-1,1.0769757E-1,-8.8048354E-2,-2.8854194E-1,-1.3157724E0,4.5615545E-1,-1.108705E-1,-2.0620881E-1,-1.081614E-1,-1.1132523E0,-1.3453152E0,1.3372866E0,8.0380803E-1,1.2204561E0,-1.0803301E-1,1.2835627E0,1.3448775E0,-1.0591909E-1,1.0602438E-1,1.6854464E-1,1.0798408E-1,1.3268535E0,-1.0373771E-1,-5.0852317E-1,-1.10558905E-1,9.675967E-1,-1.1275358E-1,-1.0840991E-1,1.1239746E0,-9.801622E-1,-1.08103834E-1,1.3257504E0,1.8249565E-1,1.5577463E0,-1.0921407E-1,-1.08966365E-1,1.0758079E0,-1.2997967E0,-1.3470848E0,1.3421841E0,3.983823E-1,1.2920737E0,5.4635245E-1,1.3418256E0,1.0842505E0,1.3257476E0,-1.0782737E-1,1.3292096E0,1.0791732E-1,1.0752259E-1,-1.0353671E-1,-6.064325E-2,6.2479742E-2,4.9469326E-2,9.40233E-2,9.8427E-2,-9.902313E-2,-9.2281185E-2,5.0184734E-2,1.06230006E-1,-7.376507E-2,-1.0864259E-2,8.320707E-2,-1.3178776E-1,1.3086206E-1,-9.154286E-2,1.0606426E-1,-1.08222574E-1,-7.691595E-2,-1.0713723E-1,-1.08081885E-1,9.8532535E-2,1.0794865E-1,1.0581104E-1,-1.0926701E-1,1.03970066E-1,-1.0231853E-1,1.6289638E-2,8.2953915E-2,1.0748929E-1,-1.02801256E-1,6.1712153E-2,9.701424E-2,8.598413E-2,1.0637175E-1,1.0751021E-1,-1.1527897E-1],"categories":[],"categories_nodes":[],"categories_segments":[],"categories_sizes":[],"default_left":[0,0,0,0,0,0,0,0,0,0,0,0,0,0,0,0,0,0,0,0,0,0,0,0,0,0,0,0,0,0,0,0,0,0,0,0,0,0,0,0,0,0,0,0,0,0,0,0,0,0,0,0,0,0,0,0,0,0,0,0,0,0,0,0,0,0,0,0,0,0,0,0,0,0,0,0,0,0,0,0,0,0,0,0,0,0,0,0,0,0,0,0,0,0,0,0,0,0,0,0,0,0,0,0,0,0,0,0,0,0,0,0,0,0,0,0,0,0,0,0,0],"id":8,"left_children":[1,3,5,7,9,11,13,15,17,19,21,23,25,27,29,31,33,35,-1,37,39,41,43,45,-1,47,49,-1,51,53,-1,-1,55,57,59,-1,-1,61,63,65,-1,67,-1,69,71,73,75,77,-1,79,81,-1,-1,-1,-1,83,-1,85,-1,87,-1,-1,89,91,-1,93,95,97,-1,-1,99,101,103,105,107,109,111,113,115,117,-1,119,-1,-1,-1,-1,-1,-1,-1,-1,-1,-1,-1,-1,-1,-1,-1,-1,-1,-1,-1,-1,-1,-1,-1,-1,-1,-1,-1,-1,-1,-1,-1,-1,-1,-1,-1,-1,-1,-1,-1],"loss_changes":[4.078135E5,8.617133E4,8.267167E4,1.229627E4,1.8821312E4,2.4462406E4,2.872007E4,5.180566E3,5.071621E2,1.8597855E4,3.858125E2,5.4179773E4,2.0934688E3,3.2678516E2,8.829004E1,4.2039062E2,3.6580454E3,4.3566406E1,0E0,6.7006445E2,8.411461E3,1.3460366E3,3.5375E1,2.938504E3,0E0,1.3597934E4,8.06875E1,0E0,1.5412613E2,4.4466797E1,0E0,0E0,1.8984131E2,8.8517285E2,6.050857E2,0E0,0E0,1.00043896E3,1.9757031E2,3.6995474E3,0E0,2.7669185E3,0E0,3.9291626E2,9.59375E0,8.460547E1,2.9004658E3,5.2002344E2,0E0,3.1409453E3,3.609375E0,0E0,0E0,0E0,0E0,1.143916E2,0E0,2.033666E3,0E0,1.3823193E2,0E0,0E0,7.325607E1,4.4995276E2,0E0,1.9202148E1,3.2297295E3,1.368761E2,0E0,0E0,4.2499985E1,1.0400879E2,1.5625E0,1.1800781E1,1.6322414E2,1.5640527E2,2.5410664E3,8.036328E1,5.96959E2,2.4601562E1,0E0,8.9109375E2,0E0,0E0,0E0,0E0,0E0,0E0,0E0,0E0,0E0,0E0,0E0,0E0,0E0,0E0,0E0,0E0,0E0,0E0,0E0,0E0,0E0,0E0,0E0,0E0,0E0,0E0,0E0,0E0,0E0,0E0,0E0,0E0,0E0,0E0,0E0,0E0,0E0,0E0,0E0],"parents":[2147483647,0,0,1,1,2,2,3,3,4,4,5,5,6,6,7,7,8,8,9,9,10,10,11,11,12,12,13,13,14,14,15,15,16,16,17,17,19,19,20,20,21,21,22,22,23,23,25,25,26,26,28,28,29,29,32,32,33,33,34,34,37,37,38,38,39,39,41,41,43,43,44,44,45,45,46,46,47,47,49,49,50,50,55,55,57,57,59,59,62,62,63,63,65,65,66,66,67,67,70,70,71,71,72,72,73,73,74,74,75,75,76,76,77,77,78,78,79,79,81,81],"right_children":[2,4,6,8,10,12,14,16,18,20,22,24,26,28,30,32,34,36,-1,38,40,42,44,46,-1,48,50,-1,52,54,-1,-1,56,58,60,-1,-1,62,64,66,-1,68,-1,70,72,74,76,78,-1,80,82,-1,-1,-1,-1,84,-1,86,-1,88,-1,-1,90,92,-1,94,96,98,-1,-1,100,102,104,106,108,110,112,114,116,118,-1,120,-1,-1,-1,-1,-1,-1,-1,-1,-1,-1,-1,-1,-1,-1,-1,-1,-1,-1,-1,-1,-1,-1,-1,-1,-1,-1,-1,-1,-1,-1,-1,-1,-1,-1,-1,-1,-1,-1,-1],"split_conditions":[5.5655E4,5.66808E4,2.8174E2,1E0,5.138065E4,1.6577314E5,9.426721E5,9E0,5.643332E4,1.92E2,1.4E1,1.667069E5,3.25976E5,1E0,6.702314E5,1.49E2,4.06E2,2.8174E2,-1.0672615E-1,1.38404E3,2.8174E2,4.479117E4,5.264899E4,7.377329E4,-1.082448E-1,3.2655594E5,5.3433225E5,-1.1129586E-1,3.97E2,1.0030388E6,-1.0104684E-1,-1.0772792E-1,5.517079E4,2.8174E2,2.8174E2,1.0769757E-1,-8.8048354E-2,4.22E2,2.3E1,9E0,-1.108705E-1,3.9E1,-1.081614E-1,6.59E2,1.9E1,1.99283E3,1E1,2.0908298E5,-1.0803301E-1,5.382869E5,8.28151E5,-1.0591909E-1,1.0602438E-1,1.6854464E-1,1.0798408E-1,2.8174E2,-1.0373771E-1,3.2773E4,-1.10558905E-1,5.99E2,-1.1275358E-1,-1.0840991E-1,1.8E1,2.1E1,-1.08103834E-1,5.009284E4,4.06E2,1.9048153E5,-1.0921407E-1,-1.08966365E-1,5.1242E4,5.0000128E5,5.6693694E5,1E0,1E0,1.591659E5,1.06431E5,2.523487E4,2.09461E5,2E1,-1.0782737E-1,8.403858E5,1.0791732E-1,1.0752259E-1,-1.0353671E-1,-6.064325E-2,6.2479742E-2,4.9469326E-2,9.40233E-2,9.8427E-2,-9.902313E-2,-9.2281185E-2,5.0184734E-2,1.06230006E-1,-7.376507E-2,-1.0864259E-2,8.320707E-2,-1.3178776E-1,1.3086206E-1,-9.154286E-2,1.0606426E-1,-1.08222574E-1,-7.691595E-2,-1.0713723E-1,-1.08081885E-1,9.8532535E-2,1.0794865E-1,1.0581104E-1,-1.0926701E-1,1.03970066E-1,-1.0231853E-1,1.6289638E-2,8.2953915E-2,1.0748929E-1,-1.02801256E-1,6.1712153E-2,9.701424E-2,8.598413E-2,1.0637175E-1,1.0751021E-1,-1.1527897E-1],"split_indices":[2,5,3,8,1,2,1,9,1,2,0,1,2,8,5,2,0,3,0,1,3,4,1,5,0,1,2,0,0,1,0,0,1,3,3,0,0,0,0,9,0,2,0,0,0,4,9,5,0,1,2,0,0,0,0,3,0,2,0,0,0,0,9,0,0,1,0,5,0,0,2,1,5,8,9,1,2,4,2,0,0,1,0,0,0,0,0,0,0,0,0,0,0,0,0,0,0,0,0,0,0,0,0,0,0,0,0,0,0,0,0,0,0,0,0,0,0,0,0,0,0],"split_type":[0,0,0,0,0,0,0,0,0,0,0,0,0,0,0,0,0,0,0,0,0,0,0,0,0,0,0,0,0,0,0,0,0,0,0,0,0,0,0,0,0,0,0,0,0,0,0,0,0,0,0,0,0,0,0,0,0,0,0,0,0,0,0,0,0,0,0,0,0,0,0,0,0,0,0,0,0,0,0,0,0,0,0,0,0,0,0,0,0,0,0,0,0,0,0,0,0,0,0,0,0,0,0,0,0,0,0,0,0,0,0,0,0,0,0,0,0,0,0,0,0],"sum_hessian":[4.7275534E5,2.2693233E5,2.4582302E5,2.700128E4,1.9993105E5,2.2135788E5,2.4465146E4,1.2367443E4,1.4633837E4,3.5938023E4,1.6399302E5,5.398191E4,1.6737595E5,1.9715148E4,4.749998E3,2.5878767E3,9.779566E3,1.4563771E4,7.006515E1,1.7440688E4,1.8497336E4,5.617635E3,1.5837539E5,4.1787816E4,1.2194095E4,3.381694E4,1.3355902E5,1.96184E4,9.674931E1,4.738097E3,1.1900626E1,6.060695E1,2.5272698E3,7.740048E3,2.0395186E3,1.4557413E4,6.357892E0,6.619654E2,1.6778723E4,1.5549256E4,2.9480793E3,1.3514429E3,4.266192E3,7.173938E2,1.5765798E5,1.8702621E4,2.3085195E4,3.1617371E4,2.1995715E3,2.8278291E4,1.0528073E5,3.1855724E1,6.489359E1,8.373304E1,4.6543643E3,2.5003242E3,2.694556E1,6.3176846E3,1.4223634E3,1.9271572E3,1.123613E2,3.77393E2,2.845724E2,1.6101631E3,1.516856E4,3.7206533E3,1.1828603E4,5.3555273E2,8.1589014E2,6.44716E2,7.267776E1,5.937728E3,1.5172027E5,1.8604613E4,9.800661E1,7.9679604E3,1.5117234E4,1.6712639E4,1.4904733E4,2.783278E4,4.4551132E2,2.188249E4,8.3398234E4,2.4847168E3,1.5607297E1,5.2940957E3,1.02358856E3,7.210781E2,1.2060791E3,2.7296985E2,1.1602528E1,1.4539589E3,1.5620416E2,3.7177708E3,2.8825612E0,8.626939E3,3.2016636E3,1.2098089E1,5.2345465E2,6.7911787E0,6.588658E1,5.1299043E3,8.078238E2,5.0764285E4,1.0095598E5,1.1487755E3,1.7455838E4,6.4663704E1,3.3342903E1,7.9453115E3,2.264917E1,8.901053E3,6.216181E3,1.6701934E4,1.0704934E1,4.3410015E3,1.0563732E4,4.3205875E2,2.740072E4,2.1767924E4,1.1456514E2],"tree_param":{"num_deleted":"0","num_feature":"11","num_nodes":"121","size_leaf_vector":"1"}},{"base_weights":[-3.3163673E-3,1.0826554E0,-1.2999431E0,1.3232763E0,-1.0004877E0,-1.3063174E0,8.5671E-1,-9.127108E-2,1.3233299E0,-1.3393708E0,1.3125452E0,-1.1246308E0,-1.3160404E0,-1.0787329E-1,1.05434805E-1,1.3314259E0,1.3146285E0,-9.208623E-1,-1.08076334E-1,1.3300734E0,-1.0177671E-1,-7.0462E-1,-1.2492676E0,-1.3471022E0,-1.3092254E0,1.3551983E0,1.3251085E0,1.0518654E-1,-1.750673E-1,-1.0749964E-1,1.3561006E0,1.545998E-1,1.0504707E-1,-7.8951925E-1,1.533365E0,-1.2836103E0,-4.015682E-2,-1.0977846E-1,-1.07340544E-1,-1.2628539E0,-1.3125416E0,1.09818235E-1,1.0650282E-1,1.0538447E-1,1.065095E-1,-9.549803E-2,1.6443281E0,-8.9567864E-1,1.0271397E0,1.339959E-1,-7.79066E-2,-1.0542041E0,-1.0551E-1,1.1117022E0,-1.050413E-1,-1.0559022E-1,-1.1861659E0,-1.3060976E0,-1.0536141E-1,1.3626853E-1,-5.3881653E-2,-1.0778584E-1,-5.7891633E-2,-1.0294351E-1,1.3777658E-1,-1.0846743E-1,1.0327987E-1,-1.047952E-1,1.6153175E-1,6.163753E-2,-9.977863E-2,-1.0492445E-1,-7.214098E-2],"categories":[],"categories_nodes":[],"categories_segments":[],"categories_sizes":[],"default_left":[0,0,0,0,0,0,0,0,0,0,0,0,0,0,0,0,0,0,0,0,0,0,0,0,0,0,0,0,0,0,0,0,0,0,0,0,0,0,0,0,0,0,0,0,0,0,0,0,0,0,0,0,0,0,0,0,0,0,0,0,0,0,0,0,0,0,0,0,0,0,0,0,0],"id":9,"left_children":[1,3,5,7,9,11,13,-1,15,17,19,21,23,-1,-1,25,27,29,-1,31,-1,33,35,37,39,41,43,-1,-1,-1,45,-1,-1,47,49,51,53,-1,-1,55,57,-1,-1,-1,-1,-1,59,61,63,-1,-1,65,-1,67,-1,-1,69,71,-1,-1,-1,-1,-1,-1,-1,-1,-1,-1,-1,-1,-1,-1,-1],"loss_changes":[6.314212E5,1.2232269E5,2.8110625E3,3.05E1,1.980921E4,3.5728125E2,6.147383E2,0E0,1.2375E1,1.0446875E2,1.4803467E2,5.405342E2,3.7875E1,0E0,0E0,1.3859375E1,7.75625E1,5.775448E2,0E0,2.8668457E1,0E0,4.5195203E2,3.3097656E2,1.46875E0,2.14375E1,6.7578125E0,1.28125E0,0E0,0E0,0E0,7.1246445E1,0E0,0E0,4.421731E2,3.2829636E1,6.025586E1,3.2712024E2,0E0,0E0,4.365039E1,1.21875E0,0E0,0E0,0E0,0E0,0E0,1.329451E1,1.6603381E2,2.0596243E2,0E0,0E0,7.386987E2,0E0,2.5988992E2,0E0,0E0,5.442954E2,1.32E2,0E0,0E0,0E0,0E0,0E0,0E0,0E0,0E0,0E0,0E0,0E0,0E0,0E0,0E0,0E0],"parents":[2147483647,0,0,1,1,2,2,3,3,4,4,5,5,6,6,8,8,9,9,10,10,11,11,12,12,15,15,16,16,17,17,19,19,21,21,22,22,23,23,24,24,25,25,26,26,30,30,33,33,34,34,35,35,36,36,39,39,40,40,46,46,47,47,48,48,51,51,53,53,56,56,57,57],"right_children":[2,4,6,8,10,12,14,-1,16,18,20,22,24,-1,-1,26,28,30,-1,32,-1,34,36,38,40,42,44,-1,-1,-1,46,-1,-1,48,50,52,54,-1,-1,56,58,-1,-1,-1,-1,-1,60,62,64,-1,-1,66,-1,68,-1,-1,70,72,-1,-1,-1,-1,-1,-1,-1,-1,-1,-1,-1,-1,-1,-1,-1],"split_conditions":[5.820766E-11,2.8174E2,1E0,0E0,4.8306116E5,1.6E1,2.031486E5,-9.127108E-2,1E0,-2.3293123E5,1.9702034E5,4.479117E4,5.32289E4,-1.0787329E-1,1.05434805E-1,2.9166012E5,1.99283E3,-2.3754327E5,-1.08076334E-1,1E1,-1.0177671E-1,8.889384E6,1.7096062E6,2.906952E4,3.7E1,4.06E2,2.4432472E5,1.0518654E-1,-1.750673E-1,-1.0749964E-1,2.8673297E5,1.545998E-1,1.0504707E-1,4.070899E4,9.412502E6,3.976532E4,3.23255E6,-1.0977846E-1,-1.07340544E-1,2.334384E5,2.32E2,1.09818235E-1,1.0650282E-1,1.0538447E-1,1.065095E-1,-9.549803E-2,3.0232325E5,0E0,4.656613E-10,1.339959E-1,-7.79066E-2,3.841736E4,-1.0551E-1,3.1663048E6,-1.050413E-1,-1.0559022E-1,2.3584161E5,2.31E2,-1.0536141E-1,1.3626853E-1,-5.3881653E-2,-1.0778584E-1,-5.7891633E-2,-1.0294351E-1,1.3777658E-1,-1.0846743E-1,1.0327987E-1,-1.047952E-1,1.6153175E-1,6.163753E-2,-9.977863E-2,-1.0492445E-1,-7.214098E-2],"split_indices":[6,3,8,6,7,0,3,0,10,7,4,4,6,0,0,5,4,7,0,0,0,5,6,4,0,0,4,0,0,0,3,0,0,4,5,6,5,0,0,6,0,0,0,0,0,0,3,7,7,0,0,6,0,5,0,0,6,0,0,0,0,0,0,0,0,0,0,0,0,0,0,0,0],"split_type":[0,0,0,0,0,0,0,0,0,0,0,0,0,0,0,0,0,0,0,0,0,0,0,0,0,0,0,0,0,0,0,0,0,0,0,0,0,0,0,0,0,0,0,0,0,0,0,0,0,0,0,0,0,0,0,0,0,0,0,0,0,0,0,0,0,0,0,0,0,0,0,0,0],"sum_hessian":[4.4841862E5,2.4403242E5,2.0438619E5,2.1876392E5,2.5268502E4,2.037845E5,6.016948E2,4.094513E0,2.1875983E5,2.2040047E4,3.2284565E3,1.0360105E4,1.9342439E5,1.0356082E2,4.98134E2,1.1321385E5,1.0554597E5,5.9691785E2,2.1443129E4,3.2073848E3,2.1071583E1,2.3732402E3,7.986865E3,3.475323E4,1.5867116E5,2.3707861E4,8.9505984E4,1.0554062E5,5.356085E0,5.0395206E2,9.296578E1,8.405057E1,3.1233342E3,2.2873394E3,8.59009E1,7.7658154E3,2.2105016E2,6.0347285E3,2.8718502E4,1.062504E4,1.4804612E5,1.3635105E4,1.0072756E4,3.997399E4,4.9532E4,8.946203E0,8.4019585E1,2.1617935E3,1.25545715E2,8.1812256E1,4.088647E0,1.0407185E3,6.7250967E3,1.15900856E2,1.0514931E2,6.080762E3,4.5442783E3,6.0849055E4,8.719707E4,8.2401886E1,1.6176935E0,5.9361597E2,1.5681776E3,2.8637756E1,9.690796E1,9.22679E2,1.1803948E2,3.1321236E1,8.457962E1,1.36936E2,4.4073423E3,6.003517E4,8.1388257E2],"tree_param":{"num_deleted":"0","num_feature":"11","num_nodes":"73","size_leaf_vector":"1"}},{"base_weights":[2.1249225E-4,1.0556996E0,-1.265989E0,1.2901222E0,-9.114669E-1,-1.2713454E0,1.1800358E0,-9.023398E-2,1.2901816E0,-1.3037047E0,1.2871758E0,-4.6667027E-1,-1.2725208E0,-9.519073E-2,1.0234189E-1,1.2998968E0,1.02775685E-1,-8.940533E-1,-1.0520647E-1,-9.437691E-2,1.2943959E0,7.716627E-1,-1.0210318E-1,-1.2498859E0,-1.2973323E0,1.05197825E-1,1.2830184E0,-1.04650706E-1,1.3076543E0,1.4369236E-1,1.02583714E-1,1.2539767E-1,-9.863544E-2,5.910008E-1,-1.2629488E0,-1.3388152E0,-1.2885379E0,1.02691896E-1,-1.5682651E-1,-9.063789E-2,1.5458368E0,7.4128515E-1,-1.2128177E-1,-6.5826994E-1,-1.2683917E0,-1.3254392E0,-1.3671602E0,-1.0291934E-1,-1.3265833E0,1.2944949E-1,-6.078601E-2,-1.0825288E-1,6.692481E-2,-1.049324E-1,1.078148E-1,-1.01663694E-1,-9.243062E-2,-1.0713367E-1,-1.0256934E-1,-1.10836096E-1,-1.02309234E-1,-1.1240874E-1,-1.0401179E-1],"categories":[],"categories_nodes":[],"categories_segments":[],"categories_sizes":[],"default_left":[0,0,0,0,0,0,0,0,0,0,0,0,0,0,0,0,0,0,0,0,0,0,0,0,0,0,0,0,0,0,0,0,0,0,0,0,0,0,0,0,0,0,0,0,0,0,0,0,0,0,0,0,0,0,0,0,0,0,0,0,0,0,0],"id":10,"left_children":[1,3,5,7,9,11,13,-1,15,17,19,21,23,-1,-1,25,-1,27,-1,-1,29,31,-1,33,35,-1,37,-1,39,-1,-1,-1,-1,41,43,45,47,-1,-1,-1,49,51,-1,53,55,57,59,-1,61,-1,-1,-1,-1,-1,-1,-1,-1,-1,-1,-1,-1,-1,-1],"loss_changes":[5.681208E5,1.06912984E5,2.5335938E3,3.1375E1,2.1290812E4,1.8090625E2,1.0095447E2,0E0,8.0625E0,9.535156E1,6.815576E1,2.854407E2,1.0525E2,0E0,0E0,1.6E1,0E0,5.2170667E2,0E0,0E0,1.8786621E1,1.8148068E2,0E0,2.4233906E3,3.046875E1,0E0,7.430078E1,0E0,5.46241E1,0E0,0E0,0E0,0E0,2.2560971E2,3.27375E2,2.9199219E0,2.875E0,0E0,0E0,0E0,1.5516663E1,1.3332812E2,0E0,1.1750529E3,2.4265625E1,3.4746094E0,5.123047E0,0E0,4.758301E0,0E0,0E0,0E0,0E0,0E0,0E0,0E0,0E0,0E0,0E0,0E0,0E0,0E0,0E0],"parents":[2147483647,0,0,1,1,2,2,3,3,4,4,5,5,6,6,8,8,9,9,10,10,11,11,12,12,15,15,17,17,20,20,21,21,23,23,24,24,26,26,28,28,33,33,34,34,35,35,36,36,40,40,41,41,43,43,44,44,45,45,46,46,48,48],"right_children":[2,4,6,8,10,12,14,-1,16,18,20,22,24,-1,-1,26,-1,28,-1,-1,30,32,-1,34,36,-1,38,-1,40,-1,-1,-1,-1,42,44,46,48,-1,-1,-1,50,52,-1,54,56,58,60,-1,62,-1,-1,-1,-1,-1,-1,-1,-1,-1,-1,-1,-1,-1,-1],"split_conditions":[5.820766E-11,2.8174E2,1.585932E6,0E0,9.426721E5,-5.0818425E6,2.0377399E6,-9.023398E-2,2.157383E5,-2.3293123E5,4.2174156E5,1.99283E3,3.9E1,-9.519073E-2,1.0234189E-1,1E0,1.02775685E-1,-2.3754327E5,-1.0520647E-1,-9.437691E-2,1.0030388E6,3.9E1,-1.0210318E-1,1.99283E3,4.649678E4,1.05197825E-1,1.99283E3,-1.04650706E-1,2.8182525E5,1.4369236E-1,1.02583714E-1,1.2539767E-1,-9.863544E-2,1E0,4.070899E4,5.5655E4,1.56638E5,1.02691896E-1,-1.5682651E-1,-9.063789E-2,3.42877E5,3.98884E4,-1.2128177E-1,1.1159301E5,1.7833556E6,5.517079E4,2.8174E2,-1.0291934E-1,3.2655594E5,1.2944949E-1,-6.078601E-2,-1.0825288E-1,6.692481E-2,-1.049324E-1,1.078148E-1,-1.01663694E-1,-9.243062E-2,-1.0713367E-1,-1.0256934E-1,-1.10836096E-1,-1.02309234E-1,-1.1240874E-1,-1.0401179E-1],"split_indices":[6,3,3,6,1,7,1,0,1,7,7,4,2,0,0,10,0,7,0,0,1,2,0,4,6,0,4,0,3,0,0,0,0,10,4,2,2,0,0,0,2,1,0,1,1,1,3,0,1,0,0,0,0,0,0,0,0,0,0,0,0,0,0],"split_type":[0,0,0,0,0,0,0,0,0,0,0,0,0,0,0,0,0,0,0,0,0,0,0,0,0,0,0,0,0,0,0,0,0,0,0,0,0,0,0,0,0,0,0,0,0,0,0,0,0,0,0,0,0,0,0,0,0,0,0,0,0,0,0],"sum_hessian":[4.2509206E5,2.3183683E5,1.9325525E5,2.0715166E5,2.4685174E4,1.9283366E5,4.2159174E2,4.422649E0,2.0714722E5,2.0948582E4,3.7365916E3,2.824726E2,1.9255119E5,1.6299967E1,4.0529175E2,7.463649E4,1.3251073E5,5.693683E2,2.0379213E4,1.022844E1,3.726363E3,1.1144461E2,1.7102797E2,1.0072966E5,9.182152E4,3.936714E4,3.5269355E4,4.7976974E2,8.959853E1,8.329747E1,3.6430657E3,8.010946E1,3.133515E1,7.09158E2,1.000205E5,1.6025012E4,7.579651E4,3.5263258E4,6.095912E0,7.445849E0,8.215269E1,6.627711E2,4.638694E1,8.9419946E2,9.9126305E4,1.0931745E4,5.0932666E3,7.1973625E4,3.8228857E3,8.015491E1,1.9977787E0,2.8034445E1,6.3473663E2,6.749487E2,2.1925073E2,9.704684E4,2.0794614E3,8.269237E3,2.6625083E3,4.2023584E3,8.909085E2,9.449376E2,2.8779482E3],"tree_param":{"num_deleted":"0","num_feature":"11","num_nodes":"63","size_leaf_vector":"1"}},{"base_weights":[8.770232E-3,1.0352345E0,-1.2348387E0,1.2619326E0,-9.2392445E-1,-1.2393155E0,1.1469786E0,-8.639725E-2,1.261991E0,-1.2724229E0,1.0038765E-1,-1.0510734E0,-1.249516E0,-9.2001356E-2,1.0005791E-1,1.271296E0,1.0054905E-1,-1.1185006E0,-1.0269913E-1,-8.7739545E-1,-1.02112904E-1,-1.2328509E0,-1.2676758E0,1.285913E0,1.2553127E0,-1.0244703E-1,-3.5865018E-1,-9.501737E-1,1.8921573E-1,-1.1189623E0,-1.2413441E0,-1.3028984E0,-1.2596027E0,1.0391158E-1,1.0141217E-1,1.0046132E-1,-1.3379246E-1,-1.01190306E-1,5.917867E-1,-1.8829198E-1,-1.0847951E0,1.3067265E0,-1.0027177E-1,-8.0305713E-1,-1.1961257E0,-1.2193968E0,-1.0053591E-1,-1.2906753E0,-1.3296382E0,-1.0063124E-1,-1.2924774E0,1.21273845E-1,-9.891742E-2,-1.02449425E-1,6.392963E-2,-9.393469E-2,-5.2714806E-2,1.2186907E-1,-9.492957E-2,-8.3312005E-2,1.5882583E-1,-1.0077202E-1,-6.458367E-2,-9.829168E-2,-4.3080896E-2,-1.04301386E-1,-1.0032004E-1,-1.07519895E-1,-9.996932E-2,-1.0885744E-1,-1.0153604E-1],"categories":[],"categories_nodes":[],"categories_segments":[],"categories_sizes":[],"default_left":[0,0,0,0,0,0,0,0,0,0,0,0,0,0,0,0,0,0,0,0,0,0,0,0,0,0,0,0,0,0,0,0,0,0,0,0,0,0,0,0,0,0,0,0,0,0,0,0,0,0,0,0,0,0,0,0,0,0,0,0,0,0,0,0,0,0,0,0,0,0,0],"id":11,"left_children":[1,3,5,7,9,11,13,-1,15,17,-1,19,21,-1,-1,23,-1,25,-1,27,-1,29,31,33,35,-1,37,39,41,43,45,47,49,-1,-1,-1,-1,-1,51,53,55,57,-1,59,61,63,-1,65,67,-1,69,-1,-1,-1,-1,-1,-1,-1,-1,-1,-1,-1,-1,-1,-1,-1,-1,-1,-1,-1,-1],"loss_changes":[5.1515603E5,9.81927E4,1.94725E3,2.859375E1,1.7411684E4,3.4728125E2,8.314276E1,0E0,6.59375E0,3.1794922E1,0E0,3.6455957E2,4.946875E1,0E0,0E0,1.35390625E1,0E0,1.6678906E2,0E0,4.117246E2,0E0,8.4625E1,2.05625E1,5.7617188E0,4.6566406E1,0E0,2.0938968E2,5.077827E2,5.4773126E2,1.5087988E2,2.5492188E1,1.9960938E0,8.90625E-1,0E0,0E0,0E0,0E0,0E0,2.0215125E2,8.06342E2,1.587085E2,1.0544351E2,0E0,8.2248834E2,1.22336426E2,2.1617578E2,0E0,2.171875E0,2.5107422E0,0E0,2.166504E0,0E0,0E0,0E0,0E0,0E0,0E0,0E0,0E0,0E0,0E0,0E0,0E0,0E0,0E0,0E0,0E0,0E0,0E0,0E0,0E0],"parents":[2147483647,0,0,1,1,2,2,3,3,4,4,5,5,6,6,8,8,9,9,11,11,12,12,15,15,17,17,19,19,21,21,22,22,23,23,24,24,26,26,27,27,28,28,29,29,30,30,31,31,32,32,38,38,39,39,40,40,41,41,43,43,44,44,45,45,47,47,48,48,50,50],"right_children":[2,4,6,8,10,12,14,-1,16,18,-1,20,22,-1,-1,24,-1,26,-1,28,-1,30,32,34,36,-1,38,40,42,44,46,48,50,-1,-1,-1,-1,-1,52,54,56,58,-1,60,62,64,-1,66,68,-1,70,-1,-1,-1,-1,-1,-1,-1,-1,-1,-1,-1,-1,-1,-1,-1,-1,-1,-1,-1,-1],"split_conditions":[5.820766E-11,2.8174E2,1.585932E6,0E0,5.2804425E6,1.6E1,2.0377399E6,-8.639725E-2,2.1384638E5,1.8E1,1.0038765E-1,3.9E1,3.9E1,-9.2001356E-2,1.0005791E-1,1E0,1.0054905E-1,1.7E1,-1.0269913E-1,1.0699581E6,-1.02112904E-1,3.7E1,4.916504E4,4.06E2,2.2794916E5,-1.0244703E-1,2.9691078E5,2.2794916E5,3.23255E6,4.1989503E5,2.32E2,5.5655E4,1.56638E5,1.0391158E-1,1.0141217E-1,1.0046132E-1,-1.3379246E-1,-1.01190306E-1,3.42877E5,9.457646E4,4.1547125E5,1.2E1,-1.0027177E-1,4.138085E5,5.0618747E5,2.31E2,-1.0053591E-1,5.517079E4,2.8174E2,-1.0063124E-1,3.2655594E5,1.21273845E-1,-9.891742E-2,-1.02449425E-1,6.392963E-2,-9.393469E-2,-5.2714806E-2,1.2186907E-1,-9.492957E-2,-8.3312005E-2,1.5882583E-1,-1.0077202E-1,-6.458367E-2,-9.829168E-2,-4.3080896E-2,-1.04301386E-1,-1.0032004E-1,-1.07519895E-1,-9.996932E-2,-1.0885744E-1,-1.0153604E-1],"split_indices":[6,3,3,6,1,0,1,0,1,0,0,2,2,0,0,10,0,0,0,1,0,0,6,0,5,0,3,5,5,5,0,2,2,0,0,0,0,0,2,1,1,0,0,5,6,0,0,1,3,0,1,0,0,0,0,0,0,0,0,0,0,0,0,0,0,0,0,0,0,0,0],"split_type":[0,0,0,0,0,0,0,0,0,0,0,0,0,0,0,0,0,0,0,0,0,0,0,0,0,0,0,0,0,0,0,0,0,0,0,0,0,0,0,0,0,0,0,0,0,0,0,0,0,0,0,0,0,0,0,0,0,0,0,0,0,0,0,0,0,0,0,0,0,0,0],"sum_hessian":[4.035609E5,2.2108214E5,1.8247877E5,1.9815397E5,2.2928174E4,1.8213711E5,3.416489E2,4.269417E0,1.981497E5,1.9767043E4,3.1611309E3,9.370276E3,1.7276683E5,1.4119884E1,3.2752902E2,7.027955E4,1.2787015E5,1.3636088E3,1.8403436E4,5.295731E3,4.074545E3,9.014119E4,8.262565E4,3.6651113E4,3.3628434E4,1.1227634E3,2.4084534E2,4.9580083E3,3.3772263E2,6.2690234E3,8.3872164E4,1.5365103E4,6.726055E4,2.1364982E4,1.5286131E4,3.3623965E4,4.470055E0,1.2338994E2,1.1745541E2,7.454266E2,4.212582E3,1.9055286E2,1.4716975E2,1.2341855E3,5.034838E3,3.457104E4,4.9301125E4,1.0591512E4,4.773591E3,6.3982473E4,3.278073E3,7.831399E1,3.9141422E1,3.5401102E2,3.9141556E2,3.4793342E3,7.3324774E2,1.7586243E2,1.4690429E1,1.1377405E3,9.6445045E1,4.32476E3,7.10078E2,3.41062E4,4.6483893E2,7.7697124E3,2.8217996E3,4.0285894E3,7.4500146E2,8.136756E2,2.4643972E3],"tree_param":{"num_deleted":"0","num_feature":"11","num_nodes":"71","size_leaf_vector":"1"}},{"base_weights":[-3.2445127E-3,1.0103681E0,-1.2099699E0,1.2360299E0,-8.791056E-1,-1.2178516E0,9.140832E-1,-7.536333E-2,1.2360744E0,-1.2448698E0,1.2298257E0,-1.0675088E0,-1.2259011E0,-1.00121915E-1,1.0140829E-1,1.2406378E0,9.848902E-2,-8.452507E-1,-1.00478314E-1,1.2443159E0,-9.3745284E-2,-7.60865E-1,-1.1561334E0,-1.00535154E-1,-1.2210368E0,1.00146346E-1,9.894849E-2,-9.997453E-2,1.1958712E0,9.838739E-2,1.4105178E-1,-8.8294977E-1,1.1103036E0,-1.193285E0,6.778169E-2,-7.2263277E-1,-1.2230111E0,-8.4237844E-2,1.4096961E0,-1.0761147E0,-2.8150398E-1,-9.70646E-2,1.6005912E0,-9.1437143E-1,-9.896654E-2,1.1499058E0,-9.798783E-2,1.38483E0,-9.9913955E-2,-1.1759568E0,-1.2263502E0,1.1801672E-1,-5.3919777E-2,-1.0225269E-1,-2.4703175E-2,1.0813909E-1,-5.5517778E-2,1.5741324E-1,-9.117993E-2,-1.0080324E-1,1.20162904E-1,-9.660769E-2,1.4684741E-1,1.5335706E-1,-9.926109E-2,-6.761735E-2,-9.8930515E-2,-9.726308E-2,-9.8694526E-2],"categories":[],"categories_nodes":[],"categories_segments":[],"categories_sizes":[],"default_left":[0,0,0,0,0,0,0,0,0,0,0,0,0,0,0,0,0,0,0,0,0,0,0,0,0,0,0,0,0,0,0,0,0,0,0,0,0,0,0,0,0,0,0,0,0,0,0,0,0,0,0,0,0,0,0,0,0,0,0,0,0,0,0,0,0,0,0,0,0],"id":12,"left_children":[1,3,5,7,9,11,13,-1,15,17,19,21,23,-1,-1,25,-1,27,-1,29,-1,31,33,-1,35,-1,-1,-1,37,-1,-1,39,41,43,45,47,49,-1,51,53,55,-1,57,59,-1,61,-1,63,-1,65,67,-1,-1,-1,-1,-1,-1,-1,-1,-1,-1,-1,-1,-1,-1,-1,-1,-1,-1],"loss_changes":[4.6105916E5,8.735142E4,2.8820781E3,1.909375E1,1.6861443E4,2.0501562E2,4.8889618E2,0E0,1.40625E0,8.0583984E1,1.13927246E2,2.3523926E2,2.159375E1,0E0,0E0,1.25E0,0E0,4.2095123E2,0E0,2.0456543E1,0E0,4.4864722E2,3.082295E2,0E0,1.3646875E2,0E0,0E0,0E0,4.221476E1,0E0,0E0,2.128916E2,1.3912871E2,7.799609E1,2.808982E2,6.2066235E2,1.934375E1,0E0,1.1993561E1,2.14682E2,3.034173E2,0E0,1.03153564E2,7.5055457E2,0E0,1.7954019E2,0E0,1.5892697E2,0E0,1.8477148E2,7.40625E0,0E0,0E0,0E0,0E0,0E0,0E0,0E0,0E0,0E0,0E0,0E0,0E0,0E0,0E0,0E0,0E0,0E0,0E0],"parents":[2147483647,0,0,1,1,2,2,3,3,4,4,5,5,6,6,8,8,9,9,10,10,11,11,12,12,15,15,17,17,19,19,21,21,22,22,24,24,28,28,31,31,32,32,33,33,34,34,35,35,36,36,38,38,39,39,40,40,42,42,43,43,45,45,47,47,49,49,50,50],"right_children":[2,4,6,8,10,12,14,-1,16,18,20,22,24,-1,-1,26,-1,28,-1,30,-1,32,34,-1,36,-1,-1,-1,38,-1,-1,40,42,44,46,48,50,-1,52,54,56,-1,58,60,-1,62,-1,64,-1,66,68,-1,-1,-1,-1,-1,-1,-1,-1,-1,-1,-1,-1,-1,-1,-1,-1,-1,-1],"split_conditions":[5.820766E-11,2.8174E2,1E0,0E0,4.8306116E5,1.6E1,2.031486E5,-7.536333E-2,1E0,-2.3293123E5,1.9702034E5,4.479117E4,3.976532E4,-1.00121915E-1,1.0140829E-1,3.498466E5,9.848902E-2,-2.3754327E5,-1.00478314E-1,1.3857652E5,-9.3745284E-2,4.070899E4,1.7096062E6,-1.00535154E-1,4.452463E4,1.00146346E-1,9.894849E-2,-9.997453E-2,2.8673297E5,9.838739E-2,1.4105178E-1,4.49194E5,1.2E1,3.976532E4,3.23255E6,4.110741E4,3.7E1,-8.4237844E-2,3.0232325E5,1.5E1,4.592619E5,-9.70646E-2,1.3E1,3.841736E4,-9.896654E-2,3.1663048E6,-9.798783E-2,1.5E1,-9.9913955E-2,2.7163753E5,2.32E2,1.1801672E-1,-5.3919777E-2,-1.0225269E-1,-2.4703175E-2,1.0813909E-1,-5.5517778E-2,1.5741324E-1,-9.117993E-2,-1.0080324E-1,1.20162904E-1,-9.660769E-2,1.4684741E-1,1.5335706E-1,-9.926109E-2,-6.761735E-2,-9.8930515E-2,-9.726308E-2,-9.8694526E-2],"split_indices":[6,3,8,6,7,0,3,0,8,7,4,4,6,0,0,5,0,7,0,4,0,4,6,0,5,0,0,0,3,0,0,6,0,6,5,6,0,0,3,0,6,0,0,6,0,5,0,9,0,5,0,0,0,0,0,0,0,0,0,0,0,0,0,0,0,0,0,0,0],"split_type":[0,0,0,0,0,0,0,0,0,0,0,0,0,0,0,0,0,0,0,0,0,0,0,0,0,0,0,0,0,0,0,0,0,0,0,0,0,0,0,0,0,0,0,0,0,0,0,0,0,0,0,0,0,0,0,0,0,0,0,0,0,0,0,0,0,0,0,0,0],"sum_hessian":[3.7694134E5,2.0486267E5,1.7207867E5,1.8300662E5,2.1856049E4,1.7144316E5,6.355079E2,3.083209E0,1.8300355E5,1.8626238E4,3.2298098E3,8.72268E3,1.6272048E5,8.86287E1,5.468792E2,9.514648E4,8.785706E4,5.0709644E2,1.8119143E4,3.2111257E3,1.8684063E1,1.9591567E3,6.7635225E3,2.215156E4,1.4056892E5,2.391269E4,7.123378E4,4.2376395E2,8.33325E1,3.1281946E3,8.2931145E1,1.839907E3,1.1924977E2,6.564687E3,1.9883562E2,5.570906E2,1.4001183E5,6.6916876E0,7.664081E1,1.3914105E3,4.4849646E2,2.0343184E1,9.8906586E1,8.954482E2,5.669239E3,1.0850116E2,9.033446E1,1.1080517E2,4.4628543E2,9.310457E3,1.30701375E5,7.482038E1,1.8204296E0,1.1003583E3,2.9105225E2,8.972494E1,3.5877155E2,8.7632454E1,1.1274136E1,7.8398413E2,1.1146408E2,2.4111525E1,8.438963E1,9.2515274E1,1.8289894E1,1.4468389E3,7.863618E3,5.3649074E4,7.70523E4],"tree_param":{"num_deleted":"0","num_feature":"11","num_nodes":"69","size_leaf_vector":"1"}},{"base_weights":[-7.109057E-3,9.907551E-1,-1.1913246E0,1.213755E0,-8.898287E-1,-1.1966916E0,7.6092994E-1,-7.7738285E-2,1.2138095E0,-9.851849E-2,1.2155395E0,-1.1756507E0,-1.2197316E0,-9.855782E-2,9.898894E-2,1.218986E0,9.677762E-2,-8.387844E-2,1.2220387E0,3.8994887E-1,-1.189003E0,-1.2474438E0,-9.705795E-2,9.821558E-2,1.2092248E0,1.3278747E-1,9.666528E-2,-1.0640982E-1,6.2279063E-1,-7.993994E-1,-1.1922421E0,-1.2374074E0,-1.2684373E0,9.677615E-2,-1.442332E-1,1.6232662E-1,3.993716E-1,-9.8289676E-2,1.1228735E0,-1.1948115E0,-1.0756198E0,-9.984914E-2,-9.668611E-2,-1.0243387E-1,-9.642266E-2,-1.13210335E-1,6.314051E-2,2.0894992E-1,-1.109521E-1,-9.468862E-2,-9.6854076E-2,1.279108E-1,-9.698153E-2],"categories":[],"categories_nodes":[],"categories_segments":[],"categories_sizes":[],"default_left":[0,0,0,0,0,0,0,0,0,0,0,0,0,0,0,0,0,0,0,0,0,0,0,0,0,0,0,0,0,0,0,0,0,0,0,0,0,0,0,0,0,0,0,0,0,0,0,0,0,0,0,0,0],"id":13,"left_children":[1,3,5,7,9,11,13,-1,15,-1,17,19,21,-1,-1,23,-1,-1,25,27,29,31,-1,-1,33,-1,-1,-1,35,37,39,41,43,-1,-1,-1,45,-1,47,49,51,-1,-1,-1,-1,-1,-1,-1,-1,-1,-1,-1,-1],"loss_changes":[4.171375E5,8.0341625E4,1.6925625E3,2.1671875E1,1.4609863E4,7.540625E1,4.220817E2,0E0,9.375E-1,0E0,4.3095703E1,1.7606094E3,1.1109375E1,0E0,0E0,3.7109375E0,0E0,0E0,1.3553223E1,2.8575806E2,1.03390625E2,2.4609375E-1,0E0,0E0,5.3121094E1,0E0,0E0,0E0,1.9538875E2,5.728595E2,2.2390625E1,3.1933594E-1,7.3583984E-1,0E0,0E0,0E0,3.8546707E2,0E0,4.778161E2,1.17578125E1,6.59074E2,0E0,0E0,0E0,0E0,0E0,0E0,0E0,0E0,0E0,0E0,0E0,0E0],"parents":[2147483647,0,0,1,1,2,2,3,3,4,4,5,5,6,6,8,8,10,10,11,11,12,12,15,15,18,18,19,19,20,20,21,21,24,24,28,28,29,29,30,30,31,31,32,32,36,36,38,38,39,39,40,40],"right_children":[2,4,6,8,10,12,14,-1,16,-1,18,20,22,-1,-1,24,-1,-1,26,28,30,32,-1,-1,34,-1,-1,-1,36,38,40,42,44,-1,-1,-1,46,-1,48,50,52,-1,-1,-1,-1,-1,-1,-1,-1,-1,-1,-1,-1],"split_conditions":[5.820766E-11,2.8174E2,1E0,0E0,9.426721E5,3.9E1,4.3789784E5,-7.7738285E-2,3.2309488E5,-9.851849E-2,3.8003472E5,5.17059E3,5.055892E4,-9.855782E-2,9.898894E-2,1E0,9.677762E-2,-8.387844E-2,1.0030388E6,9.457646E4,4.070899E4,5.5655E4,-9.705795E-2,9.821558E-2,1.99283E3,1.3278747E-1,9.666528E-2,-1.0640982E-1,9.57568E4,1.1159301E5,1.7833556E6,5.517079E4,2.8174E2,9.677615E-2,-1.442332E-1,1.6232662E-1,2.2187883E5,-9.8289676E-2,1.1290908E5,1.2904448E6,1.2904448E6,-9.984914E-2,-9.668611E-2,-1.0243387E-1,-9.642266E-2,-1.13210335E-1,6.314051E-2,2.0894992E-1,-1.109521E-1,-9.468862E-2,-9.6854076E-2,1.279108E-1,-9.698153E-2],"split_indices":[6,3,8,6,1,2,3,0,1,0,7,4,6,0,0,10,0,0,1,1,4,2,0,0,4,0,0,0,6,1,1,1,3,0,0,0,6,0,1,4,4,0,0,0,0,0,0,0,0,0,0,0,0],"split_type":[0,0,0,0,0,0,0,0,0,0,0,0,0,0,0,0,0,0,0,0,0,0,0,0,0,0,0,0,0,0,0,0,0,0,0,0,0,0,0,0,0,0,0,0,0,0,0,0,0,0,0,0,0],"sum_hessian":[3.529998E5,1.9157302E5,1.6142681E5,1.71265E5,2.0308012E4,1.6098489E5,4.4193045E2,3.588996E0,1.712614E5,1.7473174E4,2.8348389E3,8.418116E4,7.680373E4,8.475732E1,3.5717313E2,7.539706E4,9.586434E4,7.435446E0,2.8274033E3,7.1130994E2,8.346985E4,1.4554102E4,6.2249625E4,3.9753703E4,3.564336E4,8.117653E1,2.7462268E3,8.399009E1,6.273198E2,6.915706E2,8.277828E4,9.90338E3,4.650721E3,3.5638477E4,4.8807774E0,8.458526E1,5.427346E2,5.6584485E2,1.2572575E2,8.098069E4,1.7975886E3,7.1780645E3,2.725316E3,3.8859966E3,7.6472455E2,9.530037E1,4.4743423E2,7.90095E1,4.6716255E1,4.752512E4,3.345557E4,8.6682236E1,1.7109064E3],"tree_param":{"num_deleted":"0","num_feature":"11","num_nodes":"53","size_leaf_vector":"1"}},{"base_weights":[-1.8747093E-3,9.7605526E-1,-1.1700445E0,1.1935447E0,-8.6064667E-1,-1.1746025E0,6.9612145E-1,-6.8096004E-2,9.548696E-2,-1.1975908E0,9.51549E-2,-9.5117444E-1,-1.1830888E0,-9.6212454E-2,9.6977435E-2,-1.0325624E0,-9.6785784E-2,-7.672408E-1,-9.651127E-2,-1.1302186E0,-1.1878216E0,-9.66079E-2,-2.3990713E-1,-1.4659941E-1,-1.0117106E0,-9.730991E-1,-9.5832266E-2,-1.196995E0,-1.171088E0,-9.514562E-2,6.416038E-1,-9.680838E-2,9.384447E-1,-9.5808424E-2,3.9092E-1,-1.0541166E0,1.3225715E0,-9.5491745E-2,-1.221922E0,1.8226084E-1,-1.1776478E0,1.158417E-1,-9.265263E-2,-9.949777E-2,9.7966954E-2,1.01279244E-1,-9.442026E-2,-9.0071484E-2,-3.6437307E-2,2.2358017E-1,-9.508413E-2,-9.916794E-2,-9.5800124E-2,2.0503645E-1,-9.463664E-2,-7.6305084E-2,-9.472024E-2],"categories":[],"categories_nodes":[],"categories_segments":[],"categories_sizes":[],"default_left":[0,0,0,0,0,0,0,0,0,0,0,0,0,0,0,0,0,0,0,0,0,0,0,0,0,0,0,0,0,0,0,0,0,0,0,0,0,0,0,0,0,0,0,0,0,0,0,0,0,0,0,0,0,0,0,0,0],"id":14,"left_children":[1,3,5,7,9,11,13,-1,-1,15,-1,17,19,-1,-1,21,-1,23,-1,25,27,-1,29,31,33,35,-1,37,39,-1,41,-1,43,-1,45,47,49,-1,51,53,55,-1,-1,-1,-1,-1,-1,-1,-1,-1,-1,-1,-1,-1,-1,-1,-1],"loss_changes":[3.8038816E5,7.240234E4,1.2916406E3,1.5203125E1,1.3257136E4,2.8482812E2,3.6409125E2,0E0,0E0,3.0898438E1,0E0,2.584292E2,3.396875E1,0E0,0E0,1.5811755E2,0E0,4.8889233E2,0E0,1.2546875E2,1.7953125E1,0E0,1.7614049E2,1.0555725E3,6.043081E2,6.7519946E2,0E0,4.5390625E0,4.2192578E2,0E0,1.5982896E2,0E0,2.84105E2,0E0,3.7449957E2,1.491228E2,4.6162076E2,0E0,1.6865234E0,7.491888E2,6.496875E1,0E0,0E0,0E0,0E0,0E0,0E0,0E0,0E0,0E0,0E0,0E0,0E0,0E0,0E0,0E0,0E0],"parents":[2147483647,0,0,1,1,2,2,3,3,4,4,5,5,6,6,9,9,11,11,12,12,15,15,17,17,19,19,20,20,22,22,23,23,24,24,25,25,27,27,28,28,30,30,32,32,34,34,35,35,36,36,38,38,39,39,40,40],"right_children":[2,4,6,8,10,12,14,-1,-1,16,-1,18,20,-1,-1,22,-1,24,-1,26,28,-1,30,32,34,36,-1,38,40,-1,42,-1,44,-1,46,48,50,-1,52,54,56,-1,-1,-1,-1,-1,-1,-1,-1,-1,-1,-1,-1,-1,-1,-1,-1],"split_conditions":[5.820766E-11,2.8174E2,1E0,0E0,3.089851E6,1.4E1,2.8174E2,-6.8096004E-2,9.548696E-2,1.8E1,9.51549E-2,3.9E1,3.7E1,-9.6212454E-2,9.6977435E-2,1.7E1,-9.6785784E-2,4.5829612E5,-9.651127E-2,4.1989503E5,2.2871369E5,-9.66079E-2,2.9691078E5,1.489376E5,1.0699581E6,4.138085E5,-9.5832266E-2,5.5655E4,2.3260866E5,-9.514562E-2,3.42877E5,-9.680838E-2,1E1,-9.5808424E-2,3.23255E6,3.6E1,2.434294E4,-9.5491745E-2,9.011883E4,3.9E1,2.9166012E5,1.158417E-1,-9.265263E-2,-9.949777E-2,9.7966954E-2,1.01279244E-1,-9.442026E-2,-9.0071484E-2,-3.6437307E-2,2.2358017E-1,-9.508413E-2,-9.916794E-2,-9.5800124E-2,2.0503645E-1,-9.463664E-2,-7.6305084E-2,-9.472024E-2],"split_indices":[6,3,8,6,1,0,3,0,0,0,0,2,0,0,0,0,0,5,0,5,6,0,3,1,1,5,0,2,5,0,2,0,0,0,5,0,1,0,6,2,5,0,0,0,0,0,0,0,0,0,0,0,0,0,0,0,0],"split_type":[0,0,0,0,0,0,0,0,0,0,0,0,0,0,0,0,0,0,0,0,0,0,0,0,0,0,0,0,0,0,0,0,0,0,0,0,0,0,0,0,0,0,0,0,0,0,0,0,0,0,0,0,0,0,0,0,0],"sum_hessian":[3.3297412E5,1.8124508E5,1.5172906E5,1.6205614E5,1.9188936E4,1.5136002E5,3.690472E2,2.693314E0,1.6205345E5,1.6480861E4,2.7080745E3,5.544923E3,1.4581508E5,7.837984E1,2.9066736E2,1.1459441E3,1.5334917E4,3.2259546E3,2.3189683E3,1.2008915E4,1.3380617E5,9.377198E2,2.0822423E2,9.1264514E2,2.3133093E3,3.622533E3,8.386383E3,8.636189E4,4.7444277E4,1.0035595E2,1.07868286E2,4.610716E2,4.5157355E2,2.0430417E3,2.7026764E2,3.4997793E3,1.2275369E2,7.6195984E4,1.0165908E4,2.2836249E2,4.7215914E4,7.481793E1,3.3050346E1,5.1758793E1,3.9981476E2,1.7391663E2,9.635101E1,3.1235554E3,3.7622375E2,7.743974E1,4.531395E1,5.8563843E3,4.309524E3,8.30417E1,1.4532079E2,1.3098977E3,4.5906016E4],"tree_param":{"num_deleted":"0","num_feature":"11","num_nodes":"57","size_leaf_vector":"1"}},{"base_weights":[5.637751E-4,9.6119976E-1,-1.1450015E0,1.1753391E0,-8.598403E-1,-1.1508471E0,7.778787E-1,-6.5629125E-2,9.403055E-2,-1.1783046E0,1.1815921E0,-9.568455E-1,-1.1615614E0,-9.447558E-2,9.4907075E-2,-7.544388E-1,-9.523524E-2,-7.897935E-2,1.1881635E0,-5.4509073E-1,-1.0870821E0,-1.1436591E0,-1.1810036E0,-9.4715185E-2,1.1510314E0,1.308452E-1,9.373876E-2,1.0187585E0,-9.5596395E-2,-1.1241635E0,6.7058034E-2,7.7301913E-1,-1.1560096E0,-9.626345E-2,-9.406554E-2,-7.946545E-2,1.3695573E0,-9.7280554E-2,1.321237E0,-6.466463E-1,-9.43453E-2,-9.263296E-2,9.1456276E-1,-1.0954274E-1,1.3850077E0,-6.646179E-1,-1.1599871E0,1.1290306E-1,-3.5406794E-2,-1.13429755E-1,1.1626459E-1,-9.5032424E-2,1.530895E-1,1.24631815E-1,-9.293517E-2,1.9005272E-1,-1.0544577E-1,-9.468634E-2,1.1102061E-1,-9.08037E-2,-9.390696E-2],"categories":[],"categories_nodes":[],"categories_segments":[],"categories_sizes":[],"default_left":[0,0,0,0,0,0,0,0,0,0,0,0,0,0,0,0,0,0,0,0,0,0,0,0,0,0,0,0,0,0,0,0,0,0,0,0,0,0,0,0,0,0,0,0,0,0,0,0,0,0,0,0,0,0,0,0,0,0,0,0,0],"id":15,"left_children":[1,3,5,7,9,11,13,-1,-1,15,17,19,21,-1,-1,23,-1,-1,25,27,29,31,33,-1,35,-1,-1,37,-1,39,41,43,45,-1,-1,-1,47,-1,49,51,-1,-1,53,-1,55,57,59,-1,-1,-1,-1,-1,-1,-1,-1,-1,-1,-1,-1,-1,-1],"loss_changes":[3.4369328E5,6.62425E4,1.6022344E3,1.4140625E1,1.1621511E4,2.9301562E2,3.470971E2,0E0,0E0,7.766992E1,3.5654785E1,3.976089E2,4.4359375E1,0E0,0E0,3.5678644E2,0E0,0E0,1.4362793E1,1.8213807E3,2.4244678E2,1.6606562E3,4.8359375E0,0E0,3.91176E1,0E0,0E0,3.5725665E2,0E0,1.4252881E2,1.8410168E2,5.908316E2,1.3446094E2,0E0,0E0,0E0,6.6589813E0,0E0,1.6993939E2,7.919154E2,0E0,0E0,1.4236865E2,0E0,9.410727E2,6.008479E2,2.1390625E1,0E0,0E0,0E0,0E0,0E0,0E0,0E0,0E0,0E0,0E0,0E0,0E0,0E0,0E0],"parents":[2147483647,0,0,1,1,2,2,3,3,4,4,5,5,6,6,9,9,10,10,11,11,12,12,15,15,18,18,19,19,20,20,21,21,22,22,24,24,27,27,29,29,30,30,31,31,32,32,36,36,38,38,39,39,42,42,44,44,45,45,46,46],"right_children":[2,4,6,8,10,12,14,-1,-1,16,18,20,22,-1,-1,24,-1,-1,26,28,30,32,34,-1,36,-1,-1,38,-1,40,42,44,46,-1,-1,-1,48,-1,50,52,-1,-1,54,-1,56,58,60,-1,-1,-1,-1,-1,-1,-1,-1,-1,-1,-1,-1,-1,-1],"split_conditions":[5.820766E-11,2.8174E2,1E0,0E0,9.426721E5,1.6E1,5.959129E4,-6.5629125E-2,9.403055E-2,-2.3293123E5,3.8003472E5,4.479117E4,3.9E1,-9.447558E-2,9.4907075E-2,-2.3754327E5,-9.523524E-2,-7.897935E-2,1.0030388E6,3.9E1,1.7833556E6,1.99283E3,4.916504E4,-9.4715185E-2,2.8673297E5,1.308452E-1,9.373876E-2,9.457646E4,-9.5596395E-2,3.98884E4,3.637979E-12,1.86E2,4.070899E4,-9.626345E-2,-9.406554E-2,-7.946545E-2,3.42877E5,-9.7280554E-2,-2.910383E-11,3.860739E4,-9.43453E-2,-9.263296E-2,9.313226E-10,-1.0954274E-1,2.31E2,1.1159301E5,6.1710975E5,1.1290306E-1,-3.5406794E-2,-1.13429755E-1,1.1626459E-1,-9.5032424E-2,1.530895E-1,1.24631815E-1,-9.293517E-2,1.9005272E-1,-1.0544577E-1,-9.468634E-2,1.1102061E-1,-9.08037E-2,-9.390696E-2],"split_indices":[6,3,8,6,1,0,3,0,0,7,7,4,2,0,0,7,0,0,1,2,1,4,6,0,3,0,0,1,0,1,7,0,4,0,0,0,2,0,7,1,0,0,7,0,0,1,4,0,0,0,0,0,0,0,0,0,0,0,0,0,0],"split_type":[0,0,0,0,0,0,0,0,0,0,0,0,0,0,0,0,0,0,0,0,0,0,0,0,0,0,0,0,0,0,0,0,0,0,0,0,0,0,0,0,0,0,0,0,0,0,0,0,0,0,0,0,0,0,0,0,0,0,0,0,0],"sum_hessian":[3.1231275E5,1.698676E5,1.4244517E5,1.5199488E5,1.787272E4,1.4201411E5,4.310625E2,2.5996158E0,1.5199227E5,1.5461404E4,2.4113174E3,7.439813E3,1.345743E5,7.383958E1,3.5722293E2,4.3327014E2,1.5028134E4,6.603406E0,2.4047139E3,1.7899017E3,5.6499116E3,7.010638E4,6.4467906E4,3.540964E2,7.9173744E1,8.060692E1,2.324107E3,5.2505634E2,1.2648455E3,5.474481E3,1.7543039E2,4.4819754E2,6.965819E4,1.2103054E4,5.236485E4,6.7827187E0,7.239103E1,6.203766E1,4.6301868E2,5.6908527E2,4.9053955E3,7.1348366E1,1.0408203E2,9.913055E1,3.49067E2,5.6167535E2,6.9096516E4,7.124742E1,1.1436051E0,2.0676256E1,4.4234244E2,4.703757E2,9.8709595E1,7.983524E1,2.4246786E1,2.5567192E2,9.3395065E1,4.4884726E2,1.1282807E2,2.4712824E4,4.4383688E4],"tree_param":{"num_deleted":"0","num_feature":"11","num_nodes":"61","size_leaf_vector":"1"}},{"base_weights":[4.2592436E-3,9.493767E-1,-1.1336786E0,1.1594026E0,-8.2441294E-1,-1.1391975E0,4.429576E-1,-7.084214E-2,9.275669E-2,-1.1610953E0,1.1636554E0,-9.4240934E-1,-1.1500297E0,-9.1706924E-2,1.1819235E0,-7.367934E-1,-9.38502E-2,-7.686011E-2,1.1695213E0,-5.481716E-1,-1.0684916E0,-1.112394E0,-1.1577265E0,-6.170702E-2,9.6049525E-2,-9.333299E-2,1.1222574E0,1.2436616E-1,9.247726E-2,9.200527E-1,-9.417661E-2,-1.1058323E0,6.534197E-2,-4.5593403E-2,-9.317701E-2,-9.28716E-2,-1.1382672E0,1.3024502E0,-7.5539485E-2,-9.5729336E-2,1.2190921E0,-6.220612E-1,-9.3057595E-2,-9.092587E-2,8.256467E-1,-9.450943E-2,1.0563849E0,-1.0751475E0,-9.283437E-2,-4.6980016E-2,1.0911407E-1,-1.0805188E-1,1.06329076E-1,-9.365655E-2,1.3080205E-1,1.18750535E-1,-9.1549374E-2,1.2246553E-1,-1.04882084E-1,-9.3021646E-2,4.5392957E-1],"categories":[],"categories_nodes":[],"categories_segments":[],"categories_sizes":[],"default_left":[0,0,0,0,0,0,0,0,0,0,0,0,0,0,0,0,0,0,0,0,0,0,0,0,0,0,0,0,0,0,0,0,0,0,0,0,0,0,0,0,0,0,0,0,0,0,0,0,0,0,0,0,0,0,0,0,0,0,0,0,0],"id":16,"left_children":[1,3,5,7,9,11,13,-1,-1,15,17,19,21,-1,23,25,-1,-1,27,29,31,33,35,-1,-1,-1,37,-1,-1,39,-1,41,43,45,-1,-1,47,49,-1,-1,51,53,-1,-1,55,-1,57,59,-1,-1,-1,-1,-1,-1,-1,-1,-1,-1,-1,-1,-1],"loss_changes":[3.153583E5,5.967625E4,1.1585E3,1.7578125E1,1.1352767E4,2.805E2,5.4687726E2,0E0,0E0,7.222461E1,3.1838867E1,3.4281445E2,3.396875E1,0E0,1.2744812E1,3.2401373E2,0E0,0E0,9.636963E0,1.553744E3,2.2264941E2,1.1921309E3,3.96875E0,0E0,0E0,0E0,2.975489E1,0E0,0E0,3.2081152E2,0E0,1.3936377E2,1.5406667E2,1.2536322E3,0E0,0E0,1.8166016E1,9.3980255E0,0E0,0E0,1.2696539E2,6.7234515E2,0E0,0E0,1.3628496E2,0E0,5.7286005E2,2.2713237E3,0E0,0E0,0E0,0E0,0E0,0E0,0E0,0E0,0E0,0E0,0E0,0E0,0E0],"parents":[2147483647,0,0,1,1,2,2,3,3,4,4,5,5,6,6,9,9,10,10,11,11,12,12,14,14,15,15,18,18,19,19,20,20,21,21,22,22,26,26,29,29,31,31,32,32,33,33,36,36,37,37,40,40,41,41,44,44,46,46,47,47],"right_children":[2,4,6,8,10,12,14,-1,-1,16,18,20,22,-1,24,26,-1,-1,28,30,32,34,36,-1,-1,-1,38,-1,-1,40,-1,42,44,46,-1,-1,48,50,-1,-1,52,54,-1,-1,56,-1,58,60,-1,-1,-1,-1,-1,-1,-1,-1,-1,-1,-1,-1,-1],"split_conditions":[5.820766E-11,2.8174E2,3.5288006E5,0E0,9.426721E5,1.6E1,3.4944462E5,-7.084214E-2,9.275669E-2,-2.3293123E5,4.2174156E5,4.479117E4,4.070899E4,-9.1706924E-2,1.41E2,-2.3754327E5,-9.38502E-2,-7.686011E-2,1.0030388E6,3.9E1,1.7096062E6,3.9E1,1E-2,-6.170702E-2,9.6049525E-2,-9.333299E-2,4.243495E4,1.2436616E-1,9.247726E-2,9.457646E4,-9.417661E-2,3.98884E4,4.656613E-10,1.1159301E5,-9.317701E-2,-9.28716E-2,9.457646E4,4.116054E4,-7.5539485E-2,-9.5729336E-2,-2.910383E-11,3.860739E4,-9.3057595E-2,-9.092587E-2,9.313226E-10,-9.450943E-2,2.09E2,9.437139E4,-9.283437E-2,-4.6980016E-2,1.0911407E-1,-1.0805188E-1,1.06329076E-1,-9.365655E-2,1.3080205E-1,1.18750535E-1,-9.1549374E-2,1.2246553E-1,-1.04882084E-1,-9.3021646E-2,4.5392957E-1],"split_indices":[6,3,3,6,1,0,7,0,0,7,7,4,4,0,0,7,0,0,1,2,6,2,7,0,0,0,1,0,0,1,0,1,7,1,0,0,1,1,0,0,7,1,0,0,7,0,0,6,0,0,0,0,0,0,0,0,0,0,0,0,0],"split_type":[0,0,0,0,0,0,0,0,0,0,0,0,0,0,0,0,0,0,0,0,0,0,0,0,0,0,0,0,0,0,0,0,0,0,0,0,0,0,0,0,0,0,0,0,0,0,0,0,0,0,0,0,0,0,0,0,0,0,0,0,0],"sum_hessian":[2.9322238E5,1.6018275E5,1.3303964E5,1.4322483E5,1.6957932E4,1.3257616E5,4.6348297E2,3.2507262E0,1.4322158E5,1.4502568E4,2.4553643E3,6.923841E3,1.2565231E5,1.4671503E2,3.1676794E2,4.027826E2,1.4099786E4,6.0781665E0,2.449286E3,1.6800192E3,5.243822E3,2.1369953E4,1.0428236E5,2.367961E0,3.1439996E2,3.276592E2,7.512337E1,7.817233E1,2.3711138E3,5.0351483E2,1.1765044E3,5.0770825E3,1.6673917E2,9.9957764E2,2.0370375E4,8.960761E4,1.4674752E4,6.9660835E1,5.4625325E0,6.175131E1,4.4176352E2,5.40582E2,4.5365005E3,6.416013E1,1.0257903E2,4.9242862E2,5.07149E2,3.8323008E3,1.0842451E4,1.6690859E0,6.799175E1,1.7487675E1,4.2427585E2,4.354395E2,1.0514244E2,7.724882E1,2.5330212E1,4.229529E2,8.419609E1,3.7840754E3,4.8225353E1],"tree_param":{"num_deleted":"0","num_feature":"11","num_nodes":"61","size_leaf_vector":"1"}},{"base_weights":[6.7046387E-3,-7.950142E-1,7.492809E-1,6.8761134E-1,-9.8528814E-1,9.105412E-1,-7.158794E-1,5.1411793E-2,1.127471E0,-4.308485E-1,-1.1194843E0,4.9415067E-1,1.0975194E0,-1.1431214E0,1.1205869E0,2.3922375E-1,-9.228111E-2,1.1379033E0,-8.9047946E-2,-1.0223733E0,1.5736908E-1,-1.6153452E-1,-1.1233232E0,8.256044E-1,-9.193806E-2,9.410989E-1,1.1250453E0,-7.0426106E-1,-9.258298E-2,1.1545315E0,-8.936259E-2,3.9810878E-1,-9.313792E-2,9.112372E-2,-6.7319065E-2,1.6919786E-1,-1.0907248E0,3.9707053E-1,-9.235217E-2,-9.277657E-2,1.0989631E0,1.7726602E-1,-1.1259198E0,1.1331964E0,5.919728E-1,1.069054E0,-9.130672E-2,1.0530809E0,1.1336474E0,-9.201616E-2,1.1015985E0,-6.0575165E-2,1.1566824E0,-1.21579394E-1,6.656475E-1,-2.843578E-1,9.643633E-1,-6.201334E-1,-9.157749E-2,-2.0353862E-3,8.0933446E-1,8.9719705E-2,-4.321282E-2,1.5204098E0,-9.028378E-2,-1.0505115E0,-1.1400827E0,1.1348726E0,-8.0195986E-2,3.6258438E-1,1.0342283E0,1.1385871E0,9.9712795E-1,1.1222454E0,-9.36074E-2,1.1068953E0,9.1216974E-2,1.0341083E-1,-7.455296E-2,1.1461515E0,1.1892589E-1,5.598232E-2,-6.697266E-2,7.456266E-2,3.1431727E-2,-9.2908494E-2,7.361513E-2,8.6048104E-2,-1.197898E-1,-6.8722226E-2,8.829936E-2,5.9715714E-2,-9.397665E-2,4.6931442E-2,8.0562286E-2,1.4209028E-1,-7.732352E-2,5.711237E-2,-9.158006E-2,-8.961184E-2,-9.154637E-2,9.1038376E-2,5.4461267E-2,-2.8496154E-3,6.0810976E-2,7.540386E-2,8.856438E-2,9.1176346E-2,-6.168337E-2,7.234592E-2,8.992512E-2,-8.7871894E-2,8.995435E-2,9.0499654E-2,-9.2205405E-2,-5.052991E-2,9.181105E-2],"categories":[],"categories_nodes":[],"categories_segments":[],"categories_sizes":[],"default_left":[0,0,0,0,0,0,0,0,0,0,0,0,0,0,0,0,0,0,0,0,0,0,0,0,0,0,0,0,0,0,0,0,0,0,0,0,0,0,0,0,0,0,0,0,0,0,0,0,0,0,0,0,0,0,0,0,0,0,0,0,0,0,0,0,0,0,0,0,0,0,0,0,0,0,0,0,0,0,0,0,0,0,0,0,0,0,0,0,0,0,0,0,0,0,0,0,0,0,0,0,0,0,0,0,0,0,0,0,0,0,0,0,0,0,0,0,0],"id":17,"left_children":[1,3,5,7,9,11,13,15,17,19,21,23,25,27,29,31,-1,33,-1,35,37,39,41,43,-1,45,47,49,-1,51,-1,53,-1,-1,-1,55,57,59,-1,-1,61,63,65,67,69,71,-1,73,75,-1,77,-1,79,81,83,85,87,89,-1,91,93,-1,-1,95,-1,97,99,101,-1,103,105,107,109,111,-1,113,-1,-1,-1,115,-1,-1,-1,-1,-1,-1,-1,-1,-1,-1,-1,-1,-1,-1,-1,-1,-1,-1,-1,-1,-1,-1,-1,-1,-1,-1,-1,-1,-1,-1,-1,-1,-1,-1,-1,-1,-1],"loss_changes":[1.6338097E5,3.7227914E4,3.3663016E4,4.1995864E3,8.700492E3,9.991242E3,1.1085133E4,1.3886023E3,2.0869238E2,7.931422E3,3.4545312E2,2.1667006E4,3.7926562E2,6.950488E1,2.0383862E2,1.1842621E3,0E0,2.1095703E1,0E0,9.262988E2,3.593756E3,4.763034E2,3.1740625E2,2.377211E3,0E0,3.535166E3,4.434375E1,2.9284088E2,0E0,1.187915E1,0E0,6.637725E2,0E0,0E0,0E0,2.2315137E2,2.7153516E2,1.5905464E3,0E0,0E0,7.0693817E0,3.3049634E2,9.766406E1,5.234961E1,1.9077002E3,6.0291016E1,0E0,1.2408213E3,9.421875E0,0E0,2.9349548E1,0E0,6.098877E0,9.538722E2,2.2789343E2,4.166594E2,6.294426E1,4.5775168E2,0E0,4.3115186E3,2.079248E2,0E0,0E0,6.124518E1,0E0,2.4649248E3,4.2578125E0,1.8458984E1,0E0,1.9620538E3,4.0828125E1,1.459668E1,7.04624E1,3.916797E1,0E0,7.3304004E2,0E0,0E0,0E0,7.7216797E0,0E0,0E0,0E0,0E0,0E0,0E0,0E0,0E0,0E0,0E0,0E0,0E0,0E0,0E0,0E0,0E0,0E0,0E0,0E0,0E0,0E0,0E0,0E0,0E0,0E0,0E0,0E0,0E0,0E0,0E0,0E0,0E0,0E0,0E0,0E0,0E0,0E0],"parents":[2147483647,0,0,1,1,2,2,3,3,4,4,5,5,6,6,7,7,8,8,9,9,10,10,11,11,12,12,13,13,14,14,15,15,17,17,19,19,20,20,21,21,22,22,23,23,25,25,26,26,27,27,29,29,31,31,35,35,36,36,37,37,40,40,41,41,42,42,43,43,44,44,45,45,47,47,48,48,50,50,52,52,53,53,54,54,55,55,56,56,57,57,59,59,60,60,63,63,65,65,66,66,67,67,69,69,70,70,71,71,72,72,73,73,75,75,79,79],"right_children":[2,4,6,8,10,12,14,16,18,20,22,24,26,28,30,32,-1,34,-1,36,38,40,42,44,-1,46,48,50,-1,52,-1,54,-1,-1,-1,56,58,60,-1,-1,62,64,66,68,70,72,-1,74,76,-1,78,-1,80,82,84,86,88,90,-1,92,94,-1,-1,96,-1,98,100,102,-1,104,106,108,110,112,-1,114,-1,-1,-1,116,-1,-1,-1,-1,-1,-1,-1,-1,-1,-1,-1,-1,-1,-1,-1,-1,-1,-1,-1,-1,-1,-1,-1,-1,-1,-1,-1,-1,-1,-1,-1,-1,-1,-1,-1,-1,-1],"split_conditions":[5.5655E4,4.452463E4,2.8174E2,1E0,5.264899E4,2.09461E5,3.4944462E5,2.8174E2,5.643332E4,1.211E3,5.66808E4,2.1008833E5,3.25976E5,-2.3293123E5,1.9702034E5,5.040363E4,-9.228111E-2,2.8174E2,-8.9047946E-2,1.38404E3,2.8174E2,5.264E4,-5.0818425E6,6.8248E4,-9.193806E-2,3.2655594E5,4.1982266E5,-2.3754327E5,-9.258298E-2,2.9691078E5,-8.936259E-2,7.171E3,-9.313792E-2,9.112372E-2,-6.7319065E-2,2.14E2,2.3E1,2.167E4,-9.235217E-2,-9.277657E-2,5.517079E4,9.412502E6,4.479117E4,2.1415316E5,4.06E2,2.3730456E5,-9.130672E-2,4.2203478E5,6.4195244E5,-9.201616E-2,4.243495E4,-6.0575165E-2,1.5622916E5,8.88192E3,2.298308E4,4.22E2,5.04E2,2.1E1,-9.157749E-2,2.165564E4,3.627E4,8.9719705E-2,-4.321282E-2,1.99283E3,-9.028378E-2,3.9E1,-9.999999E-3,1.99283E3,-8.0195986E-2,1.06431E5,1.09573E5,2.523487E4,4.06E2,-9.93159E3,-9.36074E-2,6.575578E5,9.1216974E-2,1.0341083E-1,-7.455296E-2,1.3E1,1.1892589E-1,5.598232E-2,-6.697266E-2,7.456266E-2,3.1431727E-2,-9.2908494E-2,7.361513E-2,8.6048104E-2,-1.197898E-1,-6.8722226E-2,8.829936E-2,5.9715714E-2,-9.397665E-2,4.6931442E-2,8.0562286E-2,1.4209028E-1,-7.732352E-2,5.711237E-2,-9.158006E-2,-8.961184E-2,-9.154637E-2,9.1038376E-2,5.4461267E-2,-2.8496154E-3,6.0810976E-2,7.540386E-2,8.856438E-2,9.1176346E-2,-6.168337E-2,7.234592E-2,8.992512E-2,-8.7871894E-2,8.995435E-2,9.0499654E-2,-9.2205405E-2,-5.052991E-2,9.181105E-2],"split_indices":[2,5,3,8,1,2,7,3,1,2,5,1,2,7,4,7,0,3,0,1,3,2,7,5,0,1,2,7,0,3,0,2,0,0,0,2,0,2,0,0,1,5,4,7,0,5,0,1,2,0,1,0,4,5,1,0,2,0,0,1,2,0,0,4,0,2,7,4,0,2,2,4,0,7,0,1,0,0,0,0,0,0,0,0,0,0,0,0,0,0,0,0,0,0,0,0,0,0,0,0,0,0,0,0,0,0,0,0,0,0,0,0,0,0,0,0,0],"split_type":[0,0,0,0,0,0,0,0,0,0,0,0,0,0,0,0,0,0,0,0,0,0,0,0,0,0,0,0,0,0,0,0,0,0,0,0,0,0,0,0,0,0,0,0,0,0,0,0,0,0,0,0,0,0,0,0,0,0,0,0,0,0,0,0,0,0,0,0,0,0,0,0,0,0,0,0,0,0,0,0,0,0,0,0,0,0,0,0,0,0,0,0,0,0,0,0,0,0,0,0,0,0,0,0,0,0,0,0,0,0,0,0,0,0,0,0,0],"sum_hessian":[2.744323E5,1.3196077E5,1.4247153E5,1.5008493E4,1.1695227E5,1.2834608E5,1.4125457E4,6.135928E3,8.872565E3,2.2792322E4,9.415995E4,3.9775188E4,8.857089E4,1.1460009E4,2.6654478E3,5.309545E3,8.263831E2,8.832157E3,4.0408005E1,1.136427E4,1.1428052E4,3.7652402E2,9.378343E4,3.3100023E4,6.6751646E3,1.32618125E4,7.530908E4,3.6103537E2,1.1098974E4,2.6263142E3,3.9133663E1,4.770542E3,5.3900287E2,8.827735E3,4.4215E0,6.1604156E2,1.0748228E4,9.663338E3,1.7647144E3,2.1039302E2,1.6613101E2,1.8634561E2,9.359708E4,1.4285798E4,1.8814227E4,1.2494796E4,7.670164E2,8.0602285E3,6.724884E4,2.9005005E2,7.098533E1,2.2958386E0,2.6240183E3,1.6208169E3,3.149725E3,3.9229398E2,2.2374757E2,1.1085167E3,9.639711E3,4.9099136E3,4.753424E3,1.6449059E2,1.6404303E0,9.196751E1,9.4378105E1,1.4816963E4,7.878012E4,1.4275296E4,1.050162E1,1.2390492E4,6.4237334E3,6.342011E3,6.152785E3,7.8177334E3,2.424951E2,1.3298986E4,5.394986E4,6.544714E1,5.5381837E0,2.54865E3,7.536842E1,7.543172E2,8.6649976E2,1.5913053E3,1.5584198E3,2.2727332E2,1.6502068E2,2.148073E2,8.94028E0,9.7429126E2,1.3422542E2,2.9969727E3,1.9129408E3,2.2384412E3,2.514983E3,8.3834206E1,8.133304E0,7.506616E2,1.4066302E4,1.390308E4,6.487704E4,1.4175693E4,9.960283E1,6.1899985E3,6.2004937E3,2.8529788E3,3.5707546E3,6.3389673E3,3.0438957E0,3.561215E3,2.5915698E3,6.962926E0,7.8107705E3,1.3157904E4,1.410826E2,1.4942666E0,2.5471555E3],"tree_param":{"num_deleted":"0","num_feature":"11","num_nodes":"117","size_leaf_vector":"1"}},{"base_weights":[8.950408E-3,-7.7445716E-1,7.3506325E-1,5.777523E-1,-9.6410346E-1,8.9396256E-1,-7.418274E-1,1.6548716E-2,1.1139451E0,2.5460878E-1,-1.0067344E0,4.8608395E-1,1.0837691E0,-9.146982E-2,1.1071299E0,1.0299373E0,-2.5493887E-1,-9.073323E-2,1.1295404E0,-7.5311387E-1,7.641582E-1,-1.0367607E0,-5.81788E-1,9.5063037E-1,-5.793324E-2,9.2869174E-1,1.1119908E0,-8.801947E-2,1.1414366E0,-8.959277E-2,1.0815134E0,-5.3897417E-1,7.2343665E-1,9.044645E-2,-6.294077E-2,1.4655194E0,-9.26701E-1,8.8807994E-1,-3.274972E-1,-8.652386E-1,-1.0751889E0,-1.0816966E0,-1.5671375E-1,6.644915E-1,1.1289241E0,1.0769482E0,-3.1660733E-1,1.0669514E0,5.016003E-1,1.0644939E0,1.1249939E0,-6.539578E-2,1.1446118E0,1.1004778E0,-8.419198E-2,-4.16292E-1,-9.107666E-2,8.2090884E-1,-9.0525664E-2,1.3265908E-1,-7.2638914E-2,-1.0565244E0,3.4681493E-1,6.858134E-2,9.77716E-1,7.293558E-1,-9.021041E-2,-9.2427087E-1,-1.7966501E-1,-1.0941957E0,-9.382878E-1,-6.393626E-1,-9.05692E-2,-5.2791268E-2,-9.049555E-2,4.5882118E-1,1.0436803E0,5.914391E-1,9.045486E-2,1.1047121E0,-8.856832E-2,-5.3967106E-1,6.2501E-1,1.1072435E0,8.592697E-1,7.3736495E-1,-9.069088E-2,1.1114236E0,8.593806E-1,1.0519606E0,1.1260273E0,9.0806365E-2,1.12569794E-1,8.906734E-2,-7.772053E-2,-7.5038545E-2,-9.839421E-3,2.8251886E-2,7.424969E-2,-9.067833E-2,7.5048395E-2,1.02027096E-1,-8.856567E-2,-9.0110116E-2,3.3256326E-2,-3.4793373E-3,8.468224E-2,8.066061E-2,-8.224797E-2,-5.6191247E-2,-8.202482E-2,9.350212E-2,-6.6415206E-2,-8.5234866E-2,-8.9035906E-2,1.6555015E-3,-7.80861E-2,-8.980555E-2,-1.3633047E-2,-2.1172471E-2,2.7438994E-2,8.9009024E-2,2.4581043E-2,8.410983E-2,-8.358417E-2,8.410676E-2,-8.228241E-2,-8.021017E-2,8.8937774E-2,-3.323103E-2,-9.0851955E-2,5.8240976E-2,-9.04979E-2,8.8661395E-2,-6.309225E-2,7.171647E-2,-8.82766E-2,-9.0802334E-2,6.147544E-2,-7.462661E-2,8.899396E-2,8.304692E-2,-6.421545E-2,8.5041694E-2,-6.9099575E-2,8.897264E-2,9.03679E-2],"categories":[],"categories_nodes":[],"categories_segments":[],"categories_sizes":[],"default_left":[0,0,0,0,0,0,0,0,0,0,0,0,0,0,0,0,0,0,0,0,0,0,0,0,0,0,0,0,0,0,0,0,0,0,0,0,0,0,0,0,0,0,0,0,0,0,0,0,0,0,0,0,0,0,0,0,0,0,0,0,0,0,0,0,0,0,0,0,0,0,0,0,0,0,0,0,0,0,0,0,0,0,0,0,0,0,0,0,0,0,0,0,0,0,0,0,0,0,0,0,0,0,0,0,0,0,0,0,0,0,0,0,0,0,0,0,0,0,0,0,0,0,0,0,0,0,0,0,0,0,0,0,0,0,0,0,0,0,0,0,0,0,0,0,0,0,0],"id":18,"left_children":[1,3,5,7,9,11,13,15,17,19,21,23,25,-1,27,29,31,-1,33,35,37,39,41,43,45,47,49,-1,51,-1,53,55,57,-1,-1,59,61,63,65,67,69,71,73,75,77,79,81,83,85,87,89,-1,91,93,-1,95,-1,97,-1,-1,-1,99,101,103,105,107,-1,109,111,113,115,117,-1,119,-1,121,123,125,-1,127,-1,129,131,133,135,137,-1,139,141,143,145,-1,-1,-1,-1,-1,-1,-1,-1,-1,-1,-1,-1,-1,-1,-1,-1,-1,-1,-1,-1,-1,-1,-1,-1,-1,-1,-1,-1,-1,-1,-1,-1,-1,-1,-1,-1,-1,-1,-1,-1,-1,-1,-1,-1,-1,-1,-1,-1,-1,-1,-1,-1,-1,-1,-1,-1],"loss_changes":[1.4663931E5,3.1799562E4,3.1397047E4,4.589001E3,5.650672E3,9.350039E3,9.650063E3,2.0513447E3,2.747256E2,1.8881008E3,1.3392969E3,9.695381E3,3.5870312E2,0E0,1.7689648E2,1.758877E2,1.6340945E3,0E0,1.650293E1,4.7658954E2,3.309574E2,6.449375E2,1.4734902E3,1.054041E3,5.187256E3,7.486113E2,4.0765625E1,0E0,1.5307373E1,0E0,6.3477295E1,3.3392737E2,2.3995563E2,0E0,0E0,4.2943115E1,1.9017413E2,1.605697E2,2.118295E2,7.2654785E2,2.065625E2,6.947876E1,3.7924185E2,6.18573E2,1.05390625E1,2.001023E2,3.023038E3,7.8333984E1,1.1991128E3,1.4258203E2,1.859375E0,0E0,2.840088E0,4.1839966E1,0E0,5.7857166E2,0E0,6.210077E1,0E0,0E0,0E0,1.608722E2,1.4513727E2,9.051278E1,1.6370825E2,5.384246E1,0E0,3.6932227E2,1.2521884E3,3.56875E1,3.5504102E2,7.381842E1,0E0,2.8441644E2,0E0,5.0977307E2,4.597583E1,3.436894E1,0E0,4.9023193E1,0E0,8.6062744E2,4.9922412E2,1.661914E1,1.1511694E2,1.588385E2,0E0,2.6117188E1,8.33187E2,1.7659607E1,2.890625E-1,0E0,0E0,0E0,0E0,0E0,0E0,0E0,0E0,0E0,0E0,0E0,0E0,0E0,0E0,0E0,0E0,0E0,0E0,0E0,0E0,0E0,0E0,0E0,0E0,0E0,0E0,0E0,0E0,0E0,0E0,0E0,0E0,0E0,0E0,0E0,0E0,0E0,0E0,0E0,0E0,0E0,0E0,0E0,0E0,0E0,0E0,0E0,0E0,0E0,0E0,0E0,0E0,0E0,0E0,0E0,0E0],"parents":[2147483647,0,0,1,1,2,2,3,3,4,4,5,5,6,6,7,7,8,8,9,9,10,10,11,11,12,12,14,14,15,15,16,16,18,18,19,19,20,20,21,21,22,22,23,23,24,24,25,25,26,26,28,28,30,30,31,31,32,32,35,35,36,36,37,37,38,38,39,39,40,40,41,41,42,42,43,43,44,44,45,45,46,46,47,47,48,48,49,49,50,50,52,52,53,53,55,55,57,57,61,61,62,62,63,63,64,64,65,65,67,67,68,68,69,69,70,70,71,71,73,73,75,75,76,76,77,77,79,79,81,81,82,82,83,83,84,84,85,85,87,87,88,88,89,89,90,90],"right_children":[2,4,6,8,10,12,14,16,18,20,22,24,26,-1,28,30,32,-1,34,36,38,40,42,44,46,48,50,-1,52,-1,54,56,58,-1,-1,60,62,64,66,68,70,72,74,76,78,80,82,84,86,88,90,-1,92,94,-1,96,-1,98,-1,-1,-1,100,102,104,106,108,-1,110,112,114,116,118,-1,120,-1,122,124,126,-1,128,-1,130,132,134,136,138,-1,140,142,144,146,-1,-1,-1,-1,-1,-1,-1,-1,-1,-1,-1,-1,-1,-1,-1,-1,-1,-1,-1,-1,-1,-1,-1,-1,-1,-1,-1,-1,-1,-1,-1,-1,-1,-1,-1,-1,-1,-1,-1,-1,-1,-1,-1,-1,-1,-1,-1,-1,-1,-1,-1,-1,-1,-1,-1,-1],"split_conditions":[5.5655E4,5.66808E4,2.8174E2,1E0,9E0,2.09461E5,3.4944462E5,9E0,1E0,2.14E2,4.22E2,2.0908298E5,3.25976E5,-9.146982E-2,1E0,1.77E2,4.06E2,-9.073323E-2,5.879962E4,-5.0818425E6,1E0,1.26E2,1.727E3,1E0,9E0,5.2857825E5,5.3433225E5,-8.801947E-2,2.9184462E5,-8.959277E-2,1E0,2.8174E2,2.8174E2,9.044645E-2,-6.294077E-2,2E0,1.0407352E5,1E0,-2.6278162E5,4.5E1,2.6651E4,1.1E1,1E0,4.06E2,1E0,1E0,4.04E2,3.0706472E5,1E0,8.029817E5,1.8E1,-6.539578E-2,4.925478E5,9.98409E4,-8.419198E-2,4.173E3,-9.107666E-2,5.755E3,-9.0525664E-2,1.3265908E-1,-7.2638914E-2,6.86E2,1.0837221E5,1.547E4,9E0,1.6754764E6,-9.021041E-2,4.71804E5,2.1E1,2.32E2,7.377329E4,5.42E2,-9.05692E-2,3.226E4,-9.049555E-2,9E0,1E0,8.343579E4,9.045486E-2,-1E-2,-8.856832E-2,1E0,1E0,3.3579028E5,1E0,1.7E1,-9.069088E-2,-1.0000005E-2,1E0,6.967539E6,8.28151E5,9.0806365E-2,1.12569794E-1,8.906734E-2,-7.772053E-2,-7.5038545E-2,-9.839421E-3,2.8251886E-2,7.424969E-2,-9.067833E-2,7.5048395E-2,1.02027096E-1,-8.856567E-2,-9.0110116E-2,3.3256326E-2,-3.4793373E-3,8.468224E-2,8.066061E-2,-8.224797E-2,-5.6191247E-2,-8.202482E-2,9.350212E-2,-6.6415206E-2,-8.5234866E-2,-8.9035906E-2,1.6555015E-3,-7.80861E-2,-8.980555E-2,-1.3633047E-2,-2.1172471E-2,2.7438994E-2,8.9009024E-2,2.4581043E-2,8.410983E-2,-8.358417E-2,8.410676E-2,-8.228241E-2,-8.021017E-2,8.8937774E-2,-3.323103E-2,-9.0851955E-2,5.8240976E-2,-9.04979E-2,8.8661395E-2,-6.309225E-2,7.171647E-2,-8.82766E-2,-9.0802334E-2,6.147544E-2,-7.462661E-2,8.899396E-2,8.304692E-2,-6.421545E-2,8.5041694E-2,-6.9099575E-2,8.897264E-2,9.03679E-2],"split_indices":[2,5,3,8,9,2,7,9,10,2,0,5,2,0,10,2,0,0,7,7,10,0,2,8,9,5,2,0,3,0,10,3,3,0,0,9,7,9,7,0,2,9,10,0,10,10,0,5,10,5,0,0,5,7,0,2,0,2,0,0,0,0,7,2,0,5,0,5,9,0,5,0,0,2,0,9,10,7,0,7,0,10,10,7,10,0,0,7,10,5,2,0,0,0,0,0,0,0,0,0,0,0,0,0,0,0,0,0,0,0,0,0,0,0,0,0,0,0,0,0,0,0,0,0,0,0,0,0,0,0,0,0,0,0,0,0,0,0,0,0,0,0,0,0,0,0,0],"split_type":[0,0,0,0,0,0,0,0,0,0,0,0,0,0,0,0,0,0,0,0,0,0,0,0,0,0,0,0,0,0,0,0,0,0,0,0,0,0,0,0,0,0,0,0,0,0,0,0,0,0,0,0,0,0,0,0,0,0,0,0,0,0,0,0,0,0,0,0,0,0,0,0,0,0,0,0,0,0,0,0,0,0,0,0,0,0,0,0,0,0,0,0,0,0,0,0,0,0,0,0,0,0,0,0,0,0,0,0,0,0,0,0,0,0,0,0,0,0,0,0,0,0,0,0,0,0,0,0,0,0,0,0,0,0,0,0,0,0,0,0,0,0,0,0,0,0,0],"sum_hessian":[2.5778358E5,1.23999266E5,1.3378431E5,1.5251178E4,1.0874809E5,1.2078928E5,1.2995035E4,7.4527534E3,7.798424E3,3.6749043E3,1.0507319E5,3.8360953E4,8.242833E4,1.0676935E4,2.3181003E3,1.5745266E3,5.878227E3,5.301041E1,7.7454136E3,1.2336626E3,2.4412417E3,9.813634E4,6.9368394E3,2.0691914E4,1.766904E4,1.2699043E4,6.972928E4,3.477765E1,2.2833225E3,3.617647E1,1.5383501E3,4.5564033E3,1.3218236E3,7.741882E3,3.5317261E0,8.876942E1,1.1448932E3,2.1929485E3,2.4829308E2,1.7969068E4,8.016728E4,3.1865618E3,3.7502773E3,7.9464307E3,1.2745482E4,3.2788105E3,1.43902295E4,9.591407E3,3.1076355E3,1.501285E4,5.4716434E4,3.0253077E0,2.2802974E3,1.5255112E3,1.2838869E1,3.784457E3,7.719462E2,1.2566208E3,6.5202705E1,8.2576546E1,6.192872E0,1.0394896E3,1.0540348E2,2.1693762E2,1.976011E3,1.0675269E2,1.4154039E2,1.654349E4,1.4255784E3,7.038468E4,9.782597E3,3.2846307E2,2.8580986E3,3.3902905E3,3.599868E2,5.154294E3,2.7921372E3,4.3665073E1,1.2701817E4,3.2383672E3,4.0443314E1,1.16349375E4,2.755292E3,8.027301E3,1.5641063E3,2.7167898E3,3.9084567E2,1.2211919E4,2.8009304E3,7.844013E2,5.393203E4,2.207373E3,7.29243E1,1.5167982E3,8.71306E0,1.3605504E3,2.4239067E3,2.3598608E2,1.02063477E3,1.001532E3,3.795768E1,6.460819E1,4.079529E1,4.8003155E1,1.6893448E2,1.4448276E2,1.8315282E3,9.274517E1,1.4007524E1,5.1803843E3,1.1363105E4,4.6341754E2,9.621609E2,2.7813873E4,4.257081E4,3.7038324E2,9.412213E3,1.6056078E2,1.679023E2,2.2092498E3,1.1810408E3,9.681681E2,4.1861255E3,2.7826238E3,9.513306E0,3.4523743E1,9.141331E0,1.0029397E1,3.228338E3,9.629395E3,2.0055427E3,2.60347E3,1.5182199E2,8.0236465E3,3.6544359E0,1.5358066E3,2.829967E1,4.3514603E1,2.6732754E3,5.2762303E0,1.2206643E4,2.529622E3,2.7130832E2,7.8060046E2,3.8007975E0,1.113651E4,4.2795523E4],"tree_param":{"num_deleted":"0","num_feature":"11","num_nodes":"147","size_leaf_vector":"1"}},{"base_weights":[1.0822749E-2,9.2428124E-1,-1.0933344E0,1.1232932E0,-8.220458E-1,-1.0979474E0,6.513978E-1,-6.321762E-2,8.986763E-2,-9.051861E-2,1.1223971E0,-7.8860563E-1,-1.108138E0,-9.07806E-2,9.17337E-2,-6.321913E-2,1.1254047E0,9.4523436E-1,-8.4241164E-1,-1.0158799E0,-1.1173117E0,1.0901386E-1,1.1151978E0,-8.455076E-2,1.446487E0,-9.250562E-1,-1.0371748E-1,-9.107555E-1,-9.089462E-2,-1.1032171E0,-1.1321402E0,-5.7467144E-2,8.949578E-2,1.2736635E-1,-6.778229E-2,-1.0454615E0,-5.6710553E-1,5.0254303E-1,-8.991545E-2,-9.5525604E-1,-3.923839E-1,-1.0784316E0,-8.966147E-2,-1.1587929E0,-1.125347E0,-9.12805E-2,-6.6785686E-2,-1.870244E-2,-9.0581276E-2,5.2104108E-2,-9.0505615E-2,-8.0885455E-2,-4.084979E-2,1.3009109E-1,-9.0013444E-2,-8.7512866E-2,-4.071331E-3,-9.164609E-2,-9.481812E-2,-8.968283E-2,-9.125907E-2],"categories":[],"categories_nodes":[],"categories_segments":[],"categories_sizes":[],"default_left":[0,0,0,0,0,0,0,0,0,0,0,0,0,0,0,0,0,0,0,0,0,0,0,0,0,0,0,0,0,0,0,0,0,0,0,0,0,0,0,0,0,0,0,0,0,0,0,0,0,0,0,0,0,0,0,0,0,0,0,0,0],"id":19,"left_children":[1,3,5,7,9,11,13,-1,-1,-1,15,17,19,-1,-1,-1,21,23,25,27,29,-1,31,-1,33,35,37,39,-1,41,43,-1,-1,-1,-1,45,47,49,-1,51,53,55,-1,57,59,-1,-1,-1,-1,-1,-1,-1,-1,-1,-1,-1,-1,-1,-1,-1,-1],"loss_changes":[2.4569175E5,4.6331805E4,8.885469E2,1.3E1,8.207163E3,3.4492188E2,2.5887372E2,0E0,0E0,0E0,1.1829346E1,3.2848218E2,8.7921875E1,0E0,0E0,0E0,1.7712402E0,1.080321E2,2.0745312E2,1.1993945E2,1.7875E1,0E0,1.255835E1,0E0,3.0221695E1,1.3067676E2,2.1406012E2,1.1787305E2,0E0,1.9316406E1,6.0859375E0,0E0,0E0,0E0,0E0,4.416504E1,1.4496875E2,5.3136505E1,0E0,1.1650195E2,6.0826575E2,3.277207E2,0E0,8.0371094E-1,8.59375E-2,0E0,0E0,0E0,0E0,0E0,0E0,0E0,0E0,0E0,0E0,0E0,0E0,0E0,0E0,0E0,0E0],"parents":[2147483647,0,0,1,1,2,2,3,3,4,4,5,5,6,6,10,10,11,11,12,12,16,16,17,17,18,18,19,19,20,20,22,22,24,24,25,25,26,26,27,27,29,29,30,30,35,35,36,36,37,37,39,39,40,40,41,41,43,43,44,44],"right_children":[2,4,6,8,10,12,14,-1,-1,-1,16,18,20,-1,-1,-1,22,24,26,28,30,-1,32,-1,34,36,38,40,-1,42,44,-1,-1,-1,-1,46,48,50,-1,52,54,56,-1,58,60,-1,-1,-1,-1,-1,-1,-1,-1,-1,-1,-1,-1,-1,-1,-1,-1],"split_conditions":[5.820766E-11,2.8174E2,1E0,0E0,9.426721E5,1.3E1,2.031486E5,-6.321762E-2,8.986763E-2,-9.051861E-2,3.5288006E5,2E0,3.7E1,-9.07806E-2,9.17337E-2,-6.321913E-2,1.0030388E6,4.0768634E5,1.01778125E6,3.9E1,3.9E1,1.0901386E-1,5.2804425E6,-8.455076E-2,4.2203478E5,1.2E1,3.9E1,2.1E1,-9.089462E-2,2.32E2,5.055892E4,-5.7467144E-2,8.949578E-2,1.2736635E-1,-6.778229E-2,2.7656188E5,3.9E1,1.9545972E6,-8.991545E-2,5.0618747E5,2.350291E4,2.31E2,-8.966147E-2,5.5655E4,5.5655E4,-9.12805E-2,-6.6785686E-2,-1.870244E-2,-9.0581276E-2,5.2104108E-2,-9.0505615E-2,-8.0885455E-2,-4.084979E-2,1.3009109E-1,-9.0013444E-2,-8.7512866E-2,-4.071331E-3,-9.164609E-2,-9.481812E-2,-8.968283E-2,-9.125907E-2],"split_indices":[6,3,8,6,1,0,3,0,0,0,3,9,0,0,0,0,1,6,6,2,2,0,1,0,1,0,2,9,0,0,6,0,0,0,0,6,2,6,0,6,6,0,0,2,2,0,0,0,0,0,0,0,0,0,0,0,0,0,0,0,0],"split_type":[0,0,0,0,0,0,0,0,0,0,0,0,0,0,0,0,0,0,0,0,0,0,0,0,0,0,0,0,0,0,0,0,0,0,0,0,0,0,0,0,0,0,0,0,0,0,0,0,0,0,0,0,0,0,0,0,0,0,0,0,0],"sum_hessian":[2.4359448E5,1.3330947E5,1.1028501E5,1.1967223E5,1.3637242E4,1.0999485E5,2.901556E2,2.586479E0,1.1966964E5,1.1765558E4,1.8716843E3,3.512065E3,1.0648278E5,6.249018E1,2.2766544E2,2.266609E0,1.8694177E3,1.0493062E2,3.4071343E3,9.64554E3,9.683724E4,6.9617165E1,1.7998005E3,2.058868E1,8.4341934E1,3.0634668E3,3.4366754E2,5.154289E3,4.491251E3,4.9703117E4,4.713413E4,2.7672546E0,1.7970333E3,7.980064E1,4.5413027E0,2.2898896E3,7.73577E2,2.1557892E2,1.2808864E2,4.7451274E3,4.0916125E2,2.0642816E4,2.9060299E4,9.523961E3,3.7610168E4,1.5706608E3,7.1922894E2,4.8803693E2,2.8554013E2,1.984207E2,1.7158215E1,4.2137974E3,5.313302E2,1.0846974E2,3.0069153E2,2.0335918E4,3.0689944E2,6.3914946E3,3.1324668E3,2.9462943E4,8.147224E3],"tree_param":{"num_deleted":"0","num_feature":"11","num_nodes":"61","size_leaf_vector":"1"}},{"base_weights":[1.1659678E-2,-7.538469E-1,7.174035E-1,6.526319E-1,-9.410538E-1,8.6906594E-1,-7.0185465E-1,9.490527E-2,1.0529047E0,-4.063593E-1,-1.0778414E0,3.8129047E-1,1.0291604E0,-1.1078259E0,1.0589563E0,1.0356796E0,-1.7405792E-1,1.0909085E0,-9.372068E-2,-1.0039706E0,1.6107234E-1,-7.036136E-1,-1.0898741E0,8.2890624E-1,-8.959502E-2,8.249972E-1,1.0892751E0,-6.5744776E-1,-8.955533E-2,1.1062117E0,-8.748175E-2,1.0761492E0,-8.4583074E-2,-4.8423916E-1,7.8123856E-1,1.1010772E0,-8.7067984E-2,2.4747379E-1,-1.0807636E0,3.7894574E-1,-8.95592E-2,6.9719434E-2,-9.982303E-1,-3.2013398E-1,-1.0919679E0,1.093557E0,6.2001175E-1,9.585138E-1,-8.912711E-2,1.0425577E0,1.1042447E0,-8.8878185E-2,1.110863E0,-8.165851E-2,1.1164302E0,1.0875138E0,-7.400869E-2,-3.4188482E-1,-8.915211E-2,8.7102777E-1,-8.777225E-2,1.1045899E0,-7.901997E-2,4.8851606E-1,-9.327398E-2,-8.903944E-2,-7.203223E-1,1.0741322E0,1.6614269E-1,1.2655479E0,-8.9447685E-2,-8.919536E-2,6.004826E-1,-8.971201E-2,1.0806445E0,-9.8979807E-1,-1.1019306E0,1.0985992E0,5.6775224E-1,1.0450357E0,3.9826876E-1,1.0964755E0,8.1950253E-1,1.0749087E0,-8.961255E-2,1.0925872E0,8.87048E-2,-3.408556E-2,9.312034E-2,-3.542945E-2,1.1177312E0,8.776547E-2,-7.005237E-2,-7.355707E-2,-2.8096547E-3,8.5180685E-2,4.912625E-2,8.851652E-2,-7.2340265E-2,4.569174E-3,8.172652E-2,7.5749286E-2,-8.8682465E-2,8.674157E-2,-8.025132E-2,-1.02499975E-2,6.560264E-2,-1.14690654E-1,1.0742751E-1,9.857421E-2,-8.576327E-2,8.898155E-2,-2.7437365E-2,-0E0,-8.194651E-2,-8.679259E-2,-8.884274E-2,7.818814E-2,8.86796E-2,8.522644E-2,-8.96319E-2,8.797863E-2,6.285054E-2,1.1288085E-2,7.537442E-2,8.783862E-2,-7.3277935E-2,6.742496E-2,-9.076395E-2,8.7443806E-2,7.7764556E-2,8.816764E-2,-9.448355E-2,8.877426E-2,1.069615E-1],"categories":[],"categories_nodes":[],"categories_segments":[],"categories_sizes":[],"default_left":[0,0,0,0,0,0,0,0,0,0,0,0,0,0,0,0,0,0,0,0,0,0,0,0,0,0,0,0,0,0,0,0,0,0,0,0,0,0,0,0,0,0,0,0,0,0,0,0,0,0,0,0,0,0,0,0,0,0,0,0,0,0,0,0,0,0,0,0,0,0,0,0,0,0,0,0,0,0,0,0,0,0,0,0,0,0,0,0,0,0,0,0,0,0,0,0,0,0,0,0,0,0,0,0,0,0,0,0,0,0,0,0,0,0,0,0,0,0,0,0,0,0,0,0,0,0,0,0,0,0,0,0,0,0,0],"id":20,"left_children":[1,3,5,7,9,11,13,15,17,19,21,23,25,27,29,31,33,35,-1,37,39,41,43,45,-1,47,49,51,-1,53,-1,55,-1,57,59,61,-1,63,65,67,-1,69,71,73,75,77,79,81,-1,83,85,-1,87,-1,89,91,-1,93,-1,95,-1,97,-1,99,-1,-1,101,103,105,107,-1,-1,109,-1,111,113,115,117,119,121,123,125,127,129,-1,131,-1,-1,-1,-1,133,-1,-1,-1,-1,-1,-1,-1,-1,-1,-1,-1,-1,-1,-1,-1,-1,-1,-1,-1,-1,-1,-1,-1,-1,-1,-1,-1,-1,-1,-1,-1,-1,-1,-1,-1,-1,-1,-1,-1,-1,-1,-1,-1,-1],"loss_changes":[1.23033625E5,2.8764297E4,2.5506031E4,2.8641182E3,7.0501875E3,8.358742E3,8.17892E3,1.3577242E3,6.3274316E2,6.661247E3,3.4401562E2,1.7778709E4,9.8735156E2,4.7015625E1,2.1926318E2,1.0219653E2,1.2362682E3,1.6398242E2,0E0,9.201074E2,2.811214E3,5.4634265E2,1.188125E2,1.1251875E3,0E0,4.7491025E3,4.13125E1,1.9151553E2,0E0,4.6793945E1,0E0,2.7722534E1,0E0,2.814599E2,1.7328497E2,5.4802734E1,0E0,1.8882538E2,1.0300195E2,1.2732235E3,0E0,9.4088245E2,3.2470764E2,2.2999887E2,7.336719E1,2.237207E1,1.0726523E3,3.2721875E2,0E0,1.0600957E3,1.953125E-1,0E0,4.842964E0,0E0,5.070801E0,2.2927368E1,0E0,4.5512305E2,0E0,4.712091E1,0E0,2.8475586E1,0E0,1.08388245E2,0E0,0E0,4.826607E2,4.3615723E1,1.2695043E3,7.0779785E1,0E0,0E0,1.2651486E2,0E0,4.1178436E0,2.2609912E2,7.59375E0,8.552734E0,7.540718E1,5.3598145E1,1.0469487E3,2.7205078E1,3.9036914E2,2.5726562E1,0E0,2.9010938E2,0E0,0E0,0E0,0E0,9.797363E-1,0E0,0E0,0E0,0E0,0E0,0E0,0E0,0E0,0E0,0E0,0E0,0E0,0E0,0E0,0E0,0E0,0E0,0E0,0E0,0E0,0E0,0E0,0E0,0E0,0E0,0E0,0E0,0E0,0E0,0E0,0E0,0E0,0E0,0E0,0E0,0E0,0E0,0E0,0E0,0E0,0E0,0E0,0E0,0E0],"parents":[2147483647,0,0,1,1,2,2,3,3,4,4,5,5,6,6,7,7,8,8,9,9,10,10,11,11,12,12,13,13,14,14,15,15,16,16,17,17,19,19,20,20,21,21,22,22,23,23,25,25,26,26,27,27,29,29,31,31,33,33,34,34,35,35,37,37,38,38,39,39,41,41,42,42,43,43,44,44,45,45,46,46,47,47,49,49,50,50,52,52,54,54,55,55,57,57,59,59,61,61,63,63,66,66,67,67,68,68,69,69,72,72,74,74,75,75,76,76,77,77,78,78,79,79,80,80,81,81,82,82,83,83,85,85,90,90],"right_children":[2,4,6,8,10,12,14,16,18,20,22,24,26,28,30,32,34,36,-1,38,40,42,44,46,-1,48,50,52,-1,54,-1,56,-1,58,60,62,-1,64,66,68,-1,70,72,74,76,78,80,82,-1,84,86,-1,88,-1,90,92,-1,94,-1,96,-1,98,-1,100,-1,-1,102,104,106,108,-1,-1,110,-1,112,114,116,118,120,122,124,126,128,130,-1,132,-1,-1,-1,-1,134,-1,-1,-1,-1,-1,-1,-1,-1,-1,-1,-1,-1,-1,-1,-1,-1,-1,-1,-1,-1,-1,-1,-1,-1,-1,-1,-1,-1,-1,-1,-1,-1,-1,-1,-1,-1,-1,-1,-1,-1,-1,-1,-1,-1],"split_conditions":[5.5655E4,4.452463E4,2.8174E2,1E0,5.390833E4,1.56638E5,5.2437375E5,9E0,8.88192E3,1.362E3,1.3E1,1.561834E5,3.25976E5,8.88192E3,6.702314E5,2.523487E4,4.22E2,1.99283E3,-9.372068E-2,1.38404E3,2.8174E2,4.479117E4,5.66808E4,7.377329E4,-8.959502E-2,3.2655594E5,5.864175E5,3.534639E5,-8.955533E-2,3.4623E5,-8.748175E-2,4.498822E4,-8.4583074E-2,2.8174E2,2.8174E2,2.8174E2,-8.7067984E-2,1.8E1,2.1E1,9E0,-8.95592E-2,3.9E1,1.7833556E6,5.337199E4,3.7E1,1.99283E3,1E1,2.043888E5,-8.912711E-2,5.891943E5,1.0357578E6,-8.8878185E-2,1.88E2,-8.165851E-2,1E0,2.8174E2,-7.400869E-2,4.173E3,-8.915211E-2,9.59289E3,-8.777225E-2,5.643332E4,-7.901997E-2,4.22E2,-9.327398E-2,-8.903944E-2,2.3E1,1E0,3.1502E4,1.9048153E5,-8.9447685E-2,-8.919536E-2,3.23255E6,-8.971201E-2,5.517079E4,1.0002381E5,5.6693694E5,1E0,9E0,9E0,4.06E2,2.906952E4,1E0,4.2619212E5,-8.961255E-2,1.0699581E6,8.87048E-2,-3.408556E-2,9.312034E-2,-3.542945E-2,9.973008E4,8.776547E-2,-7.005237E-2,-7.355707E-2,-2.8096547E-3,8.5180685E-2,4.912625E-2,8.851652E-2,-7.2340265E-2,4.569174E-3,8.172652E-2,7.5749286E-2,-8.8682465E-2,8.674157E-2,