{"learner":{"attributes":{"best_iteration":"260","best_score":"0.9943663081623195"},"feature_names":["step","amount","oldbalanceOrg","newbalanceOrig","oldbalanceDest","newbalanceDest","errorBalanceOrig","errorBalanceDest","isBlackHoleTransaction","hourOfDay","type_TRANSFER"],"feature_types":["int","float","float","float","float","float","float","float","int","int","i"],"gradient_booster":{"model":{"gbtree_model_param":{"num_parallel_tree":"1","num_trees":"311"},"iteration_indptr":[0,1,2,3,4,5,6,7,8,9,10,11,12,13,14,15,16,17,18,19,20,21,22,23,24,25,26,27,28,29,30,31,32,33,34,35,36,37,38,39,40,41,42,43,44,45,46,47,48,49,50,51,52,53,54,55,56,57,58,59,60,61,62,63,64,65,66,67,68,69,70,71,72,73,74,75,76,77,78,79,80,81,82,83,84,85,86,87,88,89,90,91,92,93,94,95,96,97,98,99,100,101,102,103,104,105,106,107,108,109,110,111,112,113,114,115,116,117,118,119,120,121,122,123,124,125,126,127,128,129,130,131,132,133,134,135,136,137,138,139,140,141,142,143,144,145,146,147,148,149,150,151,152,153,154,155,156,157,158,159,160,161,162,163,164,165,166,167,168,169,170,171,172,173,174,175,176,177,178,179,180,181,182,183,184,185,186,187,188,189,190,191,192,193,194,195,196,197,198,199,200,201,202,203,204,205,206,207,208,209,210,211,212,213,214,215,216,217,218,219,220,221,222,223,224,225,226,227,228,229,230,231,232,233,234,235,236,237,238,239,240,241,242,243,244,245,246,247,248,249,250,251,252,253,254,255,256,257,258,259,260,261,262,263,264,265,266,267,268,269,270,271,272,273,274,275,276,277,278,279,280,281,282,283,284,285,286,287,288,289,290,291,292,293,294,295,296,297,298,299,300,301,302,303,304,305,306,307,308,309,310,311],"tree_info":[0,0,0,0,0,0,0,0,0,0,0,0,0,0,0,0,0,0,0,0,0,0,0,0,0,0,0,0,0,0,0,0,0,0,0,0,0,0,0,0,0,0,0,0,0,0,0,0,0,0,0,0,0,0,0,0,0,0,0,0,0,0,0,0,0,0,0,0,0,0,0,0,0,0,0,0,0,0,0,0,0,0,0,0,0,0,0,0,0,0,0,0,0,0,0,0,0,0,0,0,0,0,0,0,0,0,0,0,0,0,0,0,0,0,0,0,0,0,0,0,0,0,0,0,0,0,0,0,0,0,0,0,0,0,0,0,0,0,0,0,0,0,0,0,0,0,0,0,0,0,0,0,0,0,0,0,0,0,0,0,0,0,0,0,0,0,0,0,0,0,0,0,0,0,0,0,0,0,0,0,0,0,0,0,0,0,0,0,0,0,0,0,0,0,0,0,0,0,0,0,0,0,0,0,0,0,0,0,0,0,0,0,0,0,0,0,0,0,0,0,0,0,0,0,0,0,0,0,0,0,0,0,0,0,0,0,0,0,0,0,0,0,0,0,0,0,0,0,0,0,0,0,0,0,0,0,0,0,0,0,0,0,0,0,0,0,0,0,0,0,0,0,0,0,0,0,0,0,0,0,0,0,0,0,0,0,0,0,0,0,0,0,0,0,0,0,0,0,0,0,0,0,0,0,0,0,0,0,0,0,0],"trees":[{"base_weights":[-0E0,1.6529365E0,-1.9753822E0,1.9984616E0,-1.3935319E0,-1.9846723E0,1.2956077E0,-4.2E-2,5.99554E-2,-1.9916883E0,1.9893124E0,-1.8440952E0,-1.9919337E0,-5.931732E-2,1.9908397E0,-1.6741046E0,-5.999662E-2,5.9973042E-2,-5.3164557E-2,-1.3077797E0,-1.9386679E0,-1.9461212E0,-1.995193E0,-1.5E-2,5.9854355E-2,-5.9856877E-2,1.2494005E0,1.45851E0,-5.9942286E-2,-1.958087E0,-1.0796602E0,-1.8598837E0,-1.9808756E0,-1.9326396E0,-5.9882864E-2,-5.2285712E-2,5.444339E-2,-5.333333E-2,4.70993E-2,-5.1397346E-2,-5.9316963E-2,-5.9375E-2,5.213124E-3,-5.7120867E-2,-2.9833668E-3,-5.9991125E-2,-5.608176E-2,-5.9968192E-2,-4.7493663E-2],"categories":[],"categories_nodes":[],"categories_segments":[],"categories_sizes":[],"default_left":[0,0,0,0,0,0,0,0,0,0,0,0,0,0,0,0,0,0,0,0,0,0,0,0,0,0,0,0,0,0,0,0,0,0,0,0,0,0,0,0,0,0,0,0,0,0,0,0,0],"id":0,"left_children":[1,3,5,7,9,11,13,-1,-1,15,17,19,21,-1,23,25,-1,-1,-1,27,29,31,33,-1,-1,-1,35,37,-1,39,41,43,45,47,-1,-1,-1,-1,-1,-1,-1,-1,-1,-1,-1,-1,-1,-1,-1],"loss_changes":[2.8410195E6,4.98648E5,1.2050625E4,8.0625E1,9.765144E4,3.9425E2,2.5646538E3,0E0,0E0,9.8234375E1,2.7420312E2,9.795469E2,4.6375E1,0E0,1.2694092E1,9.871968E2,0E0,0E0,0E0,5.585353E3,2.6990625E2,6.5796875E1,1.0125E1,0E0,0E0,0E0,1.8329123E2,2.163291E2,0E0,6.7109375E1,4.1912973E2,5.6075195E2,2.8E1,1.0912891E2,0E0,0E0,0E0,0E0,0E0,0E0,0E0,0E0,0E0,0E0,0E0,0E0,0E0,0E0,0E0],"parents":[2147483647,0,0,1,1,2,2,3,3,4,4,5,5,6,6,9,9,10,10,11,11,12,12,14,14,15,15,19,19,20,20,21,21,22,22,26,26,27,27,29,29,30,30,31,31,32,32,33,33],"right_children":[2,4,6,8,10,12,14,-1,-1,16,18,20,22,-1,24,26,-1,-1,-1,28,30,32,34,-1,-1,-1,36,38,-1,40,42,44,46,48,-1,-1,-1,-1,-1,-1,-1,-1,-1,-1,-1,-1,-1,-1,-1],"split_conditions":[5.820766E-11,2.8174E2,1E0,0E0,9.426721E5,1.6E1,2.031486E5,-4.2E-2,5.99554E-2,-2.3293123E5,6.702314E5,5.17059E3,3.7E1,-5.931732E-2,1.3E1,-2.3754327E5,-5.999662E-2,5.9973042E-2,-5.3164557E-2,3.9E1,1.7833556E6,4.1989503E5,4.452463E4,-1.5E-2,5.9854355E-2,-5.9856877E-2,2.8673297E5,9.487347E4,-5.9942286E-2,4.479117E4,4.656613E-10,4.138085E5,5.0618747E5,3.976532E4,-5.9882864E-2,-5.2285712E-2,5.444339E-2,-5.333333E-2,4.70993E-2,-5.1397346E-2,-5.9316963E-2,-5.9375E-2,5.213124E-3,-5.7120867E-2,-2.9833668E-3,-5.9991125E-2,-5.608176E-2,-5.9968192E-2,-4.7493663E-2],"split_indices":[6,3,8,6,1,0,3,0,0,7,5,4,0,0,0,7,0,0,0,2,1,5,5,0,0,0,3,5,0,4,7,5,6,6,0,0,0,0,0,0,0,0,0,0,0,0,0,0,0],"split_type":[0,0,0,0,0,0,0,0,0,0,0,0,0,0,0,0,0,0,0,0,0,0,0,0,0,0,0,0,0,0,0,0,0,0,0,0,0,0,0,0,0,0,0,0,0,0,0,0,0],"sum_hessian":[8.700915E5,4.737081E5,3.963834E5,4.2545462E5,4.8253477E4,3.9526175E5,1.1216637E3,5.5E0,4.2544912E5,4.1004082E4,7.249393E3,1.9442498E4,3.7581925E5,1.9575E2,9.259137E2,1.043833E3,3.996025E4,7.231643E3,1.775E1,2.9197483E3,1.652275E4,2.5051082E4,3.5076816E5,1E0,9.249137E2,9.4125E2,1.0258306E2,5.8249835E2,2.33725E3,1.6154416E4,3.6833307E2,7.231249E3,1.7819834E4,5.057833E3,3.4571034E5,1.55E1,8.708306E1,1.825E1,5.6424835E2,1.186583E3,1.4967833E4,2.14E2,1.5433307E2,7.053916E3,1.7733307E2,1.521225E4,2.607583E3,4.24225E3,8.1558307E2],"tree_param":{"num_deleted":"0","num_feature":"11","num_nodes":"49","size_leaf_vector":"1"}},{"base_weights":[-1.1537186E-6,1.604804E0,-1.9178499E0,1.9402683E0,-1.3529595E0,-1.9268693E0,1.257818E0,-4.1089423E-2,5.820956E-2,-1.9336998E0,1.9313849E0,-1.7903383E0,-1.9339219E0,-5.760644E-2,5.798812E-2,-1.6254332E0,-5.824974E-2,5.8227193E-2,-5.1764324E-2,-1.2696579E0,-1.8821552E0,-1.8893901E0,-1.9370902E0,-5.8117427E-2,1.2126966E0,1.4155046E0,-5.8198303E-2,-1.9010165E0,-1.048069E0,-1.8055565E0,-1.9231778E0,-1.8763063E0,-5.8139015E-2,-5.092754E-2,5.2885447E-2,-5.1924955E-2,4.5716822E-2,-4.9891245E-2,-5.7588834E-2,-5.7661083E-2,5.0587687E-3,-5.5453386E-2,-2.8948656E-3,-5.8244534E-2,-5.4443795E-2,-5.8222815E-2,-4.6098523E-2],"categories":[],"categories_nodes":[],"categories_segments":[],"categories_sizes":[],"default_left":[0,0,0,0,0,0,0,0,0,0,0,0,0,0,0,0,0,0,0,0,0,0,0,0,0,0,0,0,0,0,0,0,0,0,0,0,0,0,0,0,0,0,0,0,0,0,0],"id":1,"left_children":[1,3,5,7,9,11,13,-1,-1,15,17,19,21,-1,-1,23,-1,-1,-1,25,27,29,31,-1,33,35,-1,37,39,41,43,45,-1,-1,-1,-1,-1,-1,-1,-1,-1,-1,-1,-1,-1,-1,-1],"loss_changes":[2.6755608E6,4.6960988E5,1.134875E4,7.65E1,9.19649E4,3.715E2,2.416162E3,0E0,0E0,9.240625E1,2.5906836E2,9.224453E2,4.375E1,0E0,0E0,9.297798E2,0E0,0E0,0E0,5.2600283E3,2.5427734E2,6.209375E1,9.5E0,0E0,1.7334512E2,2.0439221E2,0E0,6.3316406E1,3.9511752E2,5.284551E2,2.640625E1,1.02984375E2,0E0,0E0,0E0,0E0,0E0,0E0,0E0,0E0,0E0,0E0,0E0,0E0,0E0,0E0,0E0],"parents":[2147483647,0,0,1,1,2,2,3,3,4,4,5,5,6,6,9,9,10,10,11,11,12,12,15,15,19,19,20,20,21,21,22,22,24,24,25,25,27,27,28,28,29,29,30,30,31,31],"right_children":[2,4,6,8,10,12,14,-1,-1,16,18,20,22,-1,-1,24,-1,-1,-1,26,28,30,32,-1,34,36,-1,38,40,42,44,46,-1,-1,-1,-1,-1,-1,-1,-1,-1,-1,-1,-1,-1,-1,-1],"split_conditions":[5.820766E-11,2.8174E2,1E0,0E0,9.426721E5,1.6E1,2.031486E5,-4.1089423E-2,5.820956E-2,-2.3293123E5,6.702314E5,5.17059E3,3.7E1,-5.760644E-2,5.798812E-2,-2.3754327E5,-5.824974E-2,5.8227193E-2,-5.1764324E-2,3.9E1,1.7833556E6,4.1989503E5,4.452463E4,-5.8117427E-2,2.8673297E5,9.487347E4,-5.8198303E-2,4.479117E4,4.656613E-10,4.138085E5,5.0618747E5,3.976532E4,-5.8139015E-2,-5.092754E-2,5.2885447E-2,-5.1924955E-2,4.5716822E-2,-4.9891245E-2,-5.7588834E-2,-5.7661083E-2,5.0587687E-3,-5.5453386E-2,-2.8948656E-3,-5.8244534E-2,-5.4443795E-2,-5.8222815E-2,-4.6098523E-2],"split_indices":[6,3,8,6,1,0,3,0,0,7,5,4,0,0,0,7,0,0,0,2,1,5,5,0,3,5,0,4,7,5,6,6,0,0,0,0,0,0,0,0,0,0,0,0,0,0,0],"split_type":[0,0,0,0,0,0,0,0,0,0,0,0,0,0,0,0,0,0,0,0,0,0,0,0,0,0,0,0,0,0,0,0,0,0,0,0,0,0,0,0,0,0,0,0,0,0,0],"sum_hessian":[8.6931294E5,4.7328262E5,3.9603034E5,4.2507253E5,4.8210105E4,3.9490966E5,1.1206636E3,5.497575E0,4.2506703E5,4.0967223E4,7.242882E3,1.9425941E4,3.7548372E5,1.9557791E2,9.250857E2,1.0429154E3,3.992431E4,7.2251445E3,1.7737465E1,2.9173242E3,1.6508617E4,2.5029604E4,3.5045412E5,9.404074E2,1.0250797E2,5.821726E2,2.3351516E3,1.6140475E4,3.6814352E2,7.225498E3,1.7804105E4,5.0535615E3,3.4540056E5,1.5489412E1,8.701856E1,1.823703E1,5.6393555E2,1.1857997E3,1.4954675E4,2.1381151E2,1.5433202E2,7.048165E3,1.7733267E2,1.5198571E4,2.6055337E3,4.238438E3,8.1512335E2],"tree_param":{"num_deleted":"0","num_feature":"11","num_nodes":"47","size_leaf_vector":"1"}},{"base_weights":[-2.686497E-6,1.5607526E0,-1.8651682E0,1.8870088E0,-1.3158282E0,-1.87394E0,1.2232431E0,-4.0223937E-2,5.6611743E-2,-1.8806301E0,1.8783683E0,-1.7409828E0,-1.8808087E0,-5.603819E-2,5.6398768E-2,-1.5808305E0,-5.665109E-2,5.662942E-2,-5.046266E-2,-1.2346102E0,-1.8302819E0,-1.8373239E0,-1.8839028E0,-5.652506E-2,1.1786857E0,1.375231E0,-5.6602087E-2,-1.8486583E0,-1.0184097E0,-1.7554848E0,-1.8703158E0,-1.8245595E0,-5.6542773E-2,-4.966256E-2,5.1443376E-2,-5.06162E-2,4.4421837E-2,-4.849034E-2,-5.6005143E-2,-5.609026E-2,4.909042E-3,-5.391857E-2,-2.809006E-3,-5.664614E-2,-5.293311E-2,-5.6625452E-2,-4.4792514E-2],"categories":[],"categories_nodes":[],"categories_segments":[],"categories_sizes":[],"default_left":[0,0,0,0,0,0,0,0,0,0,0,0,0,0,0,0,0,0,0,0,0,0,0,0,0,0,0,0,0,0,0,0,0,0,0,0,0,0,0,0,0,0,0,0,0,0,0],"id":2,"left_children":[1,3,5,7,9,11,13,-1,-1,15,17,19,21,-1,-1,23,-1,-1,-1,25,27,29,31,-1,33,35,-1,37,39,41,43,45,-1,-1,-1,-1,-1,-1,-1,-1,-1,-1,-1,-1,-1,-1,-1],"loss_changes":[2.5241185E6,4.4303462E5,1.070625E4,7.3E1,8.676082E4,3.51375E2,2.2802397E3,0E0,0E0,8.7109375E1,2.451914E2,8.703008E2,4.1625E1,0E0,0E0,8.772471E2,0E0,0E0,0E0,4.9621025E3,2.4051953E2,5.903125E1,9E0,0E0,1.6416187E2,1.9332324E2,0E0,6.0234375E1,3.7336682E2,4.9963867E2,2.5152344E1,9.791797E1,0E0,0E0,0E0,0E0,0E0,0E0,0E0,0E0,0E0,0E0,0E0,0E0,0E0,0E0,0E0],"parents":[2147483647,0,0,1,1,2,2,3,3,4,4,5,5,6,6,9,9,10,10,11,11,12,12,15,15,19,19,20,20,21,21,22,22,24,24,25,25,27,27,28,28,29,29,30,30,31,31],"right_children":[2,4,6,8,10,12,14,-1,-1,16,18,20,22,-1,-1,24,-1,-1,-1,26,28,30,32,-1,34,36,-1,38,40,42,44,46,-1,-1,-1,-1,-1,-1,-1,-1,-1,-1,-1,-1,-1,-1,-1],"split_conditions":[5.820766E-11,2.8174E2,1E0,0E0,9.426721E5,1.6E1,2.031486E5,-4.0223937E-2,5.6611743E-2,-2.3293123E5,6.702314E5,5.17059E3,3.7E1,-5.603819E-2,5.6398768E-2,-2.3754327E5,-5.665109E-2,5.662942E-2,-5.046266E-2,3.9E1,1.7833556E6,4.1989503E5,4.452463E4,-5.652506E-2,2.8673297E5,9.487347E4,-5.6602087E-2,4.479117E4,4.656613E-10,4.138085E5,5.0618747E5,3.976532E4,-5.6542773E-2,-4.966256E-2,5.1443376E-2,-5.06162E-2,4.4421837E-2,-4.849034E-2,-5.6005143E-2,-5.609026E-2,4.909042E-3,-5.391857E-2,-2.809006E-3,-5.664614E-2,-5.293311E-2,-5.6625452E-2,-4.4792514E-2],"split_indices":[6,3,8,6,1,0,3,0,0,7,5,4,0,0,0,7,0,0,0,2,1,5,5,0,3,5,0,4,7,5,6,6,0,0,0,0,0,0,0,0,0,0,0,0,0,0,0],"split_type":[0,0,0,0,0,0,0,0,0,0,0,0,0,0,0,0,0,0,0,0,0,0,0,0,0,0,0,0,0,0,0,0,0,0,0,0,0,0,0,0,0,0,0,0,0,0,0],"sum_hessian":[8.670727E5,4.7205822E5,3.9501444E5,4.2397294E5,4.808531E4,3.9389662E5,1.1177921E3,5.490518E0,4.2396744E5,4.0861164E4,7.224144E3,1.9378297E4,3.7451834E5,1.9508249E2,9.227096E2,1.040274E3,3.982089E4,7.206443E3,1.7701233E1,2.910348E3,1.646795E4,2.496779E4,3.4955053E5,9.379825E2,1.0229154E2,5.8123444E2,2.3291135E3,1.6100353E4,3.6759784E2,7.2089463E3,1.7758844E4,5.041269E3,3.4450928E5,1.5458792E1,8.6832756E1,1.8199543E1,5.6303485E2,1.1835448E3,1.4916808E4,2.1326884E2,1.5432898E2,7.0316147E3,1.7733154E2,1.5159208E4,2.5996355E3,4.227469E3,8.137997E2],"tree_param":{"num_deleted":"0","num_feature":"11","num_nodes":"47","size_leaf_vector":"1"}},{"base_weights":[-3.9889055E-6,1.520299E0,-1.8167641E0,1.8380989E0,-1.2817315E0,-1.8253082E0,1.191469E0,-3.9400097E-2,5.5144414E-2,-1.8318976E0,1.8296807E0,-1.6955132E0,-1.8320148E0,-5.4595888E-2,5.4938473E-2,-1.5398176E0,-5.518314E-2,5.5162176E-2,-4.924942E-2,-1.2022791E0,-1.782504E0,-1.7893755E0,-1.8350493E0,-5.506237E-2,1.1470697E0,1.3374039E0,-5.5136178E-2,-1.8004593E0,-9.904845E-1,-1.709178E0,-1.8217185E0,-1.7768633E0,-5.5076674E-2,-4.8481394E-2,5.0104298E-2,-4.9396783E-2,4.320521E-2,-4.7183104E-2,-5.4548856E-2,-5.4645773E-2,4.7638044E-3,-5.2501045E-2,-2.7257062E-3,-5.517838E-2,-5.1535092E-2,-5.5158563E-2,-4.356628E-2],"categories":[],"categories_nodes":[],"categories_segments":[],"categories_sizes":[],"default_left":[0,0,0,0,0,0,0,0,0,0,0,0,0,0,0,0,0,0,0,0,0,0,0,0,0,0,0,0,0,0,0,0,0,0,0,0,0,0,0,0,0,0,0,0,0,0,0],"id":3,"left_children":[1,3,5,7,9,11,13,-1,-1,15,17,19,21,-1,-1,23,-1,-1,-1,25,27,29,31,-1,33,35,-1,37,39,41,43,45,-1,-1,-1,-1,-1,-1,-1,-1,-1,-1,-1,-1,-1,-1,-1],"loss_changes":[2.385035E6,4.186315E5,1.0115875E4,6.925E1,8.19821E4,3.33625E2,2.1553552E3,0E0,0E0,8.2265625E1,2.3242383E2,8.225078E2,4E1,0E0,0E0,8.2901855E2,0E0,0E0,0E0,4.688362E3,2.2833984E2,5.6523438E1,8.625E0,0E0,1.5566013E2,1.8303613E2,0E0,5.771875E1,3.5358163E2,4.738047E2,2.4167969E1,9.3734375E1,0E0,0E0,0E0,0E0,0E0,0E0,0E0,0E0,0E0,0E0,0E0,0E0,0E0,0E0,0E0],"parents":[2147483647,0,0,1,1,2,2,3,3,4,4,5,5,6,6,9,9,10,10,11,11,12,12,15,15,19,19,20,20,21,21,22,22,24,24,25,25,27,27,28,28,29,29,30,30,31,31],"right_children":[2,4,6,8,10,12,14,-1,-1,16,18,20,22,-1,-1,24,-1,-1,-1,26,28,30,32,-1,34,36,-1,38,40,42,44,46,-1,-1,-1,-1,-1,-1,-1,-1,-1,-1,-1,-1,-1,-1,-1],"split_conditions":[5.820766E-11,2.8174E2,1E0,0E0,9.426721E5,1.6E1,2.031486E5,-3.9400097E-2,5.5144414E-2,-2.3293123E5,6.702314E5,5.17059E3,3.7E1,-5.4595888E-2,5.4938473E-2,-2.3754327E5,-5.518314E-2,5.5162176E-2,-4.924942E-2,3.9E1,1.7833556E6,4.1989503E5,4.452463E4,-5.506237E-2,2.8673297E5,9.487347E4,-5.5136178E-2,4.479117E4,4.656613E-10,4.138085E5,5.0618747E5,3.976532E4,-5.5076674E-2,-4.8481394E-2,5.0104298E-2,-4.9396783E-2,4.320521E-2,-4.7183104E-2,-5.4548856E-2,-5.4645773E-2,4.7638044E-3,-5.2501045E-2,-2.7257062E-3,-5.517838E-2,-5.1535092E-2,-5.5158563E-2,-4.356628E-2],"split_indices":[6,3,8,6,1,0,3,0,0,7,5,4,0,0,0,7,0,0,0,2,1,5,5,0,3,5,0,4,7,5,6,6,0,0,0,0,0,0,0,0,0,0,0,0,0,0,0],"split_type":[0,0,0,0,0,0,0,0,0,0,0,0,0,0,0,0,0,0,0,0,0,0,0,0,0,0,0,0,0,0,0,0,0,0,0,0,0,0,0,0,0,0,0,0,0,0,0],"sum_hessian":[8.6350525E5,4.701086E5,3.933967E5,4.22222E5,4.7886586E4,3.9228347E5,1.1132198E3,5.4791446E0,4.2221653E5,4.0692277E4,7.1943076E3,1.930243E4,3.7298103E5,1.9429327E2,9.189265E2,1.0360673E3,3.965621E4,7.1766646E3,1.764328E1,2.899238E3,1.6403193E4,2.486936E4,3.4811166E5,9.34121E2,1.01946335E2,5.797395E2,2.3194985E3,1.6036464E4,3.667286E2,7.1825874E3,1.7686771E4,5.0216934E3,3.4308997E5,1.5409789E1,8.6536545E1,1.8139591E1,5.615999E2,1.1799529E3,1.4856511E4,2.1240443E2,1.5432417E2,7.005258E3,1.7732971E2,1.5096529E4,2.5902424E3,4.210003E3,8.116908E2],"tree_param":{"num_deleted":"0","num_feature":"11","num_nodes":"47","size_leaf_vector":"1"}},{"base_weights":[-5.1350626E-6,1.4830334E0,-1.7721515E0,1.7930433E0,-1.2503232E0,-1.7804857E0,1.1621774E0,-3.8614787E-2,5.3792715E-2,-1.7870078E0,1.78483E0,-1.6534923E0,-1.7870493E0,-5.3265378E-2,5.3592574E-2,-1.5019891E0,-5.3830978E-2,5.381062E-2,-4.8115786E-2,-1.1723602E0,-1.7383602E0,-1.7450804E0,-1.7900367E0,-5.371466E-2,1.1175919E0,1.3017753E0,-5.3785756E-2,-1.7560192E0,-9.657423E-1,-1.6973644E0,-5.399361E-2,-1.7327621E0,-5.372591E-2,-4.7375835E-2,4.8857126E-2,-4.9706493E-2,4.2031005E-2,-4.596662E-2,-5.3207677E-2,4.0449714E-3,-5.446683E-2,5.1212087E-3,-5.2399747E-2,-5.380732E-2,-4.2411696E-2],"categories":[],"categories_nodes":[],"categories_segments":[],"categories_sizes":[],"default_left":[0,0,0,0,0,0,0,0,0,0,0,0,0,0,0,0,0,0,0,0,0,0,0,0,0,0,0,0,0,0,0,0,0,0,0,0,0,0,0,0,0,0,0,0,0],"id":4,"left_children":[1,3,5,7,9,11,13,-1,-1,15,17,19,21,-1,-1,23,-1,-1,-1,25,27,29,31,-1,33,35,-1,37,39,41,-1,43,-1,-1,-1,-1,-1,-1,-1,-1,-1,-1,-1,-1,-1],"loss_changes":[2.2569062E6,3.961523E5,9.57225E3,6.6375E1,7.758028E4,3.175E2,2.0402594E3,0E0,0E0,7.782031E1,2.2064648E2,7.785781E2,3.8625E1,0E0,0E0,7.84604E2,0E0,0E0,0E0,4.4360776E3,2.1789062E2,5.6726562E1,8.375E0,0E0,1.4776947E2,1.7476746E2,0E0,5.5632812E1,3.471265E2,1.2218945E3,0E0,9.0288086E1,0E0,0E0,0E0,0E0,0E0,0E0,0E0,0E0,0E0,0E0,0E0,0E0,0E0],"parents":[2147483647,0,0,1,1,2,2,3,3,4,4,5,5,6,6,9,9,10,10,11,11,12,12,15,15,19,19,20,20,21,21,22,22,24,24,25,25,27,27,28,28,29,29,31,31],"right_children":[2,4,6,8,10,12,14,-1,-1,16,18,20,22,-1,-1,24,-1,-1,-1,26,28,30,32,-1,34,36,-1,38,40,42,-1,44,-1,-1,-1,-1,-1,-1,-1,-1,-1,-1,-1,-1,-1],"split_conditions":[5.820766E-11,2.8174E2,1E0,0E0,9.426721E5,1.6E1,2.031486E5,-3.8614787E-2,5.3792715E-2,-2.3293123E5,6.702314E5,5.17059E3,3.7E1,-5.3265378E-2,5.3592574E-2,-2.3754327E5,-5.3830978E-2,5.381062E-2,-4.8115786E-2,3.9E1,1.7096062E6,3.9E1,4.452463E4,-5.371466E-2,2.8673297E5,9.457646E4,-5.3785756E-2,4.479117E4,3.23255E6,4.070899E4,-5.399361E-2,3.976532E4,-5.372591E-2,-4.7375835E-2,4.8857126E-2,-4.9706493E-2,4.2031005E-2,-4.596662E-2,-5.3207677E-2,4.0449714E-3,-5.446683E-2,5.1212087E-3,-5.2399747E-2,-5.380732E-2,-4.2411696E-2],"split_indices":[6,3,8,6,1,0,3,0,0,7,5,4,0,0,0,7,0,0,0,2,6,2,5,0,3,1,0,4,5,4,0,6,0,0,0,0,0,0,0,0,0,0,0,0,0],"split_type":[0,0,0,0,0,0,0,0,0,0,0,0,0,0,0,0,0,0,0,0,0,0,0,0,0,0,0,0,0,0,0,0,0,0,0,0,0,0,0,0,0,0,0,0,0],"sum_hessian":[8.587356E5,4.6750194E5,3.912337E5,4.1988106E5,4.762089E4,3.9012656E5,1.107106E3,5.4637556E0,4.198756E5,4.0466477E4,7.154414E3,1.9200986E4,3.709256E5,1.932376E2,9.1386835E2,1.0304415E3,3.9436035E4,7.1368486E3,1.7565456E1,2.8843816E3,1.6316604E4,2.4737748E4,3.4618784E5,9.289575E2,1.0148403E2,5.777393E2,2.3066423E3,1.5948883E4,3.6772165E2,1.3252217E4,1.1485531E4,4.995519E3,3.411923E5,1.5343946E1,8.614008E1,1.757083E1,5.601685E2,1.1758916E3,1.4772991E4,1.6069922E2,2.0702242E2,3.403162E2,1.29119E4,4.186649E3,8.0886993E2],"tree_param":{"num_deleted":"0","num_feature":"11","num_nodes":"45","size_leaf_vector":"1"}},{"base_weights":[-5.813639E-6,1.448607E0,-1.7309093E0,1.75142E0,-1.2213088E0,-1.7390497E0,1.1350979E0,-3.7865162E-2,5.2543998E-2,-1.7455398E0,1.7433951E0,-1.614514E0,-1.7454882E0,-5.2034512E-2,5.234858E-2,-1.4669981E0,-5.258193E-2,5.256205E-2,-4.705407E-2,-1.1445724E0,-1.697422E0,-1.7039778E0,-1.7484441E0,-5.2469347E-2,1.0900297E0,1.2680115E0,-5.253816E-2,-1.7147428E0,-9.3762046E-1,-1.6571015E0,-5.2732214E-2,-1.6918648E0,-5.2477837E-2,-4.633871E-2,4.7692273E-2,-4.753012E-2,4.098886E-2,-4.481222E-2,-5.196327E-2,-5.232565E-2,4.9702968E-3,4.9657E-3,-5.116617E-2,-5.255902E-2,-4.1321695E-2],"categories":[],"categories_nodes":[],"categories_segments":[],"categories_sizes":[],"default_left":[0,0,0,0,0,0,0,0,0,0,0,0,0,0,0,0,0,0,0,0,0,0,0,0,0,0,0,0,0,0,0,0,0,0,0,0,0,0,0,0,0,0,0,0,0],"id":5,"left_children":[1,3,5,7,9,11,13,-1,-1,15,17,19,21,-1,-1,23,-1,-1,-1,25,27,29,31,-1,33,35,-1,37,39,41,-1,43,-1,-1,-1,-1,-1,-1,-1,-1,-1,-1,-1,-1,-1],"loss_changes":[2.1385298E6,3.75387E5,9.069875E3,6.325E1,7.351405E4,3.03375E2,1.9338864E3,0E0,0E0,7.374219E1,2.097461E2,7.3803906E2,3.7625E1,0E0,0E0,7.435835E2,0E0,0E0,0E0,4.202891E3,2.0882422E2,5.440625E1,8.125E0,0E0,1.4042908E2,1.6606964E2,0E0,5.4039062E1,3.2742706E2,1.1640508E3,0E0,8.745801E1,0E0,0E0,0E0,0E0,0E0,0E0,0E0,0E0,0E0,0E0,0E0,0E0,0E0],"parents":[2147483647,0,0,1,1,2,2,3,3,4,4,5,5,6,6,9,9,10,10,11,11,12,12,15,15,19,19,20,20,21,21,22,22,24,24,25,25,27,27,28,28,29,29,31,31],"right_children":[2,4,6,8,10,12,14,-1,-1,16,18,20,22,-1,-1,24,-1,-1,-1,26,28,30,32,-1,34,36,-1,38,40,42,-1,44,-1,-1,-1,-1,-1,-1,-1,-1,-1,-1,-1,-1,-1],"split_conditions":[5.820766E-11,2.8174E2,1E0,0E0,9.426721E5,1.6E1,2.031486E5,-3.7865162E-2,5.2543998E-2,-2.3293123E5,6.702314E5,5.17059E3,3.7E1,-5.2034512E-2,5.234858E-2,-2.3754327E5,-5.258193E-2,5.256205E-2,-4.705407E-2,3.9E1,1.7833556E6,3.9E1,4.452463E4,-5.2469347E-2,2.8673297E5,9.487347E4,-5.253816E-2,4.479117E4,4.656613E-10,4.070899E4,-5.2732214E-2,3.976532E4,-5.2477837E-2,-4.633871E-2,4.7692273E-2,-4.753012E-2,4.098886E-2,-4.481222E-2,-5.196327E-2,-5.232565E-2,4.9702968E-3,4.9657E-3,-5.116617E-2,-5.255902E-2,-4.1321695E-2],"split_indices":[6,3,8,6,1,0,3,0,0,7,5,4,0,0,0,7,0,0,0,2,1,2,5,0,3,5,0,4,7,4,0,6,0,0,0,0,0,0,0,0,0,0,0,0,0],"split_type":[0,0,0,0,0,0,0,0,0,0,0,0,0,0,0,0,0,0,0,0,0,0,0,0,0,0,0,0,0,0,0,0,0,0,0,0,0,0,0,0,0,0,0,0,0],"sum_hessian":[8.528803E5,4.6430128E5,3.88579E5,4.1700666E5,4.729465E4,3.874794E5,1.0995984E3,5.4446416E0,4.170012E5,4.018922E4,7.105429E3,1.9076777E4,3.6840262E5,1.9194086E2,9.0765753E2,1.0235324E3,3.9165688E4,7.0879595E3,1.7469496E1,2.8661895E3,1.6210588E4,2.4576957E4,3.4382566E5,9.2261694E2,1.00915474E2,5.75333E2,2.2908564E3,1.5846181E4,3.6440717E2,1.3168303E4,1.1408654E4,4.963379E3,3.3886228E5,1.5262711E1,8.565276E1,1.7987263E1,5.5734576E2,1.1692542E3,1.4676927E4,2.1010257E2,1.543046E2,3.4050406E2,1.2827799E4,4.157974E3,8.054047E2],"tree_param":{"num_deleted":"0","num_feature":"11","num_nodes":"45","size_leaf_vector":"1"}},{"base_weights":[-6.62043E-6,1.4167185E0,-1.6926892E0,1.7128652E0,-1.1944354E0,-1.7006499E0,1.1099962E0,-3.7148662E-2,5.1387332E-2,-1.7071316E0,1.7050152E0,-1.5783107E0,-1.7069772E0,-5.089288E-2,5.119572E-2,-1.4345454E0,-5.142508E-2,5.1405594E-2,-4.6057478E-2,-1.1187259E0,-1.659408E0,-1.6658137E0,-1.7099094E0,-5.1315617E-2,1.0641899E0,1.2361386E0,-5.138252E-2,-1.6765248E0,-9.1543907E-1,-1.5874147E0,-1.6974933E0,-1.6538359E0,-1.7107198E0,4.6281625E-2,-4.7783483E-2,-4.7908474E-2,3.9936513E-2,-4.3737356E-2,-5.0812587E-2,4.290908E-3,-5.224336E-2,-4.8855506E-2,2.759633E-4,-5.1457778E-2,-4.777911E-2,-5.140281E-2,-4.0290076E-2,-5.114747E-2,-5.1441416E-2],"categories":[],"categories_nodes":[],"categories_segments":[],"categories_sizes":[],"default_left":[0,0,0,0,0,0,0,0,0,0,0,0,0,0,0,0,0,0,0,0,0,0,0,0,0,0,0,0,0,0,0,0,0,0,0,0,0,0,0,0,0,0,0,0,0,0,0,0,0],"id":6,"left_children":[1,3,5,7,9,11,13,-1,-1,15,17,19,21,-1,-1,23,-1,-1,-1,25,27,29,31,-1,33,35,-1,37,39,41,43,45,47,-1,-1,-1,-1,-1,-1,-1,-1,-1,-1,-1,-1,-1,-1,-1,-1],"loss_changes":[2.02888E6,3.561538E5,8.6045E3,6.0625E1,6.9747945E4,2.905E2,1.8353196E3,0E0,0E0,6.999219E1,1.9963867E2,7.005703E2,3.675E1,0E0,0E0,7.0559717E2,0E0,0E0,0E0,3.986854E3,2.0050781E2,5.3554688E1,8.1875E0,0E0,1.3489551E2,1.5886243E2,0E0,5.270703E1,3.2207065E2,4.638086E2,2.5183594E1,8.514746E1,3.125E-1,0E0,0E0,0E0,0E0,0E0,0E0,0E0,0E0,0E0,0E0,0E0,0E0,0E0,0E0,0E0,0E0],"parents":[2147483647,0,0,1,1,2,2,3,3,4,4,5,5,6,6,9,9,10,10,11,11,12,12,15,15,19,19,20,20,21,21,22,22,24,24,25,25,27,27,28,28,29,29,30,30,31,31,32,32],"right_children":[2,4,6,8,10,12,14,-1,-1,16,18,20,22,-1,-1,24,-1,-1,-1,26,28,30,32,-1,34,36,-1,38,40,42,44,46,48,-1,-1,-1,-1,-1,-1,-1,-1,-1,-1,-1,-1,-1,-1,-1,-1],"split_conditions":[5.820766E-11,2.8174E2,1E0,0E0,9.426721E5,1.6E1,2.031486E5,-3.7148662E-2,5.1387332E-2,-2.3293123E5,6.702314E5,5.17059E3,3.7E1,-5.089288E-2,5.119572E-2,-2.3754327E5,-5.142508E-2,5.1405594E-2,-4.6057478E-2,3.9E1,1.7096062E6,4.1989503E5,4.452463E4,-5.1315617E-2,4.243495E4,9.457646E4,-5.138252E-2,4.479117E4,3.23255E6,4.138085E5,5.0618747E5,3.976532E4,2.32E2,4.6281625E-2,-4.7783483E-2,-4.7908474E-2,3.9936513E-2,-4.3737356E-2,-5.0812587E-2,4.290908E-3,-5.224336E-2,-4.8855506E-2,2.759633E-4,-5.1457778E-2,-4.777911E-2,-5.140281E-2,-4.0290076E-2,-5.114747E-2,-5.1441416E-2],"split_indices":[6,3,8,6,1,0,3,0,0,7,5,4,0,0,0,7,0,0,0,2,6,5,5,0,1,1,0,4,5,5,6,6,0,0,0,0,0,0,0,0,0,0,0,0,0,0,0,0,0],"split_type":[0,0,0,0,0,0,0,0,0,0,0,0,0,0,0,0,0,0,0,0,0,0,0,0,0,0,0,0,0,0,0,0,0,0,0,0,0,0,0,0,0,0,0,0,0,0,0,0,0],"sum_hessian":[8.4604444E5,4.6056512E5,3.8547928E5,4.136513E5,4.691382E4,3.8438847E5,1.0908336E3,5.4220757E0,4.1364588E5,3.9865574E4,7.0482476E3,1.8931428E4,3.6545703E5,1.9042657E2,9.0040704E2,1.01546564E3,3.885011E4,7.03089E3,1.7357029E1,2.8449006E3,1.6086526E4,2.4388781E4,3.4106825E5,9.1521484E2,1.00250786E2,5.724722E2,2.2724282E3,1.5721636E4,3.6489056E2,7.052827E3,1.7335953E4,4.925858E3,3.361424E5,8.582102E1,1.442977E1,1.7391825E1,5.550804E2,1.1630936E3,1.4558542E4,1.603989E2,2.0449165E2,6.876087E3,1.7674014E2,1.4793895E4,2.542058E3,4.1245E3,8.013581E2,1.3742298E5,1.987194E5],"tree_param":{"num_deleted":"0","num_feature":"11","num_nodes":"49","size_leaf_vector":"1"}},{"base_weights":[-7.4259556E-6,1.3871092E0,-1.6571801E0,1.6770662E0,-1.1694821E0,-1.6649737E0,1.0866715E0,-3.646293E-2,5.0313342E-2,-1.6714677E0,1.6693784E0,-1.5445509E0,-1.6712048E0,-4.9831443E-2,5.0124727E-2,-1.4042714E0,-5.035102E-2,5.0331842E-2,-4.512006E-2,-1.0945926E0,-1.623968E0,-1.6302778E0,-1.6741214E0,-5.024413E-2,1.0390563E0,1.2057865E0,-5.030946E-2,-1.6408335E0,-8.898324E-1,-1.5835226E0,-5.0518055E-2,-1.6568573E0,-5.0302826E-2,-4.4807892E-2,4.5645576E-2,-4.5880236E-2,3.9001506E-2,-4.2712264E-2,-4.9739048E-2,-5.0318915E-2,5.148871E-3,6.3031246E-3,-4.8952248E-2,1.6639136E-3,-5.037497E-2],"categories":[],"categories_nodes":[],"categories_segments":[],"categories_sizes":[],"default_left":[0,0,0,0,0,0,0,0,0,0,0,0,0,0,0,0,0,0,0,0,0,0,0,0,0,0,0,0,0,0,0,0,0,0,0,0,0,0,0,0,0,0,0,0,0],"id":7,"left_children":[1,3,5,7,9,11,13,-1,-1,15,17,19,21,-1,-1,23,-1,-1,-1,25,27,29,31,-1,33,35,-1,37,39,41,-1,43,-1,-1,-1,-1,-1,-1,-1,-1,-1,-1,-1,-1,-1],"loss_changes":[1.9270662E6,3.3829675E5,8.1725E3,5.7875E1,6.625122E4,2.79E2,1.7437667E3,0E0,0E0,6.657031E1,1.9023047E2,6.658047E2,3.6125E1,0E0,0E0,6.703744E2,0E0,0E0,0E0,3.7861826E3,1.9328125E2,5.3691406E1,8.25E0,0E0,1.2867648E2,1.511529E2,0E0,5.171875E1,3.0491592E2,1.1221465E3,0E0,1.7204297E3,0E0,0E0,0E0,0E0,0E0,0E0,0E0,0E0,0E0,0E0,0E0,0E0,0E0],"parents":[2147483647,0,0,1,1,2,2,3,3,4,4,5,5,6,6,9,9,10,10,11,11,12,12,15,15,19,19,20,20,21,21,22,22,24,24,25,25,27,27,28,28,29,29,31,31],"right_children":[2,4,6,8,10,12,14,-1,-1,16,18,20,22,-1,-1,24,-1,-1,-1,26,28,30,32,-1,34,36,-1,38,40,42,-1,44,-1,-1,-1,-1,-1,-1,-1,-1,-1,-1,-1,-1,-1],"split_conditions":[5.820766E-11,2.8174E2,1E0,0E0,9.426721E5,1.6E1,2.031486E5,-3.646293E-2,5.0313342E-2,-2.3293123E5,6.702314E5,5.17059E3,3.7E1,-4.9831443E-2,5.0124727E-2,-2.3754327E5,-5.035102E-2,5.0331842E-2,-4.512006E-2,3.9E1,1.7833556E6,3.9E1,1.99283E3,-5.024413E-2,2.8673297E5,9.487347E4,-5.030946E-2,4.479117E4,4.656613E-10,4.070899E4,-5.0518055E-2,3.9E1,-5.0302826E-2,-4.4807892E-2,4.5645576E-2,-4.5880236E-2,3.9001506E-2,-4.2712264E-2,-4.9739048E-2,-5.0318915E-2,5.148871E-3,6.3031246E-3,-4.8952248E-2,1.6639136E-3,-5.037497E-2],"split_indices":[6,3,8,6,1,0,3,0,0,7,5,4,0,0,0,7,0,0,0,2,1,2,4,0,3,5,0,4,7,4,0,2,0,0,0,0,0,0,0,0,0,0,0,0,0],"split_type":[0,0,0,0,0,0,0,0,0,0,0,0,0,0,0,0,0,0,0,0,0,0,0,0,0,0,0,0,0,0,0,0,0,0,0,0,0,0,0,0,0,0,0,0,0],"sum_hessian":[8.383277E5,4.563475E5,3.8198022E5,4.0986353E5,4.648398E4,3.8089928E5,1.0809382E3,5.3963203E0,4.0985812E5,3.9500285E4,6.9836953E3,1.876766E4,3.621316E5,1.8871649E2,8.922217E2,1.0064348E3,3.849385E4,6.966466E3,1.722957E1,2.820912E3,1.5946748E4,2.4176172E4,3.3795544E5,9.0685834E2,9.95765E1,5.6928705E2,2.251625E3,1.5585547E4,3.6120197E2,1.2956582E4,1.121959E4,4.501008E4,2.9294534E5,1.5097165E1,8.447933E1,1.7775196E1,5.515119E2,1.1545928E3,1.4430954E4,2.069689E2,1.5423305E2,3.3875296E2,1.2617829E4,5.785348E2,4.4431547E4],"tree_param":{"num_deleted":"0","num_feature":"11","num_nodes":"45","size_leaf_vector":"1"}},{"base_weights":[-8.02694E-6,1.3595542E0,-1.6241162E0,1.6437504E0,-1.1462631E0,-1.6317544E0,1.0649482E0,-3.5805836E-2,4.9313854E-2,-1.6382828E0,1.6362134E0,-1.5130417E0,-1.6378999E0,-4.8842356E-2,4.9127527E-2,-1.3761448E0,-4.9351573E-2,4.9332615E-2,-4.423653E-2,-1.0720344E0,-1.5908995E0,-1.5970993E0,-1.6408089E0,-4.924679E-2,1.016095E0,1.1770055E0,-4.9310826E-2,-1.6076336E0,-8.6979336E-1,-1.5192302E0,-1.6286212E0,-1.5848993E0,-1.6416179E0,4.436632E-2,-4.6284515E-2,-4.6318386E-2,3.8049545E-2,-4.1752703E-2,-4.8741944E-2,4.5072194E-3,-5.0316866E-2,-4.6812706E-2,1.7327428E-3,-4.9396623E-2,-4.5689356E-2,-4.933972E-2,-3.8257636E-2,-4.9075335E-2,-4.936774E-2],"categories":[],"categories_nodes":[],"categories_segments":[],"categories_sizes":[],"default_left":[0,0,0,0,0,0,0,0,0,0,0,0,0,0,0,0,0,0,0,0,0,0,0,0,0,0,0,0,0,0,0,0,0,0,0,0,0,0,0,0,0,0,0,0,0,0,0,0,0],"id":8,"left_children":[1,3,5,7,9,11,13,-1,-1,15,17,19,21,-1,-1,23,-1,-1,-1,25,27,29,31,-1,33,35,-1,37,39,41,43,45,47,-1,-1,-1,-1,-1,-1,-1,-1,-1,-1,-1,-1,-1,-1,-1,-1],"loss_changes":[1.8323168E6,3.2167962E5,7.7703125E3,5.5625E1,6.2997445E4,2.685625E2,1.6585392E3,0E0,0E0,6.3351562E1,1.8146094E2,6.3351953E2,3.575E1,0E0,0E0,6.375698E2,0E0,0E0,0E0,3.5994216E3,1.8655469E2,5.2246094E1,8.3125E0,0E0,1.2384812E2,1.4483466E2,0E0,5.09375E1,3.004455E2,4.5136914E2,2.5632812E1,8.3875E1,4.375E-1,0E0,0E0,0E0,0E0,0E0,0E0,0E0,0E0,0E0,0E0,0E0,0E0,0E0,0E0,0E0,0E0],"parents":[2147483647,0,0,1,1,2,2,3,3,4,4,5,5,6,6,9,9,10,10,11,11,12,12,15,15,19,19,20,20,21,21,22,22,24,24,25,25,27,27,28,28,29,29,30,30,31,31,32,32],"right_children":[2,4,6,8,10,12,14,-1,-1,16,18,20,22,-1,-1,24,-1,-1,-1,26,28,30,32,-1,34,36,-1,38,40,42,44,46,48,-1,-1,-1,-1,-1,-1,-1,-1,-1,-1,-1,-1,-1,-1,-1,-1],"split_conditions":[5.820766E-11,2.8174E2,1E0,0E0,9.426721E5,1.6E1,2.031486E5,-3.5805836E-2,4.9313854E-2,-2.3293123E5,6.702314E5,5.17059E3,3.7E1,-4.8842356E-2,4.9127527E-2,-2.3754327E5,-4.9351573E-2,4.9332615E-2,-4.423653E-2,3.9E1,1.7096062E6,4.1989503E5,4.452463E4,-4.924679E-2,4.243495E4,9.457646E4,-4.9310826E-2,4.479117E4,3.23255E6,4.138085E5,5.0618747E5,3.976532E4,2.32E2,4.436632E-2,-4.6284515E-2,-4.6318386E-2,3.8049545E-2,-4.1752703E-2,-4.8741944E-2,4.5072194E-3,-5.0316866E-2,-4.6812706E-2,1.7327428E-3,-4.9396623E-2,-4.5689356E-2,-4.933972E-2,-3.8257636E-2,-4.9075335E-2,-4.936774E-2],"split_indices":[6,3,8,6,1,0,3,0,0,7,5,4,0,0,0,7,0,0,0,2,6,5,5,0,1,1,0,4,5,5,6,6,0,0,0,0,0,0,0,0,0,0,0,0,0,0,0,0,0],"split_type":[0,0,0,0,0,0,0,0,0,0,0,0,0,0,0,0,0,0,0,0,0,0,0,0,0,0,0,0,0,0,0,0,0,0,0,0,0,0,0,0,0,0,0,0,0,0,0,0,0],"sum_hessian":[8.29821E5,4.516984E5,3.7812262E5,4.056883E5,4.6010098E4,3.770526E5,1.0700293E3,5.3676243E0,4.0568294E5,3.909756E4,6.9125386E3,1.8586807E4,3.5846578E5,1.8683083E2,8.8319855E2,9.9640173E2,3.8101156E4,6.89545E3,1.7088549E1,2.7944204E3,1.5792386E4,2.394174E4,3.3452403E5,8.9764606E2,9.8755684E1,5.657275E2,2.2286929E3,1.5431135E4,3.612513E2,6.9319136E3,1.7009826E4,4.8364097E3,3.2968762E5,8.451125E1,1.4244427E1,1.7157993E1,5.485695E2,1.1467256E3,1.4284409E4,1.6005823E2,2.0119308E2,6.75578E3,1.7613359E2,1.4512426E4,2.4974006E3,4.0454438E3,7.909657E2,1.3479045E5,1.9489719E5],"tree_param":{"num_deleted":"0","num_feature":"11","num_nodes":"49","size_leaf_vector":"1"}},{"base_weights":[-8.663066E-6,1.3338569E0,-1.5932597E0,1.612681E0,-1.124609E0,-1.6007527E0,1.0446732E0,-3.5175413E-2,4.8381753E-2,-1.6073343E0,1.6052846E0,-1.4835215E0,-1.6068249E0,-4.791874E-2,4.819706E-2,-1.349784E0,-4.8419595E-2,4.8400808E-2,-4.3402195E-2,-1.0508715E0,-1.5599259E0,-1.5660466E0,-1.6097338E0,-4.8316505E-2,9.936256E-1,1.149477E0,-4.8379507E-2,-1.5764787E0,-8.463006E-1,-1.519093E0,-4.859928E-2,-1.5924442E0,-4.8371334E-2,-4.344364E-2,4.383264E-2,-4.441367E-2,3.7203114E-2,-4.0833533E-2,-4.7807157E-2,-4.8570115E-2,5.30297E-3,7.54933E-3,-4.702252E-2,3.057334E-3,-4.8443843E-2],"categories":[],"categories_nodes":[],"categories_segments":[],"categories_sizes":[],"default_left":[0,0,0,0,0,0,0,0,0,0,0,0,0,0,0,0,0,0,0,0,0,0,0,0,0,0,0,0,0,0,0,0,0,0,0,0,0,0,0,0,0,0,0,0,0],"id":9,"left_children":[1,3,5,7,9,11,13,-1,-1,15,17,19,21,-1,-1,23,-1,-1,-1,25,27,29,31,-1,33,35,-1,37,39,41,-1,43,-1,-1,-1,-1,-1,-1,-1,-1,-1,-1,-1,-1,-1],"loss_changes":[1.7439552E6,3.0618444E5,7.395125E3,5.325E1,5.9963246E4,2.591875E2,1.5790354E3,0E0,0E0,6.0398438E1,1.7327734E2,6.034297E2,3.54375E1,0E0,0E0,6.0701855E2,0E0,0E0,0E0,3.4252107E3,1.8071875E2,5.3496094E1,8.3125E0,0E0,1.18309746E2,1.3795648E2,0E0,5.0398438E1,2.853064E2,1.0882793E3,0E0,1.6698594E3,0E0,0E0,0E0,0E0,0E0,0E0,0E0,0E0,0E0,0E0,0E0,0E0,0E0],"parents":[2147483647,0,0,1,1,2,2,3,3,4,4,5,5,6,6,9,9,10,10,11,11,12,12,15,15,19,19,20,20,21,21,22,22,24,24,25,25,27,27,28,28,29,29,31,31],"right_children":[2,4,6,8,10,12,14,-1,-1,16,18,20,22,-1,-1,24,-1,-1,-1,26,28,30,32,-1,34,36,-1,38,40,42,-1,44,-1,-1,-1,-1,-1,-1,-1,-1,-1,-1,-1,-1,-1],"split_conditions":[5.820766E-11,2.8174E2,1E0,0E0,9.426721E5,1.6E1,2.031486E5,-3.5175413E-2,4.8381753E-2,-2.3293123E5,6.702314E5,5.17059E3,3.7E1,-4.791874E-2,4.819706E-2,-2.3754327E5,-4.8419595E-2,4.8400808E-2,-4.3402195E-2,3.9E1,1.7833556E6,3.9E1,1.99283E3,-4.8316505E-2,2.8673297E5,9.487347E4,-4.8379507E-2,4.479117E4,4.656613E-10,4.070899E4,-4.859928E-2,3.9E1,-4.8371334E-2,-4.344364E-2,4.383264E-2,-4.441367E-2,3.7203114E-2,-4.0833533E-2,-4.7807157E-2,-4.8570115E-2,5.30297E-3,7.54933E-3,-4.702252E-2,3.057334E-3,-4.8443843E-2],"split_indices":[6,3,8,6,1,0,3,0,0,7,5,4,0,0,0,7,0,0,0,2,1,2,4,0,3,5,0,4,7,4,0,2,0,0,0,0,0,0,0,0,0,0,0,0,0],"split_type":[0,0,0,0,0,0,0,0,0,0,0,0,0,0,0,0,0,0,0,0,0,0,0,0,0,0,0,0,0,0,0,0,0,0,0,0,0,0,0,0,0,0,0,0,0],"sum_hessian":[8.2061025E5,4.466642E5,3.7394606E5,4.0116716E5,4.5497023E4,3.7288784E5,1.0582156E3,5.3362246E0,4.011618E5,3.8661535E4,6.835487E3,1.8391262E4,3.544966E5,1.8478825E2,8.734273E2,9.856081E2,3.767593E4,6.8185513E3,1.6935287E1,2.7657742E3,1.5625487E4,2.3688006E4,3.308086E5,8.8767017E2,9.793789E1,5.6191406E2,2.20386E3,1.5268217E4,3.5727048E2,1.269914E4,1.0988865E4,4.4064367E4,2.8674422E5,1.4890976E1,8.304691E1,1.7512886E1,5.444011E2,1.136735E3,1.4131482E4,2.0315497E2,1.5411551E2,3.368609E2,1.2362279E4,5.7331165E2,4.349106E4],"tree_param":{"num_deleted":"0","num_feature":"11","num_nodes":"45","size_leaf_vector":"1"}},{"base_weights":[-9.203865E-6,1.3098451E0,-1.5644137E0,1.5836489E0,-1.1043781E0,-1.571771E0,1.0257127E0,-3.4569897E-2,4.7510777E-2,-1.5784203E0,1.5763843E0,-1.4558508E0,-1.5777788E0,-4.705458E-2,4.7327165E-2,-1.325198E0,-4.7548845E-2,4.7530163E-2,-4.261288E-2,-1.0310031E0,-1.5309013E0,-1.5369459E0,-1.5806934E0,-4.7447078E-2,9.730452E-1,1.1232679E0,-4.7509275E-2,-1.5473816E0,-8.280702E-1,-1.4903039E0,-4.77168E-2,-1.5244883E0,-1.5815079E0,4.2661402E-2,-4.4951327E-2,-4.490458E-2,3.6334705E-2,-4.0752184E-2,-4.7013726E-2,4.6974216E-3,-4.8635684E-2,7.3160296E-3,-4.61469E-2,-4.754579E-2,-3.6422014E-2,-4.7271445E-2,-4.7564868E-2],"categories":[],"categories_nodes":[],"categories_segments":[],"categories_sizes":[],"default_left":[0,0,0,0,0,0,0,0,0,0,0,0,0,0,0,0,0,0,0,0,0,0,0,0,0,0,0,0,0,0,0,0,0,0,0,0,0,0,0,0,0,0,0,0,0,0,0],"id":10,"left_children":[1,3,5,7,9,11,13,-1,-1,15,17,19,21,-1,-1,23,-1,-1,-1,25,27,29,31,-1,33,35,-1,37,39,41,-1,43,45,-1,-1,-1,-1,-1,-1,-1,-1,-1,-1,-1,-1,-1,-1],"loss_changes":[1.6613945E6,2.9170662E5,7.0446875E3,5.11875E1,5.7128438E4,2.505E2,1.5047281E3,0E0,0E0,5.7609375E1,1.6561328E2,5.753633E2,3.53125E1,0E0,0E0,5.7844824E2,0E0,0E0,0E0,3.2624417E3,1.751914E2,5.228125E1,8.625E0,0E0,1.14070595E2,1.3239075E2,0E0,5.0585938E1,2.8156223E2,1.0453184E3,0E0,8.345508E1,8.75E-1,0E0,0E0,0E0,0E0,0E0,0E0,0E0,0E0,0E0,0E0,0E0,0E0,0E0,0E0],"parents":[2147483647,0,0,1,1,2,2,3,3,4,4,5,5,6,6,9,9,10,10,11,11,12,12,15,15,19,19,20,20,21,21,22,22,24,24,25,25,27,27,28,28,29,29,31,31,32,32],"right_children":[2,4,6,8,10,12,14,-1,-1,16,18,20,22,-1,-1,24,-1,-1,-1,26,28,30,32,-1,34,36,-1,38,40,42,-1,44,46,-1,-1,-1,-1,-1,-1,-1,-1,-1,-1,-1,-1,-1,-1],"split_conditions":[5.820766E-11,2.8174E2,1E0,0E0,9.426721E5,1.6E1,2.031486E5,-3.4569897E-2,4.7510777E-2,-2.3293123E5,6.702314E5,5.17059E3,3.7E1,-4.705458E-2,4.7327165E-2,-2.3754327E5,-4.7548845E-2,4.7530163E-2,-4.261288E-2,3.9E1,1.7096062E6,3.9E1,4.452463E4,-4.7447078E-2,4.243495E4,9.457646E4,-4.7509275E-2,3.98884E4,3.23255E6,4.070899E4,-4.77168E-2,3.976532E4,2.32E2,4.2661402E-2,-4.4951327E-2,-4.490458E-2,3.6334705E-2,-4.0752184E-2,-4.7013726E-2,4.6974216E-3,-4.8635684E-2,7.3160296E-3,-4.61469E-2,-4.754579E-2,-3.6422014E-2,-4.7271445E-2,-4.7564868E-2],"split_indices":[6,3,8,6,1,0,3,0,0,7,5,4,0,0,0,7,0,0,0,2,6,2,5,0,1,1,0,1,5,4,0,6,0,0,0,0,0,0,0,0,0,0,0,0,0,0,0],"split_type":[0,0,0,0,0,0,0,0,0,0,0,0,0,0,0,0,0,0,0,0,0,0,0,0,0,0,0,0,0,0,0,0,0,0,0,0,0,0,0,0,0,0,0,0,0,0,0],"sum_hessian":[8.107717E5,4.4128762E5,3.6948406E5,3.9633866E5,4.4948984E4,3.6843844E5,1.0455969E3,5.3023434E0,3.9633334E5,3.819579E4,6.7531943E3,1.8182105E4,3.5025634E5,1.8260608E2,8.629909E2,9.7400586E2,3.7221785E4,6.7364233E3,1.677103E1,2.7351335E3,1.5446972E4,2.3416678E4,3.2683966E5,8.770152E2,9.6990654E1,5.577951E2,2.1773384E3,1.509002E4,3.569523E2,1.2558343E4,1.0858336E4,4.731195E3,3.2210847E5,8.296865E1,1.4022008E1,1.6878351E1,5.4091675E2,1.4429705E3,1.3647049E4,1.5968251E2,1.9726978E2,3.3723276E2,1.2221109E4,3.952652E3,7.785428E2,1.3170044E5,1.9040803E5],"tree_param":{"num_deleted":"0","num_feature":"11","num_nodes":"47","size_leaf_vector":"1"}},{"base_weights":[-9.835761E-6,1.287367E0,-1.5373874E0,1.5564713E0,-1.0854394E0,-1.5446177E0,1.0079484E0,-3.398763E-2,4.6695437E-2,-1.5513527E0,1.5493302E0,-1.4297998E0,-1.5505723E0,-4.6244547E-2,4.651239E-2,-1.3020602E0,-4.673381E-2,4.671518E-2,-4.186484E-2,-1.0122844E0,-1.5035793E0,-1.5096238E0,-1.5534968E0,-4.6633042E-2,9.527895E-1,1.0980991E0,-4.669463E-2,-1.5199354E0,-8.06336E-1,-1.4312693E0,-1.5414414E0,-1.497123E0,-1.5543145E0,-4.222261E-2,4.2213418E-2,-4.3103244E-2,3.5562225E-2,-3.9012086E-2,-4.612353E-2,-4.7035106E-2,5.436322E-3,-4.420715E-2,4.4945586E-3,-4.6800215E-2,-4.2971678E-2,-4.6729892E-2,-3.562147E-2,-4.6455856E-2,-4.6748932E-2],"categories":[],"categories_nodes":[],"categories_segments":[],"categories_sizes":[],"default_left":[0,0,0,0,0,0,0,0,0,0,0,0,0,0,0,0,0,0,0,0,0,0,0,0,0,0,0,0,0,0,0,0,0,0,0,0,0,0,0,0,0,0,0,0,0,0,0,0,0],"id":11,"left_children":[1,3,5,7,9,11,13,-1,-1,15,17,19,21,-1,-1,23,-1,-1,-1,25,27,29,31,-1,33,35,-1,37,39,41,43,45,47,-1,-1,-1,-1,-1,-1,-1,-1,-1,-1,-1,-1,-1,-1,-1,-1],"loss_changes":[1.584108E6,2.7815506E5,6.7165625E3,4.925E1,5.4474918E4,2.4275E2,1.4351523E3,0E0,0E0,5.50625E1,1.5842969E2,5.490547E2,3.51875E1,0E0,0E0,5.5173926E2,0E0,0E0,0E0,3.1100562E3,1.7042188E2,5.176953E1,8.75E0,0E0,1.0910763E2,1.2621765E2,0E0,5.1910156E1,2.6803717E2,4.500918E2,2.7285156E1,8.261426E1,9.375E-1,0E0,0E0,0E0,0E0,0E0,0E0,0E0,0E0,0E0,0E0,0E0,0E0,0E0,0E0,0E0,0E0],"parents":[2147483647,0,0,1,1,2,2,3,3,4,4,5,5,6,6,9,9,10,10,11,11,12,12,15,15,19,19,20,20,21,21,22,22,24,24,25,25,27,27,28,28,29,29,30,30,31,31,32,32],"right_children":[2,4,6,8,10,12,14,-1,-1,16,18,20,22,-1,-1,24,-1,-1,-1,26,28,30,32,-1,34,36,-1,38,40,42,44,46,48,-1,-1,-1,-1,-1,-1,-1,-1,-1,-1,-1,-1,-1,-1,-1,-1],"split_conditions":[5.820766E-11,2.8174E2,1E0,0E0,9.426721E5,1.6E1,2.031486E5,-3.398763E-2,4.6695437E-2,-2.3293123E5,6.702314E5,5.17059E3,3.7E1,-4.6244547E-2,4.651239E-2,-2.3754327E5,-4.673381E-2,4.671518E-2,-4.186484E-2,3.9E1,1.7833556E6,4.1989503E5,4.452463E4,-4.6633042E-2,2.8673297E5,9.487347E4,-4.669463E-2,4.479117E4,4.656613E-10,4.138085E5,5.0618747E5,3.976532E4,2.32E2,-4.222261E-2,4.2213418E-2,-4.3103244E-2,3.5562225E-2,-3.9012086E-2,-4.612353E-2,-4.7035106E-2,5.436322E-3,-4.420715E-2,4.4945586E-3,-4.6800215E-2,-4.2971678E-2,-4.6729892E-2,-3.562147E-2,-4.6455856E-2,-4.6748932E-2],"split_indices":[6,3,8,6,1,0,3,0,0,7,5,4,0,0,0,7,0,0,0,2,1,5,5,0,3,5,0,4,7,5,6,6,0,0,0,0,0,0,0,0,0,0,0,0,0,0,0,0,0],"split_type":[0,0,0,0,0,0,0,0,0,0,0,0,0,0,0,0,0,0,0,0,0,0,0,0,0,0,0,0,0,0,0,0,0,0,0,0,0,0,0,0,0,0,0,0,0,0,0,0,0],"sum_hessian":[8.0038025E5,4.3560838E5,3.647719E5,3.9123822E5,4.4370156E4,3.6373962E5,1.0322667E3,5.266195E0,3.9123294E5,3.770389E4,6.666266E3,1.7961676E4,3.4577797E5,1.8030034E2,8.519664E2,9.618169E2,3.6742074E4,6.6496694E3,1.6596935E1,2.7028054E3,1.525887E4,2.3129777E4,3.226482E5,8.657595E2,9.605734E1,5.5348267E2,2.1493228E3,1.4906123E4,3.5274652E2,6.7109604E3,1.6418816E4,4.6741147E3,3.1797406E5,1.4650738E1,8.14066E1,1.720886E1,5.3627386E2,1.1146577E3,1.3791466E4,1.9878996E2,1.5395657E2,6.536526E3,1.7443411E2,1.4003552E4,2.4152644E3,3.9018171E3,7.722979E2,1.30017664E5,1.879564E5],"tree_param":{"num_deleted":"0","num_feature":"11","num_nodes":"49","size_leaf_vector":"1"}},{"base_weights":[-1.0281484E-5,1.2662894E0,-1.5120245E0,1.5309867E0,-1.067683E0,-1.5191356E0,9.912756E-1,-3.3427104E-2,4.5930885E-2,-1.5259755E0,1.5239614E0,-1.405304E0,-1.525043E0,-4.5483947E-2,4.5747932E-2,-1.2804074E0,-4.5969635E-2,4.5951016E-2,-4.1154735E-2,-9.946409E-1,-1.4778992E0,-1.4838544E0,-1.5279868E0,-4.586956E-2,9.341964E-1,1.074048E0,-4.5930717E-2,-1.4942306E0,-7.896804E-1,-1.43658E0,-4.6147756E-2,-1.5103023E0,-4.5920767E-2,4.113171E-2,-4.3760978E-2,-4.3641258E-2,3.4763988E-2,-3.823167E-2,-4.5355424E-2,4.864465E-3,-4.7159333E-2,8.460053E-3,-4.4550896E-2,5.7655117E-3,-4.599557E-2],"categories":[],"categories_nodes":[],"categories_segments":[],"categories_sizes":[],"default_left":[0,0,0,0,0,0,0,0,0,0,0,0,0,0,0,0,0,0,0,0,0,0,0,0,0,0,0,0,0,0,0,0,0,0,0,0,0,0,0,0,0,0,0,0,0],"id":12,"left_children":[1,3,5,7,9,11,13,-1,-1,15,17,19,21,-1,-1,23,-1,-1,-1,25,27,29,31,-1,33,35,-1,37,39,41,-1,43,-1,-1,-1,-1,-1,-1,-1,-1,-1,-1,-1,-1,-1],"loss_changes":[1.5116388E6,2.65449E5,6.4088125E3,4.7375E1,5.1987055E4,2.355625E2,1.3698972E3,0E0,0E0,5.2617188E1,1.5168555E2,5.2446484E2,3.525E1,0E0,0E0,5.2667334E2,0E0,0E0,0E0,2.9671943E3,1.658086E2,5.2816406E1,9.0625E0,0E0,1.0536613E2,1.2129541E2,0E0,5.1726562E1,2.6489902E2,1.0215879E3,0E0,1.6532734E3,0E0,0E0,0E0,0E0,0E0,0E0,0E0,0E0,0E0,0E0,0E0,0E0,0E0],"parents":[2147483647,0,0,1,1,2,2,3,3,4,4,5,5,6,6,9,9,10,10,11,11,12,12,15,15,19,19,20,20,21,21,22,22,24,24,25,25,27,27,28,28,29,29,31,31],"right_children":[2,4,6,8,10,12,14,-1,-1,16,18,20,22,-1,-1,24,-1,-1,-1,26,28,30,32,-1,34,36,-1,38,40,42,-1,44,-1,-1,-1,-1,-1,-1,-1,-1,-1,-1,-1,-1,-1],"split_conditions":[5.820766E-11,2.8174E2,1E0,0E0,9.426721E5,1.6E1,2.031486E5,-3.3427104E-2,4.5930885E-2,-2.3293123E5,6.702314E5,5.17059E3,3.7E1,-4.5483947E-2,4.5747932E-2,-2.3754327E5,-4.5969635E-2,4.5951016E-2,-4.1154735E-2,3.9E1,1.7096062E6,3.9E1,1.99283E3,-4.586956E-2,4.243495E4,9.457646E4,-4.5930717E-2,4.479117E4,3.23255E6,4.070899E4,-4.6147756E-2,3.9E1,-4.5920767E-2,4.113171E-2,-4.3760978E-2,-4.3641258E-2,3.4763988E-2,-3.823167E-2,-4.5355424E-2,4.864465E-3,-4.7159333E-2,8.460053E-3,-4.4550896E-2,5.7655117E-3,-4.599557E-2],"split_indices":[6,3,8,6,1,0,3,0,0,7,5,4,0,0,0,7,0,0,0,2,6,2,4,0,1,1,0,4,5,4,0,2,0,0,0,0,0,0,0,0,0,0,0,0,0],"split_type":[0,0,0,0,0,0,0,0,0,0,0,0,0,0,0,0,0,0,0,0,0,0,0,0,0,0,0,0,0,0,0,0,0,0,0,0,0,0,0,0,0,0,0,0,0],"sum_hessian":[7.8950225E5,4.29663E5,3.5983928E5,3.8589884E5,4.3764137E4,3.5882097E5,1.0183104E3,5.227978E0,3.8589362E5,3.718887E4,6.575265E3,1.7730389E4,3.4109056E5,1.7788583E2,8.404246E2,9.4898535E2,3.6239887E4,6.558851E3,1.641408E1,2.668918E3,1.5061471E4,2.2830246E4,3.1826034E5,8.539759E2,9.500949E1,5.489242E2,2.1199937E3,1.4709348E4,3.5212234E2,1.2249782E4,1.0580464E4,4.2402184E4,2.7585816E5,8.124073E1,1.3768756E1,1.656099E1,5.323632E2,1.1042661E3,1.3605082E4,1.5927597E2,1.9284637E2,3.3532785E2,1.1914454E4,5.618897E2,4.1840293E4],"tree_param":{"num_deleted":"0","num_feature":"11","num_nodes":"45","size_leaf_vector":"1"}},{"base_weights":[-1.0664165E-5,1.2464927E0,-1.4881938E0,1.5070509E0,-1.0510058E0,-1.4951928E0,9.7560173E-1,-3.2886956E-2,4.5212805E-2,-1.5021403E0,1.5001345E0,-1.3821719E0,-1.5010624E0,-4.47686E-2,4.502951E-2,-1.2599541E0,-4.5252003E-2,4.523334E-2,-4.0479537E-2,-9.7795427E-1,-1.4536557E0,-1.4596127E0,-1.5040269E0,-4.515236E-2,9.157948E-1,1.0508679E0,-4.521325E-2,-1.4699116E0,-7.694806E-1,-1.4124207E0,-4.5419335E-2,-1.4467739E0,-1.5048589E0,-4.1125458E-2,4.075619E-2,-4.1926656E-2,3.4053754E-2,-3.7478667E-2,-4.462934E-2,3.0326734E-3,-4.8529148E-2,8.196531E-3,-4.3819893E-2,-4.5255456E-2,-3.4014605E-2,-4.4969574E-2,-4.5267086E-2],"categories":[],"categories_nodes":[],"categories_segments":[],"categories_sizes":[],"default_left":[0,0,0,0,0,0,0,0,0,0,0,0,0,0,0,0,0,0,0,0,0,0,0,0,0,0,0,0,0,0,0,0,0,0,0,0,0,0,0,0,0,0,0,0,0,0,0],"id":13,"left_children":[1,3,5,7,9,11,13,-1,-1,15,17,19,21,-1,-1,23,-1,-1,-1,25,27,29,31,-1,33,35,-1,37,39,41,-1,43,45,-1,-1,-1,-1,-1,-1,-1,-1,-1,-1,-1,-1,-1,-1],"loss_changes":[1.443583E6,2.535165E5,6.1198125E3,4.5625E1,4.9650633E4,2.290625E2,1.3085983E3,0E0,0E0,5.0390625E1,1.4534082E2,5.013789E2,3.55E1,0E0,0E0,5.0316284E2,0E0,0E0,0E0,2.8330217E3,1.6187305E2,5.2035156E1,9.0625E0,0E0,1.00893684E2,1.1572626E2,0E0,5.1685547E1,2.593376E2,9.845469E2,0E0,8.3240234E1,1.3125E0,0E0,0E0,0E0,0E0,0E0,0E0,0E0,0E0,0E0,0E0,0E0,0E0,0E0,0E0],"parents":[2147483647,0,0,1,1,2,2,3,3,4,4,5,5,6,6,9,9,10,10,11,11,12,12,15,15,19,19,20,20,21,21,22,22,24,24,25,25,27,27,28,28,29,29,31,31,32,32],"right_children":[2,4,6,8,10,12,14,-1,-1,16,18,20,22,-1,-1,24,-1,-1,-1,26,28,30,32,-1,34,36,-1,38,40,42,-1,44,46,-1,-1,-1,-1,-1,-1,-1,-1,-1,-1,-1,-1,-1,-1],"split_conditions":[5.820766E-11,2.8174E2,1E0,0E0,9.426721E5,1.6E1,2.031486E5,-3.2886956E-2,4.5212805E-2,-2.3293123E5,6.702314E5,5.17059E3,3.7E1,-4.47686E-2,4.502951E-2,-2.3754327E5,-4.5252003E-2,4.523334E-2,-4.0479537E-2,3.9E1,1.7833556E6,3.9E1,4.452463E4,-4.515236E-2,2.8673297E5,9.487347E4,-4.521325E-2,4.479117E4,1.9545972E6,4.070899E4,-4.5419335E-2,3.976532E4,2.32E2,-4.1125458E-2,4.075619E-2,-4.1926656E-2,3.4053754E-2,-3.7478667E-2,-4.462934E-2,3.0326734E-3,-4.8529148E-2,8.196531E-3,-4.3819893E-2,-4.5255456E-2,-3.4014605E-2,-4.4969574E-2,-4.5267086E-2],"split_indices":[6,3,8,6,1,0,3,0,0,7,5,4,0,0,0,7,0,0,0,2,1,2,5,0,3,5,0,4,6,4,0,6,0,0,0,0,0,0,0,0,0,0,0,0,0,0,0],"split_type":[0,0,0,0,0,0,0,0,0,0,0,0,0,0,0,0,0,0,0,0,0,0,0,0,0,0,0,0,0,0,0,0,0,0,0,0,0,0,0,0,0,0,0,0,0,0,0],"sum_hessian":[7.781972E5,4.234854E5,3.5471175E5,3.803509E5,4.31345E4,3.5370797E5,1.0038075E3,5.1878834E0,3.8034572E5,3.6653793E4,6.4807075E3,1.7490318E4,3.3621762E5,1.7537625E2,8.284312E2,9.3571594E2,3.571808E4,6.4644844E3,1.622347E1,2.6337422E3,1.4856577E4,2.2518033E4,3.136996E5,8.41731E2,9.398493E1,5.44224E2,2.0895183E3,1.4508822E4,3.4775494E2,1.2088083E4,1.0429951E4,4.551484E3,3.0914812E5,1.4382395E1,7.960253E1,1.6870752E1,5.273532E2,1.09215E3,1.3416672E4,1.7218855E2,1.7556639E2,3.3578275E2,1.1752301E4,3.793785E3,7.576988E2,1.2642081E5,1.8272731E5],"tree_param":{"num_deleted":"0","num_feature":"11","num_nodes":"47","size_leaf_vector":"1"}},{"base_weights":[-1.1184155E-5,1.2278714E0,-1.4657527E0,1.4845358E0,-1.0353214E0,-1.4726462E0,9.60844E-1,-3.23659E-2,4.4537343E-2,-1.4797245E0,1.4777226E0,-1.3602741E0,-1.478487E0,-4.4094775E-2,4.4353325E-2,-1.2407575E0,-4.4577062E-2,4.4558328E-2,-3.983653E-2,-9.621694E-1,-1.4307029E0,-1.4367312E0,-1.4814755E0,-4.4477604E-2,8.9887375E-1,1.0286428E0,-4.4538375E-2,-1.447068E0,-7.5121397E-1,-1.3569541E0,-1.4692461E0,-1.4635178E0,-4.4526707E-2,3.9749186E-2,-4.2694416E-2,-4.2507205E-2,3.331496E-2,-3.7536025E-2,-4.402788E-2,-4.5243133E-2,5.8611245E-3,-4.202267E-2,7.074301E-3,-4.4659246E-2,-4.0670626E-2,6.952942E-3,-4.460288E-2],"categories":[],"categories_nodes":[],"categories_segments":[],"categories_sizes":[],"default_left":[0,0,0,0,0,0,0,0,0,0,0,0,0,0,0,0,0,0,0,0,0,0,0,0,0,0,0,0,0,0,0,0,0,0,0,0,0,0,0,0,0,0,0,0,0,0,0],"id":14,"left_children":[1,3,5,7,9,11,13,-1,-1,15,17,19,21,-1,-1,23,-1,-1,-1,25,27,29,31,-1,33,35,-1,37,39,41,43,45,-1,-1,-1,-1,-1,-1,-1,-1,-1,-1,-1,-1,-1,-1,-1],"loss_changes":[1.3795686E6,2.4229388E5,5.848E3,4.40625E1,4.745329E4,2.233125E2,1.2509302E3,0E0,0E0,4.825E1,1.3936523E2,4.795625E2,3.55625E1,0E0,0E0,4.8103076E2,0E0,0E0,0E0,2.7068608E3,1.5960547E2,5.217578E1,9.4375E0,0E0,9.757649E1,1.113584E2,0E0,5.2466797E1,2.5154587E2,4.51792E2,2.9214844E1,1.6240312E3,0E0,0E0,0E0,0E0,0E0,0E0,0E0,0E0,0E0,0E0,0E0,0E0,0E0,0E0,0E0],"parents":[2147483647,0,0,1,1,2,2,3,3,4,4,5,5,6,6,9,9,10,10,11,11,12,12,15,15,19,19,20,20,21,21,22,22,24,24,25,25,27,27,28,28,29,29,30,30,31,31],"right_children":[2,4,6,8,10,12,14,-1,-1,16,18,20,22,-1,-1,24,-1,-1,-1,26,28,30,32,-1,34,36,-1,38,40,42,44,46,-1,-1,-1,-1,-1,-1,-1,-1,-1,-1,-1,-1,-1,-1,-1],"split_conditions":[5.820766E-11,2.8174E2,1E0,0E0,9.426721E5,1.6E1,2.031486E5,-3.23659E-2,4.4537343E-2,-2.3293123E5,6.702314E5,5.17059E3,3.7E1,-4.4094775E-2,4.4353325E-2,-2.3754327E5,-4.4577062E-2,4.4558328E-2,-3.983653E-2,3.9E1,1.7096062E6,4.1989503E5,1.99283E3,-4.4477604E-2,4.243495E4,9.457646E4,-4.4538375E-2,3.98884E4,4.656613E-10,4.138085E5,5.0618747E5,3.9E1,-4.4526707E-2,3.9749186E-2,-4.2694416E-2,-4.2507205E-2,3.331496E-2,-3.7536025E-2,-4.402788E-2,-4.5243133E-2,5.8611245E-3,-4.202267E-2,7.074301E-3,-4.4659246E-2,-4.0670626E-2,6.952942E-3,-4.460288E-2],"split_indices":[6,3,8,6,1,0,3,0,0,7,5,4,0,0,0,7,0,0,0,2,6,5,4,0,1,1,0,1,7,5,6,2,0,0,0,0,0,0,0,0,0,0,0,0,0,0,0],"split_type":[0,0,0,0,0,0,0,0,0,0,0,0,0,0,0,0,0,0,0,0,0,0,0,0,0,0,0,0,0,0,0,0,0,0,0,0,0,0,0,0,0,0,0,0,0,0,0],"sum_hessian":[7.6652575E5,4.1710672E5,3.4941906E5,3.746224E5,4.2484312E4,3.4843025E5,9.888311E2,5.14609E0,3.7461725E5,3.610124E4,6.3830713E3,1.7242855E4,3.3118738E5,1.727843E2,8.160468E2,9.2194586E2,3.5179293E4,6.367045E3,1.6026041E1,2.597379E3,1.4645477E4,2.2195418E4,3.0899197E5,8.2908704E2,9.285879E1,5.393286E2,2.0580503E3,1.429812E4,3.4735638E2,6.4560366E3,1.5739381E4,4.1176535E4,2.6781544E5,7.936849E1,1.3490294E1,1.6213121E1,5.231155E2,1.3704412E3,1.2927679E4,1.9265279E2,1.547036E2,6.283785E3,1.7225143E2,1.3418875E4,2.3205059E3,5.5642334E2,4.062011E4],"tree_param":{"num_deleted":"0","num_feature":"11","num_nodes":"47","size_leaf_vector":"1"}},{"base_weights":[-1.160904E-5,1.2103308E0,-1.4446001E0,1.4633276E0,-1.0205473E0,-1.4513942E0,9.4692856E-1,-3.186277E-2,4.390109E-2,-1.4586095E0,1.4566114E0,-1.3395674E0,-1.4572115E0,-4.3459136E-2,4.3715976E-2,-1.2225626E0,-4.394139E-2,4.3922536E-2,-3.922326E-2,-9.471875E-1,-1.4090134E0,-1.4149945E0,-1.4602355E0,-4.3841895E-2,8.820363E-1,1.0071512E0,-4.3902688E-2,-1.425365E0,-7.348787E-1,-1.3668146E0,-4.4117372E-2,-1.4017873E0,-1.4610864E0,-4.013605E-2,3.9435558E-2,-4.0865432E-2,3.2657508E-2,-3.595725E-2,-4.3311704E-2,5.4086437E-3,-4.532374E-2,9.253542E-3,-4.2477667E-2,-4.3951415E-2,-3.253187E-2,-4.3652724E-2,-4.3956477E-2],"categories":[],"categories_nodes":[],"categories_segments":[],"categories_sizes":[],"default_left":[0,0,0,0,0,0,0,0,0,0,0,0,0,0,0,0,0,0,0,0,0,0,0,0,0,0,0,0,0,0,0,0,0,0,0,0,0,0,0,0,0,0,0,0,0,0,0],"id":15,"left_children":[1,3,5,7,9,11,13,-1,-1,15,17,19,21,-1,-1,23,-1,-1,-1,25,27,29,31,-1,33,35,-1,37,39,41,-1,43,45,-1,-1,-1,-1,-1,-1,-1,-1,-1,-1,-1,-1,-1,-1],"loss_changes":[1.3192774E6,2.3172406E5,5.592125E3,4.24375E1,4.5383707E4,2.179375E2,1.1966025E3,0E0,0E0,4.6273438E1,1.3372852E2,4.59125E2,3.6E1,0E0,0E0,4.6021094E2,0E0,0E0,0E0,2.5880437E3,1.5589258E2,5.3125E1,9.5625E0,0E0,9.3525536E1,1.0630963E2,0E0,5.386328E1,2.4731322E2,9.6784766E2,0E0,8.434473E1,1.75E0,0E0,0E0,0E0,0E0,0E0,0E0,0E0,0E0,0E0,0E0,0E0,0E0,0E0,0E0],"parents":[2147483647,0,0,1,1,2,2,3,3,4,4,5,5,6,6,9,9,10,10,11,11,12,12,15,15,19,19,20,20,21,21,22,22,24,24,25,25,27,27,28,28,29,29,31,31,32,32],"right_children":[2,4,6,8,10,12,14,-1,-1,16,18,20,22,-1,-1,24,-1,-1,-1,26,28,30,32,-1,34,36,-1,38,40,42,-1,44,46,-1,-1,-1,-1,-1,-1,-1,-1,-1,-1,-1,-1,-1,-1],"split_conditions":[5.820766E-11,2.8174E2,1E0,0E0,9.426721E5,1.6E1,2.031486E5,-3.186277E-2,4.390109E-2,-2.3293123E5,6.702314E5,5.17059E3,3.7E1,-4.3459136E-2,4.3715976E-2,-2.3754327E5,-4.394139E-2,4.3922536E-2,-3.922326E-2,3.9E1,1.7096062E6,3.9E1,4.452463E4,-4.3841895E-2,2.8673297E5,9.487347E4,-4.3902688E-2,4.479117E4,3.23255E6,4.070899E4,-4.4117372E-2,3.976532E4,2.32E2,-4.013605E-2,3.9435558E-2,-4.0865432E-2,3.2657508E-2,-3.595725E-2,-4.3311704E-2,5.4086437E-3,-4.532374E-2,9.253542E-3,-4.2477667E-2,-4.3951415E-2,-3.253187E-2,-4.3652724E-2,-4.3956477E-2],"split_indices":[6,3,8,6,1,0,3,0,0,7,5,4,0,0,0,7,0,0,0,2,6,2,5,0,3,5,0,4,5,4,0,6,0,0,0,0,0,0,0,0,0,0,0,0,0,0,0],"split_type":[0,0,0,0,0,0,0,0,0,0,0,0,0,0,0,0,0,0,0,0,0,0,0,0,0,0,0,0,0,0,0,0,0,0,0,0,0,0,0,0,0,0,0,0,0,0,0],"sum_hessian":[7.545384E5,4.1055584E5,3.4398253E5,3.6873922E5,4.181662E4,3.4300906E5,9.734491E2,5.102765E0,3.6873412E5,3.5533824E4,6.282798E3,1.6988344E4,3.2602072E5,1.7012163E2,8.033275E2,9.0786487E2,3.4625957E4,6.266975E3,1.5822664E1,2.5600674E3,1.4428277E4,2.1865486E4,3.0415525E5,8.1610095E2,9.1763954E1,5.343357E2,2.0257318E3,1.4083696E4,3.4458054E2,1.1745156E4,1.0120329E4,4.42057E3,2.997347E5,1.4091272E1,7.7672676E1,1.6505348E1,5.178304E2,1.0666573E3,1.3017039E4,1.5851155E2,1.8606897E2,3.3389456E2,1.1411262E4,3.6785776E3,7.419922E2,1.2258498E5,1.771497E5],"tree_param":{"num_deleted":"0","num_feature":"11","num_nodes":"47","size_leaf_vector":"1"}},{"base_weights":[-1.1944366E-5,1.1937866E0,-1.4246287E0,1.4433236E0,-1.0066148E0,-1.4313289E0,9.3378913E-1,-3.137647E-2,4.3300964E-2,-1.4386978E0,1.4366995E0,-1.319943E0,-1.4371283E0,-4.285869E-2,4.3114405E-2,-1.2054417E0,-4.334191E-2,4.332291E-2,-3.8637497E-2,-9.3296814E-1,-1.3884629E0,-1.3944905E0,-1.4401848E0,-4.3242168E-2,8.6653084E-1,9.8648214E-1,-4.3303113E-2,-1.4048358E0,-7.1876174E-1,-1.3134041E0,-1.4276383E0,-1.4218696E0,-4.328966E-2,3.8491182E-2,-4.173571E-2,-4.148478E-2,3.1969447E-2,-3.5298392E-2,-4.270175E-2,3.4842985E-3,-4.6781786E-2,-4.074125E-2,8.182457E-3,-4.3427933E-2,-3.933295E-2,8.075445E-3,-4.336758E-2],"categories":[],"categories_nodes":[],"categories_segments":[],"categories_sizes":[],"default_left":[0,0,0,0,0,0,0,0,0,0,0,0,0,0,0,0,0,0,0,0,0,0,0,0,0,0,0,0,0,0,0,0,0,0,0,0,0,0,0,0,0,0,0,0,0,0,0],"id":16,"left_children":[1,3,5,7,9,11,13,-1,-1,15,17,19,21,-1,-1,23,-1,-1,-1,25,27,29,31,-1,33,35,-1,37,39,41,43,45,-1,-1,-1,-1,-1,-1,-1,-1,-1,-1,-1,-1,-1,-1,-1],"loss_changes":[1.2624148E6,2.2175588E5,5.3505625E3,4.10625E1,4.3432023E4,2.128125E2,1.1453552E3,0E0,0E0,4.4375E1,1.2840527E2,4.3985742E2,3.63125E1,0E0,0E0,4.4055823E2,0E0,0E0,0E0,2.476029E3,1.5270898E2,5.2746094E1,9.8125E0,0E0,9.057324E1,1.0242346E2,0E0,5.4072266E1,2.4244698E2,4.4566797E2,3.0308594E1,1.601E3,0E0,0E0,0E0,0E0,0E0,0E0,0E0,0E0,0E0,0E0,0E0,0E0,0E0,0E0,0E0],"parents":[2147483647,0,0,1,1,2,2,3,3,4,4,5,5,6,6,9,9,10,10,11,11,12,12,15,15,19,19,20,20,21,21,22,22,24,24,25,25,27,27,28,28,29,29,30,30,31,31],"right_children":[2,4,6,8,10,12,14,-1,-1,16,18,20,22,-1,-1,24,-1,-1,-1,26,28,30,32,-1,34,36,-1,38,40,42,44,46,-1,-1,-1,-1,-1,-1,-1,-1,-1,-1,-1,-1,-1,-1,-1],"split_conditions":[5.820766E-11,2.8174E2,1E0,0E0,9.426721E5,1.6E1,2.031486E5,-3.137647E-2,4.3300964E-2,-2.3293123E5,6.702314E5,5.17059E3,3.7E1,-4.285869E-2,4.3114405E-2,-2.3754327E5,-4.334191E-2,4.332291E-2,-3.8637497E-2,3.9E1,1.7096062E6,4.1989503E5,1.99283E3,-4.3242168E-2,4.243495E4,9.457646E4,-4.3303113E-2,4.479117E4,1.9545972E6,4.138085E5,5.0618747E5,3.9E1,-4.328966E-2,3.8491182E-2,-4.173571E-2,-4.148478E-2,3.1969447E-2,-3.5298392E-2,-4.270175E-2,3.4842985E-3,-4.6781786E-2,-4.074125E-2,8.182457E-3,-4.3427933E-2,-3.933295E-2,8.075445E-3,-4.336758E-2],"split_indices":[6,3,8,6,1,0,3,0,0,7,5,4,0,0,0,7,0,0,0,2,6,5,4,0,1,1,0,4,6,5,6,2,0,0,0,0,0,0,0,0,0,0,0,0,0,0,0],"split_type":[0,0,0,0,0,0,0,0,0,0,0,0,0,0,0,0,0,0,0,0,0,0,0,0,0,0,0,0,0,0,0,0,0,0,0,0,0,0,0,0,0,0,0,0,0,0,0],"sum_hessian":[7.4228475E5,4.0385928E5,3.384255E5,3.6272525E5,4.1134016E4,3.3746778E5,9.5772363E2,5.058069E0,3.627202E5,3.4953723E4,6.1802935E3,1.6728025E4,3.2073975E5,1.6739903E2,7.903246E2,8.9340424E2,3.406032E4,6.164679E3,1.5614144E1,2.5218855E3,1.4206139E4,2.1526691E4,2.9921306E5,8.0282544E2,9.057879E1,5.291913E2,1.9926942E3,1.3864242E4,3.418969E2,6.274432E3,1.5252259E4,3.9883594E4,2.5932947E5,7.7387146E1,1.3191642E1,1.5841143E1,5.1335016E2,1.0541965E3,1.2810046E4,1.7209904E2,1.6979787E2,6.1032764E3,1.7115578E2,1.2998852E4,2.2534072E3,5.510393E2,3.9332555E4],"tree_param":{"num_deleted":"0","num_feature":"11","num_nodes":"47","size_leaf_vector":"1"}},{"base_weights":[-1.232759E-5,1.1781622E0,-1.4057516E0,1.4244318E0,-9.9345714E-1,-1.4123629E0,9.213662E-1,-3.0906018E-2,4.2734206E-2,-1.419893E0,1.417895E0,-1.301264E0,-1.4181529E0,-4.229076E-2,4.254589E-2,-1.1891632E0,-4.2775854E-2,4.2756673E-2,-3.80772E-2,-9.194273E-1,-1.3689044E0,-1.3749328E0,-1.421254E0,-4.2675674E-2,8.510211E-1,9.664347E-1,-4.273688E-2,-1.3853569E0,-6.985923E-1,-1.3255743E0,-4.2959094E-2,-1.3613265E0,-1.4221284E0,-3.92408E-2,3.8230877E-2,-3.990416E-2,3.1357057E-2,-3.4660857E-2,-4.212386E-2,3.2049704E-3,-4.7529377E-2,1.0247601E-2,-4.1272137E-2,-4.2791862E-2,-3.1153532E-2,-4.247933E-2,-4.2790987E-2],"categories":[],"categories_nodes":[],"categories_segments":[],"categories_sizes":[],"default_left":[0,0,0,0,0,0,0,0,0,0,0,0,0,0,0,0,0,0,0,0,0,0,0,0,0,0,0,0,0,0,0,0,0,0,0,0,0,0,0,0,0,0,0,0,0,0,0],"id":17,"left_children":[1,3,5,7,9,11,13,-1,-1,15,17,19,21,-1,-1,23,-1,-1,-1,25,27,29,31,-1,33,35,-1,37,39,41,-1,43,45,-1,-1,-1,-1,-1,-1,-1,-1,-1,-1,-1,-1,-1,-1],"loss_changes":[1.208721E6,2.123435E5,5.122625E3,3.95625E1,4.1589113E4,2.08375E2,1.0969536E3,0E0,0E0,4.2625E1,1.2337109E2,4.2160156E2,3.70625E1,0E0,0E0,4.2202393E2,0E0,0E0,0E0,2.3702756E3,1.5122852E2,5.4464844E1,1.0125E1,0E0,8.688687E1,9.782669E1,0E0,5.4384766E1,2.4343736E2,9.539082E2,0E0,8.584277E1,2.0625E0,0E0,0E0,0E0,0E0,0E0,0E0,0E0,0E0,0E0,0E0,0E0,0E0,0E0,0E0],"parents":[2147483647,0,0,1,1,2,2,3,3,4,4,5,5,6,6,9,9,10,10,11,11,12,12,15,15,19,19,20,20,21,21,22,22,24,24,25,25,27,27,28,28,29,29,31,31,32,32],"right_children":[2,4,6,8,10,12,14,-1,-1,16,18,20,22,-1,-1,24,-1,-1,-1,26,28,30,32,-1,34,36,-1,38,40,42,-1,44,46,-1,-1,-1,-1,-1,-1,-1,-1,-1,-1,-1,-1,-1,-1],"split_conditions":[5.820766E-11,2.8174E2,1E0,0E0,9.426721E5,1.6E1,2.031486E5,-3.0906018E-2,4.2734206E-2,-2.3293123E5,6.702314E5,5.17059E3,3.7E1,-4.229076E-2,4.254589E-2,-2.3754327E5,-4.2775854E-2,4.2756673E-2,-3.80772E-2,3.9E1,1.7833556E6,3.9E1,4.452463E4,-4.2675674E-2,2.8673297E5,9.487347E4,-4.273688E-2,4.479117E4,3.9E1,4.070899E4,-4.2959094E-2,3.976532E4,2.32E2,-3.92408E-2,3.8230877E-2,-3.990416E-2,3.1357057E-2,-3.4660857E-2,-4.212386E-2,3.2049704E-3,-4.7529377E-2,1.0247601E-2,-4.1272137E-2,-4.2791862E-2,-3.1153532E-2,-4.247933E-2,-4.2790987E-2],"split_indices":[6,3,8,6,1,0,3,0,0,7,5,4,0,0,0,7,0,0,0,2,1,2,5,0,3,5,0,4,2,4,0,6,0,0,0,0,0,0,0,0,0,0,0,0,0,0,0],"split_type":[0,0,0,0,0,0,0,0,0,0,0,0,0,0,0,0,0,0,0,0,0,0,0,0,0,0,0,0,0,0,0,0,0,0,0,0,0,0,0,0,0,0,0,0,0,0,0],"sum_hessian":[7.2980906E5,3.970416E5,3.327675E5,3.5660247E5,4.0439117E4,3.3182578E5,9.417123E2,5.012151E0,3.5659747E5,3.4363184E4,6.0759326E3,1.6463512E4,3.1536228E5,1.646265E2,7.7708575E2,8.787407E2,3.3484445E4,6.0605312E3,1.5401234E1,2.4830452E3,1.3980467E4,2.1183318E4,2.9417894E5,7.89309E2,8.9431725E1,5.2398694E2,1.9590582E3,1.3642731E4,3.3773453E2,1.1386746E4,9.796572E3,4.283629E3,2.898953E5,1.3782115E1,7.564961E1,1.6118643E1,5.078683E2,1.0409268E3,1.2601805E4,1.7751056E2,1.6022395E2,3.3198035E2,1.1054766E4,3.5581682E3,7.2546063E2,1.1857595E5,1.7131938E5],"tree_param":{"num_deleted":"0","num_feature":"11","num_nodes":"47","size_leaf_vector":"1"}},{"base_weights":[-1.2720739E-5,1.1633891E0,-1.3878796E0,1.4065691E0,-9.81019E-1,-1.3944069E0,9.096058E-1,-3.0450478E-2,4.219832E-2,-1.4021171E0,1.4001149E0,-1.2834786E0,-1.4001939E0,-4.175289E-2,4.2007938E-2,-1.1738112E0,-4.224073E-2,4.2221334E-2,-3.754056E-2,-9.8006666E-1,-1.3668392E0,-1.3564494E0,-1.4033355E0,-4.2139936E-2,8.3672124E-1,7.152612E-1,-4.278274E-2,-1.3858855E0,-6.003453E-1,-1.306888E0,-4.2414058E-2,-1.342627E0,-1.4042224E0,3.733924E-2,-4.087142E-2,-4.3614075E-2,3.561583E-2,-3.364071E-2,-4.2375773E-2,1.4331029E-2,-4.40411E-2,9.92277E-3,-4.071245E-2,-4.255791E-2,-3.1699106E-2,-4.1940182E-2,-4.2255174E-2],"categories":[],"categories_nodes":[],"categories_segments":[],"categories_sizes":[],"default_left":[0,0,0,0,0,0,0,0,0,0,0,0,0,0,0,0,0,0,0,0,0,0,0,0,0,0,0,0,0,0,0,0,0,0,0,0,0,0,0,0,0,0,0,0,0,0,0],"id":18,"left_children":[1,3,5,7,9,11,13,-1,-1,15,17,19,21,-1,-1,23,-1,-1,-1,25,27,29,31,-1,33,35,-1,37,39,41,-1,43,45,-1,-1,-1,-1,-1,-1,-1,-1,-1,-1,-1,-1,-1,-1],"loss_changes":[1.157957E6,2.0344538E5,4.9069375E3,3.825E1,3.984696E4,2.044375E2,1.0511865E3,0E0,0E0,4.0945312E1,1.18606445E2,4.058203E2,3.73125E1,0E0,0E0,4.0448547E2,0E0,0E0,0E0,2.6484617E3,1.8274805E2,5.416797E1,1.05E1,0E0,8.425081E1,7.505681E2,0E0,8.288086E1,2.9383194E2,9.2269727E2,0E0,8.7367676E1,2.25E0,0E0,0E0,0E0,0E0,0E0,0E0,0E0,0E0,0E0,0E0,0E0,0E0,0E0,0E0],"parents":[2147483647,0,0,1,1,2,2,3,3,4,4,5,5,6,6,9,9,10,10,11,11,12,12,15,15,19,19,20,20,21,21,22,22,24,24,25,25,27,27,28,28,29,29,31,31,32,32],"right_children":[2,4,6,8,10,12,14,-1,-1,16,18,20,22,-1,-1,24,-1,-1,-1,26,28,30,32,-1,34,36,-1,38,40,42,-1,44,46,-1,-1,-1,-1,-1,-1,-1,-1,-1,-1,-1,-1,-1,-1],"split_conditions":[5.820766E-11,2.8174E2,1E0,0E0,9.426721E5,1.6E1,2.031486E5,-3.0450478E-2,4.219832E-2,-2.3293123E5,6.702314E5,4.479117E4,3.7E1,-4.175289E-2,4.2007938E-2,-2.3754327E5,-4.224073E-2,4.2221334E-2,-3.754056E-2,3.9E1,1.7833556E6,3.9E1,4.452463E4,-4.2139936E-2,4.243495E4,9.457646E4,-4.278274E-2,3.98884E4,3.23255E6,4.070899E4,-4.2414058E-2,3.821504E4,2.32E2,3.733924E-2,-4.087142E-2,-4.3614075E-2,3.561583E-2,-3.364071E-2,-4.2375773E-2,1.4331029E-2,-4.40411E-2,9.92277E-3,-4.071245E-2,-4.255791E-2,-3.1699106E-2,-4.1940182E-2,-4.2255174E-2],"split_indices":[6,3,8,6,1,0,3,0,0,7,5,4,0,0,0,7,0,0,0,2,1,2,5,0,1,1,0,1,5,4,0,5,0,0,0,0,0,0,0,0,0,0,0,0,0,0,0],"split_type":[0,0,0,0,0,0,0,0,0,0,0,0,0,0,0,0,0,0,0,0,0,0,0,0,0,0,0,0,0,0,0,0,0,0,0,0,0,0,0,0,0,0,0,0,0,0,0],"sum_hessian":[7.1715394E5,3.901252E5,3.2702875E5,3.503911E5,3.97341E4,3.2610328E5,9.254678E2,4.96515E0,3.5038612E5,3.376404E4,5.970061E3,1.6195371E4,3.099079E5,1.6181314E2,7.6365466E2,8.638004E2,3.290024E4,5.9548765E3,1.5184626E1,3.4973562E3,1.2698016E4,2.0833303E4,2.8907462E5,7.755963E2,8.820411E1,7.2798315E2,2.769373E3,1.2387924E4,3.100917E2,1.120593E4,9.627374E3,4.214149E3,2.8486047E5,7.532684E1,1.2877268E1,1.2915414E2,5.9882904E2,1.1430266E3,1.1244896E4,1.3842764E2,1.7166405E2,3.326183E2,1.0873312E4,3.3220232E3,8.921256E2,1.16528266E5,1.683322E5],"tree_param":{"num_deleted":"0","num_feature":"11","num_nodes":"47","size_leaf_vector":"1"}},{"base_weights":[-1.3045391E-5,1.1494054E0,-1.3709555E0,1.3896607E0,-9.6924555E-1,-1.3774031E0,8.984596E-1,-3.000899E-2,4.1691065E-2,-1.3852909E0,1.3832853E0,-1.2667695E0,-1.3831799E0,-4.12429E-2,4.149833E-2,-1.1591718E0,-4.17343E-2,4.1714653E-2,-3.7025858E-2,-9.6618325E-1,-1.3494763E0,-1.3388731E0,-1.3863646E0,-4.163271E-2,8.223446E-1,7.003386E-1,-4.2247277E-2,-1.3685808E0,-5.8761454E-1,-1.2551183E0,-1.3732698E0,-1.3246727E0,-1.3872672E0,-3.842819E-2,3.7125245E-2,-4.300354E-2,3.4831192E-2,-3.3100985E-2,-4.186188E-2,1.3898774E-2,-4.342309E-2,-3.9141487E-2,7.991876E-3,-4.1831005E-2,-3.7516557E-2,-4.176818E-2,-2.9785106E-2,-4.142927E-2,-4.1748103E-2],"categories":[],"categories_nodes":[],"categories_segments":[],"categories_sizes":[],"default_left":[0,0,0,0,0,0,0,0,0,0,0,0,0,0,0,0,0,0,0,0,0,0,0,0,0,0,0,0,0,0,0,0,0,0,0,0,0,0,0,0,0,0,0,0,0,0,0,0,0],"id":19,"left_children":[1,3,5,7,9,11,13,-1,-1,15,17,19,21,-1,-1,23,-1,-1,-1,25,27,29,31,-1,33,35,-1,37,39,41,43,45,47,-1,-1,-1,-1,-1,-1,-1,-1,-1,-1,-1,-1,-1,-1,-1,-1],"loss_changes":[1.1099174E6,1.9502422E5,4.703E3,3.70625E1,3.819815E4,1.99875E2,1.0078631E3,0E0,0E0,3.938672E1,1.1409082E2,3.9209766E2,3.79375E1,0E0,0E0,3.8790747E2,0E0,0E0,0E0,2.5397322E3,1.7907422E2,5.4246094E1,1.075E1,0E0,8.088182E1,7.1411084E2,0E0,8.224805E1,2.8146375E2,4.5324512E2,3.2710938E1,8.9052246E1,2.375E0,0E0,0E0,0E0,0E0,0E0,0E0,0E0,0E0,0E0,0E0,0E0,0E0,0E0,0E0,0E0,0E0],"parents":[2147483647,0,0,1,1,2,2,3,3,4,4,5,5,6,6,9,9,10,10,11,11,12,12,15,15,19,19,20,20,21,21,22,22,24,24,25,25,27,27,28,28,29,29,30,30,31,31,32,32],"right_children":[2,4,6,8,10,12,14,-1,-1,16,18,20,22,-1,-1,24,-1,-1,-1,26,28,30,32,-1,34,36,-1,38,40,42,44,46,48,-1,-1,-1,-1,-1,-1,-1,-1,-1,-1,-1,-1,-1,-1,-1,-1],"split_conditions":[5.820766E-11,2.8174E2,1E0,0E0,9.426721E5,1.6E1,2.031486E5,-3.000899E-2,4.1691065E-2,-2.3293123E5,6.702314E5,4.479117E4,3.7E1,-4.12429E-2,4.149833E-2,-2.3754327E5,-4.17343E-2,4.1714653E-2,-3.7025858E-2,3.9E1,1.7833556E6,4.1989503E5,4.452463E4,-4.163271E-2,2.8673297E5,9.457646E4,-4.2247277E-2,3.98884E4,3.23255E6,3.869108E5,5.0618747E5,3.976532E4,2.32E2,-3.842819E-2,3.7125245E-2,-4.300354E-2,3.4831192E-2,-3.3100985E-2,-4.186188E-2,1.3898774E-2,-4.342309E-2,-3.9141487E-2,7.991876E-3,-4.1831005E-2,-3.7516557E-2,-4.176818E-2,-2.9785106E-2,-4.142927E-2,-4.1748103E-2],"split_indices":[6,3,8,6,1,0,3,0,0,7,5,4,0,0,0,7,0,0,0,2,1,5,5,0,3,1,0,1,5,4,6,6,0,0,0,0,0,0,0,0,0,0,0,0,0,0,0,0,0],"split_type":[0,0,0,0,0,0,0,0,0,0,0,0,0,0,0,0,0,0,0,0,0,0,0,0,0,0,0,0,0,0,0,0,0,0,0,0,0,0,0,0,0,0,0,0,0,0,0,0,0],"sum_hessian":[7.043537E5,3.8313097E5,3.212227E5,3.4410978E5,3.90212E4,3.2031366E5,9.0903906E2,4.9171996E0,3.4410488E5,3.3158203E4,5.862996E3,1.5921339E4,3.043923E5,1.5896739E2,7.5007166E2,8.487488E2,3.2309453E4,5.848031E3,1.4964964E1,3.4422788E3,1.2479061E4,2.0479148E4,2.8391316E5,7.6172845E2,8.7020355E1,7.211839E2,2.7210947E3,1.2171595E4,3.0746518E2,5.9880034E3,1.4491145E4,4.14429E3,2.7976888E5,1.3459134E1,7.3561226E1,1.2711734E2,5.940666E2,1.127089E3,1.1044506E4,1.3851172E2,1.6895348E2,5.799564E3,1.8843954E2,1.23441875E4,2.1469573E3,3.4363552E3,7.079348E2,1.14457695E5,1.6531119E5],"tree_param":{"num_deleted":"0","num_feature":"11","num_nodes":"49","size_leaf_vector":"1"}},{"base_weights":[-1.345558E-5,1.1361545E0,-1.3548913E0,1.3736384E0,-9.580918E-1,-1.3612633E0,8.878833E-1,-2.9580768E-2,4.121039E-2,-1.3693508E0,1.3673381E0,-1.2508689E0,-1.3670326E0,-4.075879E-2,4.101502E-2,-1.1453378E0,-4.1254498E-2,4.1234583E-2,-3.653158E-2,-9.529477E-1,-1.3329642E0,-1.3219357E0,-1.3702778E0,-4.1151963E-2,8.090766E-1,6.8594855E-1,-4.174039E-2,-1.3521401E0,-5.7533026E-1,-1.2709705E0,-4.1430894E-2,-1.3507375E0,-4.119814E-2,3.627816E-2,-4.0090147E-2,-4.242578E-2,3.4073602E-2,-3.2577444E-2,-4.1375145E-2,1.3481042E-2,-4.2838283E-2,1.0853477E-2,-3.9674755E-2,1.1802358E-2,-4.1282978E-2],"categories":[],"categories_nodes":[],"categories_segments":[],"categories_sizes":[],"default_left":[0,0,0,0,0,0,0,0,0,0,0,0,0,0,0,0,0,0,0,0,0,0,0,0,0,0,0,0,0,0,0,0,0,0,0,0,0,0,0,0,0,0,0,0,0],"id":20,"left_children":[1,3,5,7,9,11,13,-1,-1,15,17,19,21,-1,-1,23,-1,-1,-1,25,27,29,31,-1,33,35,-1,37,39,41,-1,43,-1,-1,-1,-1,-1,-1,-1,-1,-1,-1,-1,-1,-1],"loss_changes":[1.0643994E6,1.8704603E5,4.5096875E3,3.5875E1,3.6636145E4,1.955625E2,9.6681055E2,0E0,0E0,3.7875E1,1.09805664E2,3.7900195E2,3.86875E1,0E0,0E0,3.721864E2,0E0,0E0,0E0,2.4368616E3,1.7559766E2,5.578125E1,1.125E1,0E0,7.852176E1,6.797009E2,0E0,8.181055E1,2.6979007E2,9.130117E2,0E0,1.6458047E3,0E0,0E0,0E0,0E0,0E0,0E0,0E0,0E0,0E0,0E0,0E0,0E0,0E0],"parents":[2147483647,0,0,1,1,2,2,3,3,4,4,5,5,6,6,9,9,10,10,11,11,12,12,15,15,19,19,20,20,21,21,22,22,24,24,25,25,27,27,28,28,29,29,31,31],"right_children":[2,4,6,8,10,12,14,-1,-1,16,18,20,22,-1,-1,24,-1,-1,-1,26,28,30,32,-1,34,36,-1,38,40,42,-1,44,-1,-1,-1,-1,-1,-1,-1,-1,-1,-1,-1,-1,-1],"split_conditions":[5.820766E-11,2.8174E2,1E0,0E0,9.426721E5,1.6E1,2.031486E5,-2.9580768E-2,4.121039E-2,-2.3293123E5,6.702314E5,4.479117E4,3.7E1,-4.075879E-2,4.101502E-2,-2.3754327E5,-4.1254498E-2,4.1234583E-2,-3.653158E-2,3.9E1,1.7833556E6,3.9E1,1.99283E3,-4.1151963E-2,4.243495E4,9.457646E4,-4.174039E-2,3.98884E4,3.23255E6,4.070899E4,-4.1430894E-2,3.9E1,-4.119814E-2,3.627816E-2,-4.0090147E-2,-4.242578E-2,3.4073602E-2,-3.2577444E-2,-4.1375145E-2,1.3481042E-2,-4.2838283E-2,1.0853477E-2,-3.9674755E-2,1.1802358E-2,-4.1282978E-2],"split_indices":[6,3,8,6,1,0,3,0,0,7,5,4,0,0,0,7,0,0,0,2,1,2,4,0,1,1,0,1,5,4,0,2,0,0,0,0,0,0,0,0,0,0,0,0,0],"split_type":[0,0,0,0,0,0,0,0,0,0,0,0,0,0,0,0,0,0,0,0,0,0,0,0,0,0,0,0,0,0,0,0,0,0,0,0,0,0,0,0,0,0,0,0,0],"sum_hessian":[6.914477E5,3.760778E5,3.1536988E5,3.377756E5,3.8302234E4,3.144774E5,8.924707E2,4.868423E0,3.3777072E5,3.2547203E4,5.755029E3,1.564467E4,2.9883275E5,1.5609703E2,7.3637366E2,8.335076E2,3.1713695E4,5.740286E3,1.4742844E1,3.3864946E3,1.2258175E4,2.0124883E4,2.7870788E5,7.4774316E2,8.576448E1,7.142173E2,2.6722773E3,1.1953403E4,3.0477173E2,1.0834364E4,9.29052E3,3.7168332E4,2.4153953E5,7.3213356E1,1.2551124E1,1.250416E2,5.8917566E2,1.1111207E3,1.0842282E4,1.3858049E2,1.6619122E2,3.307551E2,1.0503609E4,5.320244E2,3.663631E4],"tree_param":{"num_deleted":"0","num_feature":"11","num_nodes":"45","size_leaf_vector":"1"}},{"base_weights":[-1.39456415E-5,1.1235859E0,-1.3396621E0,1.3584409E0,-9.4751245E-1,-1.3459626E0,8.778369E-1,-2.916507E-2,4.0754467E-2,-1.3542311E0,1.3522118E0,-1.2753248E0,-1.355026E0,-4.0298745E-2,4.0556185E-2,-1.1321098E0,-4.079949E-2,4.0779274E-2,-3.6056302E-2,-1.0739375E0,-1.3232696E0,-1.2913147E0,-1.3559605E0,-4.0695846E-2,7.9567087E-1,5.490662E-1,-4.1169364E-2,-1.3311716E0,-8.0966026E-1,-4.0836915E-2,-9.52435E-1,-1.3494487E0,-4.0813502E-2,-3.7688423E-2,3.6104657E-2,-4.5543857E-2,3.5126243E-2,-3.3830456E-2,-4.057719E-2,5.065215E-3,-4.1914087E-2,5.3776544E-2,-4.2571235E-2,-4.057151E-2,-3.3537876E-2],"categories":[],"categories_nodes":[],"categories_segments":[],"categories_sizes":[],"default_left":[0,0,0,0,0,0,0,0,0,0,0,0,0,0,0,0,0,0,0,0,0,0,0,0,0,0,0,0,0,0,0,0,0,0,0,0,0,0,0,0,0,0,0,0,0],"id":21,"left_children":[1,3,5,7,9,11,13,-1,-1,15,17,19,21,-1,-1,23,-1,-1,-1,25,27,29,31,-1,33,35,-1,37,39,-1,41,43,-1,-1,-1,-1,-1,-1,-1,-1,-1,-1,-1,-1,-1],"loss_changes":[1.02124325E6,1.7948022E5,4.3264375E3,3.4625E1,3.51548E4,1.9275E2,9.278711E2,0E0,0E0,3.6476562E1,1.05737305E2,3.351875E2,1.146875E1,0E0,0E0,3.5729602E2,0E0,0E0,0E0,3.2796797E3,1.1190234E2,9.109033E1,2.875E0,0E0,7.54305E1,1.3559697E3,0E0,1.17359375E2,2.5165234E2,0E0,8.9185974E2,7.0671875E1,0E0,0E0,0E0,0E0,0E0,0E0,0E0,0E0,0E0,0E0,0E0,0E0,0E0],"parents":[2147483647,0,0,1,1,2,2,3,3,4,4,5,5,6,6,9,9,10,10,11,11,12,12,15,15,19,19,20,20,21,21,22,22,24,24,25,25,27,27,28,28,30,30,31,31],"right_children":[2,4,6,8,10,12,14,-1,-1,16,18,20,22,-1,-1,24,-1,-1,-1,26,28,30,32,-1,34,36,-1,38,40,-1,42,44,-1,-1,-1,-1,-1,-1,-1,-1,-1,-1,-1,-1,-1],"split_conditions":[5.820766E-11,2.8174E2,1E0,0E0,9.426721E5,3.7E1,2.031486E5,-2.916507E-2,4.0754467E-2,-2.3293123E5,6.702314E5,4.479117E4,4.452463E4,-4.0298745E-2,4.0556185E-2,-2.3754327E5,-4.079949E-2,4.0779274E-2,-3.6056302E-2,3.9E1,1.7833556E6,3.976532E4,2.32E2,-4.0695846E-2,2.8673297E5,9.457646E4,-4.1169364E-2,3.98884E4,3.23255E6,-4.0836915E-2,4.116054E4,2.31E2,-4.0813502E-2,-3.7688423E-2,3.6104657E-2,-4.5543857E-2,3.5126243E-2,-3.3830456E-2,-4.057719E-2,5.065215E-3,-4.1914087E-2,5.3776544E-2,-4.2571235E-2,-4.057151E-2,-3.3537876E-2],"split_indices":[6,3,8,6,1,0,3,0,0,7,5,4,5,0,0,7,0,0,0,2,1,6,0,0,3,1,0,1,5,0,1,0,0,0,0,0,0,0,0,0,0,0,0,0,0],"split_type":[0,0,0,0,0,0,0,0,0,0,0,0,0,0,0,0,0,0,0,0,0,0,0,0,0,0,0,0,0,0,0,0,0,0,0,0,0,0,0,0,0,0,0,0,0],"sum_hessian":[6.784599E5,3.6898334E5,3.0947656E5,3.3140422E5,3.7579098E4,3.0860075E5,8.758037E2,4.8189354E0,3.313994E5,3.1932674E4,5.646426E3,3.5131625E4,2.7346912E5,1.5320917E2,7.2259454E2,8.182325E2,3.1114441E4,5.631907E3,1.4518817E1,6.7665566E3,2.8365068E4,4.0008762E3,2.6946825E5,7.3367523E2,8.455727E1,1.0502706E3,5.716286E3,2.7931184E4,4.3388467E2,3.310387E3,6.904892E2,1.1026149E5,1.5920675E5,1.3126039E1,7.143123E1,2.4201332E2,8.0825726E2,2.67047E3,2.5260713E4,1.6298715E2,2.7089752E2,9.933843E1,5.9115076E2,1.0886947E5,1.392021E3],"tree_param":{"num_deleted":"0","num_feature":"11","num_nodes":"45","size_leaf_vector":"1"}},{"base_weights":[-1.45014565E-5,1.1116527E0,-1.3251803E0,1.3440113E0,-9.3747056E-1,-1.3314128E0,8.682842E-1,-2.8761212E-2,4.0321577E-2,-1.3398803E0,1.3378508E0,-1.2604331E0,-1.340529E0,-3.9861117E-2,4.0120147E-2,-1.1195874E0,-4.0367592E-2,4.034705E-2,-3.559874E-2,-1.060226E0,-1.3081625E0,-1.3205098E0,-4.030792E-2,-4.02627E-2,7.8328985E-1,5.3635037E-1,-4.0718835E-2,-1.3161271E0,-7.944706E-1,4.104759E-1,-4.0395275E-2,3.5295285E-2,-3.9382137E-2,-4.4853114E-2,3.424236E-2,-3.3334594E-2,-4.013295E-2,4.912869E-3,-4.141528E-2,3.5484977E-2,-4.3536533E-2],"categories":[],"categories_nodes":[],"categories_segments":[],"categories_sizes":[],"default_left":[0,0,0,0,0,0,0,0,0,0,0,0,0,0,0,0,0,0,0,0,0,0,0,0,0,0,0,0,0,0,0,0,0,0,0,0,0,0,0,0,0],"id":22,"left_children":[1,3,5,7,9,11,13,-1,-1,15,17,19,21,-1,-1,23,-1,-1,-1,25,27,29,-1,-1,31,33,-1,35,37,39,-1,-1,-1,-1,-1,-1,-1,-1,-1,-1,-1],"loss_changes":[9.802749E5,1.7229819E5,4.1525E3,3.36875E1,3.3748734E4,1.911875E2,8.9090204E2,0E0,0E0,3.5117188E1,1.0187109E2,3.2564844E2,1.1625E1,0E0,0E0,3.431479E2,0E0,0E0,0E0,3.1571567E3,1.1076172E2,1.6120508E3,0E0,0E0,7.331282E1,1.2874705E3,0E0,1.1738281E2,2.4314636E2,7.66505E2,0E0,0E0,0E0,0E0,0E0,0E0,0E0,0E0,0E0,0E0,0E0],"parents":[2147483647,0,0,1,1,2,2,3,3,4,4,5,5,6,6,9,9,10,10,11,11,12,12,15,15,19,19,20,20,21,21,24,24,25,25,27,27,28,28,29,29],"right_children":[2,4,6,8,10,12,14,-1,-1,16,18,20,22,-1,-1,24,-1,-1,-1,26,28,30,-1,-1,32,34,-1,36,38,40,-1,-1,-1,-1,-1,-1,-1,-1,-1,-1,-1],"split_conditions":[5.820766E-11,2.8174E2,1E0,0E0,9.426721E5,3.7E1,2.031486E5,-2.8761212E-2,4.0321577E-2,-2.3293123E5,6.702314E5,4.479117E4,1.99283E3,-3.9861117E-2,4.0120147E-2,-2.3754327E5,-4.0367592E-2,4.034705E-2,-3.559874E-2,3.9E1,1.7833556E6,3.9E1,-4.030792E-2,-4.02627E-2,4.243495E4,9.457646E4,-4.0718835E-2,3.98884E4,3.23255E6,2.31E2,-4.0395275E-2,3.5295285E-2,-3.9382137E-2,-4.4853114E-2,3.424236E-2,-3.3334594E-2,-4.013295E-2,4.912869E-3,-4.141528E-2,3.5484977E-2,-4.3536533E-2],"split_indices":[6,3,8,6,1,0,3,0,0,7,5,4,4,0,0,7,0,0,0,2,1,2,0,0,1,1,0,1,5,0,0,0,0,0,0,0,0,0,0,0,0],"split_type":[0,0,0,0,0,0,0,0,0,0,0,0,0,0,0,0,0,0,0,0,0,0,0,0,0,0,0,0,0,0,0,0,0,0,0,0,0,0,0,0,0],"sum_hessian":[6.654267E5,3.6186338E5,3.035633E5,3.2501006E5,3.6853316E4,3.0270422E5,8.590759E2,4.7688465E0,3.2500528E5,3.131588E4,5.5374346E3,3.4490645E4,2.682136E5,1.5031032E2,7.087656E2,8.028415E2,3.051304E4,5.523141E3,1.429339E1,6.6506206E3,2.7840023E4,3.5782695E4,2.3243089E5,7.195563E2,8.328524E1,1.0428103E3,5.60781E3,2.741093E4,4.290939E2,5.2878143E2,3.5253914E4,7.106855E1,1.2216687E1,2.384528E2,8.043575E2,2.6295398E3,2.478139E4,1.6306084E2,2.6603308E2,3.7443732E2,1.543441E2],"tree_param":{"num_deleted":"0","num_feature":"11","num_nodes":"41","size_leaf_vector":"1"}},{"base_weights":[-1.5331429E-5,1.1003126E0,-1.3114158E0,1.330299E0,-9.279281E-1,-1.3175834E0,8.591914E-1,-2.8368557E-2,3.991021E-2,-1.3262427E0,1.3242037E0,-1.2462109E0,-1.3267595E0,-3.9444387E-2,3.9705355E-2,-1.1075819E0,-3.9957248E-2,3.9936353E-2,-3.5157695E-2,-1.04712E0,-1.2937387E0,-1.2614573E0,-1.3277196E0,-3.985097E-2,7.7071947E-1,5.241152E-1,-4.029105E-2,-1.3017714E0,-7.7973974E-1,-3.9995026E-2,-9.1811603E-1,-1.3209938E0,-3.997075E-2,-3.7013065E-2,3.515744E-2,-4.4201136E-2,3.3390854E-2,-3.2853026E-2,-3.971024E-2,4.7652237E-3,-4.094163E-2,5.067726E-2,-4.155907E-2,-3.9720498E-2,-3.2501765E-2],"categories":[],"categories_nodes":[],"categories_segments":[],"categories_sizes":[],"default_left":[0,0,0,0,0,0,0,0,0,0,0,0,0,0,0,0,0,0,0,0,0,0,0,0,0,0,0,0,0,0,0,0,0,0,0,0,0,0,0,0,0,0,0,0,0],"id":23,"left_children":[1,3,5,7,9,11,13,-1,-1,15,17,19,21,-1,-1,23,-1,-1,-1,25,27,29,31,-1,33,35,-1,37,39,-1,41,43,-1,-1,-1,-1,-1,-1,-1,-1,-1,-1,-1,-1,-1],"loss_changes":[9.413572E5,1.6547503E5,3.98725E3,3.25625E1,3.241283E4,1.8971875E2,8.5577216E2,0E0,0E0,3.3859375E1,9.819043E1,3.1642188E2,1.184375E1,0E0,0E0,3.2972302E2,0E0,0E0,0E0,3.0407583E3,1.0971094E2,9.139746E1,3.25E0,0E0,7.046582E1,1.2230093E3,0E0,1.1762109E2,2.3507834E2,0E0,8.2562964E2,7.209375E1,0E0,0E0,0E0,0E0,0E0,0E0,0E0,0E0,0E0,0E0,0E0,0E0,0E0],"parents":[2147483647,0,0,1,1,2,2,3,3,4,4,5,5,6,6,9,9,10,10,11,11,12,12,15,15,19,19,20,20,21,21,22,22,24,24,25,25,27,27,28,28,30,30,31,31],"right_children":[2,4,6,8,10,12,14,-1,-1,16,18,20,22,-1,-1,24,-1,-1,-1,26,28,30,32,-1,34,36,-1,38,40,-1,42,44,-1,-1,-1,-1,-1,-1,-1,-1,-1,-1,-1,-1,-1],"split_conditions":[5.820766E-11,2.8174E2,1E0,0E0,9.426721E5,3.7E1,2.031486E5,-2.8368557E-2,3.991021E-2,-2.3293123E5,6.702314E5,4.479117E4,4.452463E4,-3.9444387E-2,3.9705355E-2,-2.3754327E5,-3.9957248E-2,3.9936353E-2,-3.5157695E-2,3.9E1,1.7833556E6,3.976532E4,2.32E2,-3.985097E-2,2.8673297E5,9.457646E4,-4.029105E-2,3.98884E4,3.23255E6,-3.9995026E-2,4.116054E4,2.31E2,-3.997075E-2,-3.7013065E-2,3.515744E-2,-4.4201136E-2,3.3390854E-2,-3.2853026E-2,-3.971024E-2,4.7652237E-3,-4.094163E-2,5.067726E-2,-4.155907E-2,-3.9720498E-2,-3.2501765E-2],"split_indices":[6,3,8,6,1,0,3,0,0,7,5,4,5,0,0,7,0,0,0,2,1,6,0,0,3,1,0,1,5,0,1,0,0,0,0,0,0,0,0,0,0,0,0,0,0],"split_type":[0,0,0,0,0,0,0,0,0,0,0,0,0,0,0,0,0,0,0,0,0,0,0,0,0,0,0,0,0,0,0,0,0,0,0,0,0,0,0,0,0,0,0,0,0],"sum_hessian":[6.523705E5,3.547327E5,2.976378E5,3.186062E5,3.6126492E4,2.9679547E5,8.423215E2,4.718256E0,3.1860147E5,3.0698213E4,5.4282764E3,3.3848105E4,2.6294738E5,1.4740646E2,6.9491504E2,7.8748126E2,2.9910732E4,5.4142095E3,1.4067035E1,6.53403E3,2.7314076E4,3.8553027E3,2.5909208E5,7.054154E2,8.2065865E1,1.0350328E3,5.498997E3,2.688981E4,4.2426532E2,3.1832314E3,6.7207135E2,1.06037016E5,1.5305506E5,1.2786086E1,6.927978E1,2.3479575E2,8.0023706E2,2.5886914E3,2.430112E4,1.6313062E2,2.611347E2,1.0116571E2,5.709056E2,1.046938E5,1.3432164E3],"tree_param":{"num_deleted":"0","num_feature":"11","num_nodes":"45","size_leaf_vector":"1"}},{"base_weights":[-1.5835398E-5,1.0895268E0,-1.2982982E0,1.3172566E0,-9.188547E-1,-1.3044044E0,8.5052854E-1,-2.7986515E-2,3.9518934E-2,-1.313276E0,1.3112242E0,-1.2326123E0,-1.3136438E0,-3.9047174E-2,3.9310433E-2,-1.096199E0,-3.956707E-2,3.9545797E-2,-3.4732085E-2,-1.034576E0,-1.2799518E0,-1.293103E0,-3.9503813E-2,-3.9459262E-2,7.591031E-1,5.123248E-1,-3.98845E-2,-1.2880578E0,-7.6543593E-1,4.26538E-1,-3.9594103E-2,3.438001E-2,-3.8738985E-2,-4.3584924E-2,3.2569464E-2,-3.2384723E-2,-3.9307613E-2,4.6221223E-3,-4.049141E-2,3.49334E-2,-4.2399757E-2],"categories":[],"categories_nodes":[],"categories_segments":[],"categories_sizes":[],"default_left":[0,0,0,0,0,0,0,0,0,0,0,0,0,0,0,0,0,0,0,0,0,0,0,0,0,0,0,0,0,0,0,0,0,0,0,0,0,0,0,0,0],"id":24,"left_children":[1,3,5,7,9,11,13,-1,-1,15,17,19,21,-1,-1,23,-1,-1,-1,25,27,29,-1,-1,31,33,-1,35,37,39,-1,-1,-1,-1,-1,-1,-1,-1,-1,-1,-1],"loss_changes":[9.043469E5,1.5898688E5,3.8300625E3,3.15625E1,3.1142602E4,1.884375E2,8.223622E2,0E0,0E0,3.2648438E1,9.468848E1,3.075078E2,1.196875E1,0E0,0E0,3.1694482E2,0E0,0E0,0E0,2.9300903E3,1.08734375E2,1.5807852E3,0E0,0E0,6.856229E1,1.1622916E3,0E0,1.1805859E2,2.2741531E2,7.1876935E2,0E0,0E0,0E0,0E0,0E0,0E0,0E0,0E0,0E0,0E0,0E0],"parents":[2147483647,0,0,1,1,2,2,3,3,4,4,5,5,6,6,9,9,10,10,11,11,12,12,15,15,19,19,20,20,21,21,24,24,25,25,27,27,28,28,29,29],"right_children":[2,4,6,8,10,12,14,-1,-1,16,18,20,22,-1,-1,24,-1,-1,-1,26,28,30,-1,-1,32,34,-1,36,38,40,-1,-1,-1,-1,-1,-1,-1,-1,-1,-1,-1],"split_conditions":[5.820766E-11,2.8174E2,1E0,0E0,9.426721E5,3.7E1,2.031486E5,-2.7986515E-2,3.9518934E-2,-2.3293123E5,6.702314E5,4.479117E4,1.99283E3,-3.9047174E-2,3.9310433E-2,-2.3754327E5,-3.956707E-2,3.9545797E-2,-3.4732085E-2,3.9E1,1.7833556E6,3.9E1,-3.9503813E-2,-3.9459262E-2,4.243495E4,9.457646E4,-3.98845E-2,3.98884E4,3.23255E6,2.31E2,-3.9594103E-2,3.438001E-2,-3.8738985E-2,-4.3584924E-2,3.2569464E-2,-3.2384723E-2,-3.9307613E-2,4.6221223E-3,-4.049141E-2,3.49334E-2,-4.2399757E-2],"split_indices":[6,3,8,6,1,0,3,0,0,7,5,4,4,0,0,7,0,0,0,2,1,2,0,0,1,1,0,1,5,0,0,0,0,0,0,0,0,0,0,0,0],"split_type":[0,0,0,0,0,0,0,0,0,0,0,0,0,0,0,0,0,0,0,0,0,0,0,0,0,0,0,0,0,0,0,0,0,0,0,0,0,0,0,0,0],"sum_hessian":[6.393209E5,3.4760462E5,2.9171628E5,3.1220475E5,3.539987E4,2.9089072E5,8.2557227E2,4.667259E0,3.122001E5,3.0080713E4,5.3191577E3,3.3205266E4,2.5768545E5,1.4450307E2,6.810692E2,7.72067E2,2.9308645E4,5.3053174E3,1.3840178E1,6.4170454E3,2.678822E4,3.4392074E4,2.2329338E5,6.9127905E2,8.078794E1,1.0269791E3,5.3900664E3,2.6368809E4,4.1941046E2,5.250885E2,3.3866984E4,6.891093E1,1.18770075E1,2.310567E2,7.959225E2,2.5479888E3,2.382082E4,1.6319666E2,2.562138E2,3.7549554E2,1.4959296E2],"tree_param":{"num_deleted":"0","num_feature":"11","num_nodes":"41","size_leaf_vector":"1"}},{"base_weights":[-1.6679687E-5,1.0792596E0,-1.2858107E0,1.3048414E0,-9.102182E-1,-1.2918582E0,8.422672E-1,-2.761453E-2,3.914648E-2,-1.3009334E0,1.2988691E0,-1.2195945E0,-1.3011683E0,-3.8668215E-2,3.8934078E-2,-1.0852582E0,-3.9195754E-2,3.9174072E-2,-3.4320887E-2,-1.0225546E0,-1.2667588E0,-1.2343171E0,-1.3021533E0,-3.9086293E-2,7.472542E-1,5.009461E-1,-3.9497808E-2,-1.0642912E0,-1.2880173E0,-3.9234173E-2,-8.8664764E-1,-1.2951859E0,-3.920883E-2,-3.6394835E-2,3.4273755E-2,-4.3001775E-2,3.177614E-2,-3.5714813E-2,3.0981E-2,-3.8923755E-2,-2.2545906E-2,4.7902085E-2,-4.0646378E-2,-3.894928E-2,-3.15197E-2],"categories":[],"categories_nodes":[],"categories_segments":[],"categories_sizes":[],"default_left":[0,0,0,0,0,0,0,0,0,0,0,0,0,0,0,0,0,0,0,0,0,0,0,0,0,0,0,0,0,0,0,0,0,0,0,0,0,0,0,0,0,0,0,0,0],"id":25,"left_children":[1,3,5,7,9,11,13,-1,-1,15,17,19,21,-1,-1,23,-1,-1,-1,25,27,29,31,-1,33,35,-1,37,39,-1,41,43,-1,-1,-1,-1,-1,-1,-1,-1,-1,-1,-1,-1,-1],"loss_changes":[8.69132E5,1.528126E5,3.6805E3,3.065625E1,2.9933768E4,1.8734375E2,7.905626E2,0E0,0E0,3.1503906E1,9.1350586E1,2.9889844E2,1.2125E1,0E0,0E0,3.048006E2,0E0,0E0,0E0,2.8247822E3,1.0912891E2,9.140039E1,3.65625E0,0E0,6.5931076E1,1.1050494E3,0E0,6.666636E2,1.1736719E2,0E0,7.657776E2,7.3859375E1,0E0,0E0,0E0,0E0,0E0,0E0,0E0,0E0,0E0,0E0,0E0,0E0,0E0],"parents":[2147483647,0,0,1,1,2,2,3,3,4,4,5,5,6,6,9,9,10,10,11,11,12,12,15,15,19,19,20,20,21,21,22,22,24,24,25,25,27,27,28,28,30,30,31,31],"right_children":[2,4,6,8,10,12,14,-1,-1,16,18,20,22,-1,-1,24,-1,-1,-1,26,28,30,32,-1,34,36,-1,38,40,-1,42,44,-1,-1,-1,-1,-1,-1,-1,-1,-1,-1,-1,-1,-1],"split_conditions":[5.820766E-11,2.8174E2,1E0,0E0,9.426721E5,3.7E1,2.031486E5,-2.761453E-2,3.914648E-2,-2.3293123E5,6.702314E5,4.479117E4,4.452463E4,-3.8668215E-2,3.8934078E-2,-2.3754327E5,-3.9195754E-2,3.9174072E-2,-3.4320887E-2,3.9E1,3.98884E4,3.976532E4,2.32E2,-3.9086293E-2,2.8673297E5,9.457646E4,-3.9497808E-2,3.841736E4,1.7833556E6,-3.9234173E-2,4.116054E4,2.31E2,-3.920883E-2,-3.6394835E-2,3.4273755E-2,-4.3001775E-2,3.177614E-2,-3.5714813E-2,3.0981E-2,-3.8923755E-2,-2.2545906E-2,4.7902085E-2,-4.0646378E-2,-3.894928E-2,-3.15197E-2],"split_indices":[6,3,8,6,1,0,3,0,0,7,5,4,5,0,0,7,0,0,0,2,1,6,0,0,3,1,0,6,1,0,1,0,0,0,0,0,0,0,0,0,0,0,0,0,0],"split_type":[0,0,0,0,0,0,0,0,0,0,0,0,0,0,0,0,0,0,0,0,0,0,0,0,0,0,0,0,0,0,0,0,0,0,0,0,0,0,0,0,0,0,0,0,0],"sum_hessian":[6.262949E5,3.4049144E5,2.8580347E5,3.0581662E5,3.4674816E4,2.8499462E5,8.0885657E2,4.615945E0,3.05812E5,2.9464553E4,5.210265E3,3.256327E4,2.5243134E5,1.416051E2,6.6725146E2,7.567377E2,2.8707814E4,5.196652E3,1.3613216E1,6.299904E3,2.6263367E4,3.709058E3,2.487223E5,6.771717E2,7.956599E1,1.0186868E3,5.2812173E3,2.5074902E3,2.3755877E4,3.0561108E3,6.529472E2,1.0181518E5,1.4690711E5,1.2442123E1,6.712386E1,2.2724908E2,7.9143774E2,2.3661895E3,1.4130063E2,2.3341336E4,4.1453995E2,1.02646675E2,5.5030054E2,1.0052047E5,1.294713E3],"tree_param":{"num_deleted":"0","num_feature":"11","num_nodes":"45","size_leaf_vector":"1"}},{"base_weights":[-1.7143508E-5,1.0694788E0,-1.2738782E0,1.2930138E0,-9.0199316E-1,-1.2798694E0,8.343819E-1,-2.7252091E-2,3.8791653E-2,-1.2891793E0,1.2870996E0,-1.2070525E0,-1.2892617E0,-3.8306337E-2,3.857512E-2,-1.0748701E0,-3.8842116E-2,3.8820013E-2,-3.392318E-2,-1.0110189E0,-1.2540349E0,-1.2681545E0,-3.8775E-2,-3.873087E-2,7.362995E-1,4.899498E-1,-3.9129708E-2,-1.0495199E0,-1.2756007E0,4.4207346E-1,-3.8868632E-2,3.352342E-2,-3.815342E-2,-4.2449247E-2,3.1009061E-2,-3.5286773E-2,2.9602924E-2,-3.855747E-2,-2.2038808E-2,3.4418166E-2,-4.1373935E-2],"categories":[],"categories_nodes":[],"categories_segments":[],"categories_sizes":[],"default_left":[0,0,0,0,0,0,0,0,0,0,0,0,0,0,0,0,0,0,0,0,0,0,0,0,0,0,0,0,0,0,0,0,0,0,0,0,0,0,0,0,0],"id":26,"left_children":[1,3,5,7,9,11,13,-1,-1,15,17,19,21,-1,-1,23,-1,-1,-1,25,27,29,-1,-1,31,33,-1,35,37,39,-1,-1,-1,-1,-1,-1,-1,-1,-1,-1,-1],"loss_changes":[8.3558675E5,1.4693228E5,3.5380625E3,2.971875E1,2.8782572E4,1.865625E2,7.602724E2,0E0,0E0,3.0394531E1,8.816699E1,2.903828E2,1.23125E1,0E0,0E0,2.932224E2,0E0,0E0,0E0,2.724501E3,1.0970703E2,1.5521211E3,0E0,0E0,6.421776E1,1.0510403E3,0E0,6.3949634E2,1.1859375E2,6.746758E2,0E0,0E0,0E0,0E0,0E0,0E0,0E0,0E0,0E0,0E0,0E0],"parents":[2147483647,0,0,1,1,2,2,3,3,4,4,5,5,6,6,9,9,10,10,11,11,12,12,15,15,19,19,20,20,21,21,24,24,25,25,27,27,28,28,29,29],"right_children":[2,4,6,8,10,12,14,-1,-1,16,18,20,22,-1,-1,24,-1,-1,-1,26,28,30,-1,-1,32,34,-1,36,38,40,-1,-1,-1,-1,-1,-1,-1,-1,-1,-1,-1],"split_conditions":[5.820766E-11,2.8174E2,1E0,0E0,9.426721E5,3.7E1,2.031486E5,-2.7252091E-2,3.8791653E-2,-2.3293123E5,6.702314E5,4.479117E4,1.99283E3,-3.8306337E-2,3.857512E-2,-2.3754327E5,-3.8842116E-2,3.8820013E-2,-3.392318E-2,3.9E1,3.98884E4,3.9E1,-3.8775E-2,-3.873087E-2,4.243495E4,9.457646E4,-3.9129708E-2,3.841736E4,1.7833556E6,2.31E2,-3.8868632E-2,3.352342E-2,-3.815342E-2,-4.2449247E-2,3.1009061E-2,-3.5286773E-2,2.9602924E-2,-3.855747E-2,-2.2038808E-2,3.4418166E-2,-4.1373935E-2],"split_indices":[6,3,8,6,1,0,3,0,0,7,5,4,4,0,0,7,0,0,0,2,1,2,0,0,1,1,0,6,1,0,0,0,0,0,0,0,0,0,0,0,0],"split_type":[0,0,0,0,0,0,0,0,0,0,0,0,0,0,0,0,0,0,0,0,0,0,0,0,0,0,0,0,0,0,0,0,0,0,0,0,0,0,0,0,0],"sum_hessian":[6.133205E5,3.3340416E5,2.799163E5,2.994518E5,3.3952355E4,2.7912412E5,7.922007E2,4.564395E0,2.9944725E5,2.8850586E4,5.1017695E3,3.1924916E4,2.471992E5,1.3871713E2,6.534836E2,7.41406E2,2.810918E4,5.0883833E3,1.3386512E1,6.182823E3,2.5742094E4,3.3006473E4,2.1419273E5,6.631152E2,7.829083E1,1.0101906E3,5.1726323E3,2.467214E3,2.3274879E4,5.2094745E2,3.2485525E4,6.6756096E1,1.1534737E1,2.2338527E2,7.868053E2,2.3237134E3,1.4350066E2,2.286343E4,4.1144922E2,3.7626605E2,1.4468141E2],"tree_param":{"num_deleted":"0","num_feature":"11","num_nodes":"41","size_leaf_vector":"1"}},{"base_weights":[-1.800021E-5,1.0601538E0,-1.262503E0,1.2817377E0,-8.941522E-1,-1.2684408E0,8.2684886E-1,-2.689872E-2,3.845337E-2,-1.2779738E0,1.2758791E0,-1.1950226E0,-1.2779218E0,-3.7960466E-2,3.823247E-2,-1.064861E0,-3.8505085E-2,3.8482524E-2,-3.3538092E-2,-9.999354E-1,-1.2418368E0,-1.2095561E0,-1.2789313E0,-3.8391925E-2,7.2507435E-1,4.7930935E-1,-3.8779043E-2,-1.0351917E0,-1.263723E0,-3.8544428E-2,-8.5766363E-1,-1.2716947E0,-3.8517807E-2,-3.582742E-2,3.344529E-2,-4.1925136E-2,3.0266564E-2,-3.4872405E-2,2.8314967E-2,-3.8207643E-2,-2.1543281E-2,4.540215E-2,-3.9820462E-2,-3.824795E-2,-3.0582936E-2],"categories":[],"categories_nodes":[],"categories_segments":[],"categories_sizes":[],"default_left":[0,0,0,0,0,0,0,0,0,0,0,0,0,0,0,0,0,0,0,0,0,0,0,0,0,0,0,0,0,0,0,0,0,0,0,0,0,0,0,0,0,0,0,0,0],"id":27,"left_children":[1,3,5,7,9,11,13,-1,-1,15,17,19,21,-1,-1,23,-1,-1,-1,25,27,29,31,-1,33,35,-1,37,39,-1,41,43,-1,-1,-1,-1,-1,-1,-1,-1,-1,-1,-1,-1,-1],"loss_changes":[8.036223E5,1.4132812E5,3.4023438E3,2.890625E1,2.7685357E4,1.859375E2,7.313997E2,0E0,0E0,2.9371094E1,8.5129395E1,2.8217188E2,1.240625E1,0E0,0E0,2.8220258E2,0E0,0E0,0E0,2.6289321E3,1.1032031E2,9.11416E1,4.03125E0,0E0,6.177789E1,1.0000421E3,0E0,6.13874E2,1.19890625E2,0E0,7.1145825E2,7.596875E1,0E0,0E0,0E0,0E0,0E0,0E0,0E0,0E0,0E0,0E0,0E0,0E0,0E0],"parents":[2147483647,0,0,1,1,2,2,3,3,4,4,5,5,6,6,9,9,10,10,11,11,12,12,15,15,19,19,20,20,21,21,22,22,24,24,25,25,27,27,28,28,30,30,31,31],"right_children":[2,4,6,8,10,12,14,-1,-1,16,18,20,22,-1,-1,24,-1,-1,-1,26,28,30,32,-1,34,36,-1,38,40,-1,42,44,-1,-1,-1,-1,-1,-1,-1,-1,-1,-1,-1,-1,-1],"split_conditions":[5.820766E-11,2.8174E2,1E0,0E0,9.426721E5,3.7E1,2.031486E5,-2.689872E-2,3.845337E-2,-2.3293123E5,6.702314E5,4.479117E4,4.452463E4,-3.7960466E-2,3.823247E-2,-2.3754327E5,-3.8505085E-2,3.8482524E-2,-3.3538092E-2,3.9E1,3.98884E4,3.976532E4,2.32E2,-3.8391925E-2,2.8673297E5,9.457646E4,-3.8779043E-2,3.841736E4,1.7833556E6,-3.8544428E-2,4.116054E4,2.31E2,-3.8517807E-2,-3.582742E-2,3.344529E-2,-4.1925136E-2,3.0266564E-2,-3.4872405E-2,2.8314967E-2,-3.8207643E-2,-2.1543281E-2,4.540215E-2,-3.9820462E-2,-3.824795E-2,-3.0582936E-2],"split_indices":[6,3,8,6,1,0,3,0,0,7,5,4,5,0,0,7,0,0,0,2,1,6,0,0,3,1,0,6,1,0,1,0,0,0,0,0,0,0,0,0,0,0,0,0,0],"split_type":[0,0,0,0,0,0,0,0,0,0,0,0,0,0,0,0,0,0,0,0,0,0,0,0,0,0,0,0,0,0,0,0,0,0,0,0,0,0,0,0,0,0,0,0,0],"sum_hessian":[6.0040806E5,3.2635303E5,2.7405506E5,2.931194E5,3.3233613E4,2.7327944E5,7.756284E2,4.512686E0,2.931149E5,2.8239791E4,4.993824E3,3.1289213E4,2.4199022E5,1.3584329E2,6.3978516E2,7.262039E2,2.7513586E4,4.980664E3,1.3160402E1,6.066001E3,2.5223213E4,3.5631926E3,2.3842702E5,6.4912964E2,7.707429E1,1.0015222E3,5.064479E3,2.4270352E3,2.2796178E4,2.9298672E3,6.333252E2,9.762368E4,1.4080334E5,1.2096617E1,6.497767E1,2.1947662E2,7.820456E2,2.2814497E3,1.4558542E2,2.2387799E4,4.0837875E2,1.0380203E2,5.295232E2,9.63769E4,1.2467861E3],"tree_param":{"num_deleted":"0","num_feature":"11","num_nodes":"45","size_leaf_vector":"1"}},{"base_weights":[-1.8523626E-5,1.0512577E0,-1.2516198E0,1.2709795E0,-8.866746E-1,-1.2575065E0,8.196463E-1,-2.655396E-2,3.813063E-2,-1.2672879E0,1.2651747E0,-1.1834707E0,-1.2670785E0,-3.762962E-2,3.790512E-2,-1.0553458E0,-3.8183644E-2,3.8160607E-2,-3.316483E-2,-9.892732E-1,-1.23013E0,-1.2453601E0,-3.811237E-2,-3.8068447E-2,7.1469367E-1,4.690005E-1,-3.844474E-2,-1.2388602E0,-7.019623E-1,4.5714733E-1,-3.8209748E-2,3.271791E-2,-3.76191E-2,-4.142745E-2,2.9547134E-2,-3.063823E-2,-3.7873253E-2,6.477961E-3,-3.9397836E-2,3.3937924E-2,-4.0444594E-2],"categories":[],"categories_nodes":[],"categories_segments":[],"categories_sizes":[],"default_left":[0,0,0,0,0,0,0,0,0,0,0,0,0,0,0,0,0,0,0,0,0,0,0,0,0,0,0,0,0,0,0,0,0,0,0,0,0,0,0,0,0],"id":28,"left_children":[1,3,5,7,9,11,13,-1,-1,15,17,19,21,-1,-1,23,-1,-1,-1,25,27,29,-1,-1,31,33,-1,35,37,39,-1,-1,-1,-1,-1,-1,-1,-1,-1,-1,-1],"loss_changes":[7.73132E5,1.3598316E5,3.2729062E3,2.80625E1,2.663898E4,1.8528125E2,7.0385864E2,0E0,0E0,2.8371094E1,8.2229004E1,2.7426172E2,1.275E1,0E0,0E0,2.7168158E2,0E0,0E0,0E0,2.537795E3,1.1122656E2,1.5257422E3,0E0,0E0,6.023439E1,9.518533E2,0E0,1.2098828E2,2.29673E2,6.338589E2,0E0,0E0,0E0,0E0,0E0,0E0,0E0,0E0,0E0,0E0,0E0],"parents":[2147483647,0,0,1,1,2,2,3,3,4,4,5,5,6,6,9,9,10,10,11,11,12,12,15,15,19,19,20,20,21,21,24,24,25,25,27,27,28,28,29,29],"right_children":[2,4,6,8,10,12,14,-1,-1,16,18,20,22,-1,-1,24,-1,-1,-1,26,28,30,-1,-1,32,34,-1,36,38,40,-1,-1,-1,-1,-1,-1,-1,-1,-1,-1,-1],"split_conditions":[5.820766E-11,2.8174E2,1E0,0E0,9.426721E5,3.7E1,2.031486E5,-2.655396E-2,3.813063E-2,-2.3293123E5,6.702314E5,4.479117E4,1.99283E3,-3.762962E-2,3.790512E-2,-2.3754327E5,-3.8183644E-2,3.8160607E-2,-3.316483E-2,3.9E1,1.7833556E6,3.9E1,-3.811237E-2,-3.8068447E-2,4.243495E4,9.457646E4,-3.844474E-2,3.98884E4,3.23255E6,2.31E2,-3.8209748E-2,3.271791E-2,-3.76191E-2,-4.142745E-2,2.9547134E-2,-3.063823E-2,-3.7873253E-2,6.477961E-3,-3.9397836E-2,3.3937924E-2,-4.0444594E-2],"split_indices":[6,3,8,6,1,0,3,0,0,7,5,4,4,0,0,7,0,0,0,2,1,2,0,0,1,1,0,1,5,0,0,0,0,0,0,0,0,0,0,0,0],"split_type":[0,0,0,0,0,0,0,0,0,0,0,0,0,0,0,0,0,0,0,0,0,0,0,0,0,0,0,0,0,0,0,0,0,0,0,0,0,0,0,0,0],"sum_hessian":[5.87581E5,3.19347E5,2.68234E5,2.8682756E5,3.2519424E4,2.6747484E5,7.5916144E2,4.4608884E0,2.8682312E5,2.7632855E4,4.8865693E3,3.0657033E4,2.3681783E5,1.3298734E2,6.2617413E2,7.110425E2,2.6921812E4,4.8736343E3,1.29351845E1,5.9496177E3,2.4707416E4,3.1634268E4,2.0518355E5,6.352333E2,7.58092E1,9.9271106E2,4.9569062E3,2.4302084E4,4.0533203E2,5.16427E2,3.111784E4,6.461702E1,1.119217E1,2.1553363E2,7.771774E2,2.3870146E3,2.1915068E4,1.6222264E2,2.4310939E2,3.7676352E2,1.3966348E2],"tree_param":{"num_deleted":"0","num_feature":"11","num_nodes":"41","size_leaf_vector":"1"}},{"base_weights":[-1.943198E-5,1.0427644E0,-1.2412375E0,1.2607086E0,-8.79536E-1,-1.2470756E0,8.1275433E-1,-2.6217403E-2,3.7822504E-2,-1.2570862E0,1.2549558E0,-1.1724111E0,-1.2567403E0,-3.7312876E-2,3.7592165E-2,-1.0461552E0,-3.7876874E-2,3.7853334E-2,-3.2802653E-2,-9.790036E-1,-1.2189412E0,-1.234833E0,-3.780313E-2,-3.7759524E-2,7.0400995E-1,4.5900154E-1,-3.8125813E-2,-1.0074338E0,-1.2415547E0,4.4208372E-1,-3.790186E-2,-3.5305295E-2,3.266496E-2,-4.0954333E-2,2.8849412E-2,-3.412388E-2,2.8415054E-2,-3.755335E-2,-2.0682039E-2,3.25876E-2,-3.9997097E-2],"categories":[],"categories_nodes":[],"categories_segments":[],"categories_sizes":[],"default_left":[0,0,0,0,0,0,0,0,0,0,0,0,0,0,0,0,0,0,0,0,0,0,0,0,0,0,0,0,0,0,0,0,0,0,0,0,0,0,0,0,0],"id":29,"left_children":[1,3,5,7,9,11,13,-1,-1,15,17,19,21,-1,-1,23,-1,-1,-1,25,27,29,-1,-1,31,33,-1,35,37,39,-1,-1,-1,-1,-1,-1,-1,-1,-1,-1,-1],"loss_changes":[7.4404175E5,1.3088228E5,3.1494062E3,2.73125E1,2.5640336E4,1.8465625E2,6.7757104E2,0E0,0E0,2.7429688E1,7.9458496E1,2.6676562E2,1.271875E1,0E0,0E0,2.6165472E2,0E0,0E0,0E0,2.4508247E3,1.1209766E2,1.4843789E3,0E0,0E0,5.7964836E1,9.062884E2,0E0,5.9947217E2,1.2063281E2,5.9707983E2,0E0,0E0,0E0,0E0,0E0,0E0,0E0,0E0,0E0,0E0,0E0],"parents":[2147483647,0,0,1,1,2,2,3,3,4,4,5,5,6,6,9,9,10,10,11,11,12,12,15,15,19,19,20,20,21,21,24,24,25,25,27,27,28,28,29,29],"right_children":[2,4,6,8,10,12,14,-1,-1,16,18,20,22,-1,-1,24,-1,-1,-1,26,28,30,-1,-1,32,34,-1,36,38,40,-1,-1,-1,-1,-1,-1,-1,-1,-1,-1,-1],"split_conditions":[5.820766E-11,2.8174E2,1E0,0E0,9.426721E5,3.7E1,2.031486E5,-2.6217403E-2,3.7822504E-2,-2.3293123E5,6.702314E5,4.479117E4,1.99283E3,-3.7312876E-2,3.7592165E-2,-2.3754327E5,-3.7876874E-2,3.7853334E-2,-3.2802653E-2,3.9E1,3.98884E4,3.9E1,-3.780313E-2,-3.7759524E-2,2.8673297E5,9.457646E4,-3.8125813E-2,3.841736E4,1.7833556E6,2.31E2,-3.790186E-2,-3.5305295E-2,3.266496E-2,-4.0954333E-2,2.8849412E-2,-3.412388E-2,2.8415054E-2,-3.755335E-2,-2.0682039E-2,3.25876E-2,-3.9997097E-2],"split_indices":[6,3,8,6,1,0,3,0,0,7,5,4,4,0,0,7,0,0,0,2,1,2,0,0,3,1,0,6,1,0,0,0,0,0,0,0,0,0,0,0,0],"split_type":[0,0,0,0,0,0,0,0,0,0,0,0,0,0,0,0,0,0,0,0,0,0,0,0,0,0,0,0,0,0,0,0,0,0,0,0,0,0,0,0,0],"sum_hessian":[5.7484644E5,3.1239453E5,2.624519E5,2.8058378E5,3.1810734E4,2.617091E5,7.42819E2,4.409069E0,2.8057938E5,2.7030602E4,4.780134E3,3.0028018E4,2.3168108E5,1.301526E2,6.126664E2,6.9604724E2,2.6334555E4,4.7674224E3,1.2711141E1,5.833837E3,2.419418E4,3.095745E4,2.0072362E5,6.214425E2,7.460479E1,9.837843E2,4.8500527E3,2.347837E3,2.1846344E4,5.176774E2,3.0439771E4,1.1751696E1,6.2853092E1,2.1156592E2,7.722184E2,2.2024143E3,1.4542249E2,2.1445818E4,4.0052585E2,3.8062625E2,1.3705118E2],"tree_param":{"num_deleted":"0","num_feature":"11","num_nodes":"41","size_leaf_vector":"1"}},{"base_weights":[-2.017395E-5,1.0346507E0,-1.2312999E0,1.2508963E0,-8.727192E-1,-1.2370912E0,8.061543E-1,-2.5888653E-2,1.2509379E0,-1.247345E0,1.2451938E0,-1.1617182E0,-1.24686E0,-3.7009384E-2,3.7292738E-2,1.2406188E0,3.7574716E-2,-1.0374086E0,-3.7583917E-2,3.7559856E-2,-3.245087E-2,-9.691005E-1,-1.2081164E0,-1.2247603E0,-3.750764E-2,1.2287492E0,3.759198E-2,-3.746429E-2,6.941278E-1,4.4929242E-1,-3.7821364E-2,-9.941807E-1,-1.2310992E0,4.2777416E-1,-3.7607845E-2,3.755968E-2,3.6413718E-2,3.1957004E-2,-3.7130456E-2,-4.0504154E-2,2.8172143E-2,-3.3743806E-2,2.7202252E-2,-3.724706E-2,-2.0216227E-2,3.1318896E-2,-3.9571047E-2],"categories":[],"categories_nodes":[],"categories_segments":[],"categories_sizes":[],"default_left":[0,0,0,0,0,0,0,0,0,0,0,0,0,0,0,0,0,0,0,0,0,0,0,0,0,0,0,0,0,0,0,0,0,0,0,0,0,0,0,0,0,0,0,0,0,0,0],"id":30,"left_children":[1,3,5,7,9,11,13,-1,15,17,19,21,23,-1,-1,25,-1,27,-1,-1,-1,29,31,33,-1,35,-1,-1,37,39,-1,41,43,45,-1,-1,-1,-1,-1,-1,-1,-1,-1,-1,-1,-1,-1],"loss_changes":[7.162611E5,1.2601109E5,3.0314688E3,2.65E1,2.4686719E4,1.8440625E2,6.5246375E2,0E0,3.125E-2,2.6515625E1,7.6808105E1,2.593828E2,1.271875E1,0E0,0E0,1.015625E0,0E0,2.5206891E2,0E0,0E0,0E0,2.3677788E3,1.1291406E2,1.4447227E3,0E0,2.203125E0,0E0,0E0,5.6573586E1,8.6317773E2,0E0,5.758013E2,1.2210156E2,5.629945E2,0E0,0E0,0E0,0E0,0E0,0E0,0E0,0E0,0E0,0E0,0E0,0E0,0E0],"parents":[2147483647,0,0,1,1,2,2,3,3,4,4,5,5,6,6,8,8,9,9,10,10,11,11,12,12,15,15,17,17,21,21,22,22,23,23,25,25,28,28,29,29,31,31,32,32,33,33],"right_children":[2,4,6,8,10,12,14,-1,16,18,20,22,24,-1,-1,26,-1,28,-1,-1,-1,30,32,34,-1,36,-1,-1,38,40,-1,42,44,46,-1,-1,-1,-1,-1,-1,-1,-1,-1,-1,-1,-1,-1],"split_conditions":[5.820766E-11,2.8174E2,1E0,0E0,9.426721E5,3.7E1,2.031486E5,-2.5888653E-2,5.264899E4,-2.3293123E5,6.702314E5,4.479117E4,1.99283E3,-3.7009384E-2,3.7292738E-2,1E0,3.7574716E-2,-2.3754327E5,-3.7583917E-2,3.7559856E-2,-3.245087E-2,3.9E1,3.98884E4,3.9E1,-3.750764E-2,9E0,3.759198E-2,-3.746429E-2,4.243495E4,9.457646E4,-3.7821364E-2,3.841736E4,1.7833556E6,2.31E2,-3.7607845E-2,3.755968E-2,3.6413718E-2,3.1957004E-2,-3.7130456E-2,-4.0504154E-2,2.8172143E-2,-3.3743806E-2,2.7202252E-2,-3.724706E-2,-2.0216227E-2,3.1318896E-2,-3.9571047E-2],"split_indices":[6,3,8,6,1,0,3,0,1,7,5,4,4,0,0,8,0,7,0,0,0,2,1,2,0,9,0,0,1,1,0,6,1,0,0,0,0,0,0,0,0,0,0,0,0,0,0],"split_type":[0,0,0,0,0,0,0,0,0,0,0,0,0,0,0,0,0,0,0,0,0,0,0,0,0,0,0,0,0,0,0,0,0,0,0,0,0,0,0,0,0,0,0,0,0,0,0],"sum_hessian":[5.622239E5,3.0550303E5,2.5672088E5,2.743948E5,3.1108207E4,2.5599425E5,7.2661896E2,4.357289E0,2.7439047E5,2.6433578E4,4.67463E3,2.9405379E4,2.2658888E5,1.2734221E2,5.9927673E2,3.6135184E4,2.3825528E5,6.811277E2,2.575245E4,4.662141E3,1.2488521E1,5.718807E3,2.3686572E4,3.0286213E4,1.9630266E5,1.8619285E4,1.7515898E4,6.07772E2,7.335577E1,9.747666E2,4.7440405E3,2.3084614E3,2.1378111E4,5.18621E2,2.9767592E4,7.213396E3,1.1405889E4,6.250448E1,1.0851285E1,2.0758234E2,7.6718427E2,2.1610544E3,1.4740692E2,2.0980557E4,3.975535E2,3.8418884E2,1.3443213E2],"tree_param":{"num_deleted":"0","num_feature":"11","num_nodes":"47","size_leaf_vector":"1"}},{"base_weights":[-2.0780762E-5,1.0268947E0,-1.2217865E0,1.2415165E0,-8.662034E-1,-1.2275332E0,7.9982847E-1,-2.5567343E-2,1.2415583E0,-1.2380335E0,1.2358625E0,-1.1514177E0,-1.2374111E0,-3.671837E-2,3.7006035E-2,1.2310829E0,3.7294038E-2,-1.0289398E0,-3.7303988E-2,3.7279375E-2,-3.210884E-2,-9.595393E-1,-1.1976959E0,-1.1658034E0,-1.2384729E0,1.2190372E0,3.7311606E-2,-3.7181955E-2,6.8391424E-1,4.39855E-1,-3.7530545E-2,-9.812623E-1,-1.2210608E0,-3.7353624E-2,-8.030516E-1,-1.2306327E0,-3.7316695E-2,3.710585E-2,3.597067E-2,-3.4823608E-2,3.1926688E-2,-4.0075384E-2,2.7514191E-2,-3.337402E-2,2.6063789E-2,-3.6953587E-2,-1.9760408E-2,4.2131394E-2,-3.840316E-2,-3.7024897E-2,-2.8712E-2],"categories":[],"categories_nodes":[],"categories_segments":[],"categories_sizes":[],"default_left":[0,0,0,0,0,0,0,0,0,0,0,0,0,0,0,0,0,0,0,0,0,0,0,0,0,0,0,0,0,0,0,0,0,0,0,0,0,0,0,0,0,0,0,0,0,0,0,0,0,0,0],"id":31,"left_children":[1,3,5,7,9,11,13,-1,15,17,19,21,23,-1,-1,25,-1,27,-1,-1,-1,29,31,33,35,37,-1,-1,39,41,-1,43,45,-1,47,49,-1,-1,-1,-1,-1,-1,-1,-1,-1,-1,-1,-1,-1,-1,-1],"loss_changes":[6.8971694E5,1.2135656E5,2.9187188E3,2.58125E1,2.3775477E4,1.841875E2,6.2846954E2,0E0,1.25E-1,2.5664062E1,7.427051E1,2.5227344E2,1.278125E1,0E0,0E0,1.1171875E0,0E0,2.4292279E2,0E0,0E0,0E0,2.2884292E3,1.1375E2,9.129346E1,4.9375E0,2.3144531E0,0E0,0E0,5.445612E1,8.223651E2,0E0,5.534011E2,1.2359961E2,0E0,6.30017E2,8.290625E1,0E0,0E0,0E0,0E0,0E0,0E0,0E0,0E0,0E0,0E0,0E0,0E0,0E0,0E0,0E0],"parents":[2147483647,0,0,1,1,2,2,3,3,4,4,5,5,6,6,8,8,9,9,10,10,11,11,12,12,15,15,17,17,21,21,22,22,23,23,24,24,25,25,28,28,29,29,31,31,32,32,34,34,35,35],"right_children":[2,4,6,8,10,12,14,-1,16,18,20,22,24,-1,-1,26,-1,28,-1,-1,-1,30,32,34,36,38,-1,-1,40,42,-1,44,46,-1,48,50,-1,-1,-1,-1,-1,-1,-1,-1,-1,-1,-1,-1,-1,-1,-1],"split_conditions":[5.820766E-11,2.8174E2,1E0,0E0,9.426721E5,3.7E1,2.031486E5,-2.5567343E-2,5.264899E4,-2.3293123E5,6.702314E5,4.479117E4,4.452463E4,-3.671837E-2,3.7006035E-2,1E0,3.7294038E-2,-2.3754327E5,-3.7303988E-2,3.7279375E-2,-3.210884E-2,3.9E1,3.98884E4,3.976532E4,2.32E2,1.2E1,3.7311606E-2,-3.7181955E-2,2.8673297E5,9.457646E4,-3.7530545E-2,3.841736E4,1.7833556E6,-3.7353624E-2,4.116054E4,2.31E2,-3.7316695E-2,3.710585E-2,3.597067E-2,-3.4823608E-2,3.1926688E-2,-4.0075384E-2,2.7514191E-2,-3.337402E-2,2.6063789E-2,-3.6953587E-2,-1.9760408E-2,4.2131394E-2,-3.840316E-2,-3.7024897E-2,-2.8712E-2],"split_indices":[6,3,8,6,1,0,3,0,1,7,5,4,5,0,0,8,0,7,0,0,0,2,1,6,0,9,0,0,3,1,0,6,1,0,1,0,0,0,0,0,0,0,0,0,0,0,0,0,0,0,0],"split_type":[0,0,0,0,0,0,0,0,0,0,0,0,0,0,0,0,0,0,0,0,0,0,0,0,0,0,0,0,0,0,0,0,0,0,0,0,0,0,0,0,0,0,0,0,0,0,0,0,0,0,0],"sum_hessian":[5.4972444E5,2.9867925E5,2.5104519E5,2.6826662E5,3.041262E4,2.5033462E5,7.1057666E2,4.3056035E0,2.682623E5,2.5842459E4,4.5701606E3,2.8788406E4,2.2154622E5,1.2455888E2,5.8601776E2,3.533489E4,2.3292742E5,6.664043E2,2.5176055E4,4.557893E3,1.2267556E1,5.604662E3,2.3183744E4,3.2760173E3,2.1827019E5,1.8210857E4,1.7124031E4,5.942352E2,7.216905E1,9.656809E2,4.6389814E3,2.2693804E3,2.0914365E4,2.683102E3,5.929154E2,8.9408836E4,1.2886136E5,9.5549795E3,8.655878E3,1.1409188E1,6.0759865E1,2.0359099E2,7.620899E2,2.1200923E3,1.4928815E2,2.051975E4,3.9461343E2,1.0448851E2,4.8842688E2,8.82609E4,1.147939E3],"tree_param":{"num_deleted":"0","num_feature":"11","num_nodes":"51","size_leaf_vector":"1"}},{"base_weights":[-2.079331E-5,1.0194762E0,-1.2126482E0,1.2325444E0,-8.599741E-1,-1.218352E0,7.937614E-1,-2.5253138E-2,1.2325864E0,-1.2291319E0,1.2269374E0,-1.1414845E0,-1.2283405E0,-3.643909E-2,3.673135E-2,1.2219425E0,3.7025657E-2,-1.020872E0,-3.7036344E-2,3.7011158E-2,-3.1775977E-2,-9.5029736E-1,-1.1876543E0,-1.2055389E0,-3.695534E-2,1.209707E0,3.7043545E-2,-3.691179E-2,6.744667E-1,4.306727E-1,-3.725258E-2,-9.68655E-1,-1.2114143E0,4.4306207E-1,-3.70601E-2,3.701152E-2,3.5828166E-2,3.123516E-2,-3.668257E-2,-3.966663E-2,2.6874514E-2,-3.3013795E-2,2.499292E-2,-3.6672167E-2,-1.9314246E-2,3.0985314E-2,-3.880179E-2],"categories":[],"categories_nodes":[],"categories_segments":[],"categories_sizes":[],"default_left":[0,0,0,0,0,0,0,0,0,0,0,0,0,0,0,0,0,0,0,0,0,0,0,0,0,0,0,0,0,0,0,0,0,0,0,0,0,0,0,0,0,0,0,0,0,0,0],"id":32,