{"learner":{"attributes":{"best_iteration":"33","best_score":"0.9933679469845557"},"feature_names":["step","amount","oldbalanceOrg","newbalanceOrig","oldbalanceDest","newbalanceDest","errorBalanceOrig","errorBalanceDest","isBlackHoleTransaction","hourOfDay","type_TRANSFER"],"feature_types":["int","float","float","float","float","float","float","float","int","int","i"],"gradient_booster":{"model":{"gbtree_model_param":{"num_parallel_tree":"1","num_trees":"84"},"iteration_indptr":[0,1,2,3,4,5,6,7,8,9,10,11,12,13,14,15,16,17,18,19,20,21,22,23,24,25,26,27,28,29,30,31,32,33,34,35,36,37,38,39,40,41,42,43,44,45,46,47,48,49,50,51,52,53,54,55,56,57,58,59,60,61,62,63,64,65,66,67,68,69,70,71,72,73,74,75,76,77,78,79,80,81,82,83,84],"tree_info":[0,0,0,0,0,0,0,0,0,0,0,0,0,0,0,0,0,0,0,0,0,0,0,0,0,0,0,0,0,0,0,0,0,0,0,0,0,0,0,0,0,0,0,0,0,0,0,0,0,0,0,0,0,0,0,0,0,0,0,0,0,0,0,0,0,0,0,0,0,0,0,0,0,0,0,0,0,0,0,0,0,0,0,0],"trees":[{"base_weights":[-3.539136E-3,1.6516284E0,-1.975474E0,1.9984615E0,-1.4023079E0,-1.9839265E0,1.8610575E0,-1.6521739E-2,1.9985113E-2,-1.981751E0,1.964172E0,-1.9848607E0,-7.0535994E-1,-1.9279279E-2,1.9973606E-2,-1.9907424E0,-1.202673E0,-1.9647576E-2,1.9992074E-2,-1.9445748E0,-1.9931495E0,-1.9886686E-2,1.9417474E-2,-1.999936E-2,-1.9355261E0,1.4939744E0,-1.9939117E-2,-7.958761E-1,-1.9999653E-2,-1.9941603E0,-1.9483863E0,-4.9014807E-1,-1.999602E-2,-1.84E-2,1.9648436E-2,-1.8036472E0,8.235816E-1,-1.98183E0,-1.995975E0,-1.5885704E0,-1.999651E-2,6.9946526E-3,-1.9799497E-2,-9.132788E-3,-1.9985842E-2,-1.9578947E-2,9.5152E-3,-1.9905452E-2,-1.7489806E-2,-1.9982476E-2,-1.9883914E-2,1.7043786E-2,-1.9972676E-2],"categories":[],"categories_nodes":[],"categories_segments":[],"categories_sizes":[],"default_left":[0,0,0,0,0,0,0,0,0,0,0,0,0,0,0,0,0,0,0,0,0,0,0,0,0,0,0,0,0,0,0,0,0,0,0,0,0,0,0,0,0,0,0,0,0,0,0,0,0,0,0,0,0],"id":0,"left_children":[1,3,5,7,9,11,13,-1,-1,15,17,19,21,-1,-1,23,25,-1,-1,27,29,-1,-1,-1,31,33,-1,35,-1,37,39,41,-1,-1,-1,43,45,47,49,51,-1,-1,-1,-1,-1,-1,-1,-1,-1,-1,-1,-1,-1],"loss_changes":[2.5507492E6,4.5003788E5,1.15685E4,7.275E1,8.453217E4,4.235E2,4.0900464E2,0E0,0E0,2.5659375E2,8.799043E2,1.15E2,8.916244E2,0E0,0E0,1.4671875E1,9.0837494E2,0E0,0E0,3.8617344E3,9.5E0,0E0,0E0,0E0,4.8501758E2,1.5563022E2,0E0,4.562768E3,0E0,2.375E0,1.1773633E2,3.9852463E2,0E0,0E0,0E0,2.9724316E2,3.8360858E2,7.1890625E1,3.125E-1,1.1101162E3,0E0,0E0,0E0,0E0,0E0,0E0,0E0,0E0,0E0,0E0,0E0,0E0,0E0],"parents":[2147483647,0,0,1,1,2,2,3,3,4,4,5,5,6,6,9,9,10,10,11,11,12,12,15,15,16,16,19,19,20,20,24,24,25,25,27,27,29,29,30,30,31,31,35,35,36,36,37,37,38,38,39,39],"right_children":[2,4,6,8,10,12,14,-1,-1,16,18,20,22,-1,-1,24,26,-1,-1,28,30,-1,-1,-1,32,34,-1,36,-1,38,40,42,-1,-1,-1,44,46,48,50,52,-1,-1,-1,-1,-1,-1,-1,-1,-1,-1,-1,-1,-1],"split_conditions":[5.820766E-11,2.8174E2,1.585932E6,0E0,1E0,1E0,1E0,-1.6521739E-2,1.9985113E-2,1.0357578E6,8.28151E5,4.479117E4,2.031486E5,-1.9279279E-2,1.9973606E-2,2.9691078E5,4.4880712E5,-1.9647576E-2,1.9992074E-2,3.9E1,1.7096062E6,-1.9886686E-2,1.9417474E-2,-1.999936E-2,3.0232325E5,4.3789784E5,-1.9939117E-2,1.9048153E5,-1.9999653E-2,3.976532E4,3.23255E6,3.42877E5,-1.999602E-2,-1.84E-2,1.9648436E-2,1.99283E3,1.482834E5,3.841736E4,3.3061362E5,3.9E1,-1.999651E-2,6.9946526E-3,-1.9799497E-2,-9.132788E-3,-1.9985842E-2,-1.9578947E-2,9.5152E-3,-1.9905452E-2,-1.7489806E-2,-1.9982476E-2,-1.9883914E-2,1.7043786E-2,-1.9972676E-2],"split_indices":[6,3,3,6,8,8,8,0,0,2,2,4,3,0,0,3,3,0,0,2,6,0,0,0,3,3,0,5,0,6,5,2,0,0,0,4,6,6,6,2,0,0,0,0,0,0,0,0,0,0,0,0,0],"split_type":[0,0,0,0,0,0,0,0,0,0,0,0,0,0,0,0,0,0,0,0,0,0,0,0,0,0,0,0,0,0,0,0,0,0,0,0,0,0,0,0,0,0,0,0,0,0,0,0,0,0,0,0,0],"sum_hessian":[7.8150556E5,4.2487866E5,3.566269E5,3.8154703E5,4.3331645E4,3.558434E5,7.8349756E2,4.75E0,3.8154228E5,3.6968918E4,6.3627295E3,3.555831E5,2.6033307E2,2.675E1,7.5674756E2,3.6545582E4,4.2333307E2,5.575E1,6.3069795E3,6.0717332E4,2.9486575E5,1.755E2,8.483306E1,3.1299E4,5.246583E3,9.583306E1,3.275E2,2.7938306E3,5.79235E4,2.8831166E5,6.554083E3,2.2308307E2,5.0235E3,1.15E1,8.433306E1,1.722083E3,1.0717476E3,3.7129668E4,2.51182E5,8.2133307E2,5.73275E3,1.2433306E2,9.875E1,3.1033307E2,1.41175E3,4.65E1,1.0252476E3,3.5782832E4,1.346833E3,1.9306458E5,5.8117418E4,9.033306E1,7.31E2],"tree_param":{"num_deleted":"0","num_feature":"11","num_nodes":"53","size_leaf_vector":"1"}},{"base_weights":[5.817635E-3,1.6384763E0,-1.9559182E0,1.9787194E0,-1.4013623E0,-1.9633528E0,1.8220419E0,-1.6529929E-2,1.9787706E-2,-1.9801805E-2,1.9694059E0,-1.9652E0,-7.850072E-1,-1.9113936E-2,1.977285E-2,1.979583E-2,-1.8661063E-2,-1.9189235E0,-1.97457E0,-1.9753134E-2,1.9690597E-2,-6.0708153E-1,-1.9801646E-2,-1.9755982E0,-1.9272625E0,-1.9790184E-2,5.731988E-1,-1.9557849E0,-1.9776676E-2,-1.5599043E0,-1.9798454E-2,7.6693934E-3,-1.9775566E-2,-1.9675024E-2,-1.6400501E-2,-1.977667E-2,1.7406968E-2],"categories":[],"categories_nodes":[],"categories_segments":[],"categories_sizes":[],"default_left":[0,0,0,0,0,0,0,0,0,0,0,0,0,0,0,0,0,0,0,0,0,0,0,0,0,0,0,0,0,0,0,0,0,0,0,0,0],"id":1,"left_children":[1,3,5,7,9,11,13,-1,-1,-1,15,17,19,-1,-1,-1,-1,21,23,-1,-1,25,-1,27,29,-1,31,33,-1,35,-1,-1,-1,-1,-1,-1,-1],"loss_changes":[2.5152155E6,4.43299E5,1.00225E4,7.525E1,8.418086E4,7.7325E2,4.1012695E2,0E0,0E0,0E0,2.5052148E2,1.50375E2,1.8359403E3,0E0,0E0,0E0,0E0,4.810078E3,1.075E1,0E0,0E0,4.3286353E3,0E0,7.875E0,1.19134766E2,0E0,7.1184326E2,9.828906E1,0E0,1.1024093E3,0E0,0E0,0E0,0E0,0E0,0E0,0E0],"parents":[2147483647,0,0,1,1,2,2,3,3,4,4,5,5,6,6,10,10,11,11,12,12,17,17,18,18,21,21,23,23,24,24,26,26,27,27,29,29],"right_children":[2,4,6,8,10,12,14,-1,-1,-1,16,18,20,-1,-1,-1,-1,22,24,-1,-1,26,-1,28,30,-1,32,34,-1,36,-1,-1,-1,-1,-1,-1,-1],"split_conditions":[5.820766E-11,2.8174E2,1.585932E6,0E0,9.426721E5,3.5288006E5,2.0377399E6,-1.6529929E-2,1.9787706E-2,-1.9801805E-2,6.702314E5,4.070899E4,1.7019355E5,-1.9113936E-2,1.977285E-2,1.979583E-2,-1.8661063E-2,3.9E1,1.7833556E6,-1.9753134E-2,1.9690597E-2,3.98884E4,-1.9801646E-2,3.98884E4,3.23255E6,-1.9790184E-2,1.9E1,3.841736E4,-1.9776676E-2,1.2702444E6,-1.9798454E-2,7.6693934E-3,-1.9775566E-2,-1.9675024E-2,-1.6400501E-2,-1.977667E-2,1.7406968E-2],"split_indices":[6,3,3,6,1,3,1,0,0,0,5,4,6,0,0,0,0,2,1,0,0,1,0,1,5,0,9,6,0,4,0,0,0,0,0,0,0],"split_type":[0,0,0,0,0,0,0,0,0,0,0,0,0,0,0,0,0,0,0,0,0,0,0,0,0,0,0,0,0,0,0,0,0,0,0,0,0],"sum_hessian":[7.853046E5,4.2860088E5,3.5670375E5,3.854577E5,4.314317E4,3.5600366E5,7.0009485E2,4.9996586E0,3.854527E5,3.682082E4,6.322348E3,3.554458E5,5.5786163E2,2.7497444E1,6.725974E2,6.3060996E3,1.6248497E1,5.9886527E4,2.9555928E5,3.8971136E2,1.6815027E2,2.671501E3,5.7215027E4,2.892328E5,6.326453E3,1.2351305E3,1.4363706E3,2.7441219E4,2.617916E5,7.9600616E2,5.5304473E3,1.3356237E3,1.0074689E2,2.6454213E4,9.870058E2,7.069296E2,8.9076485E1],"tree_param":{"num_deleted":"0","num_feature":"11","num_nodes":"37","size_leaf_vector":"1"}},{"base_weights":[6.3613326E-5,1.6202967E0,-1.9359905E0,1.9595013E0,-1.3752155E0,-1.9461133E0,1.3119729E0,-1.6526181E-2,1.959555E-2,-1.9519126E0,1.9507388E0,-1.2354679E0,-1.947028E0,-1.9510547E-2,1.9568881E-2,-1.6047525E0,-1.9609557E-2,1.9605355E-2,-1.8472204E-2,1.8369365E0,-1.9558609E-2,-1.9283488E0,-1.9516778E0,-1.9587409E-2,1.3477936E0,1.9254059E-2,-1.307215E-2,-1.9373448E0,-1.330183E0,-1.8816187E0,-1.952721E0,-1.8302001E-2,1.8765126E0,-1.945951E0,-1.7952487E0,-4.8269898E-1,-1.9584723E-2,-1.9606058E-2,-4.1883656E-1,-1.924564E0,-1.9546846E0,1.9776616E-2,-1.3574534E-2,-1.9281454E-2,-1.9610958E-2,9.690558E-3,-1.8757582E-2,-1.0410832E-2,1.804632E-2,1.8586751E-2,-1.946104E-2,-1.9419879E-2,-1.4846884E-2,-1.9592252E-2,-1.9433841E-2],"categories":[],"categories_nodes":[],"categories_segments":[],"categories_sizes":[],"default_left":[0,0,0,0,0,0,0,0,0,0,0,0,0,0,0,0,0,0,0,0,0,0,0,0,0,0,0,0,0,0,0,0,0,0,0,0,0,0,0,0,0,0,0,0,0,0,0,0,0,0,0,0,0,0,0],"id":2,"left_children":[1,3,5,7,9,11,13,-1,-1,15,17,19,21,-1,-1,23,-1,-1,-1,25,-1,27,29,-1,31,-1,-1,33,35,37,39,-1,41,43,45,47,-1,-1,49,51,53,-1,-1,-1,-1,-1,-1,-1,-1,-1,-1,-1,-1,-1,-1],"loss_changes":[2.455076E6,4.3293838E5,1.172625E4,7.7625E1,8.313486E4,2.2875E2,2.336478E3,0E0,0E0,1.128125E2,2.4193945E2,1.021018E3,2.7125E1,0E0,0E0,9.8848364E2,0E0,0E0,0E0,2.6946716E1,0E0,3.78625E2,1.7125E1,0E0,1.741042E2,0E0,0E0,8.1859375E1,5.5964026E2,4.8406836E2,1.1625E1,0E0,3.1332672E1,1.3984375E1,8.916719E2,5.760439E2,0E0,0E0,7.559018E2,1.3749219E2,9.625E0,0E0,0E0,0E0,0E0,0E0,0E0,0E0,0E0,0E0,0E0,0E0,0E0,0E0,0E0],"parents":[2147483647,0,0,1,1,2,2,3,3,4,4,5,5,6,6,9,9,10,10,11,11,12,12,15,15,19,19,21,21,22,22,24,24,27,27,28,28,29,29,30,30,32,32,33,33,34,34,35,35,38,38,39,39,40,40],"right_children":[2,4,6,8,10,12,14,-1,-1,16,18,20,22,-1,-1,24,-1,-1,-1,26,-1,28,30,-1,32,-1,-1,34,36,38,40,-1,42,44,46,48,-1,-1,50,52,54,-1,-1,-1,-1,-1,-1,-1,-1,-1,-1,-1,-1,-1,-1],"split_conditions":[5.820766E-11,2.8174E2,1E0,0E0,9.426721E5,-5.0818425E6,2.031486E5,-1.6526181E-2,1.959555E-2,-2.3293123E5,6.702314E5,2E0,2.9166012E5,-1.9510547E-2,1.9568881E-2,-2.3754327E5,-1.9609557E-2,1.9605355E-2,-1.8472204E-2,9.412502E6,-1.9558609E-2,2.7656188E5,9E0,-1.9587409E-2,2.8673297E5,1.9254059E-2,-1.307215E-2,2.2187883E5,3.637979E-12,1.0407352E5,3.98884E4,-1.8302001E-2,4.243495E4,1.6E1,2.235088E5,2.914976E5,-1.9584723E-2,-1.9606058E-2,1.0837221E5,3.841736E4,3.3061362E5,1.9776616E-2,-1.3574534E-2,-1.9281454E-2,-1.9610958E-2,9.690558E-3,-1.8757582E-2,-1.0410832E-2,1.804632E-2,1.8586751E-2,-1.946104E-2,-1.9419879E-2,-1.4846884E-2,-1.9592252E-2,-1.9433841E-2],"split_indices":[6,3,8,6,1,7,3,0,0,7,5,9,5,0,0,7,0,0,0,5,0,6,9,0,3,0,0,6,7,7,1,0,1,9,1,1,0,0,7,6,6,0,0,0,0,0,0,0,0,0,0,0,0,0,0],"split_type":[0,0,0,0,0,0,0,0,0,0,0,0,0,0,0,0,0,0,0,0,0,0,0,0,0,0,0,0,0,0,0,0,0,0,0,0,0,0,0,0,0,0,0,0,0,0,0,0,0,0,0,0,0,0,0],"sum_hessian":[7.826523E5,4.260785E5,3.565738E5,3.8273847E5,4.3340027E4,3.5546634E5,1.1074803E3,5.2485666E0,3.8273322E5,3.6935996E4,6.4040293E3,4.586789E2,3.5500766E5,1.8242975E2,9.2505066E2,9.4224066E2,3.5993754E4,6.388035E3,1.5994223E1,8.682577E1,3.7185315E2,7.084044E4,2.8416722E5,8.416676E2,1.0057308E2,8.482655E1,1.9992123E0,6.9788625E4,1.0518118E3,4.195706E3,2.799715E5,1.3994455E1,8.657862E1,6.579123E4,3.9974033E3,4.4854654E2,6.0326526E2,3.9804312E3,2.152751E2,1.8315312E4,2.616562E5,8.432951E1,2.2491105E0,3.0298191E4,3.549303E4,1.1281587E2,3.8845874E3,3.60971E2,8.757555E1,8.6325966E1,1.2894914E2,1.7614184E4,7.011295E2,1.8653238E5,7.512382E4],"tree_param":{"num_deleted":"0","num_feature":"11","num_nodes":"55","size_leaf_vector":"1"}},{"base_weights":[6.47474E-3,-1.3786783E0,1.3010749E0,-9.1182E-4,-1.9218497E0,1.5654815E0,-1.2082313E0,-1.6508876E0,9.0825284E-1,-1.9253905E0,-8.8814944E-1,7.09302E-1,1.8255568E0,-1.9317533E0,1.8819324E0,1.000438E0,-1.9137908E0,1.2383832E0,-1.9420534E-2,-1.6964854E0,-1.9336019E0,1.8928021E0,-1.9395825E-2,1.5481727E0,-1.9265474E0,1.5087469E0,1.9159421E0,-1.5722097E0,-1.9423043E-2,1.9369866E0,-1.9238977E-2,1.7431821E0,1.249187E-1,-1.7328408E0,-1.9321833E0,7.473746E-1,1.8936204E0,-9.862459E-1,-1.8971595E0,-1.8949564E0,-1.9369752E0,-1.4399637E-2,1.934683E-2,1.2457639E0,1.9209521E0,-1.9423505E-2,-1.278607E-1,1.74941E0,-1.9419823E-2,1.8412966E0,1.9356618E0,-1.9400254E-2,1.3585231E0,-1.72464E-2,1.9411483E0,1.8443863E0,1.2297269E0,-6.7913073E-1,1.6472206E0,-1.8292068E0,-5.368899E-1,-1.6594368E0,-1.9427644E-2,1.8941993E0,3.4075773E-1,1.9133253E0,-1.9288888E-2,1.5283937E0,-1.9412743E-2,-1.9422166E-2,-5.425512E-1,-1.9235476E0,-1.7425597E0,-1.9290125E0,-1.942498E-2,8.69969E-1,1.8228412E0,1.9280404E0,-1.9077608E-2,-1.9223815E-2,1.9195106E-2,1.5816332E0,1.9333078E0,1.9049796E0,-1.9399548E-2,-1.1650129E-2,1.9356953E0,1.8906045E0,-1.814555E-2,-1.0963292E-2,1.941825E-2,1.853552E-2,-1.53312525E-2,-1.8849734E-2,1.5925668E-2,-1.9403506E-2,1.6131693E-2,1.7872427E-2,-1.8549468E-2,-1.9420028E-2,-1.543184E-2,3.207301E-3,-1.9216852E-2,5.8046407E-3,-1.9405978E-2,1.907578E-2,8.399356E-3,-1.8864202E-3,1.5589052E-2,1.0940641E-2,1.9408401E-2,-1.8518824E-2,1.6244803E-2,-1.9258754E-2,7.6187104E-3,-1.9424934E-2,-1.792348E-2,-9.344049E-3,-1.9417388E-2,-1.9322896E-2,-1.6732223E-2,1.7855983E-2,4.4947686E-3,1.8333234E-2,-1.8948866E-2,1.0512458E-2,1.9413745E-2,1.6170127E-2,-1.936443E-2,3.3807366E-3,1.9415196E-2,1.9250715E-2,1.795247E-2,1.916017E-2,1.9407867E-2,-1.2431098E-2,1.9696295E-2],"categories":[],"categories_nodes":[],"categories_segments":[],"categories_sizes":[],"default_left":[0,0,0,0,0,0,0,0,0,0,0,0,0,0,0,0,0,0,0,0,0,0,0,0,0,0,0,0,0,0,0,0,0,0,0,0,0,0,0,0,0,0,0,0,0,0,0,0,0,0,0,0,0,0,0,0,0,0,0,0,0,0,0,0,0,0,0,0,0,0,0,0,0,0,0,0,0,0,0,0,0,0,0,0,0,0,0,0,0,0,0,0,0,0,0,0,0,0,0,0,0,0,0,0,0,0,0,0,0,0,0,0,0,0,0,0,0,0,0,0,0,0,0,0,0,0,0,0,0,0,0,0,0,0,0,0,0],"id":3,"left_children":[1,3,5,7,9,11,13,15,17,19,21,23,25,27,29,31,33,35,-1,37,39,41,-1,43,45,47,49,51,-1,53,-1,55,57,59,61,63,65,67,69,71,73,-1,-1,75,77,-1,79,81,-1,83,85,-1,87,-1,89,91,93,95,97,99,101,103,-1,105,107,109,-1,111,-1,-1,113,115,117,119,-1,121,123,125,-1,-1,-1,127,129,131,-1,-1,133,135,-1,-1,-1,-1,-1,-1,-1,-1,-1,-1,-1,-1,-1,-1,-1,-1,-1,-1,-1,-1,-1,-1,-1,-1,-1,-1,-1,-1,-1,-1,-1,-1,-1,-1,-1,-1,-1,-1,-1,-1,-1,-1,-1,-1,-1,-1,-1,-1,-1],"loss_changes":[1.4077919E6,2.8383006E5,2.6923844E5,1.6087838E5,9.939375E2,8.174444E4,8.649216E4,2.655929E4,6.5065996E4,5.0625E2,2.7242402E3,1.8913295E5,8.0600625E3,1.15859375E2,1.5415371E3,2.2353413E3,1.12015625E2,1.9935492E4,0E0,1.3373555E3,3.04375E1,3.8486755E1,0E0,7.312297E3,5.867422E2,5.1913234E4,3.189375E2,9.715879E2,0E0,1.1360156E2,0E0,9.437744E1,1.9337594E3,3.6872656E2,8.757031E1,1.6518727E4,2.0030781E3,4.9792007E3,4.4603906E2,8.839844E1,6.8125E0,0E0,0E0,7.767957E3,7.9233594E2,0E0,6.684164E2,1.7998125E3,0E0,1.1032594E4,2.025E1,0E0,1.736476E2,0E0,1.6986328E1,5.0875977E1,3.5247195E2,2.9923157E3,2.710724E2,9.276758E1,2.8638867E2,7.452844E2,0E0,1.2917969E2,1.6866486E4,5.931797E2,0E0,1.8843701E2,0E0,0E0,4.2947403E2,4.05625E1,5.3531445E2,7.95E1,0E0,8.353803E3,5.540664E2,3.3707812E2,0E0,0E0,0E0,3.8070078E3,3.6447656E2,9.584375E1,0E0,0E0,1.36875E1,2.3951508E1,0E0,0E0,0E0,0E0,0E0,0E0,0E0,0E0,0E0,0E0,0E0,0E0,0E0,0E0,0E0,0E0,0E0,0E0,0E0,0E0,0E0,0E0,0E0,0E0,0E0,0E0,0E0,0E0,0E0,0E0,0E0,0E0,0E0,0E0,0E0,0E0,0E0,0E0,0E0,0E0,0E0,0E0,0E0,0E0,0E0,0E0,0E0,0E0,0E0],"parents":[2147483647,0,0,1,1,2,2,3,3,4,4,5,5,6,6,7,7,8,8,9,9,10,10,11,11,12,12,13,13,14,14,15,15,16,16,17,17,19,19,20,20,21,21,23,23,24,24,25,25,26,26,27,27,29,29,31,31,32,32,33,33,34,34,35,35,36,36,37,37,38,38,39,39,40,40,43,43,44,44,46,46,47,47,49,49,50,50,52,52,54,54,55,55,56,56,57,57,58,58,59,59,60,60,61,61,63,63,64,64,65,65,67,67,70,70,71,71,72,72,73,73,75,75,76,76,77,77,81,81,82,82,83,83,86,86,87,87],"right_children":[2,4,6,8,10,12,14,16,18,20,22,24,26,28,30,32,34,36,-1,38,40,42,-1,44,46,48,50,52,-1,54,-1,56,58,60,62,64,66,68,70,72,74,-1,-1,76,78,-1,80,82,-1,84,86,-1,88,-1,90,92,94,96,98,100,102,104,-1,106,108,110,-1,112,-1,-1,114,116,118,120,-1,122,124,126,-1,-1,-1,128,130,132,-1,-1,134,136,-1,-1,-1,-1,-1,-1,-1,-1,-1,-1,-1,-1,-1,-1,-1,-1,-1,-1,-1,-1,-1,-1,-1,-1,-1,-1,-1,-1,-1,-1,-1,-1,-1,-1,-1,-1,-1,-1,-1,-1,-1,-1,-1,-1,-1,-1,-1,-1,-1],"split_conditions":[5.5655E4,5.517079E4,2.8174E2,1.362E3,5.4719E4,1.56638E5,3.4944462E5,1.38404E3,2.8174E2,1.4E1,5.643332E4,1.561834E5,3.25976E5,-2.3293123E5,1.9702034E5,2.906952E4,2.3E1,1.0000002E-2,-1.9420534E-2,4.479117E4,3.7E1,3.11E2,-1.9395825E-2,5.455664E4,6.91E2,3.2655594E5,5.3433225E5,-2.3754327E5,-1.9423043E-2,1E0,-1.9238977E-2,5.17059E3,4.22E2,2.1E1,1.99283E3,9E0,9.98409E4,3.9E1,1.7833556E6,3.5E1,2.32E2,-1.4399637E-2,1.934683E-2,4.06E2,1.9610127E5,-1.9423505E-2,6.8059E2,1.5392977E5,-1.9419823E-2,5.382869E5,-1.0871958E7,-1.9400254E-2,4.243495E4,-1.72464E-2,2.4206006E5,2.8174E2,1.84128E4,1.92E2,1.8E1,1.2702444E6,2.434294E4,3.9E1,-1.9427644E-2,1E0,4.06E2,1E0,-1.9288888E-2,1.460514E5,-1.9412743E-2,-1.9422166E-2,4.656613E-10,5.0000128E5,4.070899E4,2.31E2,-1.942498E-2,1E1,1E0,1E0,-1.9077608E-2,-1.9223815E-2,1.9195106E-2,1E0,1E0,4.2619212E5,-1.9399548E-2,-1.1650129E-2,8.28151E5,3.60659E4,-1.814555E-2,-1.0963292E-2,1.941825E-2,1.853552E-2,-1.53312525E-2,-1.8849734E-2,1.5925668E-2,-1.9403506E-2,1.6131693E-2,1.7872427E-2,-1.8549468E-2,-1.9420028E-2,-1.543184E-2,3.207301E-3,-1.9216852E-2,5.8046407E-3,-1.9405978E-2,1.907578E-2,8.399356E-3,-1.8864202E-3,1.5589052E-2,1.0940641E-2,1.9408401E-2,-1.8518824E-2,1.6244803E-2,-1.9258754E-2,7.6187104E-3,-1.9424934E-2,-1.792348E-2,-9.344049E-3,-1.9417388E-2,-1.9322896E-2,-1.6732223E-2,1.7855983E-2,4.4947686E-3,1.8333234E-2,-1.8948866E-2,1.0512458E-2,1.9413745E-2,1.6170127E-2,-1.936443E-2,3.3807366E-3,1.9415196E-2,1.9250715E-2,1.795247E-2,1.916017E-2,1.9407867E-2,-1.2431098E-2,1.9696295E-2],"split_indices":[2,1,3,2,2,2,7,1,3,0,1,1,2,7,4,4,0,7,0,4,0,0,0,7,0,1,2,7,0,10,0,4,0,0,4,9,7,2,1,0,0,0,0,0,7,0,7,7,0,1,7,0,1,0,3,3,4,2,9,4,1,2,0,10,0,10,0,1,0,0,7,1,4,0,0,9,10,10,0,0,0,10,10,4,0,0,2,1,0,0,0,0,0,0,0,0,0,0,0,0,0,0,0,0,0,0,0,0,0,0,0,0,0,0,0,0,0,0,0,0,0,0,0,0,0,0,0,0,0,0,0,0,0,0,0,0,0],"split_type":[0,0,0,0,0,0,0,0,0,0,0,0,0,0,0,0,0,0,0,0,0,0,0,0,0,0,0,0,0,0,0,0,0,0,0,0,0,0,0,0,0,0,0,0,0,0,0,0,0,0,0,0,0,0,0,0,0,0,0,0,0,0,0,0,0,0,0,0,0,0,0,0,0,0,0,0,0,0,0,0,0,0,0,0,0,0,0,0,0,0,0,0,0,0,0,0,0,0,0,0,0,0,0,0,0,0,0,0,0,0,0,0,0,0,0,0,0,0,0,0,0,0,0,0,0,0,0,0,0,0,0,0,0,0,0,0,0],"sum_hessian":[7.8506194E5,3.7926672E5,4.0579522E5,1.07243125E5,2.720236E5,3.6711278E5,3.8682457E4,3.809909E4,6.914404E4,2.7109416E5,9.2943207E2,8.5534164E4,2.815786E5,3.1344033E4,7.3384263E3,3.4368047E3,3.4662285E4,6.196737E4,7.1766665E3,9.395317E3,2.6169884E5,2.5477461E2,6.746574E2,6.4884727E4,2.0649438E4,6.250608E4,2.1907253E5,8.9786786E2,3.0446164E4,7.234268E3,1.04158226E2,1.8588574E3,1.5779471E3,3.2069116E3,3.1455373E4,3.54241E4,2.6543271E4,2.07109E3,7.324227E3,2.1054705E4,2.4064414E5,2.7475858E0,2.5202704E2,3.5826016E4,2.9058709E4,2.0469514E4,1.7992467E2,5.8431406E4,4.0746711E3,4.579974E4,1.732728E5,7.9804846E2,9.981941E1,7.743575E0,7.2265244E3,1.5506296E3,3.082278E2,1.0329287E3,5.4501843E2,2.967287E3,2.3962444E2,1.180629E3,3.0274742E4,9.271382E3,2.6152717E4,2.6407639E4,1.3563177E2,5.6990375E2,1.5011864E3,7.0880303E3,2.3619658E2,1.771883E4,3.3358755E3,9.8696164E4,1.4194797E5,2.1698428E4,1.4127588E4,2.9005506E4,5.3203346E1,9.591566E1,8.400901E1,3.055998E4,2.7871426E4,4.5041652E4,7.580854E2,1.4986798E0,1.732713E5,8.5830925E1,1.3988484E1,1.2492834E0,7.2252754E3,1.5468829E3,3.7466931E0,3.1722204E1,2.765056E2,6.664194E2,3.6650934E2,5.245363E2,2.048211E1,2.123912E3,8.43375E2,1.484537E2,9.117073E1,1.3155077E2,1.0490782E3,9.154402E3,1.1698021E2,1.8230637E4,7.9220815E3,8.5940826E2,2.554823E4,1.5247038E1,5.5465674E2,1.14400154E2,1.21796425E2,1.5470955E4,2.247875E3,6.6072455E2,2.675151E3,9.744118E4,1.2549833E3,6.827712E3,1.4870716E4,1.4088372E4,3.9215546E1,4.3569867E2,2.8569807E4,3.0256246E4,3.0373294E2,1.4295732E2,2.7728469E4,3.8056914E4,6.984739E3,3.569334E4,1.3757795E5,1.748889E0,8.408204E1],"tree_param":{"num_deleted":"0","num_feature":"11","num_nodes":"137","size_leaf_vector":"1"}},{"base_weights":[-5.0222944E-3,1.589768E0,-1.9027815E0,1.923853E0,-1.3177027E0,-1.9118124E0,1.2587317E0,-1.6427388E-2,1.9239064E-2,-1.915297E0,1.9023013E0,-1.8349549E0,-1.9215423E0,-1.9202495E-2,1.917453E-2,-1.5793365E0,-1.9241836E-2,-1.8688936E-2,1.9212481E0,2.4751666E-1,-1.8427949E0,-1.8609942E0,-1.9224268E0,-1.922082E-2,1.2972648E0,-1.5459597E-2,1.9235115E-2,1.8048106E0,-1.8952645E-2,-1.856034E0,-1.5629544E0,-1.9349897E-2,-1.4800197E0,-1.9177421E0,-1.9256555E-2,-1.8002262E-2,1.8181953E0,1.89179E-2,-1.2863427E-2,-1.7621807E0,-1.8996284E0,1.0516698E0,-1.7317275E0,6.657778E-1,-1.9223895E-2,-1.920301E0,-1.7166737E0,1.939126E-2,-1.4205937E-2,-1.7870001E-2,-3.7238237E-3,-1.7983826E-2,-1.910533E-2,1.9263875E-2,-1.853372E-2,-1.9243758E-2,-1.2014998E-2,1.420975E-2,-1.865894E-2,-1.926214E-2,-1.910075E-2,-1.9259617E-2,-6.729029E-3],"categories":[],"categories_nodes":[],"categories_segments":[],"categories_sizes":[],"default_left":[0,0,0,0,0,0,0,0,0,0,0,0,0,0,0,0,0,0,0,0,0,0,0,0,0,0,0,0,0,0,0,0,0,0,0,0,0,0,0,0,0,0,0,0,0,0,0,0,0,0,0,0,0,0,0,0,0,0,0,0,0,0,0],"id":4,"left_children":[1,3,5,7,9,11,13,-1,-1,15,17,19,21,-1,-1,23,-1,-1,25,27,29,31,33,-1,35,-1,-1,37,-1,39,41,-1,43,45,-1,-1,47,-1,-1,49,51,53,55,57,-1,59,61,-1,-1,-1,-1,-1,-1,-1,-1,-1,-1,-1,-1,-1,-1,-1,-1],"loss_changes":[2.3611282E6,4.1176425E5,1.01735E4,7.5625E1,8.407458E4,2.62125E2,2.1297925E3,0E0,0E0,1.0696875E2,4.9229297E2,6.5253125E2,1.3375E1,0E0,0E0,9.4428784E2,0E0,0E0,5.638867E1,5.0621967E2,1.445E2,1.2598047E2,8.75E-1,0E0,1.683328E2,0E0,0E0,2.6032349E1,0E0,1.5207812E2,7.977495E2,0E0,7.1091565E2,6.20625E1,0E0,0E0,3.724695E1,0E0,0E0,4.1539453E2,2.51875E1,2.8306473E2,1.7079688E2,2.4837076E2,0E0,3.875E0,3.4943164E2,0E0,0E0,0E0,0E0,0E0,0E0,0E0,0E0,0E0,0E0,0E0,0E0,0E0,0E0,0E0,0E0],"parents":[2147483647,0,0,1,1,2,2,3,3,4,4,5,5,6,6,9,9,10,10,11,11,12,12,15,15,18,18,19,19,20,20,21,21,22,22,24,24,27,27,29,29,30,30,32,32,33,33,36,36,39,39,40,40,41,41,42,42,43,43,45,45,46,46],"right_children":[2,4,6,8,10,12,14,-1,-1,16,18,20,22,-1,-1,24,-1,-1,26,28,30,32,34,-1,36,-1,-1,38,-1,40,42,-1,44,46,-1,-1,48,-1,-1,50,52,54,56,58,-1,60,62,-1,-1,-1,-1,-1,-1,-1,-1,-1,-1,-1,-1,-1,-1,-1,-1],"split_conditions":[5.820766E-11,2.8174E2,1E0,0E0,4.8306116E5,3.7E1,5.959129E4,-1.6427388E-2,1.9239064E-2,-2.3293123E5,1E0,-5.0818425E6,4.452463E4,-1.9202495E-2,1.917453E-2,-2.3754327E5,-1.9241836E-2,-1.8688936E-2,2.9184462E5,2E0,1.01778125E6,3.976532E4,2.32E2,-1.922082E-2,2.8673297E5,-1.5459597E-2,1.9235115E-2,9.412502E6,-1.8952645E-2,4.5829612E5,9.7204425E5,-1.9349897E-2,4.110741E4,2.31E2,-1.9256555E-2,-1.8002262E-2,3.0232325E5,1.89179E-2,-1.2863427E-2,4.49194E5,3.976532E4,1.0837221E5,4.656613E-10,1.5E1,-1.9223895E-2,2.2871369E5,1E-2,1.939126E-2,-1.4205937E-2,-1.7870001E-2,-3.7238237E-3,-1.7983826E-2,-1.910533E-2,1.9263875E-2,-1.853372E-2,-1.9243758E-2,-1.2014998E-2,1.420975E-2,-1.865894E-2,-1.926214E-2,-1.910075E-2,-1.9259617E-2,-6.729029E-3],"split_indices":[6,3,8,6,7,0,3,0,0,7,10,7,5,0,0,7,0,0,3,9,6,6,0,0,3,0,0,5,0,5,5,0,6,0,0,0,3,0,0,6,6,7,7,9,0,6,7,0,0,0,0,0,0,0,0,0,0,0,0,0,0,0,0],"split_type":[0,0,0,0,0,0,0,0,0,0,0,0,0,0,0,0,0,0,0,0,0,0,0,0,0,0,0,0,0,0,0,0,0,0,0,0,0,0,0,0,0,0,0,0,0,0,0,0,0,0,0,0,0,0,0,0,0,0,0,0,0,0,0],"sum_hessian":[7.8014225E5,4.2390878E5,3.5623347E5,3.802197E5,4.3689082E4,3.5521916E5,1.0143043E3,5.2472057E0,3.8021447E5,3.6850477E4,6.8386055E3,3.9937473E4,3.152817E5,1.737712E2,8.405331E2,9.542229E2,3.5896254E4,3.3697845E1,6.8049077E3,1.4967668E2,3.9787793E4,4.569464E3,3.1071222E5,8.529287E2,1.0129418E2,3.9946406E0,6.800913E3,8.677184E1,6.290484E1,3.7985105E4,1.802687E3,3.822878E3,7.46586E2,1.2701569E5,1.8369653E5,1.4229392E1,8.706479E1,8.4774445E1,1.9973965E0,1.2060895E4,2.5924213E4,1.0898991E2,1.6936971E3,1.27520256E2,6.1906573E2,1.2541115E5,1.6045396E3,8.4317795E1,2.7469945E0,1.1849005E4,2.118893E2,2.5368286E3,2.3387385E4,8.4026215E1,2.496369E1,1.2403939E3,4.533032E2,9.8558876E1,2.8961376E1,7.934348E4,4.606767E4,1.3358427E3,2.6869693E2],"tree_param":{"num_deleted":"0","num_feature":"11","num_nodes":"63","size_leaf_vector":"1"}},{"base_weights":[-3.2179E-5,1.5770493E0,-1.8861619E0,1.906285E0,-1.2928395E0,-1.8933203E0,1.1023868E0,-1.5882296E-2,1.9063303E-2,-1.8977541E0,1.8858048E0,-1.8177651E0,-1.9028765E0,-1.9026067E-2,1.899665E-2,-1.5652773E0,-1.9065691E-2,1.9055077E0,-1.857104E-2,-1.5623122E0,-1.8772742E0,-1.886121E0,-1.905445E-2,-1.9045189E-2,1.3083634E0,-1.1674745E-2,1.9063367E-2,5.7138675E-1,-1.9109325E-2,-1.7521673E0,-1.8956829E0,-1.800885E-1,-1.9094262E-2,-1.7804688E-2,1.8113946E0,-1.9047698E-2,1.3333263E0,-1.828305E0,-3.5647026E-1,-1.90745E-2,-1.8200822E0,5.2261996E-1,-1.9333478E-2,1.931998E-2,-1.410367E-2,-1.9223042E-2,1.501371E-2,-1.9128624E-2,-1.5554982E-2,-1.897086E-2,9.003306E-3,-5.4836846E-3,-1.9082269E-2,-1.9306319E-2,1.4333676E-2],"categories":[],"categories_nodes":[],"categories_segments":[],"categories_sizes":[],"default_left":[0,0,0,0,0,0,0,0,0,0,0,0,0,0,0,0,0,0,0,0,0,0,0,0,0,0,0,0,0,0,0,0,0,0,0,0,0,0,0,0,0,0,0,0,0,0,0,0,0,0,0,0,0,0,0],"id":5,"left_children":[1,3,5,7,9,11,13,-1,-1,15,17,19,21,-1,-1,23,-1,25,-1,27,29,31,-1,-1,33,-1,-1,35,-1,37,39,41,-1,-1,43,-1,45,47,49,-1,51,53,-1,-1,-1,-1,-1,-1,-1,-1,-1,-1,-1,-1,-1],"loss_changes":[2.323675E6,4.019915E5,7.612375E3,6.35E1,8.419348E4,2.5275E2,2.0417007E3,0E0,0E0,1.04828125E2,5.198203E2,6.03125E2,1E1,0E0,0E0,9.3416895E2,0E0,1.996875E1,0E0,5.608699E3,7.1140625E1,1.6683594E3,0E0,0E0,1.6093944E2,0E0,0E0,2.0014858E3,0E0,4.4143066E2,2.1585938E1,6.992133E2,0E0,0E0,3.68338E1,0E0,4.4645984E2,8.802246E1,4.2080527E2,0E0,4.2671387E2,9.084336E2,0E0,0E0,0E0,0E0,0E0,0E0,0E0,0E0,0E0,0E0,0E0,0E0,0E0],"parents":[2147483647,0,0,1,1,2,2,3,3,4,4,5,5,6,6,9,9,10,10,11,11,12,12,15,15,17,17,19,19,20,20,21,21,24,24,27,27,29,29,30,30,31,31,34,34,36,36,37,37,38,38,40,40,41,41],"right_children":[2,4,6,8,10,12,14,-1,-1,16,18,20,22,-1,-1,24,-1,26,-1,28,30,32,-1,-1,34,-1,-1,36,-1,38,40,42,-1,-1,44,-1,46,48,50,-1,52,54,-1,-1,-1,-1,-1,-1,-1,-1,-1,-1,-1,-1,-1],"split_conditions":[5.820766E-11,2.8174E2,1E0,0E0,4.8306116E5,3.7E1,2.031486E5,-1.5882296E-2,1.9063303E-2,-2.3293123E5,1.9702034E5,4.479117E4,1.99283E3,-1.9026067E-2,1.899665E-2,-2.3754327E5,-1.9065691E-2,3.1951794E5,-1.857104E-2,3.9E1,3.976532E4,3.9E1,-1.905445E-2,-1.9045189E-2,2.8182525E5,-1.1674745E-2,1.9063367E-2,9.437139E4,-1.9109325E-2,3.841736E4,5.0618747E5,2.31E2,-1.9094262E-2,-1.7804688E-2,3.42877E5,-1.9047698E-2,-1.4551915E-11,2.1E1,1.2702444E6,-1.90745E-2,5.2058578E5,1.86E2,-1.9333478E-2,1.931998E-2,-1.410367E-2,-1.9223042E-2,1.501371E-2,-1.9128624E-2,-1.5554982E-2,-1.897086E-2,9.003306E-3,-5.4836846E-3,-1.9082269E-2,-1.9306319E-2,1.4333676E-2],"split_indices":[6,3,8,6,7,0,3,0,0,7,4,4,4,0,0,7,0,3,0,2,6,2,0,0,3,0,0,6,0,6,6,0,0,0,2,0,7,0,4,0,6,0,0,0,0,0,0,0,0,0,0,0,0,0,0],"split_type":[0,0,0,0,0,0,0,0,0,0,0,0,0,0,0,0,0,0,0,0,0,0,0,0,0,0,0,0,0,0,0,0,0,0,0,0,0,0,0,0,0,0,0,0,0,0,0,0,0,0,0,0,0,0,0],"sum_hessian":[7.811755E5,4.2544288E5,3.557326E5,3.8165903E5,4.3783863E4,3.548829E5,8.496855E2,4.4958515E0,3.8165453E5,3.6784047E4,6.9998145E3,3.98669E4,3.15016E5,1.7787537E2,6.718101E2,9.54705E2,3.5829344E4,6.9636484E3,3.6166203E1,7.5376177E3,3.2329281E4,4.196895E4,2.7304706E5,8.5420135E2,1.0050369E2,1.4983172E0,6.96215E3,1.0585034E3,6.4791143E3,4.1591978E3,2.8170082E4,5.657092E2,4.1403242E4,1.3719633E1,8.678406E1,2.4871802E2,8.0978546E2,3.9437495E3,2.1544821E2,2.4355023E4,3.8150593E3,4.04348E2,1.6136124E2,8.403849E1,2.745568E0,3.923441E1,7.70551E2,3.0060127E3,9.3773676E2,9.6565956E1,1.18882256E2,2.4775656E2,3.5673027E3,1.09167404E2,2.9518057E2],"tree_param":{"num_deleted":"0","num_feature":"11","num_nodes":"55","size_leaf_vector":"1"}},{"base_weights":[-7.631227E-4,1.5624737E0,-1.8665652E0,1.1316079E0,1.8350352E0,-1.8763152E0,1.2672647E0,6.396309E-1,1.8862531E0,-3.5208666E-1,1.8402483E0,-1.7422304E0,-1.8832366E0,-1.8856436E-2,1.8492447E0,1.641874E-1,1.6353447E0,4.0118164E-1,1.88942E-2,-1.8844588E-2,1.8598837E0,1.646178E0,1.8739095E0,-1.1667609E0,-1.8466448E0,-1.8477465E0,-1.8857561E0,-1.7187178E-2,1.8877251E-2,-1.8885298E-2,2.19138E-1,1.654178E0,-1.8807733E-2,-1.8430492E-2,1.2871816E0,-1.133123E-2,1.8821023E-2,1.440085E0,1.8890908E0,1.7971618E0,1.8837239E0,-1.267221E0,1.838571E0,-1.868248E0,-9.385776E-1,-1.7413908E0,-1.8912269E-2,-1.8268695E0,-1.8866148E0,7.774424E-1,2.1699736E-2,-1.869206E-2,1.6643578E0,1.8750971E-2,-1.7771294E-2,1.1740613E0,1.8279358E0,-1.0482831E-2,1.8893583E-2,1.7191111E0,1.8894905E-2,1.8545831E0,1.8878332E0,-1.8913554E-2,-1.0496672E0,-1.2602474E-2,1.9260477E-2,-1.6536795E0,-1.8911159E-2,-1.881864E-2,3.018329E-1,-1.7901145E0,1.0193317E-1,-1.8997572E-2,-1.4501506E0,-1.8804609E0,-1.8908616E-2,3.6393976E-4,1.7488884E-2,-2.953383E-3,5.304488E-3,1.580966E-2,1.7569073E-2,1.2316719E-2,-9.233642E-3,1.836189E-2,-1.7959159E-2,1.7485514E-2,6.678512E-3,-1.8130811E-2,1.8582374E-2,1.8387178E-2,1.8882882E-2,-1.53507255E-2,-6.0311025E-3,-1.8922118E-2,7.657205E-3,1.9065648E-2,-1.8844936E-2,-1.8934237E-2,-1.3739371E-2,1.9227182E-2,-1.8691318E-2,1.1568844E-2,-1.888491E-2,-1.882966E-2,-1.6862856E-2],"categories":[],"categories_nodes":[],"categories_segments":[],"categories_sizes":[],"default_left":[0,0,0,0,0,0,0,0,0,0,0,0,0,0,0,0,0,0,0,0,0,0,0,0,0,0,0,0,0,0,0,0,0,0,0,0,0,0,0,0,0,0,0,0,0,0,0,0,0,0,0,0,0,0,0,0,0,0,0,0,0,0,0,0,0,0,0,0,0,0,0,0,0,0,0,0,0,0,0,0,0,0,0,0,0,0,0,0,0,0,0,0,0,0,0,0,0,0,0,0,0,0,0,0,0,0,0],"id":6,"left_children":[1,3,5,7,9,11,13,15,17,19,21,23,25,-1,27,29,31,33,-1,-1,35,37,39,41,43,45,47,-1,-1,-1,49,51,-1,-1,53,-1,-1,55,57,59,61,63,65,67,69,71,-1,73,75,77,79,-1,81,-1,-1,83,85,-1,-1,87,-1,89,91,-1,93,-1,-1,95,-1,-1,97,99,101,-1,103,105,-1,-1,-1,-1,-1,-1,-1,-1,-1,-1,-1,-1,-1,-1,-1,-1,-1,-1,-1,-1,-1,-1,-1,-1,-1,-1,-1,-1,-1,-1,-1],"loss_changes":[2.275523E6,4.985075E4,1.0869625E4,6.1068188E4,2.965375E3,3.25875E2,2.0287291E3,4.713916E4,3.0454688E2,2.10209E3,1.6915E3,1.044418E3,2.675E1,0E0,1.3123755E2,7.6025376E3,2.1340781E3,2.7955997E2,0E0,0E0,1.9016113E1,1.9172031E3,1.630625E2,8.1075024E2,2.8742188E2,1.0028125E2,1.25E1,0E0,0E0,0E0,7.2354834E3,1.1511953E3,0E0,0E0,1.8445064E2,0E0,0E0,2.1389766E3,1.5808594E1,1.7752344E2,1.99375E1,3.4991162E2,2.601593E1,6.7515625E1,4.037119E2,5.8505664E2,0E0,1.2231738E2,4.625E0,1.2344855E4,7.8216113E3,0E0,2.4355469E2,0E0,0E0,1.488832E3,2.5575977E2,0E0,0E0,4.198828E2,0E0,3.2873438E2,3.75E-1,0E0,4.1612305E2,0E0,0E0,8.0627563E2,0E0,0E0,5.28796E2,2.7017578E2,6.0883954E2,0E0,8.508684E2,5.85E1,0E0,0E0,0E0,0E0,0E0,0E0,0E0,0E0,0E0,0E0,0E0,0E0,0E0,0E0,0E0,0E0,0E0,0E0,0E0,0E0,0E0,0E0,0E0,0E0,0E0,0E0,0E0,0E0,0E0,0E0,0E0],"parents":[2147483647,0,0,1,1,2,2,3,3,4,4,5,5,6,6,7,7,8,8,9,9,10,10,11,11,12,12,14,14,15,15,16,16,17,17,20,20,21,21,22,22,23,23,24,24,25,25,26,26,30,30,31,31,34,34,37,37,38,38,39,39,40,40,41,41,42,42,43,43,44,44,45,45,47,47,48,48,49,49,50,50,52,52,55,55,56,56,59,59,61,61,62,62,64,64,67,67,70,70,71,71,72,72,74,74,75,75],"right_children":[2,4,6,8,10,12,14,16,18,20,22,24,26,-1,28,30,32,34,-1,-1,36,38,40,42,44,46,48,-1,-1,-1,50,52,-1,-1,54,-1,-1,56,58,60,62,64,66,68,70,72,-1,74,76,78,80,-1,82,-1,-1,84,86,-1,-1,88,-1,90,92,-1,94,-1,-1,96,-1,-1,98,100,102,-1,104,106,-1,-1,-1,-1,-1,-1,-1,-1,-1,-1,-1,-1,-1,-1,-1,-1,-1,-1,-1,-1,-1,-1,-1,-1,-1,-1,-1,-1,-1,-1,-1],"split_conditions":[5.820766E-11,2.157383E5,1E0,1E0,0E0,1.6E1,3.534639E5,4.06E2,1E0,4.8306116E5,3.3755306E5,5.17059E3,3.7E1,-1.8856436E-2,2.34E2,0E0,1E0,8.179632E4,1.88942E-2,-1.8844588E-2,8.403858E5,1E0,4.436829E5,8.889384E6,1.7833556E6,4.1989503E5,4.452463E4,-1.7187178E-2,1.8877251E-2,-1.8885298E-2,1.26E2,0E0,-1.8807733E-2,-1.8430492E-2,8.307459E4,-1.133123E-2,1.8821023E-2,4.06E2,1E0,1E0,5.891943E5,0E0,3.6228866E5,3.98884E4,4.656613E-10,4.138085E5,-1.8912269E-2,3.976532E4,2.32E2,4.5E1,9.201784E4,-1.869206E-2,5.99E2,1.8750971E-2,-1.7771294E-2,1E0,1E0,-1.0482831E-2,1.8893583E-2,1E0,1.8894905E-2,-1.93905E3,1.4E1,-1.8913554E-2,2.2187883E5,-1.2602474E-2,1.9260477E-2,3.841736E4,-1.8911159E-2,-1.881864E-2,9.313226E-10,3.5E1,2.434294E4,-1.8997572E-2,4.116054E4,2.31E2,-1.8908616E-2,3.6393976E-4,1.7488884E-2,-2.953383E-3,5.304488E-3,1.580966E-2,1.7569073E-2,1.2316719E-2,-9.233642E-3,1.836189E-2,-1.7959159E-2,1.7485514E-2,6.678512E-3,-1.8130811E-2,1.8582374E-2,1.8387178E-2,1.8882882E-2,-1.53507255E-2,-6.0311025E-3,-1.8922118E-2,7.657205E-3,1.9065648E-2,-1.8844936E-2,-1.8934237E-2,-1.3739371E-2,1.9227182E-2,-1.8691318E-2,1.1568844E-2,-1.888491E-2,-1.882966E-2,-1.6862856E-2],"split_indices":[6,1,8,8,6,0,1,0,10,7,1,4,0,0,0,6,10,1,0,0,1,8,1,5,1,5,5,0,0,0,0,6,0,0,1,0,0,0,10,8,1,7,1,1,7,5,0,6,0,0,1,0,0,0,0,10,10,0,0,10,0,7,0,0,6,0,0,6,0,0,7,0,1,0,1,0,0,0,0,0,0,0,0,0,0,0,0,0,0,0,0,0,0,0,0,0,0,0,0,0,0,0,0,0,0,0,0],"split_type":[0,0,0,0,0,0,0,0,0,0,0,0,0,0,0,0,0,0,0,0,0,0,0,0,0,0,0,0,0,0,0,0,0,0,0,0,0,0,0,0,0,0,0,0,0,0,0,0,0,0,0,0,0,0,0,0,0,0,0,0,0,0,0,0,0,0,0,0,0,0,0,0,0,0,0,0,0,0,0,0,0,0,0,0,0,0,0,0,0,0,0,0,0,0,0,0,0,0,0,0,0,0,0,0,0,0,0],"sum_hessian":[7.8017094E5,4.2450522E5,3.5566575E5,1.6448777E5,2.6001745E5,3.5456303E5,1.1027164E3,9.957411E4,6.491366E4,6.1813184E2,2.5939931E5,1.7416473E4,3.3714653E5,1.7147908E2,9.312373E2,6.739488E4,3.2179225E4,1.3840317E2,6.4775254E4,3.6524884E2,2.5288298E2,3.834941E4,2.210499E5,2.6766367E3,1.4739835E4,2.2396576E4,3.1474997E5,9.470318E0,9.2176697E2,1.7562327E3,6.563865E4,3.200831E4,1.7091515E2,3.886875E1,9.953442E1,1.4950207E0,2.5138795E2,2.0750838E4,1.7598572E4,2.5083484E4,1.9596642E5,2.590618E3,8.601891E1,1.4396286E4,3.435491E2,6.511094E3,1.5885481E4,4.5539946E3,3.1019597E5,1.7147373E4,4.8491277E4,9.168582E1,3.1916625E4,8.3837524E1,1.5696893E1,1.2310911E4,8.439927E3,1.2457471E0,1.7597326E4,1.3603385E4,1.14801E4,2.4275197E4,1.7169123E5,6.6761615E2,1.9230017E3,1.9935025E0,8.402541E1,1.3935918E3,1.3002694E4,1.9485327E2,1.4869585E2,6.3434497E3,1.6764444E2,3.8123389E3,7.4165564E2,1.2684063E5,1.8335534E5,9.727771E3,7.4196006E3,2.9874656E4,1.8616623E4,1.6798475E4,1.511815E4,1.1982205E4,3.2870572E2,8.42124E3,1.8686298E1,1.3232156E4,3.7122824E2,2.3669039E1,2.4251527E4,1.6132966E3,1.7007794E5,9.2025336E2,1.0027483E3,1.2687242E3,1.2486761E2,8.58276E1,6.286825E1,5.0790967E3,1.2643534E3,8.715704E1,8.04874E1,1.0651532E2,6.351403E2,1.2521639E5,1.6242485E3],"tree_param":{"num_deleted":"0","num_feature":"11","num_nodes":"107","size_leaf_vector":"1"}},{"base_weights":[-2.2569005E-3,1.5476657E0,-1.8509241E0,1.8741992E0,-1.3220615E0,-1.858839E0,1.7347502E0,-1.5602059E-2,1.8742437E-2,-1.881144E0,1.8509876E0,-1.8605887E0,-7.4193525E-1,-1.811408E-2,1.8705497E-2,-1.5483285E0,-1.8898942E-2,1.8716811E0,-1.8412538E-2,-1.7850841E0,-1.870148E0,-1.8689973E-2,1.8624647E-2,-1.8869173E-2,1.2572718E0,-1.1702062E-2,1.8725697E-2,2.3411566E-1,-1.7928059E0,-1.8115932E0,-1.8710166E0,-1.7745873E-2,1.7941926E0,1.7386385E0,-1.8457003E-2,-1.6146145E0,-1.8337488E0,-1.8828701E-2,-1.4677961E0,-1.8670619E0,-1.8754618E-2,1.9135904E-2,-1.3963016E-2,1.9081444E-2,-1.5008827E-2,3.2161616E-3,-1.8788433E-2,-1.8433245E-2,-1.1993264E-2,6.407951E-3,-1.8712936E-2,-9.780373E-3,-1.868973E-2],"categories":[],"categories_nodes":[],"categories_segments":[],"categories_sizes":[],"default_left":[0,0,0,0,0,0,0,0,0,0,0,0,0,0,0,0,0,0,0,0,0,0,0,0,0,0,0,0,0,0,0,0,0,0,0,0,0,0,0,0,0,0,0,0,0,0,0,0,0,0,0,0,0],"id":7,"left_children":[1,3,5,7,9,11,13,-1,-1,15,17,19,21,-1,-1,23,-1,25,-1,27,29,-1,-1,-1,31,-1,-1,33,35,37,39,-1,41,43,-1,45,47,-1,49,51,-1,-1,-1,-1,-1,-1,-1,-1,-1,-1,-1,-1,-1],"loss_changes":[2.2311055E6,3.9690106E5,1.008125E4,6.1125E1,7.6767086E4,6.91E2,3.802837E2,0E0,0E0,1.0422656E2,4.9875977E2,2.52E2,1.6351677E3,0E0,0E0,9.029175E2,0E0,1.961914E1,0E0,6.206328E2,1.2625E1,0E0,0E0,0E0,1.7034534E2,0E0,0E0,4.80159E2,2.861328E2,1.1048633E2,2E0,0E0,3.609369E1,5.1712433E1,0E0,3.7927168E3,1.9349219E2,0E0,6.8027893E2,2.7675E2,0E0,0E0,0E0,0E0,0E0,0E0,0E0,0E0,0E0,0E0,0E0,0E0,0E0],"parents":[2147483647,0,0,1,1,2,2,3,3,4,4,5,5,6,6,9,9,10,10,11,11,12,12,15,15,17,17,19,19,20,20,24,24,27,27,28,28,29,29,30,30,32,32,33,33,35,35,36,36,38,38,39,39],"right_children":[2,4,6,8,10,12,14,-1,-1,16,18,20,22,-1,-1,24,-1,26,-1,28,30,-1,-1,-1,32,-1,-1,34,36,38,40,-1,42,44,-1,46,48,-1,50,52,-1,-1,-1,-1,-1,-1,-1,-1,-1,-1,-1,-1,-1],"split_conditions":[5.820766E-11,2.8174E2,1.585932E6,0E0,4.8306116E5,3.5288006E5,1.2483449E6,-1.5602059E-2,1.8742437E-2,-2.3293123E5,1.9702034E5,3.7E1,1.7019355E5,-1.811408E-2,1.8705497E-2,-2.3754327E5,-1.8898942E-2,3.1951794E5,-1.8412538E-2,-5.0818425E6,4.452463E4,-1.8689973E-2,1.8624647E-2,-1.8869173E-2,2.8673297E5,-1.1702062E-2,1.8725697E-2,1.99283E3,4.479117E4,3.976532E4,3.9E1,-1.7745873E-2,3.42877E5,3.9E1,-1.8457003E-2,3.9E1,1.7096062E6,-1.8828701E-2,4.110741E4,1.99283E3,-1.8754618E-2,1.9135904E-2,-1.3963016E-2,1.9081444E-2,-1.5008827E-2,3.2161616E-3,-1.8788433E-2,-1.8433245E-2,-1.1993264E-2,6.407951E-3,-1.8712936E-2,-9.780373E-3,-1.868973E-2],"split_indices":[6,3,3,6,7,3,7,0,0,7,4,0,6,0,0,7,0,3,0,7,5,0,0,0,3,0,0,4,4,6,2,0,2,2,0,2,6,0,6,4,0,0,0,0,0,0,0,0,0,0,0,0,0],"split_type":[0,0,0,0,0,0,0,0,0,0,0,0,0,0,0,0,0,0,0,0,0,0,0,0,0,0,0,0,0,0,0,0,0,0,0,0,0,0,0,0,0,0,0,0,0,0,0,0,0,0,0,0,0],"sum_hessian":[7.7866425E5,4.2355547E5,3.5510875E5,3.802849E5,4.3270566E4,3.5432712E5,7.816441E2,4.489371E0,3.8028044E5,3.6788875E4,6.481692E3,3.5377225E5,5.548802E2,2.8373852E1,7.5327026E2,9.469973E2,3.5841875E4,6.4460576E3,3.5634453E1,3.97769E4,3.1399534E5,3.8747955E2,1.6740062E2,8.4531006E2,1.0168729E2,1.4984944E0,6.444559E3,1.5142253E2,3.9625477E4,4.620552E3,3.0937478E5,1.4951987E1,8.67353E1,8.7958244E1,6.346428E1,7.4111387E3,3.2214338E4,3.8233962E3,7.9715546E2,1.6394548E5,1.454293E5,8.399228E1,2.743023E0,8.397527E1,3.9829733E0,8.8989557E2,6.521243E3,3.1733455E4,4.8088293E2,1.2794651E2,6.692089E2,3.5278323E2,1.635927E5],"tree_param":{"num_deleted":"0","num_feature":"11","num_nodes":"53","size_leaf_vector":"1"}},{"base_weights":[-6.0626427E-3,-1.3412564E0,1.2392297E0,9.971174E-1,-1.656606E0,1.4946288E0,-1.1494335E0,-5.5946473E-2,1.833068E0,-7.9902244E-1,-1.8381441E0,6.9995284E-1,1.7542766E0,-1.8526931E0,1.8323474E0,1.6810347E0,-5.183567E-1,1.8502692E0,-1.8428711E-2,-1.7807413E0,1.8410748E-1,-1.6437759E0,-1.844749E0,1.4493428E0,-1.8575033E-2,1.4536462E0,1.8314053E0,-1.8625861E0,1.1486926E0,-1.8225687E-2,1.8560592E-2,-1.8449731E-2,1.7664654E0,-9.508473E-1,1.1545304E0,1.8520232E-2,-1.7107135E-2,-4.071182E-1,-1.8336763E0,5.833848E-1,-1.8709421E-2,-8.4260255E-1,-1.8575167E-2,-1.3609213E0,-1.8470421E0,1.8378612E0,1.1204492E0,1.6881074E0,-1.8564742E-2,1.7603755E0,1.8501642E0,-1.736998E0,-1.8728849E-2,1.812574E-2,-1.7817117E-2,1.8056633E0,-1.8176958E-2,-7.427278E-1,-1.8699005E-2,1.3274854E0,-1.8740144E-2,-1.855399E-2,1.5749186E0,-1.597645E0,-1.8572168E-2,1.8058069E0,1.8297772E-1,1.5627372E0,-1.8599693E-2,-1.8598132E-2,1.4508767E0,-1.8482015E0,-1.4331493E0,1.8441653E0,9.418862E-1,1.7691367E0,7.517762E-1,1.8468015E0,1.5144254E0,1.8212243E0,-1.8546304E-2,1.8259128E0,1.8540684E0,-1.8702008E-2,-1.0220255E0,1.8298524E-2,-1.8050198E-2,-9.694328E-3,7.786081E-3,1.7129365E-2,1.0336648E-2,1.7141648E-2,-1.7615598E-2,-1.71674E-2,-2.6037064E-3,1.8084273E-2,-1.5188372E-2,-2.935137E-3,1.4406105E-2,-1.8199846E-2,1.6587012E-2,-1.7944045E-2,1.8342342E-2,-1.7909152E-2,-1.8504443E-2,1.6421063E-2,-1.8544318E-2,1.6598739E-2,1.85512E-2,1.7967548E-2,-1.8393995E-2,1.7773999E-2,-1.800402E-2,3.2248693E-3,1.6291443E-2,1.8485384E-2,-1.7414473E-2,1.11089E-2,1.6760144E-2,1.8405676E-2,1.712783E-2,1.8506436E-2,-1.8789448E-2,1.7974066E-2,1.8545141E-2,2.8932125E-3,-1.8633595E-2],"categories":[],"categories_nodes":[],"categories_segments":[],"categories_sizes":[],"default_left":[0,0,0,0,0,0,0,0,0,0,0,0,0,0,0,0,0,0,0,0,0,0,0,0,0,0,0,0,0,0,0,0,0,0,0,0,0,0,0,0,0,0,0,0,0,0,0,0,0,0,0,0,0,0,0,0,0,0,0,0,0,0,0,0,0,0,0,0,0,0,0,0,0,0,0,0,0,0,0,0,0,0,0,0,0,0,0,0,0,0,0,0,0,0,0,0,0,0,0,0,0,0,0,0,0,0,0,0,0,0,0,0,0,0,0,0,0,0,0,0,0,0,0,0,0,0,0],"id":8,"left_children":[1,3,5,7,9,11,13,15,17,19,21,23,25,27,29,31,33,35,-1,37,39,41,43,45,-1,47,49,51,53,-1,-1,-1,55,57,59,-1,-1,61,63,65,-1,67,-1,69,71,73,75,77,-1,79,81,83,-1,-1,-1,85,-1,87,-1,89,-1,-1,91,93,-1,95,97,99,-1,-1,101,103,105,107,109,111,113,115,117,119,-1,121,123,-1,125,-1,-1,-1,-1,-1,-1,-1,-1,-1,-1,-1,-1,-1,-1,-1,-1,-1,-1,-1,-1,-1,-1,-1,-1,-1,-1,-1,-1,-1,-1,-1,-1,-1,-1,-1,-1,-1,-1,-1,-1,-1,-1],"loss_changes":[1.2906095E6,2.7622175E5,2.4501881E5,3.9185746E4,5.1385375E4,7.486406E4,8.135526E4,1.5823582E4,1.5724688E3,5.565745E4,3.46625E2,1.7125664E5,6.3385E3,9.342578E2,6.4506836E2,1.2509463E3,1.1257918E4,1.5744531E2,0E0,2.0972969E3,2.364347E4,1.5330625E3,2.898125E2,8.828531E3,0E0,4.334167E4,2.866875E2,3.7226562E1,2.0507346E2,0E0,0E0,0E0,5.71501E2,2.3633408E3,1.6768428E3,0E0,0E0,3.080044E3,1.5139844E2,1.1808878E4,0E0,4.6258955E3,0E0,1.75125E3,1.231875E2,1.7719531E2,8.949676E3,1.4345469E3,0E0,1.0009703E4,1.2875E1,2.2524121E2,0E0,0E0,0E0,3.527705E2,0E0,3.478005E3,0E0,3.4075732E2,0E0,0E0,2.135376E2,4.0197705E2,0E0,5.460742E1,1.0891774E4,1.8548022E2,0E0,0E0,2.3767609E2,3.03125E1,9.578176E2,6.04375E1,5.3444385E2,4.0323438E2,8.988636E3,1.7302344E2,1.6220625E3,9.0703125E1,0E0,2.196664E3,4.375E-1,0E0,4.1623773E2,0E0,0E0,0E0,0E0,0E0,0E0,0E0,0E0,0E0,0E0,0E0,0E0,0E0,0E0,0E0,0E0,0E0,0E0,0E0,0E0,0E0,0E0,0E0,0E0,0E0,0E0,0E0,0E0,0E0,0E0,0E0,0E0,0E0,0E0,0E0,0E0,0E0,0E0,0E0,0E0,0E0,0E0],"parents":[2147483647,0,0,1,1,2,2,3,3,4,4,5,5,6,6,7,7,8,8,9,9,10,10,11,11,12,12,13,13,14,14,15,15,16,16,17,17,19,19,20,20,21,21,22,22,23,23,25,25,26,26,27,27,28,28,32,32,33,33,34,34,37,37,38,38,39,39,41,41,43,43,44,44,45,45,46,46,47,47,49,49,50,50,51,51,55,55,57,57,59,59,62,62,63,63,65,65,66,66,67,67,70,70,71,71,72,72,73,73,74,74,75,75,76,76,77,77,78,78,79,79,81,81,82,82,84,84],"right_children":[2,4,6,8,10,12,14,16,18,20,22,24,26,28,30,32,34,36,-1,38,40,42,44,46,-1,48,50,52,54,-1,-1,-1,56,58,60,-1,-1,62,64,66,-1,68,-1,70,72,74,76,78,-1,80,82,84,-1,-1,-1,86,-1,88,-1,90,-1,-1,92,94,-1,96,98,100,-1,-1,102,104,106,108,110,112,114,116,118,120,-1,122,124,-1,126,-1,-1,-1,-1,-1,-1,-1,-1,-1,-1,-1,-1,-1,-1,-1,-1,-1,-1,-1,-1,-1,-1,-1,-1,-1,-1,-1,-1,-1,-1,-1,-1,-1,-1,-1,-1,-1,-1,-1,-1,-1,-1],"split_conditions":[5.5655E4,5.66808E4,2.8174E2,1E0,5.138065E4,1.6577314E5,1E0,9E0,5.643332E4,1.92E2,1.4E1,1.667069E5,3.25976E5,9.426721E5,3.033972E5,1.63E2,4.06E2,2.8174E2,-1.8428711E-2,1.38404E3,2.8174E2,4.479117E4,5.264899E4,7.377329E4,-1.8575033E-2,3.2655594E5,5.3433225E5,1.8E1,6.702314E5,-1.8225687E-2,1.8560592E-2,-1.8449731E-2,5.517079E4,2.8174E2,2.8174E2,1.8520232E-2,-1.7107135E-2,4.22E2,2.3E1,9E0,-1.8709421E-2,3.9E1,-1.8575167E-2,5.1242E4,5.4719E4,1.99283E3,1E1,2.043888E5,-1.8564742E-2,5.382869E5,7.21629E5,1.7E1,-1.8728849E-2,1.812574E-2,-1.7817117E-2,2.8174E2,-1.8176958E-2,3.2773E4,-1.8699005E-2,9.59289E3,-1.8740144E-2,-1.855399E-2,1.8E1,2.1E1,-1.8572168E-2,5.009284E4,4.06E2,1.9048153E5,-1.8599693E-2,-1.8598132E-2,4.04E2,1.9E1,8E0,1E0,9E0,1.6063845E5,4.06E2,2.906952E4,2.09461E5,4.193874E5,-1.8546304E-2,7.184409E5,1.3E1,-1.8702008E-2,4.243495E4,1.8298524E-2,-1.8050198E-2,-9.694328E-3,7.786081E-3,1.7129365E-2,1.0336648E-2,1.7141648E-2,-1.7615598E-2,-1.71674E-2,-2.6037064E-3,1.8084273E-2,-1.5188372E-2,-2.935137E-3,1.4406105E-2,-1.8199846E-2,1.6587012E-2,-1.7944045E-2,1.8342342E-2,-1.7909152E-2,-1.8504443E-2,1.6421063E-2,-1.8544318E-2,1.6598739E-2,1.85512E-2,1.7967548E-2,-1.8393995E-2,1.7773999E-2,-1.800402E-2,3.2248693E-3,1.6291443E-2,1.8485384E-2,-1.7414473E-2,1.11089E-2,1.6760144E-2,1.8405676E-2,1.712783E-2,1.8506436E-2,-1.8789448E-2,1.7974066E-2,1.8545141E-2,2.8932125E-3,-1.8633595E-2],"split_indices":[2,5,3,8,1,2,8,9,1,2,0,1,2,1,1,2,0,3,0,1,3,4,1,5,0,1,2,0,5,0,0,0,1,3,3,0,0,0,0,9,0,2,0,2,2,4,9,5,0,1,2,0,0,0,0,3,0,2,0,1,0,0,9,0,0,1,0,5,0,0,0,0,9,8,9,1,0,4,2,4,0,1,0,0,1,0,0,0,0,0,0,0,0,0,0,0,0,0,0,0,0,0,0,0,0,0,0,0,0,0,0,0,0,0,0,0,0,0,0,0,0,0,0,0,0,0,0],"split_type":[0,0,0,0,0,0,0,0,0,0,0,0,0,0,0,0,0,0,0,0,0,0,0,0,0,0,0,0,0,0,0,0,0,0,0,0,0,0,0,0,0,0,0,0,0,0,0,0,0,0,0,0,0,0,0,0,0,0,0,0,0,0,0,0,0,0,0,0,0,0,0,0,0,0,0,0,0,0,0,0,0,0,0,0,0,0,0,0,0,0,0,0,0,0,0,0,0,0,0,0,0,0,0,0,0,0,0,0,0,0,0,0,0,0,0,0,0,0,0,0,0,0,0,0,0,0,0],"sum_hessian":[7.76208E5,3.7458284E5,4.016252E5,4.4512492E4,3.3007034E5,3.6283116E5,3.879403E4,1.9698645E4,2.4813848E4,5.7665367E4,2.7240497E5,8.9355164E4,2.73476E5,3.1390818E4,7.4032144E3,4.14098E3,1.5557665E4,2.469877E4,1.150787E2,2.8852982E4,2.8812383E4,8.960686E3,2.6344428E5,6.910604E4,2.0249129E4,5.5840824E4,2.1763517E5,3.1288066E4,1.027523E2,4.7230976E1,7.3559834E3,9.7470146E1,4.0435098E3,1.2362123E4,3.195542E3,2.468709E4,1.1680504E1,1.0709639E3,2.778202E4,2.4125697E4,4.6866855E3,1.8881605E3,7.0725254E3,1.2454877E3,2.6219878E5,3.1679184E4,3.742685E4,5.2147617E4,3.6932087E3,4.548875E4,1.7214642E5,2.3841484E3,2.8903918E4,8.4084465E1,1.8667826E1,4.0002573E3,4.325228E1,1.0081074E4,2.2810496E3,3.0234402E3,1.7210178E2,6.1883966E2,4.521243E2,2.5257969E3,2.5256223E4,5.9517627E3,1.8173934E4,5.610783E2,1.3270822E3,1.0580912E3,1.8739651E2,2.6146283E5,7.3596216E2,3.1456795E4,2.223897E2,1.3561435E4,2.3865416E4,2.7244516E4,2.4903102E4,4.4736234E4,7.5251685E2,2.393575E4,1.4821067E5,2.0083644E3,3.7578406E2,3.9741267E3,2.613074E1,8.773967E3,1.3071074E3,1.3057069E3,1.7177333E3,4.344778E2,1.7646473E1,2.3189888E3,2.0680827E2,5.9475312E3,4.231609E0,1.3180774E4,4.9931597E3,1.4982465E1,5.460959E2,1.940916E1,1.6798735E2,9.880509E3,2.5158233E5,8.832371E1,6.476384E2,1.7735378E3,2.9683258E4,1.703761E2,5.2013588E1,1.3530614E4,3.0820543E1,1.602559E4,7.839826E3,2.7231818E4,1.2696701E1,7.1229307E3,1.778017E4,3.795078E4,6.7854507E3,2.377753E4,1.5822037E2,1.1886327E3,1.4702203E5,1.4712444E2,2.2865964E2],"tree_param":{"num_deleted":"0","num_feature":"11","num_nodes":"127","size_leaf_vector":"1"}},{"base_weights":[-3.8734704E-4,1.5225557E0,-1.8195761E0,1.8430756E0,-1.317612E0,-1.8290719E0,1.2545261E0,-1.5651565E-2,1.843122E-2,-1.8484347E0,1.8179551E0,-1.6975299E0,-1.8358666E0,-1.8458618E-2,1.8360658E-2,-1.5221597E0,-1.8570738E-2,1.8398563E0,-1.8106775E-2,-1.2346318E0,-1.7783581E0,-1.7865676E0,-1.8393892E0,-1.854187E-2,1.2848672E0,-1.0783579E-2,1.8406205E-2,-1.3393143E0,1.8009231E0,-1.79915E0,-8.951406E-1,-1.6973326E0,-1.8228592E0,-1.8493338E-2,-1.8356247E0,-1.7345237E-2,1.7756296E0,-1.4374799E0,-5.8450256E-2,1.8758753E-2,-1.1780117E-2,-1.5466425E0,-1.8192106E0,-1.8377965E-2,3.3405685E-1,-1.7456521E0,1.5597263E-1,-1.8438492E-2,-1.6996007E0,-1.8274908E0,-1.8413141E-2,1.8822832E-2,-1.3371717E-2,-1.6674196E-2,-6.9267657E-3,-1.8213183E-2,7.3148087E-3,-1.8502815E-2,2.7510729E-3,-1.6537411E-2,-1.8427452E-2,1.9289676E-2,-1.8393992E-2,-1.8480787E-2,-1.3297695E-2,1.8831257E-2,-1.821164E-2,-1.5180172E-4,-1.8430177E-2,-1.8308612E-2,-1.5777072E-2],"categories":[],"categories_nodes":[],"categories_segments":[],"categories_sizes":[],"default_left":[0,0,0,0,0,0,0,0,0,0,0,0,0,0,0,0,0,0,0,0,0,0,0,0,0,0,0,0,0,0,0,0,0,0,0,0,0,0,0,0,0,0,0,0,0,0,0,0,0,0,0,0,0,0,0,0,0,0,0,0,0,0,0,0,0,0,0,0,0,0,0],"id":9,"left_children":[1,3,5,7,9,11,13,-1,-1,15,17,19,21,-1,-1,23,-1,25,-1,27,29,31,33,-1,35,-1,-1,37,39,41,43,45,47,-1,49,-1,51,53,55,-1,-1,57,59,-1,61,63,65,-1,67,69,-1,-1,-1,-1,-1,-1,-1,-1,-1,-1,-1,-1,-1,-1,-1,-1,-1,-1,-1,-1,-1],"loss_changes":[2.1542865E6,3.85299E5,1.034525E4,6.325E1,7.144331E4,3.1275E2,1.9717452E3,0E0,0E0,1.00640625E2,4.9722266E2,6.474531E2,5.5E1,0E0,0E0,8.9006226E2,0E0,1.5761719E1,0E0,8.236653E2,2.698047E2,6.95625E1,8.5E0,0E0,1.5323517E2,0E0,0E0,3.141123E2,2.1541351E1,7.032422E1,3.9680255E2,5.8238477E2,3.809375E1,0E0,7.125E0,0E0,3.161908E1,3.9632715E2,2.5048854E2,0E0,0E0,5.920327E2,4.901953E1,0E0,5.2092426E2,2.6741016E2,5.7059534E2,0E0,5.631802E2,7.603125E1,0E0,0E0,0E0,0E0,0E0,0E0,0E0,0E0,0E0,0E0,0E0,0E0,0E0,0E0,0E0,0E0,0E0,0E0,0E0,0E0,0E0],"parents":[2147483647,0,0,1,1,2,2,3,3,4,4,5,5,6,6,9,9,10,10,11,11,12,12,15,15,17,17,19,19,20,20,21,21,22,22,24,24,27,27,28,28,29,29,30,30,31,31,32,32,34,34,36,36,37,37,38,38,41,41,42,42,44,44,45,45,46,46,48,48,49,49],"right_children":[2,4,6,8,10,12,14,-1,-1,16,18,20,22,-1,-1,24,-1,26,-1,28,30,32,34,-1,36,-1,-1,38,40,42,44,46,48,-1,50,-1,52,54,56,-1,-1,58,60,-1,62,64,66,-1,68,70,-1,-1,-1,-1,-1,-1,-1,-1,-1,-1,-1,-1,-1,-1,-1,-1,-1,-1,-1,-1,-1],"split_conditions":[5.820766E-11,2.8174E2,1E0,0E0,4.8306116E5,1.6E1,2.031486E5,-1.5651565E-2,1.843122E-2,-2.3293123E5,1.9702034E5,5.17059E3,3.7E1,-1.8458618E-2,1.8360658E-2,-2.3754327E5,-1.8570738E-2,3.1951794E5,-1.8106775E-2,8.889384E6,1.7096062E6,4.1989503E5,8.451079E4,-1.854187E-2,2.8673297E5,-1.0783579E-2,1.8406205E-2,1.99283E3,9.412502E6,4.479117E4,4.656613E-10,4.138085E5,5.0618747E5,-1.8493338E-2,2.32E2,-1.7345237E-2,3.0232325E5,4.49194E5,1.2E1,1.8758753E-2,-1.1780117E-2,4.070899E4,3.976532E4,-1.8377965E-2,9.313226E-10,3.5E1,2.350291E4,-1.8438492E-2,5.2058578E5,2.31E2,-1.8413141E-2,1.8822832E-2,-1.3371717E-2,-1.6674196E-2,-6.9267657E-3,-1.8213183E-2,7.3148087E-3,-1.8502815E-2,2.7510729E-3,-1.6537411E-2,-1.8427452E-2,1.9289676E-2,-1.8393992E-2,-1.8480787E-2,-1.3297695E-2,1.8831257E-2,-1.821164E-2,-1.5180172E-4,-1.8430177E-2,-1.8308612E-2,-1.5777072E-2],"split_indices":[6,3,8,6,7,0,3,0,0,7,4,4,0,0,0,7,0,3,0,5,6,5,6,0,3,0,0,4,5,4,7,5,6,0,0,0,3,6,0,0,0,4,6,0,7,0,6,0,6,0,0,0,0,0,0,0,0,0,0,0,0,0,0,0,0,0,0,0,0,0,0],"split_type":[0,0,0,0,0,0,0,0,0,0,0,0,0,0,0,0,0,0,0,0,0,0,0,0,0,0,0,0,0,0,0,0,0,0,0,0,0,0,0,0,0,0,0,0,0,0,0,0,0,0,0,0,0,0,0,0,0,0,0,0,0,0,0,0,0,0,0,0,0,0,0],"sum_hessian":[7.7757256E5,4.2324828E5,3.5432428E5,3.8032772E5,4.2920562E4,3.5323356E5,1.0907125E3,4.7353096E0,3.8032297E5,3.6706844E4,6.21372E3,1.7362299E4,3.3587125E5,1.7192848E2,9.1878406E2,9.514363E2,3.5755406E4,6.1769316E3,3.678886E1,2.5834282E3,1.4778871E4,2.243247E4,3.1343878E5,8.511035E2,1.0033277E2,1.2478385E0,6.1756836E3,2.4978474E3,8.55807E1,1.4437949E4,3.409221E2,6.4993604E3,1.593311E4,8.593425E4,2.2750453E5,1.3673418E1,8.6659355E1,2.319926E3,1.7792159E2,8.384148E1,1.7392305E0,1.0683641E3,1.3369585E4,1.9267044E2,1.4825165E2,6.334271E3,1.6508961E2,1.3602708E4,2.330402E3,9.377029E4,1.3373425E5,8.417073E1,2.488627E0,1.7717139E3,5.482121E2,5.465154E1,1.2327005E2,9.157212E2,1.526429E2,1.6736456E3,1.1695939E4,8.5571E1,6.2680645E1,5.079749E3,1.2545217E3,8.814072E1,7.69489E1,1.8293646E2,2.1474656E3,9.251564E4,1.2546528E3],"tree_param":{"num_deleted":"0","num_feature":"11","num_nodes":"71","size_leaf_vector":"1"}},{"base_weights":[-8.0315E-4,1.5097053E0,-1.8025377E0,1.8277723E0,-1.2940546E0,-1.8119456E0,1.2272679E0,-1.5913887E-2,1.8278258E-2,-1.8327428E0,1.8160838E0,-1.1437838E0,-1.8128079E0,-1.8306805E-2,1.8207783E-2,-1.5063971E0,-1.8413123E-2,-1.7397452E-2,1.8251432E-2,3.5421112E-1,-1.8209431E-2,-1.7726676E0,-1.8210982E0,-1.8383564E-2,1.2731137E0,1.8266685E-2,-1.7955575E-2,-5.994777E-1,-1.8310037E-2,-1.8151923E0,-1.8309724E0,-1.7203683E-2,1.7594616E0,-1.8353548E-2,6.0534054E-1,-1.8167552E0,-1.7403029E0,-1.8481847E-2,-1.8274635E-2,1.8765107E-2,-1.3694856E-2,-1.8674258E-2,7.3407567E-3,-1.7953474E-2,-1.8195769E-2,1.717066E-2,-1.8258238E-2],"categories":[],"categories_nodes":[],"categories_segments":[],"categories_sizes":[],"default_left":[0,0,0,0,0,0,0,0,0,0,0,0,0,0,0,0,0,0,0,0,0,0,0,0,0,0,0,0,0,0,0,0,0,0,0,0,0,0,0,0,0,0,0,0,0,0,0],"id":10,"left_children":[1,3,5,7,9,11,13,-1,-1,15,17,19,21,-1,-1,23,-1,-1,-1,25,-1,27,29,-1,31,-1,-1,33,-1,35,37,-1,39,-1,41,43,45,-1,-1,-1,-1,-1,-1,-1,-1,-1,-1],"loss_changes":[2.1115828E6,3.7637844E5,1.008775E4,7.25E1,7.2046945E4,2.01375E2,1.9922687E3,0E0,0E0,9.9734375E1,2.0769922E2,4.645865E2,1.14E2,0E0,0E0,8.7275146E2,0E0,0E0,0E0,4.5663998E2,0E0,4.1285312E3,1.36875E1,0E0,1.5041286E2,0E0,0E0,4.2592666E3,0E0,1.81875E1,3.25E0,0E0,3.464554E1,0E0,4.6257373E2,7.625E0,1.115041E3,0E0,0E0,0E0,0E0,0E0,0E0,0E0,0E0,0E0,0E0],"parents":[2147483647,0,0,1,1,2,2,3,3,4,4,5,5,6,6,9,9,10,10,11,11,12,12,15,15,19,19,21,21,22,22,24,24,27,27,29,29,30,30,32,32,34,34,35,35,36,36],"right_children":[2,4,6,8,10,12,14,-1,-1,16,18,20,22,-1,-1,24,-1,-1,-1,26,-1,28,30,-1,32,-1,-1,34,-1,36,38,-1,40,-1,42,44,46,-1,-1,-1,-1,-1,-1,-1,-1,-1,-1],"split_conditions":[5.820766E-11,2.8174E2,1E0,0E0,9.426721E5,-5.0818425E6,2.031486E5,-1.5913887E-2,1.8278258E-2,-2.3293123E5,4.2174156E5,1.99283E3,4.479117E4,-1.8306805E-2,1.8207783E-2,-2.3754327E5,-1.8413123E-2,-1.7397452E-2,1.8251432E-2,3.9E1,-1.8209431E-2,3.9E1,3.9E1,-1.8383564E-2,2.8673297E5,1.8266685E-2,-1.7955575E-2,3.98884E4,-1.8310037E-2,1.7833556E6,4.649678E4,-1.7203683E-2,3.42877E5,-1.8353548E-2,0E0,3.976532E4,1.2904448E6,-1.8481847E-2,-1.8274635E-2,1.8765107E-2,-1.3694856E-2,-1.8674258E-2,7.3407567E-3,-1.7953474E-2,-1.8195769E-2,1.717066E-2,-1.8258238E-2],"split_indices":[6,3,8,6,1,7,3,0,0,7,7,4,4,0,0,7,0,0,0,2,0,2,2,0,3,0,0,1,0,1,6,0,2,0,7,6,4,0,0,0,0,0,0,0,0,0,0],"split_type":[0,0,0,0,0,0,0,0,0,0,0,0,0,0,0,0,0,0,0,0,0,0,0,0,0,0,0,0,0,0,0,0,0,0,0,0,0,0,0,0,0,0,0,0,0,0,0],"sum_hessian":[7.758772E5,4.2204784E5,3.5382934E5,3.7904788E5,4.299998E4,3.5273447E5,1.0948782E3,5.4779286E0,3.7904238E5,3.6652105E4,6.347878E3,4.5636407E2,3.522781E5,1.7762337E2,9.172549E2,9.42346E2,3.5709758E4,1.5646566E1,6.3322314E3,1.4222171E2,3.1414236E2,6.0338996E4,2.919391E5,8.421106E2,1.00235374E2,8.44969E1,5.772481E1,2.8587278E3,5.7480266E4,1.827939E5,1.091452E5,1.3654471E1,8.65809E1,1.4109164E3,1.4478114E3,1.7903438E5,3.759538E3,1.8393383E4,9.075182E4,8.384467E1,2.7362273E0,7.097652E1,1.376835E3,2.0925117E4,1.5810925E5,9.029009E1,3.669248E3],"tree_param":{"num_deleted":"0","num_feature":"11","num_nodes":"47","size_leaf_vector":"1"}},{"base_weights":[1.1425252E-3,1.4981248E0,-1.7903091E0,1.8127921E0,-1.2773082E0,-1.7971091E0,1.6697868E0,-1.567772E-2,1.8128427E-2,-1.8174573E0,1.802043E0,-1.7979472E0,-6.436472E-1,-1.7480223E-2,1.8081775E-2,-1.6990167E0,-1.8259568E-2,1.8100694E-2,-1.71402E-2,-1.6687872E0,-1.8046188E0,-1.8163687E-2,1.7899577E-2,-1.8244486E-2,-1.0297211E0,-1.549098E0,-1.818696E-2,-1.7565523E0,-1.808049E0,-1.8207613E-2,1.3009655E-1,-1.6034523E0,-5.640668E-1,-1.7037215E0,-1.8175468E-2,-1.8011689E0,-1.8156353E0,1.795838E-2,-1.8039668E-2,-1.0077497E-2,-1.6923599E-2,1.046151E-2,-1.8102368E-2,-1.3834899E-2,-1.77782E-2,-1.4738664E-2,-1.8030189E-2,-1.8323239E-2,-1.8122112E-2],"categories":[],"categories_nodes":[],"categories_segments":[],"categories_sizes":[],"default_left":[0,0,0,0,0,0,0,0,0,0,0,0,0,0,0,0,0,0,0,0,0,0,0,0,0,0,0,0,0,0,0,0,0,0,0,0,0,0,0,0,0,0,0,0,0,0,0,0,0],"id":11,"left_children":[1,3,5,7,9,11,13,-1,-1,15,17,19,21,-1,-1,23,-1,-1,-1,25,27,-1,-1,-1,29,31,-1,33,35,-1,37,39,41,43,-1,45,47,-1,-1,-1,-1,-1,-1,-1,-1,-1,-1,-1,-1],"loss_changes":[2.07924E6,3.6887912E5,8.307375E3,6.7625E1,7.154452E4,3.39375E2,3.3084937E2,0E0,0E0,3.3726562E1,1.8426172E2,3.00375E2,7.3755927E2,0E0,0E0,2.050249E2,0E0,0E0,0E0,3.076328E2,5.2E1,0E0,0E0,0E0,3.5921973E2,5.1456836E2,0E0,6.8859375E1,1.3E1,0E0,5.173828E2,4.815078E2,1.01527014E3,2.8184375E2,0E0,9.6625E1,5.1875E0,0E0,0E0,0E0,0E0,0E0,0E0,0E0,0E0,0E0,0E0,0E0,0E0],"parents":[2147483647,0,0,1,1,2,2,3,3,4,4,5,5,6,6,9,9,10,10,11,11,12,12,15,15,19,19,20,20,24,24,25,25,27,27,28,28,30,30,31,31,32,32,33,33,35,35,36,36],"right_children":[2,4,6,8,10,12,14,-1,-1,16,18,20,22,-1,-1,24,-1,-1,-1,26,28,-1,-1,-1,30,32,-1,34,36,-1,38,40,42,44,-1,46,48,-1,-1,-1,-1,-1,-1,-1,-1,-1,-1,-1,-1],"split_conditions":[5.820766E-11,2.8174E2,1.585932E6,0E0,9.426721E5,1E0,2.0377399E6,-1.567772E-2,1.8128427E-2,1.8E1,6.702314E5,1.6E1,4.92E2,-1.7480223E-2,1.8081775E-2,1.7E1,-1.8259568E-2,1.8100694E-2,-1.71402E-2,3.9E1,3.7E1,-1.8163687E-2,1.7899577E-2,-1.8244486E-2,2.9691078E5,1.0699581E6,-1.818696E-2,3.9E1,3.9E1,-1.8207613E-2,3.42877E5,2.2794916E5,3.23255E6,4.1989503E5,-1.8175468E-2,4.452463E4,4.781022E4,1.795838E-2,-1.8039668E-2,-1.0077497E-2,-1.6923599E-2,1.046151E-2,-1.8102368E-2,-1.3834899E-2,-1.77782E-2,-1.4738664E-2,-1.8030189E-2,-1.8323239E-2,-1.8122112E-2],"split_indices":[6,3,3,6,1,8,1,0,0,0,5,0,0,0,0,0,0,0,0,2,0,0,0,0,3,1,0,2,2,0,2,5,5,5,0,5,6,0,0,0,0,0,0,0,0,0,0,0,0],"split_type":[0,0,0,0,0,0,0,0,0,0,0,0,0,0,0,0,0,0,0,0,0,0,0,0,0,0,0,0,0,0,0,0,0,0,0,0,0,0,0,0,0,0,0,0,0,0,0,0,0],"sum_hessian":[7.753214E5,4.2237462E5,3.5294675E5,3.793642E5,4.301041E4,3.5225497E5,6.917981E2,5.223335E0,3.7935897E5,3.6592184E4,6.418226E3,3.5199866E5,2.5629614E2,2.646893E1,6.6532916E2,2.463562E3,3.412862E4,6.404092E3,1.4133976E1,1.7301467E4,3.346972E5,1.7312376E2,8.3172386E1,2.073284E3,3.90278E2,9.626704E3,7.6747617E3,2.2328121E4,3.1236906E5,2.3168802E2,1.5859E2,9.122685E3,5.040202E2,1.1980264E4,1.0347857E4,1.6393611E5,1.4843295E5,8.524387E1,7.3346115E1,1.186329E3,7.9363555E3,2.1996135E2,2.8405887E2,2.2549045E3,9.725358E3,9.258698E2,1.6301025E5,2.5178824E4,1.2325413E5],"tree_param":{"num_deleted":"0","num_feature":"11","num_nodes":"49","size_leaf_vector":"1"}},{"base_weights":[-4.682015E-3,1.4841936E0,-1.7768753E0,1.7981575E0,-1.2611272E0,-1.7853134E0,1.1676227E0,-1.5293736E-2,1.7982032E-2,-1.8025796E0,1.7742895E0,-1.6376417E0,-1.7930027E0,-1.8000955E-2,1.7961273E-2,-1.4789157E0,-1.8110156E-2,1.7951236E0,-1.7671742E-2,-1.0943424E0,-1.7351955E0,-1.7780885E0,-1.7959632E0,-1.8081775E-2,1.2590616E0,-1.0489795E-2,1.795832E-2,-1.1909091E0,1.7743707E0,-1.7555393E0,-8.710192E-1,-1.7893637E0,-1.5126008E0,-1.8054761E-2,-1.7940613E-2,-1.6905153E-2,1.729473E0,-1.8041154E-2,-9.7654736E-1,1.8581841E-2,-1.2054826E-2,-1.5075245E0,-1.7753317E0,-1.7931474E-2,3.2001114E-1,-1.741163E0,-1.7936609E0,3.2607016E-1,-1.8000623E-2,1.844431E-2,-1.3446026E-2,-1.4511494E-2,-5.381798E-3,-1.8060805E-2,3.2777085E-3,-1.6100707E-2,-1.7987637E-2,1.8839601E-2,-1.795557E-2,-1.8147718E-2,-1.25526525E-2,-1.8020835E-2,-1.7793944E-2,-1.7899273E-2,1.5379374E-2],"categories":[],"categories_nodes":[],"categories_segments":[],"categories_sizes":[],"default_left":[0,0,0,0,0,0,0,0,0,0,0,0,0,0,0,0,0,0,0,0,0,0,0,0,0,0,0,0,0,0,0,0,0,0,0,0,0,0,0,0,0,0,0,0,0,0,0,0,0,0,0,0,0,0,0,0,0,0,0,0,0,0,0,0,0],"id":12,"left_children":[1,3,5,7,9,11,13,-1,-1,15,17,19,21,-1,-1,23,-1,25,-1,27,29,31,33,-1,35,-1,-1,37,39,41,43,45,47,-1,-1,-1,49,-1,51,-1,-1,53,55,-1,57,59,61,63,-1,-1,-1,-1,-1,-1,-1,-1,-1,-1,-1,-1,-1,-1,-1,-1,-1],"loss_changes":[2.0356204E6,3.6137144E5,8.753625E3,6E1,7.072001E4,3.9575E2,1.8817292E3,0E0,0E0,9.702344E1,4.837832E2,9.2004297E2,1.1625E1,0E0,0E0,8.4337573E2,0E0,1.49296875E1,0E0,7.3639844E2,2.5769922E2,1.6307812E2,1.875E0,0E0,1.4270724E2,0E0,0E0,3.353911E2,2.3898895E1,6.803516E1,3.7522205E2,7.890625E0,1.1966938E3,0E0,0E0,0E0,3.335959E1,0E0,3.9507874E2,0E0,0E0,5.875674E2,4.8746094E1,0E0,4.9870413E2,1.5447949E2,2.65625E0,7.8951965E2,0E0,0E0,0E0,0E0,0E0,0E0,0E0,0E0,0E0,0E0,0E0,0E0,0E0,0E0,0E0,0E0,0E0],"parents":[2147483647,0,0,1,1,2,2,3,3,4,4,5,5,6,6,9,9,10,10,11,11,12,12,15,15,17,17,19,19,20,20,21,21,22,22,24,24,27,27,28,28,29,29,30,30,31,31,32,32,36,36,38,38,41,41,42,42,44,44,45,45,46,46,47,47],"right_children":[2,4,6,8,10,12,14,-1,-1,16,18,20,22,-1,-1,24,-1,26,-1,28,30,32,34,-1,36,-1,-1,38,40,42,44,46,48,-1,-1,-1,50,-1,52,-1,-1,54,56,-1,58,60,62,64,-1,-1,-1,-1,-1,-1,-1,-1,-1,-1,-1,-1,-1,-1,-1,-1,-1],"split_conditions":[5.820766E-11,2.8174E2,1E0,0E0,4.8306116E5,1.6E1,2.031486E5,-1.5293736E-2,1.7982032E-2,-2.3293123E5,1.9702034E5,5.17059E3,4.070899E4,-1.8000955E-2,1.7961273E-2,-2.3754327E5,-1.8110156E-2,3.1951794E5,-1.7671742E-2,8.889384E6,1.7096062E6,3.262348E4,5.191443E4,-1.8081775E-2,2.8673297E5,-1.0489795E-2,1.795832E-2,0E0,9.412502E6,4.479117E4,4.656613E-10,4.452463E4,3.7E1,-1.8054761E-2,-1.7940613E-2,-1.6905153E-2,3.0232325E5,-1.8041154E-2,2.2187883E5,1.8581841E-2,-1.2054826E-2,4.070899E4,3.976532E4,-1.7931474E-2,9.313226E-10,3.976532E4,2.2871369E5,3.5E1,-1.8000623E-2,1.844431E-2,-1.3446026E-2,-1.4511494E-2,-5.381798E-3,-1.8060805E-2,3.2777085E-3,-1.6100707E-2,-1.7987637E-2,1.8839601E-2,-1.795557E-2,-1.8147718E-2,-1.25526525E-2,-1.8020835E-2,-1.7793944E-2,-1.7899273E-2,1.5379374E-2],"split_indices":[6,3,8,6,7,0,3,0,0,7,4,4,4,0,0,7,0,3,0,5,6,4,6,0,3,0,0,7,5,4,7,5,0,0,0,0,3,0,6,0,0,4,6,0,7,6,6,0,0,0,0,0,0,0,0,0,0,0,0,0,0,0,0,0,0],"split_type":[0,0,0,0,0,0,0,0,0,0,0,0,0,0,0,0,0,0,0,0,0,0,0,0,0,0,0,0,0,0,0,0,0,0,0,0,0,0,0,0,0,0,0,0,0,0,0,0,0,0,0,0,0,0,0,0,0,0,0,0,0,0,0,0,0],"sum_hessian":[7.714827E5,4.1925416E5,3.5222853E5,3.7622788E5,4.3026305E4,3.512224E5,1.0061153E3,4.719895E0,3.7622316E5,3.6513496E4,6.5128076E3,1.7393824E4,3.338286E5,1.7551097E2,8.306043E2,9.3198755E2,3.5581508E4,6.4752075E3,3.7599995E1,2.6496348E3,1.4744189E4,5.538834E4,2.7844025E5,8.322437E2,9.974382E1,1.243938E0,6.473964E3,2.563913E3,8.572174E1,1.4404068E4,3.4012183E2,5.3126332E4,2.262009E3,4.623196E4,2.3220828E5,1.3362771E1,8.638105E1,6.621997E2,1.9017134E3,8.374275E1,1.9789903E0,1.0702428E3,1.3333825E4,1.9141644E2,1.4870538E2,4.381816E3,4.8744516E4,3.0581448E2,1.9561946E3,8.365278E1,2.7282739E0,9.1200903E2,9.897043E2,9.205143E2,1.4972845E2,1.6644576E3,1.1669367E4,8.556231E1,6.3143078E1,3.8029683E3,5.7884766E2,3.057073E4,1.8173783E4,1.1119097E2,1.9462352E2],"tree_param":{"num_deleted":"0","num_feature":"11","num_nodes":"65","size_leaf_vector":"1"}},{"base_weights":[1.8262293E-4,1.4737973E0,-1.7618866E0,1.7839513E0,-1.2511318E0,-1.7710948E0,1.2090479E0,-1.5453878E-2,1.7840013E-2,-1.7880992E0,1.772874E0,-1.0964798E0,-1.7719508E0,-1.7859207E-2,1.7798407E-2,-1.4683094E0,-1.796461E-2,-1.6969705E-2,1.7813649E-2,3.9934054E-1,-1.7774113E-2,-1.7583795E0,-1.7870554E0,-1.7936686E-2,1.2181964E0,1.8097326E-2,-1.7515773E-2,1.2943086E-1,-1.7684565E0,-1.8033342E-2,-1.78394E-2,-1.6857414E-2,1.7143036E0,-9.4873726E-1,7.8905123E-1,-1.3994168E0,-1.7717485E0,1.8287526E-2,-1.3418923E-2,-3.605527E-3,-1.840559E-2,-1.797837E-2,8.920703E-3,-1.7924504E-2,7.790173E-3,-1.7732808E-2,-1.698189E-2],"categories":[],"categories_nodes":[],"categories_segments":[],"categories_sizes":[],"default_left":[0,0,0,0,0,0,0,0,0,0,0,0,0,0,0,0,0,0,0,0,0,0,0,0,0,0,0,0,0,0,0,0,0,0,0,0,0,0,0,0,0,0,0,0,0,0,0],"id":13,"left_children":[1,3,5,7,9,11,13,-1,-1,15,17,19,21,-1,-1,23,-1,-1,-1,25,-1,27,29,-1,31,-1,-1,33,35,-1,-1,-1,37,39,41,43,45,-1,-1,-1,-1,-1,-1,-1,-1,-1,-1],"loss_changes":[2.0040288E6,3.552133E5,9.618E3,6.575E1,6.974562E4,2.0025E2,1.8608138E3,0E0,0E0,9.4890625E1,1.9385352E2,4.5570337E2,6.8625E1,0E0,0E0,8.1936536E2,0E0,0E0,0E0,4.295638E2,0E0,3.5081875E3,5.1875E0,0E0,1.49246E2,0E0,0E0,6.977141E2,2.20375E2,0E0,0E0,0E0,3.297644E1,1.9470251E2,1.6378677E2,1.3939893E3,1.74375E1,0E0,0E0,0E0,0E0,0E0,0E0,0E0,0E0,0E0,0E0],"parents":[2147483647,0,0,1,1,2,2,3,3,4,4,5,5,6,6,9,9,10,10,11,11,12,12,15,15,19,19,21,21,22,22,24,24,27,27,28,28,32,32,33,33,34,34,35,35,36,36],"right_children":[2,4,6,8,10,12,14,-1,-1,16,18,20,22,-1,-1,24,-1,-1,-1,26,-1,28,30,-1,32,-1,-1,34,36,-1,-1,-1,38,40,42,44,46,-1,-1,-1,-1,-1,-1,-1,-1,-1,-1],"split_conditions":[5.820766E-11,2.8174E2,1E0,0E0,9.426721E5,-5.0818425E6,3.42877E5,-1.5453878E-2,1.7840013E-2,-2.3293123E5,3.8003472E5,1.99283E3,3.9E1,-1.7859207E-2,1.7798407E-2,-2.3754327E5,-1.796461E-2,-1.6969705E-2,1.7813649E-2,3.9E1,-1.7774113E-2,5.17059E3,4.513631E4,-1.7936686E-2,2.8673297E5,1.8097326E-2,-1.7515773E-2,2.2187883E5,4.479117E4,-1.8033342E-2,-1.78394E-2,-1.6857414E-2,3.42877E5,9.57568E4,-1.4551915E-11,1.1159301E5,1.7833556E6,1.8287526E-2,-1.3418923E-2,-3.605527E-3,-1.840559E-2,-1.797837E-2,8.920703E-3,-1.7924504E-2,7.790173E-3,-1.7732808E-2,-1.698189E-2],"split_indices":[6,3,8,6,1,7,2,0,0,7,7,4,2,0,0,7,0,0,0,2,0,4,6,0,3,0,0,6,4,0,0,0,2,6,7,1,1,0,0,0,0,0,0,0,0,0,0],"split_type":[0,0,0,0,0,0,0,0,0,0,0,0,0,0,0,0,0,0,0,0,0,0,0,0,0,0,0,0,0,0,0,0,0,0,0,0,0,0,0,0,0,0,0,0,0,0,0],"sum_hessian":[7.7178425E5,4.2029372E5,3.5149056E5,3.7734438E5,4.2949344E4,3.504049E5,1.0856499E3,5.2109313E0,3.7733916E5,3.6473258E4,6.476084E3,4.4570667E2,3.4995922E5,1.7344571E2,9.1220416E2,9.339043E2,3.5539355E4,1.5323349E1,6.4607607E3,1.3955533E2,3.0615134E2,1.8439719E5,1.6556202E5,8.33315E2,1.0058934E2,8.4382774E1,5.5172554E1,9.7901056E2,1.8341817E5,2.6502188E4,1.3905983E5,1.4327298E1,8.626204E1,3.7144116E2,6.075694E2,1.625484E3,1.8179269E5,8.353541E1,2.7266307E0,2.2466911E2,1.4677205E2,2.2638844E1,5.8493054E2,1.3771884E3,2.4829556E2,1.7806039E5,3.7323005E3],"tree_param":{"num_deleted":"0","num_feature":"11","num_nodes":"47","size_leaf_vector":"1"}},{"base_weights":[-3.6965476E-3,1.4610198E0,-1.746263E0,1.7699537E0,-1.2353542E0,-1.7545533E0,1.1534032E0,-1.5451565E-2,1.770006E-2,-1.7739906E0,1.7678548E-2,-1.6108148E0,-1.7620264E0,-1.7715542E-2,1.7646102E-2,-1.6586046E0,-1.7822785E-2,4.7842387E-2,-1.6268706E0,-1.7142526E0,-1.7654319E0,-1.7809972E-2,-9.967154E-1,-1.7532565E-2,1.5374805E0,-1.5063097E0,-1.7769957E-2,-1.66185E0,-1.7746849E-2,-1.758766E0,-1.7727866E0,-1.7771205E-2,1.2407065E-1,1.8267943E-2,-1.5639372E-2,-9.07866E-1,-1.6142008E0,-1.3434145E0,-1.7353061E0,-1.4353051E0,-1.7606062E0,-1.7882893E-2,-1.769604E-2,1.7502585E-2,-1.7608637E-2,-1.7806845E-2,1.1802153E-3,-1.6857577E-2,-5.100065E-3,-1.4745048E-2,9.955524E-3,-1.7695133E-2,-1.5123488E-2,-1.7791212E-2,-2.8288665E-3,-1.7281884E-2,-1.764056E-2],"categories":[],"categories_nodes":[],"categories_segments":[],"categories_sizes":[],"default_left":[0,0,0,0,0,0,0,0,0,0,0,0,0,0,0,0,0,0,0,0,0,0,0,0,0,0,0,0,0,0,0,0,0,0,0,0,0,0,0,0,0,0,0,0,0,0,0,0,0,0,0,0,0,0,0,0,0],"id":14,"left_children":[1,3,5,7,9,11,13,-1,-1,15,-1,17,19,-1,-1,21,-1,23,25,27,29,-1,31,-1,33,35,-1,37,-1,39,41,-1,43,-1,-1,45,47,49,51,53,55,-1,-1,-1,-1,-1,-1,-1,-1,-1,-1,-1,-1,-1,-1,-1,-1],"loss_changes":[1.9618998E6,3.4788412E5,8.4405E3,6.775E1,6.944957E4,3.73125E2,1.7933289E3,0E0,0E0,3.1867188E1,0E0,4.6108203E2,5.10625E1,0E0,0E0,1.9701709E2,0E0,4.5057693E2,3.076289E2,6.726953E1,1.21875E1,0E0,3.3716214E2,0E0,8.531708E1,6.1290625E2,0E0,2.7583203E2,0E0,9.45625E1,4.125E0,0E0,4.9064725E2,0E0,0E0,1.3036874E3,6.3603125E2,6.8626685E2,7.0990234E1,3.6705774E2,1.503125E1,0E0,0E0,0E0,0E0,0E0,0E0,0E0,0E0,0E0,0E0,0E0,0E0,0E0,0E0,0E0,0E0],"parents":[2147483647,0,0,1,1,2,2,3,3,4,4,5,5,6,6,9,9,11,11,12,12,15,15,17,17,18,18,19,19,20,20,22,22,24,24,25,25,27,27,29,29,30,30,32,32,35,35,36,36,37,37,38,38,39,39,40,40],"right_children":[2,4,6,8,10,12,14,-1,-1,16,-1,18,20,-1,-1,22,-1,24,26,28,30,-1,32,-1,34,36,-1,38,-1,40,42,-1,44,-1,-1,46,48,50,52,54,56,-1,-1,-1,-1,-1,-1,-1,-1,-1,-1,-1,-1,-1,-1,-1,-1],"split_conditions":[5.820766E-11,2.8174E2,1E0,0E0,3.089851E6,1.6E1,2.031486E5,-1.5451565E-2,1.770006E-2,1.8E1,1.7678548E-2,2E0,3.7E1,-1.7715542E-2,1.7646102E-2,1.7E1,-1.7822785E-2,6.6786265E6,3.9E1,3.9E1,3.9E1,-1.7809972E-2,2.9691078E5,-1.7532565E-2,9.412502E6,2.8157844E5,-1.7769957E-2,4.1989503E5,-1.7746849E-2,4.452463E4,4.781022E4,-1.7771205E-2,3.42877E5,1.8267943E-2,-1.5639372E-2,9.457646E4,1.0699581E6,4.138085E5,5.0618747E5,3.98884E4,2.9166012E5,-1.7882893E-2,-1.769604E-2,1.7502585E-2,-1.7608637E-2,-1.7806845E-2,1.1802153E-3,-1.6857577E-2,-5.100065E-3,-1.4745048E-2,9.955524E-3,-1.7695133E-2,-1.5123488E-2,-1.7791212E-2,-2.8288665E-3,-1.7281884E-2,-1.764056E-2],"split_indices":[6,3,8,6,1,0,3,0,0,0,0,9,0,0,0,0,0,5,2,2,2,0,3,0,5,5,0,5,0,5,6,0,2,0,0,1,1,5,6,1,5,0,0,0,0,0,0,0,0,0,0,0,0,0,0,0,0],"split_type":[0,0,0,0,0,0,0,0,0,0,0,0,0,0,0,0,0,0,0,0,0,0,0,0,0,0,0,0,0,0,0,0,0,0,0,0,0,0,0,0,0,0,0,0,0,0,0,0,0,0,0,0,0,0,0,0,0],"sum_hessian":[7.686574E5,4.1762356E5,3.510338E5,3.7469378E5,4.2929773E4,3.5003344E5,1.00036957E3,5.4512496E0,3.7468834E5,3.640145E4,6.528323E3,1.7309854E4,3.327236E5,1.7258037E2,8.2778925E2,2.4529216E3,3.3948527E4,1.6593391E2,1.714392E4,2.2172969E4,3.1055062E5,2.0686992E3,3.8422263E2,7.503422E1,9.0899704E1,9.514307E3,7.629614E3,1.1890713E4,1.0282257E4,1.6303031E5,1.4752031E5,2.2616086E2,1.5806177E2,8.351961E1,7.380096E0,1.4547264E3,8.05958E3,2.2324097E3,9.658303E3,9.266684E2,1.6210364E5,2.5031283E4,1.2248902E5,8.4893295E1,7.316847E1,7.85604E2,6.691225E2,7.568573E3,4.9100693E2,2.1142817E3,1.1812794E2,8.367572E3,1.290731E3,7.133126E2,2.1335576E2,1.564013E4,1.4646352E5],"tree_param":{"num_deleted":"0","num_feature":"11","num_nodes":"57","size_leaf_vector":"1"}},{"base_weights":[-2.8854052E-5,1.4512749E0,-1.7338283E0,1.7563891E0,-1.2427012E0,-1.7420586E0,1.1459436E0,-1.4664609E-2,1.7564291E-2,-1.7602092E0,1.7457422E0,-1.5982445E0,-1.7495455E0,-1.7580021E-2,1.7511154E-2,-1.4476123E0,-1.7684564E-2,-1.6736014E-2,1.7546045E-2,-1.0640926E0,-1.6946518E0,-1.740683E0,-1.7593402E0,-1.7657327E-2,1.220687E0,1.4823767E0,-1.7700488E-2,-1.7148683E0,-8.3317816E-1,-2.424643E-1,-1.7460294E0,-1.774384E-2,-1.7562432E-2,-1.657865E-2,1.7065674E0,-1.721901E-2,1.5749114E0,-1.4683231E0,-1.7344743E0,-1.7566722E-2,3.675895E-1,-1.8270599E-2,3.4736788E-1,-1.276431E0,-1.749596E0,1.7991317E-2,-1.2432581E-2,1.6035093E-2,-1.5999006E-2,-1.7647723E-2,3.5307088E-3,-1.4950771E-2,-1.7587367E-2,1.8661715E-2,-1.7565176E-2,1.5168445E-2,-1.812569E-2,-1.7636836E-2,1.0176716E-2,-1.7393563E-2,-1.7552651E-2],"categories":[],"categories_nodes":[],"categories_segments":[],"categories_sizes":[],"default_left":[0,0,0,0,0,0,0,0,0,0,0,0,0,0,0,0,0,0,0,0,0,0,0,0,0,0,0,0,0,0,0,0,0,0,0,0,0,0,0,0,0,0,0,0,0,0,0,0,0,0,0,0,0,0,0,0,0,0,0,0,0],"id":15,"left_children":[1,3,5,7,9,11,13,-1,-1,15,17,19,21,-1,-1,23,-1,-1,-1,25,27,29,31,-1,33,35,-1,37,39,41,43,-1,-1,-1,45,-1,47,49,51,-1,53,-1,55,57,59,-1,-1,-1,-1,-1,-1,-1,-1,-1,-1,-1,-1,-1,-1,-1,-1],"loss_changes":[1.9337892E6,3.438637E5,8.30175E3,5.1125E1,6.582465E4,3.73125E2,1.7579164E3,0E0,0E0,9.0984375E1,1.9332617E2,8.885625E2,2.575E1,0E0,0E0,7.9840576E2,0E0,0E0,0E0,4.759668E3,2.53625E2,1.3959375E3,4.21875E0,0E0,1.4341133E2,1.7317737E2,0E0,6.661719E1,3.751649E2,5.810909E2,2.886875E2,0E0,0E0,0E0,2.5853043E1,0E0,5.334607E1,5.732529E2,7.432422E1,0E0,4.732837E2,0E0,1.1480889E3,1.4696235E3,6.9375E0,0E0,0E0,0E0,0E0,0E0,0E0,0E0,0E0,0E0,0E0,0E0,0E0,0E0,0E0,0E0,0E0],"parents":[2147483647,0,0,1,1,2,2,3,3,4,4,5,5,6,6,9,9,10,10,11,11,12,12,15,15,19,19,20,20,21,21,22,22,24,24,25,25,27,27,28,28,29,29,30,30,34,34,36,36,37,37,38,38,40,40,42,42,43,43,44,44],"right_children":[2,4,6,8,10,12,14,-1,-1,16,18,20,22,-1,-1,24,-1,-1,-1,26,28,30,32,-1,34,36,-1,38,40,42,44,-1,-1,-1,46,-1,48,50,52,-1,54,-1,56,58,60,-1,-1,-1,-1,-1,-1,-1,-1,-1,-1,-1,-1,-1,-1,-1,-1],"split_conditions":[5.820766E-11,2.8174E2,1E0,0E0,9.426721E5,1.6E1,2.031486E5,-1.4664609E-2,1.7564291E-2,-2.3293123E5,4.2174156E5,5.17059E3,3.9E1,-1.7580021E-2,1.7511154E-2,-2.3754327E5,-1.7684564E-2,-1.6736014E-2,1.7546045E-2,3.9E1,1.7833556E6,1.99283E3,4.781022E4,-1.7657327E-2,2.8673297E5,9.457646E4,-1.7700488E-2,4.479117E4,4.656613E-10,1.86E2,4.070899E4,-1.774384E-2,-1.7562432E-2,-1.657865E-2,3.42877E5,-1.721901E-2,1.144046E6,4.070899E4,3.98884E4,-1.7566722E-2,9.313226E-10,-1.8270599E-2,2.31E2,1.1159301E5,6.1710975E5,1.7991317E-2,-1.2432581E-2,1.6035093E-2,-1.5999006E-2,-1.7647723E-2,3.5307088E-3,-1.4950771E-2,-1.7587367E-2,1.8661715E-2,-1.7565176E-2,1.5168445E-2,-1.812569E-2,-1.7636836E-2,1.0176716E-2,-1.7393563E-2,-1.7552651E-2],"split_indices":[6,3,8,6,1,0,3,0,0,7,7,4,2,0,0,7,0,0,0,2,1,4,6,0,3,1,0,4,7,0,4,0,0,0,2,0,1,4,1,0,7,0,0,1,4,0,0,0,0,0,0,0,0,0,0,0,0,0,0,0,0],"split_type":[0,0,0,0,0,0,0,0,0,0,0,0,0,0,0,0,0,0,0,0,0,0,0,0,0,0,0,0,0,0,0,0,0,0,0,0,0,0,0,0,0,0,0,0,0,0,0,0,0,0,0,0,0,0,0,0,0,0,0,0,0],"sum_hessian":[7.685124E5,4.1833703E5,3.5017534E5,3.7577756E5,4.2559453E4,3.4917778E5,9.975501E2,4.205662E0,3.7577334E5,3.627767E4,6.281784E3,1.7289025E4,3.3188875E5,1.7170593E2,8.258442E2,9.3704443E2,3.5340625E4,1.5753607E1,6.266031E3,2.6451895E3,1.4643836E4,1.7433002E5,1.5755873E5,8.3753046E2,9.951398E1,5.7391376E2,2.0712756E3,1.4307098E4,3.3673877E2,6.200443E2,1.7370997E5,2.6800871E4,1.3075787E5,1.4023139E1,8.549084E1,1.56143265E1,5.5829944E2,1.0595225E3,1.3247575E4,1.9008444E2,1.4665433E2,1.6762335E2,4.52421E2,1.3121313E3,1.7239784E5,8.3268005E1,2.2228305E0,5.538058E2,4.4936266E0,9.112405E2,1.4828197E2,1.2248308E3,1.2022744E4,8.605967E1,6.0594658E1,2.9369852E2,1.5872246E2,1.0824558E3,2.2967548E2,6.154391E4,1.1085394E5],"tree_param":{"num_deleted":"0","num_feature":"11","num_nodes":"61","size_leaf_vector":"1"}},{"base_weights":[2.7218848E-3,1.4408389E0,-1.7236228E0,1.7432925E0,-1.239949E0,-1.7309908E0,1.618413E0,-1.5128431E-2,1.7433412E-2,-1.7468305E0,1.732397E0,-1.7326329E0,-6.872679E-1,-1.6828474E-2,1.7394943E-2,-1.435632E0,-1.7549995E-2,-1.6624939E-2,1.741319E-2,-1.6027911E0,-1.7393446E0,-1.7381446E-2,1.7455956E-2,-1.752266E-2,1.2246627E0,-1.1625711E0,-1.6812842E0,-1.7233498E0,-1.7425271E0,-1.6356273E-2,1.6628044E0,1.3657658E0,-1.756419E-2,-1.701507E0,-8.245935E-1,-1.0722737E0,-1.7460052E-2,-1.7507612E0,-1.7410899E-2,1.7846324E-2,-1.3439477E-2,-1.7113818E-2,1.4730978E-2,-1.4550358E-2,-1.7211359E-2,-1.743237E-2,3.4280103E-3,-1.7564755E-2,1.9766106E-3,-1.7429015E-2,-1.7618613E-2],"categories":[],"categories_nodes":[],"categories_segments":[],"categories_sizes":[],"default_left":[0,0,0,0,0,0,0,0,0,0,0,0,0,0,0,0,0,0,0,0,0,0,0,0,0,0,0,0,0,0,0,0,0,0,0,0,0,0,0,0,0,0,0,0,0,0,0,0,0,0,0],"id":16,"left_children":[1,3,5,7,9,11,13,-1,-1,15,17,19,21,-1,-1,23,-1,-1,-1,25,27,-1,-1,-1,29,31,33,35,37,-1,39,41,-1,43,45,47,-1,49,-1,-1,-1,-1,-1,-1,-1,-1,-1,-1,-1,-1,-1],"loss_changes":[1.9054476E6,3.394898E5,8.591625E3,6.25E1,6.3959555E4,5.953125E2,3.0983276E2,0E0,0E0,8.9671875E1,1.9023242E2,3E2,1.4049471E3,0E0,0E0,7.881802E2,0E0,0E0,0E0,5.886289E2,1.38125E1,0E0,0E0,0E0,1.2784241E2,3.8905388E3,2.4985938E2,8.0821875E2,2.5E-1,0E0,3.4294647E1,1.6538373E2,0E0,6.603906E1,3.6136014E2,1.6072781E3,0E0,4.84375E-1,0E0,0E0,0E0,0E0,0E0,0E0,0E0,0E0,0E0,0E0,0E0,0E0,0E0],"parents":[2147483647,0,0,1,1,2,2,3,3,4,4,5,5,6,6,9,9,10,10,11,11,12,12,15,15,19,19,20,20,24,24,25,25,26,26,27,27,28,28,30,30,31,31,33,33,34,34,35,35,37,37],"right_children":[2,4,6,8,10,12,14,-1,-1,16,18,20,22,-1,-1,24,-1,-1,-1,26,28,-1,-1,-1,30,32,34,36,38,-1,40,42,-1,44,46,48,-1,50,-1,-1,-1,-1,-1,-1,-1,-1,-1,-1,-1,-1,-1],"split_conditions":[5.820766E-11,2.8174E2,1.585932E6,0E0,9.426721E5,3.5288006E5,2.0377399E6,-1.5128431E-2,1.7433412E-2,-2.3293123E5,4.2174156E5,1.6E1,1.7019355E5,-1.6828474E-2,1.7394943E-2,-2.3754327E5,-1.7549995E-2,-1.6624939E-2,1.741319E-2,5.17059E3,4.070899E4,-1.7381446E-2,1.7455956E-2,-1.752266E-2,2.8673297E5,3.9E1,1.7833556E6,3.9E1,4.649678E4,-1.6356273E-2,3.42877E5,9.457646E4,-1.756419E-2,4.479117E4,4.656613E-10,1.1159301E5,-1.7460052E-2,1.92E2,-1.7410899E-2,1.7846324E-2,-1.3439477E-2,-1.7113818E-2,1.4730978E-2,-1.4550358E-2,-1.7211359E-2,-1.743237E-2,3.4280103E-3,-1.7564755E-2,1.9766106E-3,-1.7429015E-2,-1.7618613E-2],"split_indices":[6,3,3,6,1,3,1,0,0,7,7,0,6,0,0,7,0,0,0,4,4,0,0,0,3,2,1,2,6,0,2,1,0,4,7,1,0,2,0,0,0,0,0,0,0,0,0,0,0,0,0],"split_type":[0,0,0,0,0,0,0,0,0,0,0,0,0,0,0,0,0,0,0,0,0,0,0,0,0,0,0,0,0,0,0,0,0,0,0,0,0,0,0,0,0,0,0,0,0,0,0,0,0,0,0],"sum_hessian":[7.674925E5,4.1869897E5,3.4879353E5,3.7624984E5,4.2449137E4,3.4802672E5,7.667979E2,5.1879115E0,3.7624466E5,3.6265164E4,6.183975E3,3.4747938E5,5.47342E2,2.667276E1,7.401252E2,9.321562E2,3.5333008E4,1.5723672E1,6.1682515E3,1.7090643E4,3.3038875E5,3.8243466E2,1.6490732E2,8.3331464E2,9.884156E1,2.5885933E3,1.450205E4,5.49198E4,2.7546894E5,1.2766408E1,8.607515E1,4.921103E2,2.096483E3,1.4166649E4,3.3540067E2,1.8484031E3,5.30714E4,4.0759367E4,2.3470956E5,8.311398E1,2.961166E0,1.608273E1,4.7602756E2,1.0505449E3,1.31161045E4,1.8742184E2,1.4797884E2,1.2009728E3,6.474303E2,2.3955555E4,1.6803812E4],"tree_param":{"num_deleted":"0","num_feature":"11","num_nodes":"51","size_leaf_vector":"1"}},{"base_weights":[5.2860905E-3,-1.2393172E0,1.1584393E0,9.5120955E-1,-1.5440359E0,1.3946062E0,-1.087247E0,-6.6081183E-3,1.706837E0,-7.3834807E-1,-1.7099426E0,6.4058083E-1,1.6247023E0,-1.7319319E0,1.6749967E0,-4.200504E-1,1.2934815E0,1.7223293E0,-1.7154576E-2,-1.6028537E0,2.5881994E-1,-1.278017E0,-1.7140286E0,1.3825455E0,-1.7297748E-2,1.342875E0,1.7050323E0,-1.4052124E0,-1.7414954E-2,1.7242965E0,-1.7245231E-2,-1.877047E-1,-1.7389525E-2,1.4054986E0,-1.7415635E-2,1.7240098E-2,-1.5982877E-2,2.4184026E-1,-1.707398E0,6.924219E-1,-1.7397856E-2,-1.7340211E-2,1.3445423E0,-1.5237436E0,-1.7205211E0,1.7162739E0,1.0927243E0,1.5567214E0,-1.7286913E-2,1.6400198E0,1.7225695E0,-1.7382428E-2,1.2371018E0,-1.484966E-2,1.7268499E0,-1.1849931E0,2.9666206E-1,1.1558007E-1,1.4968464E0,-5.564337E-1,1.5101048E0,-1.4766034E0,-1.73015E-2,3.021977E-1,1.5026402E0,-1.7267315E-2,1.7038299E0,-8.798802E-1,-1.687264E0,-1.6791053E0,-1.723728E0,1.7179686E0,-1.6212096E-2,7.601286E-1,1.6169529E0,1.7151788E0,1.3718729E0,1.6955321E0,-1.726996E-2,-1.0338443E-2,1.7225995E0,1.6997089E0,-1.6331403E-2,-1.205624E-2,1.7279368E-2,6.423615E-3,-1.6474245E-2,8.54747E-3,-8.348039E-3,1.613156E-2,-1.7401218E-2,1.235496E-2,1.6543139E-2,-1.7295288E-2,1.471105E-2,1.5604756E-2,-1.5883971E-2,-1.59381E-2,-1.5552172E-3,-2.044687E-3,1.2171777E-2,1.3276728E-2,1.6515136E-2,1.7267039E-2,-1.2045905E-2,1.4741247E-2,-1.7373923E-2,-1.7310796E-2,-4.106155E-3,-1.1698259E-2,-1.7122893E-2,-1.7161876E-2,-1.729045E-2,1.7216263E-2,1.1622244E-2,3.7060098E-3,1.3799234E-2,1.618786E-2,-1.580552E-2,1.7171076E-2,-1.6530875E-2,9.93978E-3,1.5599865E-2,1.2576778E-2,1.7001757E-2,1.7003652E-2,1.7262625E-2,-1.1130258E-2,1.770501E-2],"categories":[],"categories_nodes":[],"categories_segments":[],"categories_sizes":[],"default_left":[0,0,0,0,0,0,0,0,0,0,0,0,0,0,0,0,0,0,0,0,0,0,0,0,0,0,0,0,0,0,0,0,0,0,0,0,0,0,0,0,0,0,0,0,0,0,0,0,0,0,0,0,0,0,0,0,0,0,0,0,0,0,0,0,0,0,0,0,0,0,0,0,0,0,0,0,0,0,0,0,0,0,0,0,0,0,0,0,0,0,0,0,0,0,0,0,0,0,0,0,0,0,0,0,0,0,0,0,0,0,0,0,0,0,0,0,0,0,0,0,0,0,0,0,0,0,0,0,0],"id":17,"left_children":[1,3,5,7,9,11,13,15,17,19,21,23,25,27,29,31,33,35,-1,37,39,41,43,45,-1,47,49,51,-1,53,-1,55,-1,57,-1,-1,-1,59,61,63,-1,-1,65,67,69,71,73,75,-1,77,79,-1,81,-1,83,85,87,89,91,93,95,97,-1,99,101,-1,103,105,107,109,111,113,-1,115,117,119,121,123,-1,-1,125,127,-1,-1,-1,-1,-1,-1,-1,-1,-1,-1,-1,-1,-1,-1,-1,-1,-1,-1,-1,-1,-1,-1,-1,-1,-1,-1,-1,-1,-1,-1,-1,-1,-1,-1,-1,-1,-1,-1,-1,-1,-1,-1,-1,-1,-1,-1,-1],"loss_changes":[1.1004088E6,2.4613206E5,2.1107331E5,3.2591215E4,4.3268438E4,6.24775E4,6.744342E4,1.0675282E4,1.3375625E3,4.765257E4,4.715625E2,1.480841E5,6.244125E3,9.349219E1,1.2040996E3,4.6173037E3,1.6316064E3,1.4258594E2,0E0,5.710453E3,2.2246781E4,3.0153926E3,3.26E2,6.200547E3,0E0,4.020465E4,2.42E2,7.751166E2,0E0,6.0458984E1,0E0,6.1895786E3,0E0,5.4443945E2,0E0,0E0,0E0,1.6094498E3,1.4457812E2,6.668885E3,0E0,0E0,4.1537213E2,9.23166E2,3.125E1,1.7134375E2,5.983332E3,1.6737188E3,0E0,8.532492E3,1.575E1,0E0,1.3409946E2,0E0,2.458789E1,3.5407012E3,5.446957E3,8.5528015E2,1.7558496E2,2.3235857E3,9.8312256E1,3.901377E2,0E0,6.601088E3,1.7641504E2,0E0,2.437439E1,3.5972544E3,3.9099414E2,3.109414E2,6.5625E0,5.85625E1,0E0,5.069966E3,8.064453E1,2.0297656E2,1.8763047E3,8.9140625E1,0E0,0E0,1.084375E1,1.902829E1,0E0,0E0,0E0,0E0,0E0,0E0,0E0,0E0,0E0,0E0,0E0,0E0,0E0,0E0,0E0,0E0,0E0,0E0,0E0,0E0,0E0,0E0,0E0,0E0,0E0,0E0,0E0,0E0,0E0,0E0,0E0,0E0,0E0,0E0,0E0,0E0,0E0,0E0,0E0,0E0,0E0,0E0,0E0,0E0,0E0,0E0,0E0],"parents":[2147483647,0,0,1,1,2,2,3,3,4,4,5,5,6,6,7,7,8,8,9,9,10,10,11,11,12,12,13,13,14,14,15,15,16,16,17,17,19,19,20,20,21,21,22,22,23,23,25,25,26,26,27,27,29,29,31,31,33,33,37,37,38,38,39,39,42,42,43,43,44,44,45,45,46,46,47,47,49,49,50,50,52,52,54,54,55,55,56,56,57,57,58,58,59,59,60,60,61,61,63,63,64,64,66,66,67,67,68,68,69,69,70,70,71,71,73,73,74,74,75,75,76,76,77,77,80,80,81,81],"right_children":[2,4,6,8,10,12,14,16,18,20,22,24,26,28,30,32,34,36,-1,38,40,42,44,46,-1,48,50,52,-1,54,-1,56,-1,58,-1,-1,-1,60,62,64,-1,-1,66,68,70,72,74,76,-1,78,80,-1,82,-1,84,86,88,90,92,94,96,98,-1,100,102,-1,104,106,108,110,112,114,-1,116,118,120,122,124,-1,-1,126,128,-1,-1,-1,-1,-1,-1,-1,-1,-1,-1,-1,-1,-1,-1,-1,-1,-1,-1,-1,-1,-1,-1,-1,-1,-1,-1,-1,-1,-1,-1,-1,-1,-1,-1,-1,-1,-1,-1,-1,-1,-1,-1,-1,-1,-1,-1,-1],"split_conditions":[5.5655E4,5.66808E4,2.8174E2,1E0,5.009284E4,1.56638E5,3.4944462E5,4.06E2,5.643332E4,1.211E3,5.264899E4,1.561834E5,3.25976E5,-2.3293123E5,1.9702034E5,2.8174E2,2.8174E2,2.8174E2,-1.7154576E-2,1.38404E3,2.8174E2,5.052378E4,1.4E1,6.8248E4,-1.7297748E-2,3.2655594E5,5.3433225E5,-2.3754327E5,-1.7414954E-2,3.1951794E5,-1.7245231E-2,4.173E3,-1.7389525E-2,1.046E3,-1.7415635E-2,1.7240098E-2,-1.5982877E-2,4.22E2,2.3E1,4.06E2,-1.7397856E-2,-1.7340211E-2,3.97E2,4.479117E4,3.6E1,1.9610127E5,4.06E2,2.043888E5,-1.7286913E-2,5.382869E5,-1.0871958E7,-1.7382428E-2,4.243495E4,-1.484966E-2,3.534639E5,2.76947E3,3.733744E4,1.38404E3,2.1917E4,2.14E2,3.637979E-12,2.1E1,-1.73015E-2,2.602026E4,2.1292E4,-1.7267315E-2,5.1834E4,3.9E1,1.7833556E6,1.5318323E5,2.32E2,1.99283E3,-1.6212096E-2,1.06431E5,1.2075875E7,2.906952E4,2.09461E5,2E1,-1.726996E-2,-1.0338443E-2,7.21629E5,3.60659E4,-1.6331403E-2,-1.205624E-2,1.7279368E-2,6.423615E-3,-1.6474245E-2,8.54747E-3,-8.348039E-3,1.613156E-2,-1.7401218E-2,1.235496E-2,1.6543139E-2,-1.7295288E-2,1.471105E-2,1.5604756E-2,-1.5883971E-2,-1.59381E-2,-1.5552172E-3,-2.044687E-3,1.2171777E-2,1.3276728E-2,1.6515136E-2,1.7267039E-2,-1.2045905E-2,1.4741247E-2,-1.7373923E-2,-1.7310796E-2,-4.106155E-3,-1.1698259E-2,-1.7122893E-2,-1.7161876E-2,-1.729045E-2,1.7216263E-2,1.1622244E-2,3.7060098E-3,1.3799234E-2,1.618786E-2,-1.580552E-2,1.7171076E-2,-1.6530875E-2,9.93978E-3,1.5599865E-2,1.2576778E-2,1.7001757E-2,1.7003652E-2,1.7262625E-2,-1.1130258E-2,1.770501E-2],"split_indices":[2,5,3,8,1,2,7,0,1,2,1,1,2,7,4,3,3,3,0,1,3,2,0,5,0,1,2,7,0,3,0,2,0,2,0,0,0,0,0,0,0,0,0,4,0,7,0,5,0,1,7,0,1,0,1,1,1,1,2,2,7,0,0,2,2,0,2,2,1,5,0,4,0,2,4,4,2,0,0,0,2,1,0,0,0,0,0,0,0,0,0,0,0,0,0,0,0,0,0,0,0,0,0,0,0,0,0,0,0,0,0,0,0,0,0,0,0,0,0,0,0,0,0,0,0,0,0,0,0],"split_type":[0,0,0,0,0,0,0,0,0,0,0,0,0,0,0,0,0,0,0,0,0,0,0,0,0,0,0,0,0,0,0,0,0,0,0,0,0,0,0,0,0,0,0,0,0,0,0,0,0,0,0,0,0,0,0,0,0,0,0,0,0,0,0,0,0,0,0,0,0,0,0,0,0,0,0,0,0,0,0,0,0,0,0,0,0,0,0,0,0,0,0,0,0,0,0,0,0,0,0,0,0,0,0,0,0,0,0,0,0,0,0,0,0,0,0,0,0,0,0,0,0,0,0,0,0,0,0,0,0],"sum_hessian":[7.6671675E5,3.687371E5,3.9797966E5,4.502981E4,3.2370728E5,3.6010925E5,3.7870402E4,1.9858535E4,2.5171275E4,5.5276254E4,2.6843103E5,8.419756E4,2.759117E5,3.0704578E4,7.1658228E3,1.5067565E4,4.7909688E3,2.5058336E4,1.1293919E2,2.960729E4,2.5668967E4,2.5184968E3,2.6591253E5,6.412552E4,2.0072043E4,6.1203773E4,2.147079E5,8.7739966E2,2.9827178E4,7.0638755E3,1.0194726E2,1.2811719E4,2.255847E3,4.620956E3,1.7001282E2,2.5046143E4,1.2193861E1,1.5878717E3,2.8019418E4,2.1093367E4,4.5755996E3,2.1457397E3,3.727572E2,8.781381E3,2.5713114E5,2.9802773E4,3.4322746E4,5.72205E4,3.983273E3,4.56334E4,1.6907452E5,7.7949615E2,9.790354E1,5.154333E0,7.0587207E3,4.1877964E3,8.623923E3,3.0574933E2,4.3152065E3,9.748443E2,6.1302747E2,2.5202283E3,2.549919E4,1.4237537E4,6.85583E3,3.8640785E1,3.341164E2,1.7797958E3,7.001585E3,1.851622E4,2.3861492E5,2.9788135E4,1.4640171E1,2.1001098E4,1.3321647E4,3.0805172E4,2.6415326E4,4.4893727E4,7.396708E2,1.4661182E0,1.6907305E5,8.466551E1,1.3238029E1,2.2050064E0,7.056516E3,8.456633E2,3.3421328E3,5.7754707E3,2.848452E3,1.6927382E2,1.364755E2,1.6257604E3,2.6894463E3,6.176378E2,3.5720642E2,6.0370966E2,9.31782E0,2.3146646E3,2.0556374E2,9.163862E3,5.0736743E3,3.156265E3,3.6995652E3,3.319123E2,2.2041066E0,4.7503406E2,1.3047616E3,6.7689146E3,2.3267046E2,1.1349058E3,1.7381314E4,9.881276E4,1.3980217E5,2.9591277E4,1.9685767E2,1.289713E4,8.1039673E3,1.3314509E4,7.1392703E0,3.0788031E4,1.714098E1,8.781253E3,1.7634074E4,4.7397833E2,4.441975E4,2.3979932E4,1.4509311E5,1.7171413E0,8.294837E1],"tree_param":{"num_deleted":"0","num_feature":"11","num_nodes":"129","size_leaf_vector":"1"}},{"base_weights":[3.539797E-3,-1.2278112E0,1.1483959E0,9.484048E-1,-1.5324068E0,1.3830521E0,-1.0492613E0,3.5829745E-2,1.6941665E0,2.634621E-1,-1.5915524E0,6.385179E-1,1.6122427E0,-1.7191837E0,1.66554E0,1.5860387E0,-4.4338396E-1,-1.7217947E-2,1.7147412E0,-1.4637325E0,1.1275868E0,-1.6367648E0,-9.4065624E-1,1.5493811E0,-2.1609868E-1,1.3366586E0,1.6924419E0,-1.3919305E0,-1.7286792E-2,-1.7147535E-2,1.7115543E0,-1.7176563E-2,1.6538234E0,-8.773851E-1,1.1202103E0,1.7160965E-2,-1.5623136E-2,-1.5411527E0,1.4231977E0,1.3292484E0,-8.304631E-1,-1.6664232E0,-1.4645094E0,-1.6580436E0,-3.0462864E-1,1.1749347E0,1.7135029E0,1.6209993E0,-6.27934E-1,1.6288164E0,7.486953E-1,1.6263807E0,1.7100232E0,-1.7254556E-2,1.2127025E0,-1.545334E-2,1.7151792E0,1.6789701E0,-1.698359E-2,-6.8599546E-1,-1.726179E-2,1.2720611E0,-1.7286386E-2,1.0383322E0,-1.6254532E0,1.6996305E-2,-1.5096071E-2,4.080024E-1,1.4645957E0,8.4794986E-1,-1.7179748E-2,-1.5507526E0,-1.6902978E0,-1.1094878E0,-1.5456376E0,-1.1205118E0,-1.7170453E-2,-1.45389E-1,-1.7169608E-2,1.6300293E0,9.263579E-1,1.7151568E0,-1.603521E-2,1.6655821E0,-1.7096652E-2,-1.0010799E0,9.9193245E-1,1.6993518E0,1.415932E0,1.057629E0,-1.7203901E-2,1.6863809E0,1.2740394E0,-1.0286672E-2,1.7100532E0,-1.611332E-2,1.6462197E0,1.7159738E-2,-1.099816E-2,1.6970426E-2,-1.6607407E-2,-1.4172222E-2,-2.414967E-3,9.804111E-3,1.5873976E-2,1.6753556E-2,-1.6385956E-2,-1.7174046E-2,-2.7187264E-3,-1.7103402E-2,8.127952E-3,1.0483837E-3,1.5922733E-2,1.3969737E-2,-1.6770639E-2,-1.1967629E-2,-1.6248502E-2,-1.7068146E-2,-1.637786E-2,-1.505135E-2,9.164416E-3,-5.9402785E-3,-1.5743552E-2,-1.7137157E-2,-4.930719E-3,-3.6415188E-3,3.3697593E-3,1.649339E-2,-1.6589284E-2,1.0121056E-2,-1.7270803E-2,1.3810742E-2,1.7161768E-2,-1.6658675E-2,1.6761856E-2,-1.0598438E-2,8.242516E-3,1.1251161E-2,-1.7153379E-2,1.7019711E-2,-1.6549783E-2,-1.7459294E-2,1.4608926E-2,1.7055735E-2,7.924959E-3,-1.6790997E-2,1.6880337E-2,1.5905928E-2,-1.32206E-2,1.6914189E-2,1.7146995E-2,1.7567258E-2,-1.2965148E-2],"categories":[],"categories_nodes":[],"categories_segments":[],"categories_sizes":[],"default_left":[0,0,0,0,0,0,0,0,0,0,0,0,0,0,0,0,0,0,0,0,0,0,0,0,0,0,0,0,0,0,0,0,0,0,0,0,0,0,0,0,0,0,0,0,0,0,0,0,0,0,0,0,0,0,0,0,0,0,0,0,0,0,0,0,0,0,0,0,0,0,0,0,0,0,0,0,0,0,0,0,0,0,0,0,0,0,0,0,0,0,0,0,0,0,0,0,0,0,0,0,0,0,0,0,0,0,0,0,0,0,0,0,0,0,0,0,0,0,0,0,0,0,0,0,0,0,0,0,0,0,0,0,0,0,0,0,0,0,0,0,0,0,0,0,0,0,0,0,0,0,0,0,0],"id":18,"left_children":[1,3,5,7,9,11,13,15,17,19,21,23,25,27,29,31,33,-1,35,37,39,41,43,45,47,49,51,53,-1,-1,55,-1,57,59,61,-1,-1,63,65,67,69,71,73,75,77,79,81,83,85,87,89,91,93,-1,95,-1,97,99,-1,101,-1,103,-1,105,107,-1,-1,109,111,113,-1,115,117,119,121,123,-1,125,-1,127,129,131,-1,133,-1,135,137,139,141,143,-1,145,147,-1,149,-1,151,-1,-1,-1,-1,-1,-1,-1,-1,-1,-1,-1,-1,-1,-1,-1,-1,-1,-1,-1,-1,-1,-1,-1,-1,-1,-1,-1,-1,-1,-1,-1,-1,-1,-1,-1,-1,-1,-1,-1,-1,-1,-1,-1,-1,-1,-1,-1,-1,-1,-1,-1,-1,-1,-1,-1,-1],"loss_changes":[1.0764679E6,2.4387269E5,2.040614E5,3.0742445E4,3.4280312E4,6.100725E4,6.94329E4,1.5092443E4,1.7500312E3,1.536098E4,9.19325E3,6.550924E4,6.039625E3,9.2734375E1,1.1782715E3,1.0771475E3,1.0532099E4,0E0,1.1242969E2,7.693008E2,2.7097822E3,1.4900625E3,9.259953E3,2.5014531E3,3.2850684E4,1.0584984E4,2.43125E2,7.5661475E2,0E0,0E0,9.0671875E1,0E0,3.991582E2,1.9722227E3,1.4609658E3,0E0,0E0,7.286255E2,7.565857E1,7.7491895E2,9.5651117E2,6.856875E2,1.2344922E3,3.005625E2,2.4194578E3,1.4031934E3,1.5813281E2,1.1835332E3,2.1439648E4,6.1578125E2,1.5607676E4,9.391953E2,1.55625E1,0E0,1.2407698E2,0E0,1.8546875E1,2.8449414E2,0E0,3.2220903E3,0E0,2.9292725E2,0E0,1.8419434E2,4.0249414E2,0E0,0E0,6.8576025E2,9.412422E2,3.1069678E2,0E0,1.1168203E3,1.763125E2,6.4036006E3,9.537656E2,3.513368E2,0E0,1.0205355E3,0E0,2.8122852E2,1.8294717E3,7.265625E0,0E0,2.7998633E2,0E0,3.09308E3,2.3964805E3,2.7447656E2,1.4599473E3,3.1225938E3,0E0,2.1447656E2,5.33024E3,0E0,1.1625E1,0E0,3.0399017E1,0E0,0E0,0E0,0E0,0E0,0E0,0E0,0E0,0E0,0E0,0E0,0E0,0E0,0E0,0E0,0E0,0E0,0E0,0E0,0E0,0E0,0E0,0E0,0E0,0E0,0E0,0E0,0E0,0E0,0E0,0E0,0E0,0E0,0E0,0E0,0E0,0E0,0E0,0E0,0E0,0E0,0E0,0E0,0E0,0E0,0E0,0E0,0E0,0E0,0E0,0E0,0E0,0E0,0E0,0E0,0E0],"parents":[2147483647,0,0,1,1,2,2,3,3,4,4,5,5,6,6,7,7,8,8,9,9,10,10,11,11,12,12,13,13,14,14,15,15,16,16,18,18,19,19,20,20,21,21,22,22,23,23,24,24,25,25,26,26,27,27,30,30,32,32,33,33,34,34,37,37,38,38,39,39,40,40,41,41,42,42,43,43,44,44,45,45,46,46,47,47,48,48,49,49,50,50,51,51,52,52,54,54,56,56,57,57,59,59,61,61,63,63,64,64,67,67,68,68,69,69,71,71,72,72,73,73,74,74,75,75,77,77,79,79,80,80,81,81,83,83,85,85,86,86,87,87,88,88,89,89,91,91,92,92,94,94,96,96],"right_children":[2,4,6,8,10,12,14,16,18,20,22,24,26,28,30,32,34,-1,36,38,40,42,44,46,48,50,52,54,-1,-1,56,-1,58,60,62,-1,-1,64,66,68,70,72,74,76,78,80,82,84,86,88,90,92,94,-1,96,-1,98,100,-1,102,-1,104,-1,106,108,-1,-1,110,112,114,-1,116,118,120,122,124,-1,126,-1,128,130,132,-1,134,-1,136,138,140,142,144,-1,146,148,-1,150,-1,152,-1,-1,-1,-1,-1,-1,-1,-1,-1,-1,-1,-1,-1,-1,-1,-1,-1,-1,-1,-1,-1,-1,-1,-1,-1,-1,-1,-1,-1,-1,-1,-1,-1,-1,-1,-1,-1,-1,-1,-1,-1,-1,-1,-1,-1,-1,-1,-1,-1,-1,-1,-1,-1,-1,-1,-1],"split_conditions":[5.5655E4,5.66808E4,2.8174E2,1E0,9E0,1.56638E5,3.4944462E5,9E0,1E0,2.14E2,4.22E2,1.4858369E5,3.25976E5,-2.3293123E5,1E0,1.63E2,4.06E2,-1.7217947E-2,5.879962E4,6.86E2,1E0,2.167E4,1.536E3,1E0,9E0,3.553937E5,5.3433225E5,-2.3754327E5,-1.7286792E-2,-1.7147535E-2,2.9184462E5,-1.7176563E-2,1E0,2.8174E2,2.8174E2,1.7160965E-2,-1.5623136E-2,-5.0818425E6,1.1011223E5,1E0,-2.6278162E5,9.3E1,1.26E2,1.1E1,1E0,1E1,1.5858953E5,1E0,4.22E2,2.043888E5,1E0,1.02745256E6,-1.0871958E7,-1.7254556E-2,2.8673297E5,-1.545334E-2,6.702314E5,9.98409E4,-1.698359E-2,4.173E3,-1.726179E-2,2.1917E4,-1.7286386E-2,2E0,1.0407352E5,1.6996305E-2,-1.5096071E-2,2.01E2,9E0,1.6754764E6,-1.7179748E-2,3.0194094E5,1.362E3,4.5E1,7.377329E4,5.42E2,-1.7170453E-2,3.226E4,-1.7169608E-2,1.9610127E5,1.0000001E-2,1E0,-1.603521E-2,-1E-2,-1.7096652E-2,2.3E1,1E0,3.3579028E5,1.6577314E5,9E0,-1.7203901E-2,-9.93159E3,1E0,-1.0286672E-2,8.28151E5,-1.611332E-2,3.42877E5,1.7159738E-2,-1.099816E-2,1.6970426E-2,-1.6607407E-2,-1.4172222E-2,-2.414967E-3,9.804111E-3,1.5873976E-2,1.6753556E-2,-1.6385956E-2,-1.7174046E-2,-2.7187264E-3,-1.7103402E-2,8.127952E-3,1.0483837E-3,1.5922733E-2,1.3969737E-2,-1.6770639E-2,-1.1967629E-2,-1.6248502E-2,-1.7068146E-2,-1.637786E-2,-1.505135E-2,9.164416E-3,-5.9402785E-3,-1.5743552E-2,-1.7137157E-2,-4.930719E-3,-3.6415188E-3,3.3697593E-3,1.649339E-2,-1.6589284E-2,1.0121056E-2,-1.7270803E-2,1.3810742E-2,1.7161768E-2,-1.6658675E-2,1.6761856E-2,-1.0598438E-2,8.242516E-3,1.1251161E-2,-1.7153379E-2,1.7019711E-2,-1.6549783E-2,-1.7459294E-2,1.4608926E-2,1.7055735E-2,7.924959E-3,-1.6790997E-2,1.6880337E-2,1.5905928E-2,-1.32206E-2,1.6914189E-2,1.7146995E-2,1.7567258E-2,-1.2965148E-2],"split_indices":[2,5,3,8,9,2,7,9,10,2,0,5,2,7,10,2,0,0,7,0,10,2,2,8,9,5,2,7,0,0,3,0,10,3,3,0,0,7,5,9,7,0,0,9,10,9,7,10,0,5,10,5,7,0,3,0,5,7,0,2,0,2,0,9,7,0,0,0,0,5,0,5,2,0,5,0,0,2,0,7,7,10,0,7,0,9,10,7,2,9,0,7,10,0,2,0,2,0,0,0,0,0,0,0,0,0,0,0,0,0,0,0,0,0,0,0,0,0,0,0,0,0,0,0,0,0,0,0,0,0,0,0,0,0,0,0,0,0,0,0,0,0,0,0,0,0,0,0,0,0,0,0,0],"split_type":[0,0,0,0,0,0,0,0,0,0,0,0,0,0,0,0,0,0,0,0,0,0,0,0,0,0,0,0,0,0,0,0,0,0,0,0,0,0,0,0,0,0,0,0,0,0,0,0,0,0,0,0,0,0,0,0,0,0,0,0,0,0,0,0,0,0,0,0,0,0,0,0,0,0,0,0,0,0,0,0,0,0,0,0,0,0,0,0,0,0,0,0,0,0,0,0,0,0,0,0,0,0,0,0,0,0,0,0,0,0,0,0,0,0,0,0,0,0,0,0,0,0,0,0,0,0,0,0,0,0,0,0,0,0,0,0,0,0,0,0,0,0,0,0,0,0,0,0,0,0,0,0,0],"sum_hessian":[7.636022E5,3.6790334E5,3.956988E5,4.517114E4,3.227322E5,3.575243E5,3.8174508E4,2.0314143E4,2.4856998E4,1.0289928E4,3.1244228E5,8.415321E4,2.733711E5,3.0619104E4,7.5554053E3,4.7962944E3,1.5517848E4,1.4832477E2,2.4708674E4,3.431141E3,6.8587866E3,2.9214762E5,2.0294637E4,4.0735688E4,4.3417523E4,6.1626145E4,2.1174497E5,8.675545E2,2.9751549E4,1.0097974E2,7.454426E3,9.594168E1,4.7003525E3,1.2146756E4,3.3710918E3,2.4698936E4,9.738348E0,3.3419834E3,8.915752E1,6.2186436E3,6.401433E2,2.492277E5,4.291993E4,9.5365625E3,1.0758074E4,1.2416161E4,2.8319523E4,7.950284E3,3.546724E4,4.1168055E4,2.0458088E4,4.4527453E4,1.6721752E5,7.693733E2,9.818123E1,7.8148565E0,7.446611E3,4.6658506E3,3.4502216E1,9.913277E3,2.233479E3,3.2010227E3,1.7006905E2,1.0540517E2,3.2365784E3,8.186205E1,7.2954645E0,7.971087E2,5.4215347E3,2.2143062E2,4.1871268E2,4.2651348E4,2.0657636E5,7.9862676E3,3.4933664E4,9.4521686E2,8.591346E3,9.669002E3,1.0890714E3,4.384133E3,8.0320283E3,2.8305893E4,1.3631613E1,7.8457646E3,1.0451978E2,2.8827121E4,6.640117E3,3.0917205E4,1.025085E4,1.8183525E4,2.274563E3,3.804499E4,6.482465E3,1.4638062E0,1.6721605E5,1.2704462E1,8.547677E1,7.4448994E3,1.71125E0,4.641227E3,2.4623642E1,3.7470193E3,6.166258E3,1.6651034E3,1.5359193E3,8.5445915E1,1.9959251E1,3.0304453E3,2.0613304E2,1.2736467E2,6.69744E2,4.655271E2,4.956008E3,1.8225002E2,3.9180603E1,7.3854814E3,3.5265867E4,1.5712403E5,4.9452332E4,6.6816533E3,1.3046145E3,1.0239817E3,3.3909684E4,4.8497394E2,4.602429E2,6.6522905E3,3.016712E3,4.3590396E3,2.5093573E1,7.7811924E3,2.5083595E2,9.028806E1,2.8215605E4,2.439769E1,7.8213667E3,2.7928426E4,8.986957E2,6.329331E3,3.1078598E2,3.0893572E4,2.3632277E1,1.4318965E2,1.010766E4,5.278425E3,1.2905101E4,1.8177717E1,3.8026812E4,5.7782812E3,7.041832E2,3.3446203E4,1.3376984E5,8.2771545E1,2.7052207E0],"tree_param":{"num_deleted":"0","num_feature":"11","num_nodes":"153","size_leaf_vector":"1"}},{"base_weights":[-4.399194E-3,1.4100014E0,-1.6841642E0,1.707935E0,-1.2176257E0,-1.6929488E0,1.1615674E0,-1.501798E-2,1.707984E0,-1.708833E0,1.6952527E0,-1.5528806E0,-1.7002544E0,-1.7156355E-2,1.7018007E-2,1.7127174E0,1.7043669E-2,-1.5976651E0,-1.7168492E-2,-1.5044532E-2,1.6987326E0,5.9777968E-2,-1.5683714E0,-1.6531603E0,-1.703623E0,1.7211498E0,1.7038804E-2,-1.7155295E-2,-9.684165E-1,-1.0955312E-2,1.6997042E0,-1.690916E-2,1.2372617E0,-1.4477849E0,-1.718601E-2,-1.5990407E0,-1.7154373E-2,-1.6948779E0,-1.7132521E0,1.7278608E-2,1.7129978E-2,-1.7117662E-2,8.639136E-2,1.4139378E0,1.7037787E-2,1.7417558E-2,-1.6120374E-2,-1.5008188E0,-4.7315204E-1,-1.6397979E0,-1.4266644E0,-1.6806875E0,-1.7047953E-2,-1.7376473E0,-1.7085528E0,1.6919238E-2,-1.6965482E-2,1.6791474E-2,-1.5141663E-2,-1.6330186E-2,-1.3983166E-2,1.4205129E-2,-9.333719E-3,-1.2738315E-2,-1.6704435E-2,-1.2884171E-2,-1.7055128E-2,-1.6900858E-2,-1.3154601E-2,-1.7295748E-2,-1.7560571E-2,-1.7072426E-2,-1.7350784E-2],"categories":[],"categories_nodes":[],"categories_segments":[],"categories_sizes":[],"default_left":[0,0,0,0,0,0,0,0,0,0,0,0,0,0,0,0,0,0,0,0,0,0,0,0,0,0,0,0,0,0,0,0,0,0,0,0,0,0,0,0,0,0,0,0,0,0,0,0,0,0,0,0,0,0,0,0,0,0,0,0,0,0,0,0,0,0,0,0,0,0,0,0,0],"id":19,"left_children":[1,3,5,7,9,11,13,-1,15,17,19,21,23,-1,-1,25,-1,27,-1,-1,29,31,33,35,37,39,-1,-1,41,-1,43,-1,45,47,-1,49,-1,51,53,-1,-1,-1,55,57,-1,-1,-1,59,61,63,65,67,-1,69,71,-1,-1,-1,-1,-1,-1,-1,-1,-1,-1,-1,-1,-1,-1,-1,-1,-1,-1],"loss_changes":[1.8020599E6,3.2235862E5,8.6695E3,6.075E1,6.0003668E4,3.51125E2,1.6623735E3,0E0,3.5E0,2.9242188E1,6.993555E1,4.2842578E2,4.91875E1,0E0,0E0,8.96875E0,0E0,1.7840723E2,0E0,0E0,1.827539E1,3.4036404E2,3.0517188E2,7.128125E1,2.3E1,1.515625E0,0E0,0E0,3.0227597E2,0E0,4.6289062E0,0E0,1.4466669E2,4.8657227E2,0E0,8.0322266E1,0E0,1.975E1,1.375E1,0E0,0E0,0E0,4.615754E2,7.3085175E1,0E0,0E0,0E0,1.18865234E2,4.2659027E2,1.04521484E2,8.4836426E1,2.25E2,0E0,4.453125E-1,1.28125E0,0E0,0E0,0E0,0E0,0E0,0E0,0E0,0E0,0E0,0E0,0E0,0E0,0E0,0E0,0E0,0E0,0E0,0E0],"parents":[2147483647,0,0,1,1,2,2,3,3,4,4,5,5,6,6,8,8,9,9,10,10,11,11,12,12,15,15,17,17,20,20,21,21,22,22,23,23,24,24,25,25,28,28,30,30,32,32,33,33,35,35,37,37,38,38,42,42,43,43,47,47,48,48,49,49,50,50,51,51,53,53,54,54],"right_children":[2,4,6,8,10,12,14,-1,16,18,20,22,24,-1,-1,26,-1,28,-1,-1,30,32,34,36,38,40,-1,-1,42,-1,44,-1,46,48,-1,50,-1,52,54,-1,-1,-1,56,58,-1,-1,-1,60,62,64,66,68,-1,70,72,-1,-1,-1,-1,-1,-1,-1,-1,-1,-1,-1,-1,-1,-1,-1,-1,-1,-1],"split_conditions":[5.820766E-11,2.8174E2,1E0,0E0,9.426721E5,1.6E1,2.031486E5,-1.501798E-2,3.1620947E5,1.8E1,3.5288006E5,2E0,3.7E1,-1.7156355E-2,1.7018007E-2,1E0,1.7043669E-2,1.7E1,-1.7168492E-2,-1.5044532E-2,9E0,4.0768634E5,3.9E1,3.9E1,3.9E1,4.06E2,1.7038804E-2,-1.7155295E-2,2.9691078E5,-1.0955312E-2,5.2804425E6,-1.690916E-2,4.2203478E5,1.0699581E6,-1.718601E-2,3.5E1,-1.7154373E-2,2.32E2,4.513631E4,1.7278608E-2,1.7129978E-2,-1.7117662E-2,3.42877E5,1.0030388E6,1.7037787E-2,1.7417558E-2,-1.6120374E-2,1.2E1,1.0919185E6,2.350291E4,2.35742E5,2.3E2,-1.7047953E-2,5.5655E4,1.56638E5,1.6919238E-2,-1.6965482E-2,1.6791474E-2,-1.5141663E-2,-1.6330186E-2,-1.3983166E-2,1.4205129E-2,-9.333719E-3,-1.2738315E-2,-1.6704435E-2,-1.2884171E-2,-1.7055128E-2,-1.6900858E-2,-1.3154601E-2,-1.7295748E-2,-1.7560571E-2,-1.7072426E-2,-1.7350784E-2],"split_indices":[6,3,8,6,1,0,3,0,1,0,3,9,0,0,0,10,0,0,0,0,0,6,2,2,2,0,0,0,3,0,1,0,1,1,0,0,0,0,6,0,0,0,2,1,0,0,0,0,6,6,1,0,0,2,2,0,0,0,0,0,0,0,0,0,0,0,0,0,0,0,0,0,0],"split_type":[0,0,0,0,0,0,0,0,0,0,0,0,0,0,0,0,0,0,0,0,0,0,0,0,0,0,0,0,0,0,0,0,0,0,0,0,0,0,0,0,0,0,0,0,0,0,0,0,0,0,0,0,0,0,0,0,0,0,0,0,0,0,0,0,0,0,0,0,0,0,0,0,0],"sum_hessian":[7.5848525E5,4.1176762E5,3.4671762E5,3.698343E5,4.1933332E4,3.45651E5,1.0666116E3,5.1781387E0,3.6982912E5,3.5882734E4,6.050598E3,1.714509E4,3.285059E5,1.6826756E2,8.98344E2,1.5998905E5,2.0984006E5,2.426906E3,3.345583E4,6.1046205E0,6.0444937E3,1.6309709E2,1.6981992E4,2.1962115E4,3.065438E5,8.176987E4,7.821919E4,2.0425834E3,3.8432257E2,1.7094313E0,6.042784E3,6.540954E1,9.768755E1,9.426305E3,7.555688E3,1.1764914E4,1.0197202E4,1.607377E5,1.458061E5,4.4732902E4,3.7036965E4,2.250801E2,1.5924248E2,8.983979E1,5.9529443E3,8.332314E1,1.436441E1,8.939338E3,4.869672E2,9.508243E3,2.2566707E3,6.6193836E4,9.454386E4,2.3490307E4,1.2231579E5,8.381676E1,7.542572E1,8.276958E1,7.070218E0,3.8975837E3,5.041754E3,9.480144E1,3.9216577E2,7.379751E2,8.770268E3,1.5124501E3,7.442206E2,6.452967E4,1.6641675E3,1.6395982E4,7.094324E3,1.1662106E5,5.6947285E3],"tree_param":{"num_deleted":"0","num_feature":"11","num_nodes":"73","size_leaf_vector":"1"}},{"base_weights":[1.7424093E-3,-1.2078583E0,1.1304947E0,9.362297E-1,-1.5088855E0,1.3624316E0,-1.0694194E0,4.6347853E-2,1.6011459E0,-7.2430825E-1,-1.6752111E0,6.1373657E-1,1.5894022E0,-1.6858019E0,1.683046E0,1.5868994E0,-4.0874222E-1,1.6671823E0,-1.7188396E-2,-1.5618894E0,2.4651845E-1,-1.4464984E0,-1.6815767E0,1.3467664E0,-1.6844043E0,1.319292E0,1.668655E0,-1.001855E0,-1.7040027E-2,1.6922262E-2,-1.6254261E-2,-1.6884204E-2,1.6472994E0,-8.7112975E-1,1.1649699E0,1.6812983E0,-1.7022919E-2,3.3375737E-1,-1.6717435E0,6.589551E-1,-1.70449E-2,-7.210887E-1,-1.6423423E0,-1.240846E0,-1.6836641E0,1.6762214E0,1.0391281E0,-2.9580414E-2,-1.698392E-2,1.526634E0,-1.700435E-2,1.604437E0,1.6858468E0,-1.7001918E-2,1.6340553E0,1.6725559E0,-1.6563304E-2,-6.8575835E-1,-1.701512E-2,1.2998115E0,-1.7042285E-2,1.6869007E0,-1.6613523E-2,-3.451352E-1,1.4907068E0,-1.4471735E0,-1.6937664E-2,1.6557742E0,3.1836468E-1,1.5251554E0,-1.7022463E-2,-1.6963605E-2,-2.6553673E-1,-1.6951751E-2,1.3347416E0,-1.684724E0,-1.3041269E0,1.6774638E0,-1.5572605E-2,1.6177012E0,7.0783275E-1,-1.6773311E-2,1.6958114E-2,1.6787863E0,1.3544179E0,1.6593685E0,-1.6982047E-2,1.6619337E0,1.6895922E0,-1.3402511E-2,1.6954409E-2,1.6857628E-2,-1.6305251E-2,-1.4618655E-2,-2.355262E-3,9.192454E-3,1.5125556E-2,1.689461E-2,-1.6258838E-2,-1.6937174E-2,1.5071394E-2,1.5978038E-2,-1.6445396E-2,-1.5621825E-2,-1.5257811E-3,1.6674249E-2,1.0331413E-2,-9.5880154E-4,1.3841264E-2,-1.7217746E-2,1.6107082E-2,1.051483E-2,-1.7086811E-2,-1.6585033E-2,1.6749313E-2,-1.6378384E-2,-1.6890747E-2,1.5462205E-2,-1.6926534E-2,1.681598E-2,1.0551476E-2,1.6254704E-2,-1.7030168E-2,3.093629E-3,1.4934416E-2,1.6807081E-2,-1.634274E-2,1.3886904E-2,-1.7322816E-2,1.6796768E-2,1.567529E-2,1.6864108E-2,-1.7592493E-2,1.6398884E-2,1.690042E-2],"categories":[],"categories_nodes":[],"categories_segments":[],"categories_sizes":[],"default_left":[0,0,0,0,0,0,0,0,0,0,0,0,0,0,0,0,0,0,0,0,0,0,0,0,0,0,0,0,0,0,0,0,0,0,0,0,0,0,0,0,0,0,0,0,0,0,0,0,0,0,0,0,0,0,0,0,0,0,0,0,0,0,0,0,0,0,0,0,0,0,0,0,0,0,0,0,0,0,0,0,0,0,0,0,0,0,0,0,0,0,0,0,0,0,0,0,0,0,0,0,0,0,0,0,0,0,0,0,0,0,0,0,0,0,0,0,0,0,0,0,0,0,0,0,0,0,0,0,0,0,0,0,0,0,0],"id":20,"left_children":[1,3,5,7,9,11,13,15,17,19,21,23,25,27,29,31,33,35,-1,37,39,41,43,45,47,49,51,53,-1,-1,-1,-1,55,57,59,61,-1,63,65,67,-1,69,71,73,75,77,79,81,-1,83,-1,85,87,-1,89,91,-1,93,-1,95,-1,97,-1,99,101,103,-1,105,107,109,-1,-1,111,-1,113,115,117,119,-1,121,123,-1,-1,125,127,129,-1,131,133,-1,-1,-1,-1,-1,-1,-1,-1,-1,-1,-1,-1,-1,-1,-1,-1,-1,-1,-1,-1,-1,-1,-1,-1,-1,-1,-1,-1,-1,-1,-1,-1,-1,-1,-1,-1,-1,-1,-1,-1,-1,-1,-1,-1,-1,-1],"loss_changes":[1.03602594E6,2.3641194E5,2.002814E5,2.6682656E4,4.1912562E4,6.0339062E4,6.3517426E4,1.3522018E4,5.6614688E3,4.568472E4,3.834375E2,1.3915972E5,5.8308125E3,3.790703E2,2.108086E2,8.728887E2,1.0835177E4,1.2065391E3,0E0,6.2814297E3,2.0940318E4,1.0193242E3,2.35125E2,6.3459297E3,4.623711E2,3.8707008E4,2.29875E2,1.4667615E3,0E0,0E0,0E0,0E0,3.631504E2,1.7702988E3,1.3105239E3,4.7477344E2,0E0,1.2988113E3,1.3853906E2,7.292715E3,0E0,3.3720283E3,4.2016113E2,1.4288909E3,1.01E2,1.2409375E2,6.2072617E3,4.8178912E2,0E0,1.5134531E3,0E0,8.077383E3,1.209375E1,0E0,3.2778473E1,1.8975781E2,0E0,3.2876953E3,0E0,2.6015283E2,0E0,2.1615625E2,0E0,2.6066594E3,2.0793628E2,3.7987646E2,0E0,3.7958984E1,7.0694014E3,1.3202832E2,0E0,0E0,4.098606E2,0E0,1.8949942E2,4.94375E1,7.9887366E2,7.6E1,0E0,3.0701758E2,6.447547E3,0E0,0E0,1.9828125E2,2.8734062E3,7.903125E1,0E0,1.8922617E3,4.375E-1,0E0,0E0,0E0,0E0,0E0,0E0,0E0,0E0,0E0,0E0,0E0,0E0,0E0,0E0,0E0,0E0,0E0,0E0,0E0,0E0,0E0,0E0,0E0,0E0,0E0,0E0,0E0,0E0,0E0,0E0,0E0,0E0,0E0,0E0,0E0,0E0,0E0,0E0,0E0,0E0,0E0,0E0,0E0,0E0,0E0,0E0],"parents":[2147483647,0,0,1,1,2,2,3,3,4,4,5,5,6,6,7,7,8,8,9,9,10,10,11,11,12,12,13,13,14,14,15,15,16,16,17,17,19,19,20,20,21,21,22,22,23,23,24,24,25,25,26,26,27,27,32,32,33,33,34,34,35,35,37,37,38,38,39,39,41,41,42,42,43,43,44,44,45,45,46,46,47,47,49,49,51,51,52,52,54,54,55,55,57,57,59,59,61,61,63,63,64,64,65,65,67,67,68,68,69,69,72,72,74,74,75,75,76,76,77,77,79,79,80,80,83,83,84,84,85,85,87,87,88,88],"right_children":[2,4,6,8,10,12,14,16,18,20,22,24,26,28,30,32,34,36,-1,38,40,42,44,46,48,50,52,54,-1,-1,-1,-1,56,58,60,62,-1,64,66,68,-1,70,72,74,76,78,80,82,-1,84,-1,86,88,-1,90,92,-1,94,-1,96,-1,98,-1,100,102,104,-1,106,108,110,-1,-1,112,-1,114,116,118,120,-1,122,124,-1,-1,126,128,130,-1,132,134,-1,-1,-1,-1,-1,-1,-1,-1,-1,-1,-1,-1,-1,-1,-1,-1,-1,-1,-1,-1,-1,-1,-1,-1,-1,-1,-1,-1,-1,-1,-1,-1,-1,-1,-1,-1,-1,-1,-1,-1,-1,-1,-1,-1,-1,-1],"split_conditions":[5.5655E4,5.66808E4,2.8174E2,1E0,5.138065E4,1.56638E5,9.426721E5,9E0,8.88192E3,1.211E3,1.3E1,1.561834E5,3.25976E5,8.88192E3,6.702314E5,1.63E2,4.22E2,1.99283E3,-1.7188396E-2,1.38404E3,2.8174E2,4.479117E4,5.264899E4,7.377329E4,8.88192E3,3.2655594E5,5.3433225E5,3.534639E5,-1.7040027E-2,1.6922262E-2,-1.6254261E-2,-1.6884204E-2,5.517079E4,2.8174E2,2.8174E2,2.8174E2,-1.7022919E-2,4.22E2,2.3E1,9E0,